-0.7355487240631136 0.10677024920919331 -0.7844531414210623 -0.40359835542052713 0.7606513118547991 0.4576768134989515 -0.4622147864240773 -0.8807569750830582 -0.6291031198158221 0.2333438443073348 -0.3932186267131732 -0.7512423935143833 0.7728051744025847 -0.14046598337875404 -0.3436469798276102 -0.6673556381742753 0.24017253114036707 -0.3893404642668301 0.23795063132313032 0.14361780837740445 0.7407138850243693 0.8729855076434154 0.3409443355013819 -0.6813692770158473 0.3393492510252685 0.8651728204440905 -0.2941172740387412 -0.9310350247479164 -0.5344375129825745 0.9807797928773943 -0.6294200702559511 0.3773164303760641 0.01937811425216848 0.5991331640361328 0.061596530181742486 -0.012435157675935058 0.5198080754192965 -0.7885288649433906 -0.5573912974435917 0.9049315560596407 0.5378582251569555 -0.0465483984715706 0.3031849317954149 -0.3158226183144751 -0.5158407131179698 -0.5342586771546607 -0.7799046264915781 -0.5868468890374029 -0.35509226133624755 -0.43012405553200705 -0.802600864769915 -0.638698935412543 0.447539871005709 0.8263526142420914 -0.5834171090438673 -0.44449616340353004 -0.22219938002346606 -0.5122039114777213 0.9758053177933539 -0.8290884834885622 0.7985946890447104 0.14871770132954573 0.028962678627174207 0.5854092037910208 0.8987271459576341 0.698428733232582 -0.15643221912435543 -0.6412222232205981 0.06205630040582494 -0.48037274239367955 0.6002889078788278 0.8808845433199738 -0.8863685702611406 -0.13722516407235927 -0.6574503522406114 -0.5596641684457893 0.2806718433098598 0.6316968855897392 0.5422994693130063 -0.7523333719518126 0.25661898520886406 -0.7688446871731951 0.9897732537798694 -0.40855893401084153 0.1981770755155834 0.4542596876575875 0.8771663447583102 0.3343030919243302 0.5253108090736647 0.0893900548610388 -0.4364737072464598 0.9329081175261352 -0.22419587969853388 0.20886329312911156 0.71202684114798 -0.045458375184422126 0.26183668381700276 0.5553807094454866 0.6798012876784327 0.004951503148482514 0.7279207344409059 0.610103544121118 -0.37251384164831647 0.0654307479730521 0.6616051267206439 0.2125123797558476 -0.3013599795726572 1.000445765799793 0.7238033095487437 -0.9077656725876189 -0.9477841415506532 -0.6232425984625438 -0.714297302885297 -0.4436828250673636 0.10223060579323887 0.3029324258467707 -0.546477141036051 0.4973638731888024 -0.5147653459495773 -0.40709106354264407 0.5196577918528532 -0.3362464049758776 -0.4204117950698863 0.33729079729748856 -0.17329439286131168 -0.48646992144844015 0.0847534561936202 0.6063183899219206 0.4219006269913151 0.999767511289969 -0.5710007877564401 0.0725505275297366 -0.22190805720292142 -0.6763743691584163 0.019448985886077942 -0.4377963220079914 0.8460338450020397 -0.8927807616338539 0.06230282454958937 0.8174554413481461 -0.4496679260569607 0.9814550265861965 -0.7610952426126182 0.030163721022825916 -0.22923901113628245 0.12933335493564493 -0.19264985379422483 -0.13360015358990987 -0.6030153951312345 0.1789145952427519 0.762654541375399 0.4141750062771559 -0.5074408194734604 0.8748234329752028 1.069548094611608 1.0363503470458133 0.49679893154049837 -0.6652359277784031 0.839244336221186 -0.3076496197745176 -0.18034593086187725 -0.9235512140985576 0.7595238377345204 -0.20832190835627667 0.6797308666857842 -0.6956731878066144 0.34624910945278053 0.14170704826137115 -0.5511792949415537 0.5122467355681694 -0.2568553806235501 0.9028853378366706 -0.4361548199274816 0.5188936070167003 -0.07340137046343377 -0.35071353769798097 -0.7978424396225595 -0.5003039363114322 0.49998650785271553 -0.81073210494416 0.4154196817281623 -0.3250450096858932 -0.6787385870261425 -0.37065646089275217 0.43000781205849675 -0.6069935763185214 -0.1728002886784593 -0.03791351126359613 0.4377491090927713 0.3536054426756202 0.004350443424912971 0.0755082298326177 0.5808950782892258 -0.9876860407340291 0.09497477800311752 -0.30134481661809337 0.03797031729824951 0.5495473167293575 -0.37961778907917293 0.7090251531256546 0.05145296637851989 0.9373562992634551 0.38395751984499354 -0.683514239331879 -0.35940030908098336 -0.9105358538087465 0.6098383344995659 -0.07441317499903516 -0.5017369440863033 -0.48499535813985334 0.03649642829295753 0.3873461603261602 -0.0446776009876957 -0.3857913804167109 0.08522218579696005 0.09437722358124497 -0.7759122466210324 -0.0868396219028787 -0.8360220731204843 0.009421252430264416 0.8095055551357211 0.10985279627457814 -0.33001208577921315 -0.8117010732653435 0.12717700285139213 0.6591979217034319 -0.10758504088517594 -0.5534906765176769 0.6863713204180588 -0.37051809127762 0.6404525302677923 -0.7038128065528966 -0.5016607916075301 0.6877192225949249 0.2116128408218979 0.3109838232722093 -0.4483815623272546 -0.8936402974003147 -0.5106956626092791 -0.31491881812833844 -0.2890583661366352 -0.9169152105113676 -0.6799120778627862 -0.09558701631456237 -0.9223496044855772 0.0683388360741242 -0.4233677826234334 -0.23131319698034783 0.6703532875955976 -0.664989337610327 -0.5592202799283088 -0.21958882331007312 -0.7526646477408333 -0.5601031328990941 0.7071384304269007 0.8754333649504785 -0.4898538856298135 0.3505960697920225 -0.7671082676664276 0.6504694847902056 0.18100601705777175 -0.6970809367255434 -0.2600004839713656 0.6880968597842149 0.43297778224444755 -0.6276622391054942 0.522182682178364 0.6573737838893197 0.22360670249651426 -0.11460324550272052 -0.2151378049189609 0.4030011318105113 -0.5409248365540442 0.24113738198699916 -0.2706621865160775 -0.021362269032814997 1.1007877551199852 0.27062312729486854 0.10562682851797345 0.3436138885300685 0.9309818279001345 0.9895358438120393 -0.26358178467248106 -0.8757448658245189 -0.17809060873549099 -0.8767878551179359 -0.5846783862705616 -0.03373596534747393 -0.7434738833375086 -0.7513639238905656 -0.39277279699713913 0.06643506441850258 -0.815989054045184 0.6150399853969521 -0.6848382910856795 -0.3189732841629613 -0.7640435255501183 -0.8164880573318314 0.37787687971727063 -1.1316778583603497 0.4703653427605798 -0.2794063953095844 0.894375254792206 0.49829839123001074 0.19837636922212398 0.8575693616818842 0.6574678089630538 0.414233311964549 -0.37155058090504633 -0.16784162467673605 0.9239539631520026 -0.1586862032950888 -0.2865652800978196 -1.0121417756630906 0.6008977120272858 0.3957711910830925 -0.007864237865229056 0.24138060082605298 0.48943266799360274 0.30767818141507014 -0.5354876314541359 0.33590525170253877 -0.40861826548996455 0.3698592494285291 -0.4630054664773878 -0.3900573985232251 0.16531625282297632 0.30731853648067964 -0.5573679948096418 0.3267331556960048 0.7751119237173876 0.03603438636405083 0.7413289542857414 -0.372527986643913 -0.5477414346138918 0.7703446954727189 -0.8450943977807824 -0.02838183433327658 0.7865964529471761 -0.2675941800952095 -0.8417897489413084 -0.41139767742449035 0.4357219817216198 0.4289447465694383 -0.9009697825823506 -0.9345306468080911 0.5132301833319339 0.32719668649350525 1.0464043398340113 0.02831001556742195 -1.2462324790315464 -0.8717714157158294 -0.39568766679789746 -0.20900516785158219 0.010242520347457557 -1.2167172721589763 0.5538530582247658 -0.11652219410939713 -0.6388470761325808 0.3917494181407078 0.1802879950725803 0.26588112591706514 0.043383817728554624 0.17300402703475276 0.7716238625889178 0.7381082096225472 0.5700016709533204 0.4400483903234416 -1.0161634723602069 -0.7735430824178628 0.6506503311940708 -0.07607358257389912 -0.6111110238511476 0.23207944559286808 -0.04334931855702433 0.7667200005162511 0.6049028617979978 0.4917661801713859 -0.5386159550088966 -0.47873846743818727 0.291758331468885 0.17224493914240463 -0.7143106444190886 0.24749410595356516 -0.5044511069432724 -0.40795163149381464 0.6383745669401764 0.6308380307977127 -0.3666742918594245 0.219003997473509 -0.3822843107655442 -0.46371987293732375 0.9212691602388892 0.3071388564269443 1.0005133683043592 -0.5101978344473261 0.5213177292751654 -0.3781223182705572 -0.945493494806463 0.22572800629511455 -0.8954597849808752 -0.18912835733638012 -0.8759572351612886 0.0905420282148055 0.44238336354836694 -0.20528297610132465 -0.8127543843665954 0.20302216707292292 -0.9593754854440726 0.44348801618693756 -0.3646045791428668 -0.6289110098886158 -0.108513436553929 -0.20224361287178982 0.5182789834860803 1.1018187469909169 0.4401142479924756 0.7656647014874737 0.6091424730653293 0.9164247735575738 0.2533196152166735 -0.8769334462528249 0.5805709512953422 -0.11302738194445291 -0.4150055374502009 0.4797991130007112 -0.18605958461351887 -0.7110966110618936 0.4272905217111199 -0.7769109499473466 0.6638894373524522 0.45700499726413807 -0.8925742887738018 -0.2925140182740353 -0.12928732044740315 0.13557097984896435 0.5143212319358775 -0.015126244944480916 -0.967618690377609 0.3484879927170514 0.1773066019184106 -0.48900755511425986 0.48588759605481463 0.7205959017639719 0.7773847061238341 0.9045209601747107 -0.3126851097613594 -0.46377968580876944 0.8652934311503253 -0.05152311327505102 0.48482823607135944 0.8173596276031496 -0.3468391884565697 0.1886298092119837 -0.7269028555525243 -0.6036460143894149 -0.1826173048171458 0.5775040165809205 0.7457502130775217 -0.8330210186278912 0.26017864435054644 -0.5194401196915046 -0.0882744612696397 -1.0423693871446813 -0.05142982492966363 -0.3257504758595893 -0.22870116584691552 0.29502708637171227 0.525819817468912 0.2914044370041318 -0.8193936195063403 1.1003629661085876 0.01726290415848208 -0.4248925276352405 0.9564284197486108 -0.19438698430223783 -0.365369334397714 -0.9300942397818949 0.5495044314205134 0.7800456537768077 0.21364627556958407 -0.07856070586710463 -0.08922555610092904 -0.559816179067516 0.5166818791510671 -0.11576863936740875 0.7648956189988857 0.48144360279006976 0.014597710166217033 -1.1016032792478367 -1.2024082637814106 -0.2897598083888759 -0.6093316616454186 -0.2711709377477657 -0.12773729085639324 0.6013589209123527 0.31683728326224475 -0.40833896760013294 0.9016212957935819 0.45193564989576257 -0.42993866696404703 -0.7665394803088724 0.7291780003188427 -0.5602527805813416 0.2263211882870847 0.19791044757544043 0.2930686192057327 0.2759211270802045 -0.12559527564385847 -0.7286653925447568 0.2579051080436556 -0.3910520706341478 0.7300482679737041 -0.6056163995871199 0.4434940500890953 0.7161206292362002 -0.1272759741359273 -0.2615570719923285 0.4851879046247363 0.8917329206766262 -0.47447990242039084 1.1881282406468807 1.0658068187621212 0.9278212394812039 1.251589207872739 -0.3690804158387273 1.0891546919384556 0.32349868335144005 -0.1396365481363345 0.5100533842722627 -0.6345644752361362 0.8413143405749252 0.7063237991260163 0.5430687183982651 0.05926268147541826 0.669087686814513 -0.30442938254872537 -0.40821051613429626 1.2970079530315786 0.29629240535085033 0.9691949172855314 1.1671989284256143 0.7929144680058142 1.46305965779171 1.3206448966897029 0.5660103190122192 0.7902661429794623 0.880722722742631 0.7219829421061494 0.05783726471253247 -0.3952469455397082 0.4357021114604731 -0.32588671524988905 -0.4811063096382137 -0.7065849493047164 0.3025178525912616 0.2091412721127459 0.30574951076233703 0.052726274844152494 0.42511445208735404 -0.34947760885528045 -0.015697061570793175 -0.3713452602831257 -0.9725556322270398 -0.21808581739168145 0.8131859851898314 -0.6360745304475994 0.7632074882669598 0.9537960124541623 0.9137328134286176 0.946146528069835 0.3540937164504484 0.35071684443621476 0.21608809986445826 0.9020888090110288 0.8831141017820459 1.0267359997038605 1.172631212479239 -0.1700379459668735 0.3873258150377953 0.6187013071246502 0.2380492206031342 -0.1443115338092558 0.7205206061857907 1.1076780524135377 0.8655217450209477 0.9657212715111173 0.12513066438215034 -0.44695521183154674 0.7017893511286831 0.5141024939193584 -0.8177145913350673 -0.6421697453458443 -0.2345378693114388 0.902517397950302 0.42532205767995634 0.9380921447106765 0.18753672313269298 1.322431127307138 0.3211955228397047 0.9882564438396512 -0.346599141968179 0.49291929086966074 -0.3711516860035491 -0.3705563284434167 0.4909899113759828 0.9669967062183363 -0.8105777179730583 0.7864198719517893 0.13120568696778176 0.17408456445541504 -0.5930701609320211 -0.6895671764581659 0.320256753295162 -0.5300593722955164 -0.9275981716675974 -0.4783544475277146 0.3285178067229221 -0.017514829825011406 -0.7962620758053474 -0.5661147171395762 -0.926121526916693 -0.7102231042824558 -0.5323996207174763 -0.1874674601746773 0.9293925588152584 0.3893343330375181 1.0138971015674845 -0.4718705222310761 0.5406879929150687 0.6170437032992978 0.34633860864405214 -0.8360545013957181 -0.4614479908865637 -0.4057994857034721 0.9353851079519161 -0.0995529913278902 -0.4252887881695529 -0.6462327297943969 -0.5156577199727567 -0.4724362329374402 0.6542419908548799 -0.44506843020587583 -0.5858736034857877 0.5359563050250091 0.5456023924778841 0.6200547170271327 -0.2530613082091424 0.24629961148354776 0.39355119254305215 -0.14458403252401608 0.2965838417620953 -0.36799586939796575 -0.8177899263336208 -0.22670563063127155 0.049239085973910766 0.2939435248277194 -0.7143155918451841 -0.6013571387675318 -0.8282455358888647 0.5582010506676628 -0.1383361611489793 -0.3864539641233829 0.04769935709537715 0.1466919019830414 -1.0114585168571668 0.39956941257960626 0.4145595210193388 -0.422157869623216 -0.41582674525263164 0.45002241943898996 0.4028188694076249 -0.7566811815747789 -0.8970015293569567 0.700850585533073 -0.06287470797612375 -1.0232857198120258 0.364068642420252 0.5363336634229847 -0.4936479481195744 0.2727234457600176 0.20327362467764717 0.0013771747756778346 -0.4044330670968649 0.09393133532206985 0.23691539913325632 0.4265893403212709 0.35489123364719216 -0.3870593141402301 0.4460742165603073 -0.6215755717231319 -0.28757829053684764 0.37882731009198095 -0.28523770337843457 0.8899731923063671 -0.6830098587453423 -0.883774002460448 0.568231940870157 0.2807234106854706 -0.7968609414613925 0.7717482310618806 0.491397690434074 -0.08975331675199477 0.5402388730805275 -0.4760182332570442 0.8806832356209701 -0.9316900215414381 -0.6144530405392283 -0.6591674315119183 -0.28821270285242545 0.0711920869345701 0.2983775982081742 -0.8997305960841024 -1.0275811214420085 -0.2712884583542096 0.4519812691515734 0.1439093093173355 -0.21233891941036523 -0.7009198875926523 0.743466932645136 0.16663855737316097 -0.3693779794181801 -0.20618949511083443 0.6687129913192728 0.28986658116114683 0.9524812764778644 -0.4949012368241208 -0.5955157207869795 -0.797700742206535 0.9227113287089626 -0.562581600948626 0.7671072711320259 0.6974614587084443 -0.22991510094057613 0.06289024340909627 0.24488314536086236 -0.7620517105935879 0.023031914482736563 0.8258620030130965 0.838181126807623 0.01987747252473866 -0.16465870681987593 0.22795179382759356 -0.12585904903503486 0.7407121968926075 0.38822852880872033 -0.06479568903140487 0.6029366015637435 0.4819129942808325 -0.5011938894101448 -0.8885957697070485 0.4426025840987841 -0.006584862659969411 -0.13140439499315465 -0.4607526478482351 0.9329980045884214 0.19662337639395133 0.895691743946206 0.49585131839022134 0.0865775916783118 -0.6146597884936799 0.5821118321741973 0.05442397776741106 0.7289173583808879 -0.723316172015191 0.661064621638684 -0.20659711508100428 0.8616957160322954 -0.6335937473527891 0.9184569900047279 0.4469238597419265 -0.8801870194974446 0.4417121526236219 -0.8735852871468258 0.9796170209330394 0.5312225186189613 0.8933836463539082 0.9655821434683877 0.4452707034209403 -0.2319818055785563 0.6364145199249229 -0.5850175138051181 0.21971136138660596 -0.040852517363373586 
-0.18347787160309248 -0.570116687869922 0.9242882189131059 -0.36979251945337377 0.21070802261848653 -0.5114354373067493 -0.028376573452419063 -0.36530500108788155 -0.7762589582521582 0.748053495440288 0.07937720020782169 -0.5634349683532285 0.9087295867992937 0.8116870589529279 0.5955099744509726 -0.19183016349958204 -0.14986455616834204 0.8352132816355042 -0.8666624203863282 -0.87219799573125 -0.009477844009286196 -0.3130054265193618 0.3882674508586821 0.8562476531627652 -0.48000349022318933 -0.815897577797497 0.205368064230123 0.48464735494269395 0.800815582967555 0.04523391030753077 -0.02330955104004606 -0.7286469343387274 0.9656484338799765 -0.8669793639865588 -0.7304741278194944 -0.576641082358963 0.30649461514461984 0.8024283066020182 -0.7782517970786806 -0.9724119081729236 -0.13424300968876218 0.7276715846655482 -0.31107796059448306 -0.9950677567030338 0.7140326889694265 -0.5531313757221211 -0.6307965457511612 0.6223594154289316 -0.5659159678028509 -0.9013443719901655 0.2821987279482488 0.7025299102967457 0.7872246063795747 0.09061661745564242 -0.3148403685184302 0.5678972693734732 0.48086166331358293 -0.2536605338999012 0.4588983552160715 -0.05018843330904089 0.9099681969907873 0.4372395403884251 0.27252959539788607 0.6467766834929867 0.18399860367073148 0.6895248774596037 -0.6910826336716386 0.5272291338468561 0.5899497960455493 -0.7990309802014556 -0.6872304658749743 0.6335331071053834 -0.49780197225671685 -0.17318605449065236 0.15776922427332385 0.8683684345078209 -0.5716971509593224 -0.825433588261737 -0.3811052276830039 -0.7778279253355392 -0.28420853824192954 0.5154724197123002 0.7147390480701159 -0.39000923067445004 -0.880422387788508 0.6394341388304605 -0.8673037263929895 0.6296045748121044 0.38996020108738066 0.6870258612181175 0.9209203743323254 0.8647930022219766 0.8108511237085931 -0.772739453048656 0.10937675839246251 0.3579616165922895 -0.923701970424382 -0.4689883817993427 -0.07530136615101739 -0.8951440724303145 -0.034371930079818466 -0.10580291157780412 0.3979183890898031 -0.19293227301500723 -0.4298548195352655 -0.24350108193127373 -0.6827676187437622 -0.21968300890285222 0.609757294827164 0.021806704386707083 -0.8622190392915233 0.7737445428534375 -0.2501699976749303 -0.633120070989432 0.7551401887060517 -0.7661757449067431 -0.6394152420534422 -0.7993362177633632 0.3556995819194328 -0.27080868234742284 -0.11440627595412495 -0.9652539535255705 0.36780237931666443 0.5893657018629755 0.5919316583933901 -0.11756884588615672 0.3883347435667763 0.5186466688303613 -0.281267234018194 -0.15029561900335708 -0.46097946767447423 0.426181852269326 -0.5264816424795652 -0.13164588810155034 0.6259975271496526 -0.288522222704693 0.7449758388805144 -0.6669399516858057 -0.6282556724898078 0.4474185252618271 0.5665758980447242 0.28804921572519215 0.2557758316261077 -0.9490760345519758 -0.8210643013093234 -0.0804648398648586 0.681110150130913 0.6439829019007642 0.3786449518078567 -0.4340071538808662 -0.7474893756261164 -0.615791113485363 -0.5973356999897659 -0.9733953740439897 0.18613972600188872 -0.4881215710175134 0.6211888510804413 -0.13330754197271227 0.7688129965129963 -0.7498066727504148 0.14284118606757787 0.675719612188687 -0.29378804640305417 -0.18545868785260344 -0.43499925907224524 -0.11974795293086499 -0.6622304743591898 0.6814981216554876 0.5931526643950034 0.2671540095631232 -0.6193717454717778 0.4516801638696995 0.5323666344561253 -0.47437798987018187 0.290876191628193 0.12607607336694268 -0.18774711955652318 -0.5934032662052008 -0.0346487979126088 -0.18667442506984483 0.8281444206369253 0.4242571370691828 -0.7512915584918344 1.062957719192039 -0.5574571335878403 0.7679083892525973 -0.45801251670981263 0.5068669363780903 -0.5901160185293494 0.2521080306428863 0.2954227122447899 0.3156277528422079 0.937053025732673 -0.003857862077362307 -0.4732287293048318 0.7614365266952413 0.6956305647819373 0.048702565768938236 0.6010150137727618 0.20487829836047386 0.5017152315839709 0.3642241237813427 -0.277262420288158 -0.44060161872265385 -0.5794089882392884 0.7253032867691885 -0.12269909933265809 -0.5490034943916065 -0.026078185251510486 -0.04707558298926533 1.1299887113309464 0.309523040756429 -0.12737229660711744 0.061489145074650024 0.7867166377201237 -0.10316133055175083 -0.07936499453374721 0.40169444609534266 -0.4982042766201498 0.2897774420503655 0.9560689502215193 0.029188344945899735 -0.3990969898106521 0.4601317771101097 -0.9398429747760163 -0.5143843892923974 0.4191181111113662 -0.3679994604412199 -0.2608601645589503 0.30893924763211555 0.35887574013666623 -0.08884899707219951 -0.022714000049084953 -0.663673091820398 -0.6892351922692449 -0.8642444061667565 -0.162946986019096 -0.02887032451877294 0.4852703951955766 -0.42567675643745156 0.5027451147390977 -0.29774039319421564 -0.1080614411152624 0.5740096247772043 -0.1502842039352137 -0.21288502040699622 0.7764023487195407 -0.18761616530838815 0.1444616351014625 0.3455361286663197 -0.12634144924851612 0.0838314222364967 0.9767146462213687 -0.5003676844376284 -0.09005570493392163 -0.4336160996972934 0.10938588924614265 -0.6940372870748328 -1.1542984040848896 -0.09953517830738241 -0.13146190316377257 -0.6374753775779032 0.28900754539425155 -0.5285457858542643 -0.429012028100734 -0.9460490325143814 -0.47711232462877423 -0.31660538370736613 -0.10732023999431413 -0.9075716705946347 -0.6988823576636943 -0.3706316611087998 0.28578123629683005 -0.7731759524023841 0.43330335174955464 -0.4643792708989891 -0.8946248894466634 0.0743832169639844 0.013025382954627024 -0.7434669158404072 -0.8111421941798003 0.019702716603994037 0.8902117846846112 0.6581544080300366 -0.0380874833297121 0.4994081009019354 0.5665625998724468 -0.39098764577591005 0.4229210731822623 0.41739100036429705 0.6685289218394471 0.027939352387458507 -0.9524030683257156 -0.35740194069338704 -1.2000533443985495 -1.7333851628558132 0.045879465132258386 -1.1633157329620112 0.7518742357420062 0.7400281427830135 -0.3112383366728174 -0.3940565363454544 -0.5369851151179008 -0.639651914279043 -0.4155041687516846 -0.6337855324836883 0.535079105748558 -0.6503236123909997 -0.8280121202990797 -0.4899986244777883 -0.29482433207959485 0.13341899009693442 0.4419987222314206 -0.9203368581750635 -0.07916281780238137 -0.30506904167783766 -0.33128924331338866 0.3503554326095069 0.3853785818153416 0.9049894346180293 1.01169206649678 -0.6390042302582031 0.271328608121654 -0.01605442851625623 -1.1376899657035278 0.3663405842921556 -1.06928712376043 0.7253185398569308 0.05352198449436034 1.2131759200612442 0.3135856409988798 0.334191217036254 0.2261629816532357 -0.5198559433562822 0.7883163660635696 -0.5880313755763368 -0.5042747772163757 0.22734808228020364 0.04871221305278956 0.23853025992382784 -0.3316525648932852 0.16605284493204372 0.5475124673567621 0.7492136694930501 0.060933583373707065 -0.24983834058420915 0.8673250097637217 1.1588717051774777 0.6014747549480916 0.3724146107226316 -0.18521554549235594 0.18069748198413227 0.967006054410972 0.4163276307143209 0.4599281097502878 -0.47414907079136326 -0.2525915058138061 -0.49491914283882665 1.1989694720705022 -0.2925851748209692 0.9733869104908361 -0.2804572696346283 0.20833307807233953 -0.7506250552391559 0.899573724434306 -0.05181084694493465 -0.4715879683946255 0.40450950428900234 -0.20625525901368227 0.6072469948521205 0.36872594707089684 0.7930810631740423 -0.26216180131921396 0.33978814413745273 -0.05949678094345177 1.852661754499361 1.7852666051429509 2.3283768630608423 0.3527200497417699 1.1684594745303276 0.6695233278847372 -0.1404192773154389 -0.041582824069553714 0.34299984289602714 0.7265524982410969 0.2887432325084141 -0.4122374500559217 -0.5034432178815481 0.2598671533312822 0.7176265996309114 0.9399025101377377 0.27244070576876106 0.8832520856850965 0.37679689711335185 -0.8658343722160714 -0.4596485622629494 -0.8904499487680512 0.23881590436140013 0.036407432336243516 -0.002617934530120385 1.4892932190669048 1.5082175126488402 1.4556665200102366 1.007715633133247 1.7569774770487596 0.3309295824296248 0.27750624770308324 -0.0927909769775485 -0.5058428893068965 -0.06478224380796824 0.3591318053925284 0.23486852395994476 -0.9449131328996769 -0.7188182848715919 0.5885372579808129 1.0461513357902028 -0.849262568260952 0.800891153017216 -0.07939419456415463 0.8787740054958958 -0.5349401194559216 0.5634037747462657 -0.27020152115081264 0.633387190048734 -0.1289576686471084 -0.2481656532440832 1.3787327944312455 0.16229851826918115 1.6339637678958594 0.5365276999781207 1.3657782611982472 0.20321252175356308 1.254120597275754 -0.4268265843136098 0.22382265903243556 0.7820012584923318 -0.5103801072367755 0.6447967164071017 -0.7443202674442042 0.030094940540326465 -0.7319482554457551 0.8309508016948204 -0.4705219625919239 0.5859189618219763 0.4813601632608775 0.5444099789470176 -0.11972800398054602 0.7594755377985627 0.29613900664910603 0.13512673352836105 -0.385906476176059 0.5588611796251938 -0.4500553055580203 0.30950221057388205 0.39414643129198484 -0.19954598606308976 0.028282970052390676 0.024921746041993882 1.2391499654647944 0.7524938305476003 0.888343981790682 0.06195741409615985 -0.7685500104014145 0.07627869689355089 0.09664069548650546 -0.8844835503619891 -0.7478784783970724 -0.5411732225566109 0.41870408312405055 -0.6521009929352576 1.027049425127462 -0.15463332187655726 -0.23468798957879572 -0.442114206406343 -0.0858345091303079 0.8650640590634125 -0.44282491266691215 -0.2979285769942582 -0.9735760362801691 -0.5739169053488629 1.0733259710996956 0.9687175117276051 0.2725424153002652 1.083285959439919 0.40293487870723277 1.6460551766173575 -0.27351246873043444 1.016554270527388 -0.8707614502301988 -0.16660165987805864 -0.7101444892624886 0.33474405727798245 0.4711627490195219 -0.45772935930563563 0.26118029466409176 0.33856085236905425 0.1646370904787586 0.5564250423239284 0.5527032412529166 0.5192887063217089 -0.19729895353440055 -0.7579307096165111 0.6520292735134268 -0.2630846181632481 0.9683385806619662 0.09310896266506466 -0.537101210875671 -0.2297821068784343 0.17782750177404327 0.0885245620205714 -0.43911925625772746 0.892149034626209 -0.03039432379503772 0.3612547308905854 0.3671872030996497 0.49350242150533324 -0.40597201518274306 -0.8947439974950435 -0.5672951788820131 0.4636284307939621 -0.42018343401221037 0.3684725995996653 0.7372735802123741 -0.2259614446794575 0.3042113433371856 0.8150851117464039 -0.006810113516106706 -0.7801278287927735 0.8612099659977231 0.690255706558287 0.05335019214020531 -0.36392752954915786 0.8825910430251285 -0.5066291771655738 0.2648775058484471 0.9330992491825447 -0.7512005082408406 -0.6655386419840492 0.9613850558727013 0.38003971293265454 0.5404318358474433 -0.7349427168873329 0.22554076955485688 -0.8339479007271438 -0.5959122795576113 -1.059597905234585 -0.8353792513606895 -0.411761172261032 -0.49706148681199736 0.5694045851552013 0.31675086448121836 -0.48249485075049203 0.637470668167172 0.48575364672169935 0.7803973129444828 -0.5640970192615763 0.22123336403161528 0.39117558823268184 -0.6679202486189899 0.4138105975017735 0.6119418141581485 0.05313559817785515 0.568929793702528 0.8360246575260238 0.8457608934758621 -0.3702742815987878 0.566769152145326 0.7271869070159511 -0.3332581309157821 -0.7940528831782036 0.7530701809339316 0.18493634142477136 -0.3772940297070978 -0.07647598772522081 -0.769148200869942 0.30887808483369766 -0.29637573021173613 -0.4919439985589877 0.8412221092551782 0.8915465832406895 -0.6885422186228117 0.42642795921893173 0.23436384549209102 0.16023901017392672 0.3465141116927817 -0.9236587897826463 -0.8869047140855824 -0.05951014143098398 0.33275853456860616 -0.6897836263465911 0.758818570362638 0.7171687751396971 0.987524318462941 0.4764468640280203 0.27748736488291215 -0.05385817521984442 1.0974111151544579 -0.8410901757126167 -0.7946777102425019 0.06576114230479463 0.1785676998905332 0.5767874838169587 -0.05586319597266695 -0.9601423773890638 0.9183020817669996 0.12538878474104864 -0.2798628268441835 0.3525490707913971 0.1657782916650514 -0.22828398267567027 0.42893752447210887 -1.0262595161124364 0.04991279179982014 0.21954591918749042 0.6324492344317579 0.9420252385261494 -0.6878600993574098 0.6904717324513265 0.41327617290595864 -0.7823919905157457 -0.06048075060947579 0.4570510281820145 -0.1058185100092426 -0.6695412014691764 0.566361460209783 -0.8111297257772182 0.24991996753976986 0.08151213485828059 0.2607565073973227 -0.4701225798075368 0.7174827468626345 -0.4028318895756013 -0.695573156488882 -0.7492263312116285 0.4744140599856568 0.0340770722626176 0.014934185207778864 -0.7374506293826308 -0.1421207463755428 -0.7170974137757092 -0.10423976246332306 -0.3500225850728344 0.6519715761432432 -0.7065832705501585 -0.23390145588013578 -0.5293273514137486 -0.7395401893631363 0.5708473931222048 0.35211630130006677 0.5236238906952165 -0.09373880318871965 -0.28636205422179806 0.026073167747224773 0.275459969788533 0.11913697636300886 -0.4111967319149401 0.7157808480568317 -0.18260379763568538 -0.3598827545585069 0.4220420184421871 -0.05406813812407514 -0.04684741969028035 0.2670022769468375 0.750922873943239 0.23386078228285684 -0.27508708439668633 1.0340447450268069 -0.8864193916139432 0.26659650840123866 -0.01075224918198384 -0.8779920963602097 0.22617521544610786 -0.406106168819518 -0.09795643273188648 -0.2545090381499445 0.3649549125642658 0.32538622269856604 0.39506209275378895 0.24706168626955835 0.5213835952096756 -0.6928800767477785 -0.940254354313017 0.436354511679224 -0.037383766659606826 -0.46397288738348963 -0.32550648473314586 -0.2044052874408125 -0.9151143396834793 0.25654466557354466 0.8289806600281366 0.3605300315139477 0.6592152910163721 -0.6470257854472091 -0.6176327286079171 0.31778284184008615 -0.7294435565761351 0.9332049137947138 0.5496904930608992 -0.2821123999291959 0.49334794761998646 0.9920434453710392 -0.3250736796756717 0.8779832546267934 -0.8416795876015294 -0.09355771293699588 -0.8798299480873375 0.5347085631872107 0.13485873266605178 0.5490587569014302 -0.10169587707950153 0.014065942886475509 -0.9793841685234919 -0.17974278470601698 -0.7911652681339587 0.3813676347977424 -0.15647622989246693 0.7248190393336705 -0.8747028720591112 -0.7905162689518583 0.2648780078200813 -0.4802501319905756 0.4416838481413863 0.7995953375547065 0.10991145888611846 -0.00623192440076563 -0.360871206152797 -0.9374498455587008 0.31015100222190073 -0.63627611911487 -0.4033300091018346 0.45580723008279045 -0.33771976270509535 0.2479773060062529 -0.09399406756975022 0.19732726410352538 -0.6014669662573662 0.7889753926531331 -0.5292053994146898 0.30689215785275886 -0.061361688804286094 -0.47820139688089647 -0.7882595740400273 -0.2006884333659558 0.752839532595552 -0.9505306963473488 0.4036915461728001 0.7665526680327984 -0.21285340351080617 1.0083504545954434 -0.4813562751416554 -0.11968225034251888 0.24139045029445194 0.26321356742244806 0.024627409924384835 0.9705548881569253 0.8517545828851967 0.042786421496499694 -0.7810184384619279 -0.9169677520483983 -0.13209534841272474 -0.2627725359310291 -0.6421978821559845 -0.22939112228179404 -0.6450449929674086 0.5897754670111264 -0.7834176584393563 0.442064997733328 -0.7168788751586964 -0.4607006283409495 -1.0055156369090734 -0.9649518073244235 0.9437584964167585 -0.8494024470163672 -0.29287819730830383 0.5868229435846004 0.8457120252226757 -0.2984197425064455 -0.3599342469877215 0.6414165378345696 0.524259542209693 0.6380599129602331 0.8768667357775202 -0.859244200516305 -0.7599534582567524 
-0.8573699810294295 -0.7909542141515142 0.3254496985275379 0.734932460368958 -0.4965706791980242 -0.6497790116653992 0.37894513667737884 0.9562516970761639 -0.18820381690602117 -0.8501980639987465 0.577142342586181 -0.18813487071867252 0.23951020183530214 0.9539737105093491 0.8176579286099339 -0.8577535841580672 0.5236504459315185 -0.37184276467302557 -0.6485240175761104 0.44573621442234224 -0.35554341361593367 0.9316672949136524 -0.878671455107326 -0.46206590916858636 0.9792124269846589 -0.507080130789934 -0.4349785788896652 -0.7109127741187478 -0.6813117537521196 0.5026826032578862 -0.998314901828401 -0.1412728146019786 0.04869255249408688 -0.5754999625428276 0.7911977775334257 0.4346875381726121 -0.4725174516477713 -0.4841901964454294 0.3464697097913954 -0.6073785284775534 -0.7719809363932925 -0.24592210367947634 -0.2632821575004496 0.9340177394236976 0.5993808862698113 -0.07982478432281516 0.2728045524256899 0.04570516520590906 0.6513363803151384 0.893699802924774 0.47915087249203836 0.9124841170968327 0.4683044978017161 -0.7830111705870582 0.4236096757526291 0.8043611130997812 -0.6006962023286806 0.7094519660594316 -0.08778778154522193 -0.7324395081447642 -0.5669941542226771 -0.435233618181626 -0.9106779926512488 -0.3954935881641966 0.6471732401431831 -0.09815753150252347 0.4179899576226403 0.5589513875885412 -0.20969709461904618 0.6834145395898233 -0.5082601154073796 -0.32533241747356023 0.2821690310463342 0.6193387004427577 0.3066477152655486 -0.7582017174101731 0.4390226812679827 -0.7208078325520735 0.0425909226409943 -0.3882298931463112 0.5307986158928101 0.28289103468728727 0.43685128548525953 0.9438211576596689 0.6932786356460059 -0.14124379240264862 0.3275472519962458 0.5861619003636738 0.35145015118816614 -0.5571935051355393 0.06499512820985263 -8.293084160584868E-4 -0.3598905191380279 -0.5149038998845673 0.4382998993914442 -0.29518905548645546 0.8678697133197789 -0.4960351176659699 -0.5369667927460888 -0.43638190461525195 0.6254949324777563 -0.5226389881469004 0.2870281384150953 0.01679379042619441 -0.6541721381381624 -0.6280313756806148 -0.0689602979200083 0.7795038023578681 0.1469999414756745 -0.20035346525377945 0.527923521853473 0.049111246413023 0.32340382060848016 0.3826312556801734 -0.7484011099588478 -0.01741537665368889 -0.3195436628783793 -0.24571782162016587 -0.7152165831553069 0.7398383986618456 0.6142520211749226 0.17143582409289193 0.21207563807593433 -0.4208687964483934 0.300810399725503 0.4542988431192654 -0.2835019842033296 0.5371302870097067 0.4925994718255666 -0.10154401899123125 0.9429790408689678 1.2574452678655077 0.6523602196438253 0.8886667836669107 0.0449333703729426 -0.6942076815571875 -0.5076414043307449 -0.23673412535248037 0.21650598769242108 -0.5567554869975113 -0.8362100485872899 0.22505799983731167 0.8612357137254165 0.760113915974886 0.11296845005408664 0.6957209352660195 0.7444674002259417 -0.274437898021518 0.6989911266255828 -1.2326054456637414 0.08438038551068758 -1.1567124690010544 -0.6844585659581984 -0.29641463954756486 -0.45160694220947795 -1.276499491271012 -0.9039432718851771 -0.6226064630836072 0.15623805194196416 -0.465356605823017 -0.6459800958787842 0.3322496957643992 0.4448511429422692 -0.23731546727969313 0.6533335790649287 -0.14939064013968192 -0.5414360024373307 -0.033595547515954526 0.8748319198194123 -0.8507342271598402 0.5947039476354115 0.9724009479666798 -0.6087233184434513 -0.7798186731282651 0.6025231435670365 -0.6930586778868039 0.36503164057371074 -0.5597418424423628 -1.2941237138171189 0.1544947997183773 -0.21832377207070527 -0.8389081746801113 -0.033810751137623704 0.43215005750333535 -0.16460917655997503 -0.06972325695731042 0.34878154199276107 -0.5357974272245444 -0.1315775049268455 0.30097660759746475 -0.08282545239661455 0.7157429381869245 -0.5154613785606187 -0.9315545143004308 0.5066139698475592 -0.5173938007691906 -0.8668392532870921 0.6677988941663723 0.12520747791245335 -0.7958236208323785 -0.40963138681419 0.3215891657357101 -0.4126750621615606 -0.7421448346853815 -1.4079514003314453 0.7025576553264954 -0.8703245794746398 -0.1814952522165545 -0.40015825655901943 0.4021434702471759 0.49067918048519793 0.0035651434202420983 0.7377264888171797 -1.0051552129303156 0.3430433282007753 -0.4075996422302648 -0.25925696035999873 0.38346829946175565 -0.861844582981457 0.17244711433906687 -0.8198265953029333 -0.3674053347100544 -0.8915638216311739 -0.7491711576649426 0.44494833364344427 -0.2967259315186589 -0.10938321179501775 -0.10928741579981574 -1.0306955610374713 0.5705711903592258 -1.1091868700157055 -0.1132882549629313 -0.47344862346115235 -1.0564205451013895 -0.570554335425057 -0.4057234517369651 -0.5171933563253563 -0.8185082995881748 0.24991719231405296 -0.7286054950471109 -0.6846517896523794 0.4361866899561281 -0.8048217709741609 -0.8650729229371432 -0.8843168603049322 -0.3903830217521267 -0.7916673683375451 -0.0911906827366597 -0.2554709300233568 -0.551504964743038 -0.40116381266922785 0.8727005885137823 -0.09055379480697681 0.3888015031459355 -0.9812457600143383 -0.7176476389303558 0.4824297153624832 -0.7418462039701231 -0.9449002015016199 -0.36544374452851525 -0.5274565812186527 0.08176905884413622 0.6404812595884156 -0.5476251547734571 -0.9048530681238257 -1.0126427822659805 -0.18638854216473844 -0.8007433326833308 -1.348599180086831 -0.4053359333926253 -0.532480595730881 0.09651873005312334 -0.017137736089975007 -0.8560165468618754 -0.6245836745228209 -1.0216584351207754 0.2648496619231599 -1.1453581954885166 0.7203882407401634 -0.4498636997398696 0.9656612525950369 -0.7605186486299589 0.24773881306789164 -0.44225924608685596 -0.38060015790640994 -0.3362111906307197 -0.7186119777752011 0.4650006589650948 0.9457046434742282 -0.054177018844730314 -0.03355877965195162 -0.25099598611834845 -0.38657365338035327 -0.08862840443800568 -0.4456327942475874 -0.30812301599881453 -1.596101767328714 0.08400119319097021 -0.3620470221027195 -1.5656005387509366 -0.6049874284074083 -0.9672447540243688 -1.0820696226937105 -0.6847739046209255 0.31232664552817613 -0.04890074616529594 0.7772136440640457 -0.32629883929974396 -0.49142724518145686 0.9071322164328115 -0.03038138199641904 -0.2894850147303985 -0.7949222813406203 0.29473259761623594 -0.21768625118890797 -0.2936175409455849 -0.3225939972278653 0.4090868463994903 0.5557376251358365 -0.15109982071273675 0.1577962904016349 -1.1433103995379978 -1.684675635512038 -0.46041138276375304 -0.6324458629100669 -0.9249381439083847 -0.6269702026785388 -1.0969385206563067 -0.19056816789949418 0.860486866693533 0.4235293367077977 -0.9116448663803195 -0.7712340056650041 -0.23809716917921217 -0.24920134646392428 -0.9734112177411011 -0.1976663413878048 -0.991536755150261 -1.0170614021360616 -0.22077160814065153 -0.8028983131543355 -0.0048728701982300405 0.6118986382545093 0.8759913895981152 -0.25529508518882976 0.9933592216766576 -0.3165307417829379 0.5038571685478508 0.589383394200675 0.08129662231656075 -0.8505344895374728 0.1542145830875833 -0.1065231466119043 0.8491818815018745 0.3823199315278292 0.4846415034166775 -0.05872522731708234 -0.18600748331782382 0.29235803486807077 -0.7624695522941469 -0.933633642179916 -0.605738899154231 0.5435441732261391 0.6049211011849436 0.3463527393478397 -0.4781928205194844 0.6372587157959226 0.09464814527949018 0.41259247104065433 -0.009003780705433504 1.5892831923085753 0.17465847219307626 0.5179254551906135 0.47422769326778125 0.44704862562678077 0.939761310618833 1.1912277571796954 0.28222927155220184 1.4693822576613396 1.2261680872618717 -0.5341578104913675 0.5947825433434449 0.6306733998794574 0.02553195023936002 0.4174510060610258 0.5114326479783264 -0.8269237190039197 -0.0467170947017887 -0.28416699939072865 0.9162108341146329 0.7630790971634761 -0.24032468580860747 0.2664359868908388 0.7157255648255832 0.793350474756004 0.7674860366281385 -0.3324184410777745 1.316627279728741 -0.12953349005410456 0.30813478456896637 1.0850937284723112 0.4275376167205586 1.7915202380344883 0.2571836267264969 1.078158614073077 0.9246235758302632 0.5248777625097588 1.3753095613781978 1.250737520620477 0.9469858211534796 1.173163047461399 0.3001590688509304 0.7691748300142404 0.6037647478317827 -0.6617077666176606 0.2940623336714589 -1.0354377458293862 0.38507172360935826 0.5780976567298372 -0.6475649213316984 0.9058686248470833 0.4420669071987646 0.27523740888601694 -0.8621479829780033 0.6957066361692497 0.9162954925854844 1.104873299540391 1.4879591217421928 1.015626476876693 0.54958524173211 1.1532802177834214 0.22698171325780273 0.7496309311626904 -0.17536210594013232 0.2384060788293095 0.8486731319158586 0.8666885728679281 0.4739195940460486 0.022213918209415092 -0.020877056590517473 -0.5497846317977777 -0.11226564089759143 -0.1996706426662435 0.3892358477351216 -0.2126004740978959 -0.6242317896620353 -0.8647404910749886 0.7628827539565056 -0.9161089076803426 -0.6889850884772609 -0.984937145048191 -0.5893769466781654 0.6839159683304066 0.2812432595046647 0.9410245252795914 -0.1947653978030724 1.1689908060538918 0.8667114077321463 0.3253104187859995 1.3238692038035433 -0.2842235826966044 -0.1070569375334236 1.0979583388321836 0.5311166713155538 0.5008048180609328 0.5103314506630158 0.09946954977888324 0.23699877366746167 -0.412927876778889 0.19891209539153407 -0.06388493892836607 0.5572740615600787 0.2265949164692884 0.3387693149622078 -0.20284632638439515 -0.07545209161782498 -0.034374473045486686 -0.48495324698281267 -0.7163498189814467 0.8809189163405177 -0.20351531438676512 -0.9493573570053986 0.08880105797525485 0.15092559515184187 0.4660806292023839 0.7502756168519414 0.12394407588301574 -0.6056947855130962 0.8641697703470229 -0.12415740572249526 0.19418467675093137 1.2655599536174789 0.6836282685328943 0.19668719654798042 0.5895420743498817 0.3777019692295332 0.5735059018683868 -0.058311478277032903 -0.8149807065887501 0.08916735516617166 0.6871719067638924 0.7457920277235423 -0.4114449691562241 -0.9145675997415086 0.6550151466383463 0.15530265256895312 -0.7012270289134491 0.7732614565218392 0.20781915603147763 0.5407253202133536 0.42247159420201813 -0.12996388229485664 -0.09208200521719881 -0.20604950519205378 1.0525822135519523 0.28292450189894813 0.45351492790616366 0.7820041279178884 -0.620252303351011 0.018424856606520303 -0.3888107203814116 0.15049368759511864 -0.6471318112542512 -0.2602820353396481 -0.9717520624422615 -0.9658910111855057 -0.8001168127465266 0.8562997008121872 -0.3562283800466548 0.015784761014593786 0.5154814347261242 0.708789539971936 0.4753265717762012 0.4943815813159999 -0.03213790891091945 0.11120841047404043 -0.03291369842186174 0.11273243985338931 -0.5920835249344774 -0.5528924960599539 0.05477264911483328 0.1660331232023194 -0.34884677641166173 0.27933841298939593 -0.7767545182954665 0.5259227116584271 0.3633363703998036 -0.6054203404478223 -0.49427652578842757 0.49631304152017763 -0.5110174206964533 0.1578675548245543 0.7765255871259582 0.14247905294712757 -0.5795191789827356 0.6514158022066892 -0.8521445159368441 -0.8092239944518493 0.8135811203050289 -0.1465183711283515 0.44219416558965485 0.6202209476750498 0.43023625357626194 0.07607303217304484 -0.9513382184241818 -0.031885335223980064 0.31743464097226887 -0.7161912023041925 -0.9580950798946196 -1.2292930181072739 -1.136809533832585 0.04310769932355578 0.26274571830192095 -0.758579428131061 0.9483009606898122 -0.6864828710550744 -0.49114359870007374 1.0200223978455394 -0.7161665040932453 0.30793437537645335 0.12256572065559579 -0.7734010738787479 -0.4021725008620582 -0.23490347618955193 0.7318523735404556 -0.9602272669487589 -0.865584319869146 -0.6167231434183278 0.6642801157120257 -0.6392162034739829 -0.37504520449033585 -0.905892380362709 -0.8161014102103854 -1.0379129247505017 -1.2890690830900742 -1.3856397674789096 -1.0151393822126136 -0.06335885286074495 -0.5481665062127539 -0.7723948523935875 0.2770153983236542 -0.8048712052328073 -1.0184978235554318 0.6639076838769442 -0.10298554048425546 -0.1672232591730256 -0.021625760062191128 0.041295724580739976 -0.4123874725013873 -0.6686884551392556 -0.2148668976782791 0.7983866371630786 -0.8548554050028873 0.3021301428606465 -0.981190778393341 0.7278957587135928 0.32063135924457575 0.6425067649906201 0.8593967951443092 0.3609499731903535 -0.844512900783894 -0.33609245977728547 0.02326688723590694 0.17588884386099038 -0.8089128100366983 -0.2111088075104307 -0.7044737078372193 -0.4732019822444943 -0.8596695257973994 -0.1949119600148045 0.18978772758580706 -0.8121355336267273 -0.803602822773141 -1.225813368829951 -0.36345836497968664 -0.7004365747289265 0.3639224822740449 -0.015221438203719628 0.17265469315037765 -0.03376969516114932 -0.3276087675382298 0.5324383860892815 -0.3880207449940653 -0.6715923713575307 0.46893789811345865 -0.5491916077155141 -0.6858372476254659 -0.8275607231223926 0.44253934270912415 -0.669832002591765 -0.6291286097417599 0.1607019850702935 -0.38912247302713243 -0.8876647844400817 -0.3354762289729188 -1.072747676407095 -1.071411533481525 -0.6830791774644284 -1.1314450748842801 -0.4226828227280646 -0.15053167136413512 0.10234759290946908 -0.47435756399037016 0.9565647046595078 0.5542459982688878 0.38304188691713237 -0.710254674920002 0.5129451213593363 0.8857786322114776 0.8919630795042529 -0.7449941353909169 0.5452932715329564 -0.7708933848150543 0.20486129668760378 -0.16335112648725983 0.15457026303620736 0.6275639130140342 0.09029698824048137 -0.964323731984722 0.48324737636200893 -0.46306990173640694 0.5480688964046336 -0.6386016500191457 0.756236798189437 -0.21757869253788714 -1.228041843975722 -1.4246954718786309 -0.9170431390836282 -0.7909007190603985 0.36071856548850295 0.08824899382569645 0.652210000092002 0.28895862288189555 0.8410581215615457 -0.1625488653300655 -0.42793883921109 -0.13617882101698733 0.9057172937474918 -0.7173800345875344 0.6674544574110399 -0.13468637491412672 -0.4545372359233468 0.4810454492321572 -0.46604124116255136 0.9855829779295127 0.7949333300404998 0.6453586985875744 -0.37215866666055886 0.29993670552411994 0.4275932452549828 -0.39770242570613573 -0.023146492737914904 -0.6747481944707093 0.3472048086181541 -0.039970234697232675 0.10912921885230978 0.389708693439341 -0.6823668651831754 -0.20390007006919633 -0.34794715426727013 -0.4668944079317938 -0.3611191760978581 0.7476968033689654 0.502386664493485 -0.9721651046639741 0.7101714483653858 0.26431071529862604 0.6747073152353131 0.955681598691178 0.651922224088874 0.08676925226768484 -0.9855881720224333 1.0008175391542675 -0.5278577686819403 0.8474406549289504 0.08941608714922102 -0.4862660936491305 -0.1740557705681692 0.137598979708704 0.2900118116894004 0.6500357640730593 -0.2751607524688235 -0.3402461527184303 0.7341191021012232 -0.4812150788027319 0.5786120265705813 -0.8894861820486407 -0.24815233402772927 0.05404556645577916 -0.058784140027786654 0.1338464212695339 -0.2716387676793514 0.45389042541625124 -0.960599776141171 0.649848871461469 -0.3788501175659187 0.19224611504017952 0.27789094590172514 -0.29573265870074805 -0.678519709062483 0.8555348133076842 -0.2358231851173704 -0.5060126560393801 0.9581366363308874 -0.850382896430071 0.14385705254531533 0.21785969689020002 0.45146279366587516 0.06660079442331049 0.0542632064758541 -0.10759878237013674 0.010588143205656429 0.5466178916469582 0.01757435739517561 0.2275830074682659 -0.21242321871436998 -0.41303447709735747 0.8171155460781871 -0.21070701875315231 0.9730661147190834 -0.7053355167986952 -0.6627978402396102 0.15526131963371403 -0.09283437896606794 
-0.6051092586415547 -0.9874194434658323 -0.13321123188779804 -0.7609159081528527 0.8534944087089928 0.09279918836233092 -0.9649044349249611 -0.3162956609153267 0.07092408460140409 -0.8099870257505197 -0.9881637835530812 -0.2317870154195738 0.8314190019389069 0.3351475276615846 0.2839618205137349 0.04040203311980273 0.48052376116152784 0.9526569113160608 -0.4042819271035525 0.5858843355048318 -0.7988503423882694 -0.6075923161214969 -0.7407457094867207 -0.35915206947529743 0.8352036997751595 -0.5077564960719292 -0.7002383351958468 0.29571417540809186 0.051444578520532414 -0.2333541067145093 0.5935437948207174 -0.18942957724541998 -0.1738566021471013 0.24637020754669947 0.4773319494238547 -0.09969569257121506 -0.8196243046391635 0.7078426011521676 -0.6016787735809402 0.41275733569545536 -0.24654810852953926 0.28895997341299823 0.48016197567357627 -0.01654028663582261 0.6673238551586791 -0.6325059670741909 -0.6038604759593652 -0.40460932100157343 -0.8739053062242017 -0.3194189425958329 0.9678690002055482 0.8476881139887923 0.12415203539919695 -0.9273577301937719 0.2654168785562401 0.30395232246669157 0.11215406832955144 -0.8364202171319715 0.5818259270280639 -0.5205755225398039 0.3935653526330615 0.3747885144695809 -0.5442314944586966 -0.017944699561464814 -0.04626737987152074 -0.22238633885710593 -9.613493779664194E-4 -0.05600902417602405 0.5618817628708552 -1.0320767574239798 -0.8078946161054633 0.10799548187852799 0.42013334733391305 -0.5999117141366118 -0.5367268642879663 -0.5219879155740611 -1.004257603667066 -0.36319161665688265 0.44851339072566865 0.004275555796601707 -0.48572250751270524 -0.5124898544423233 0.6964164290353798 -0.4358824281454192 -0.12974620890062694 -0.6133926053830276 0.305702480331419 0.22495329644657305 -0.3281811574229428 -0.347902009021615 0.8948015961500879 -0.90816925242024 -0.33206360962589415 0.7987075235533837 -1.0620929475598608 -0.2309010716998624 0.06704617180040057 0.02624020880546411 -1.0084925732498138 -0.6745800914738899 0.270360378688655 -0.545199093891775 -0.6255560818460317 0.41693825883639585 -0.8464964137548402 0.43150877856801734 -0.809096674491335 -0.007013791142610513 -0.44651612531164947 -0.6930086258045924 -0.8090141321518893 -0.10200081159657759 -0.44862105020365384 0.08770890468671788 0.6860038446532174 -0.7911973786797315 0.19249661203141075 -0.0020606259716615945 0.83981075347355 -0.5007836499566396 -0.7499982396602483 0.26478322446857416 -1.2368512420535966 -0.07568978145897316 -0.8552162613550651 -0.7648564137045796 -0.5986635101038799 -0.759766100079575 0.6187912659686515 -0.9611420051970082 0.055662638008515675 -0.609458865929156 0.3344261192893593 -0.8571562485947475 -0.19519344696949517 0.797356193362621 -0.10696348269359637 0.6974113566829764 -0.9582400719578753 0.1820745271279409 -0.28692352145319244 -0.7904609326076877 0.6311109114467165 -0.9035968102913589 0.9340223120779841 0.6015958760396835 -0.9666271100899902 0.6001502233189642 -1.010452162912124 0.6769482858192531 -1.130111409215371 -0.9341851103488827 0.011284038133145545 -1.0860204951094408 0.7933014711279999 -0.9279627955931855 -0.6122558819468811 -0.6705575078819411 -1.130191558606685 0.02549539005904877 -0.18406944884075122 -0.19827936141183347 1.1668987487209883 0.39022735852582546 0.7694690913397836 0.4669391776672684 -0.5520711895951146 0.6468378596188266 -0.27831246654214814 0.0026535712332431682 -0.9215221525645343 -0.9429639781360344 -0.603031989310148 0.8769422124783904 0.5141142050732448 -0.6211843085548049 -0.3857011958967993 -0.7603494193700147 -0.31248628024425207 0.0923527733627847 -0.4292323943782151 -1.259422880124577 -0.1233220666397295 0.45723849877740474 -1.0413683698947132 -1.1333379788310929 -0.17212166640956553 -0.9506006898882671 0.6767611559334273 -0.01920192418915794 0.06504195274755266 1.5281396645316423 0.49107087455559373 0.9471726381059764 0.0640784424061653 -0.17640949394664618 -0.5726095802541544 -0.8623595873985749 0.11546285969082629 -0.5068124646288612 0.13442396365475107 -0.03832556758864297 -0.08383551012983105 0.3823718430641436 0.4460546201391228 0.5121446101707776 -0.9583027065632973 -1.1800405532727216 -0.5712013155009155 -1.2514632047691172 -1.579182916468157 -0.3481987535301446 -0.5834708193066149 -0.5844139892400738 0.4722473266014347 0.869545103301869 1.134015243234963 0.8271416078596836 0.1047245350745941 -0.295992041696909 0.8592925699946765 0.05012448148327101 -0.25387933959121434 0.5363188064114744 0.6991893431950575 -0.3659808043278832 -0.37146145067720604 0.7010129502943309 -0.043165983267983814 -0.1227697320390917 -0.37982450692032665 0.22148662748868986 0.6402736996755056 0.32018507423233017 0.07457704797168274 0.05557315675497123 -0.2969826213809816 -0.5387508713655219 -1.624699726652518 -0.05888656368192622 -0.23114015701645066 1.002343617920317 0.5015987927274995 -0.200378191279937 0.5623873020121124 1.2666834133871743 0.3688721112233362 1.2432131889037101 1.1378905613369872 -0.2517763503705139 -0.5491119463778472 0.07457852023997046 0.7103840673376635 0.2680257426715573 0.1428746810396381 -0.8174513214850252 -0.41028994214688447 -0.20178098297409938 0.09872285778624319 -6.803726150688654E-4 -0.2849865567065922 -0.3924339304143605 -0.7277273736200773 -0.24532380638859125 -0.2836755419200825 -0.014998775920759657 -1.1761487313434136 -0.4464277079427532 -0.02294343699187769 0.0030628898915133714 0.4920390022109431 0.27082866946277356 0.14645701828245253 0.18855731433922054 0.40359696171213955 -0.4120560566561413 0.7846725910344042 -0.7086200936432786 0.10929451479039606 -0.766929546293976 -0.22003435387558562 0.4058660027596812 -0.63459235995354 0.640043463390965 -0.8919489378859542 -0.1582395420038726 -0.8627141644003882 -0.6932936146013124 -0.15768788071107262 0.7806667705409771 0.37896232425461557 -0.7556311512623965 -0.17003549161377196 0.678628879667035 -0.2562619476212474 -0.38673033850558813 -0.0871344240772639 -0.7245346224379526 0.1905714438566913 -0.8607112502911017 -0.5494676129306362 0.19064204590587547 -0.22551719534365175 -0.3702812977663439 0.26017995763660473 -0.8308567529975163 0.3949662322361209 0.21516112425485248 -0.8184457397884518 -0.5355269813649158 0.5726162345982421 0.8523226091487566 -0.94210054881247 0.7463610709199235 -0.725676164421967 0.7845301595379041 -0.46624713615631136 0.7834196418676098 0.8774145944500973 1.5409594042710362 0.845468421407424 -0.2053443779726758 0.746843120641704 -0.6484852617811835 0.9127455125291729 0.037740464335463075 -0.0658053257927407 -1.0952371169697124 -0.7496400695259454 -0.6869553147826373 -0.9825385161661729 -0.18820842730807097 -0.9042493351715997 -0.8143655162834843 0.3425503181148145 -0.8319485103723216 0.6191136012913705 -0.17767189079143922 0.2893300898879835 -0.38677427387591334 0.8758827205175919 0.06348046718654803 -0.5537036078049697 0.8422302645465288 0.17398679593966704 -0.13046235019773927 1.8786384284530921 0.7451637346637082 -0.16347120684963407 -0.2858833351621309 -1.23003719957104 -0.11245064086086899 -0.6658500715632566 -0.36177358257916953 -0.37523142932425574 -0.319278015429815 -0.6789326979503443 -0.40491490712334166 -0.4749575370555021 -0.916937236148876 -0.007384578591149089 -0.21131033289864903 -0.9455929220336925 0.7623812799219906 -0.9510570636407545 0.747535245845845 0.6092077727224569 0.23657188839633797 -0.22091637335323772 -0.032085331944329575 1.0388144339136303 0.1536029722383182 1.239957716985145 0.00582128606068903 0.9099732687142321 0.8657745767256455 -0.40636029811671287 0.02844270601551599 0.1629726036667515 0.01810438304326892 -0.4184550739450165 -0.09660392892815207 0.5162880044698271 -0.682438737121767 0.2117282705700875 -0.12243329286773783 -0.3847675853804142 0.2833604645916029 -0.7175862954561505 -0.5486399977810252 -0.05567386741512497 0.5095013176468693 0.19454180866865167 0.8149459897825082 -0.8899256427022065 0.5696748864760096 -0.7445385334433002 0.34917440422645424 -0.3724306162461189 1.0947694039920755 1.212126665074777 1.0494820783005108 0.1384716384079064 0.31158471314349423 0.02587123340633685 -0.594202275272148 -0.9923045443926245 0.2763963102983571 -0.7454938862820282 -0.4654490558337819 -0.5875426233601645 -0.3651653313705185 0.1893088633601498 -0.2687535926774423 -0.48197345177878065 -0.6324765069007974 0.6900749141691602 -0.4935649923403241 -0.7514779427293133 0.5226671844899053 -0.5478484441953777 -0.576171008111813 -0.22388733263982805 -0.5446997389053662 -0.26854103930029954 1.150605828098357 0.205106448317385 -0.20076839220323603 0.6229400690519329 0.1459456900047508 -1.020710849369756 0.001287220255664747 0.5254632988754786 0.1568937518581094 -0.4280685398391757 0.8258994378548751 0.3489272690180794 0.3769215931057892 0.17102665585800925 0.924357167159449 0.7137570242314143 -0.907932653590534 -0.07085597080722296 -0.02398214991352198 0.42632911086309144 0.6079537388950149 -0.02555624648245454 0.8463727987907509 -0.07270726604273804 0.32374323297721186 -0.40979881622403597 0.9752727715234919 -0.17871332668048445 -0.33681202089465023 0.24101843417765356 0.13556527919947672 -0.6133546577427403 -0.08989649454133701 0.1109910546269065 0.12105173511728598 0.664433410913014 -1.0032694752887825 -0.3536684761953131 0.5088971095618304 1.3988675739056518 0.7841473183310985 0.6997612619139335 -0.12889964669343082 0.06604122647985819 0.14229733186657068 -0.3770717998384941 0.36316205014990016 0.35950036092246335 0.49922773422013594 -0.548102494717152 -0.7344716325241067 0.07071867084445649 -0.4442897602593878 -0.5312800111204705 0.802565484630119 -0.1751902294839533 0.23028352063571064 0.9005443540859934 0.7408827738543015 -0.8790439860676607 -0.2354959785988973 -0.7307323732528381 -1.1049257491343598 -0.44757127770407856 0.08470841090009877 0.41222334865596344 1.0506686061555837 -0.40852791424097035 0.8219292294527687 0.08575342080689717 0.6613815651228329 0.2795092477604107 0.18155910799692265 -0.10786957866965327 -0.5181938822976724 0.5433756729636625 0.6304904508619508 -0.747952646012788 0.9638881771136297 -0.20176511555611562 0.8958585837984729 0.3407646968089867 0.5115974349018021 -0.4087647421537211 0.16837469656962498 -0.2743009334511131 -0.3064747900677888 -0.2498225449268898 -0.6891020943346533 -1.0580533111026906 -0.16687237201919705 -0.39003273281262074 -0.2247706706099447 0.16763843621099836 0.2956390939538374 0.48904539832898924 0.3466043428224786 -0.06044641678313731 0.25897524773903446 -0.5163148748470823 -0.25079430036924677 0.22892071066198325 0.7569934534726015 0.6393252725059873 -0.5461468248564015 -0.11514702290913584 0.6652770271154921 0.0823602627475657 -0.24253900918431515 -0.8998546491862707 0.25785280310923253 -0.1472583578513012 0.440406302593726 -0.5080449932898736 0.6744013130887916 -0.6609470776189995 -0.9908977060113769 0.17168532702933592 -0.22864527099638443 0.29749864071809456 -0.4369787525670774 1.010403968970798 -0.05472672504506783 -0.359047196587388 0.14639505933526561 -0.0727975511599955 -0.1162704859537423 -1.0719696407918649 -0.05754268654588431 -1.0138051987512506 0.5369474036109667 -0.8968109916521894 -0.1758957237351463 0.354416479666471 0.7910224302879696 0.7948215821082734 -0.43589707405824835 0.5295158731886201 -0.7503559158301463 -0.8572489744979042 0.019985386580736078 0.6482655146544978 0.5675422784049798 0.03266702438036207 -0.6291822736512808 0.11623798124825979 -0.2276732904604842 -0.07272380753044168 -0.4438794644195374 0.21911370212553724 -1.0465621561547103 -1.0097027546337165 -0.5021023058566049 -0.9152878528928606 -0.9412376960721974 -0.020761228231037026 -0.1437291616215942 0.1385870622406282 -0.35519402719550747 -0.334513173113595 -0.995096007447634 0.07923364953589813 0.7292810831085288 -0.9426107914721025 0.8514153800085629 0.21600249570872093 -1.025016330030265 -0.21077345390722377 0.4060242192546643 -0.33925509777502916 0.07441445883254132 -0.1033892222842017 0.4921621130074317 -0.7667906472729495 -0.12617759505291629 0.3287499232759863 -0.5554721215558772 -0.46256091556768103 -0.5623742846065455 0.8061923194975091 0.2146607048555754 -0.07248169938250794 0.4133555343400615 0.6302280639981988 -0.8720273949417661 0.7232959079405301 -0.7429151701627661 0.4217770822468195 0.17131526949065431 -0.07855961531639953 -0.33603338521214887 -0.47542374329227566 0.7856130657554945 0.7736847018685665 0.11967294833025019 -0.5827720672035502 0.7142759479295725 0.32972079753067346 -0.9087778719009832 0.3144284594740359 0.7472329862546878 -0.7888108587676624 -0.7123050737752491 -0.8365525618767966 0.173835383726856 -0.04216147334912576 0.231919718117777 -0.049625069106213525 -0.11690486394138536 -0.2820638279736213 -0.10680573553004181 -0.32510587966911575 0.14761036601717709 0.9977609338937399 0.4332121870821724 -0.5878452938546536 -0.910873116200257 -0.877117159749917 -0.7895356000693747 0.8752402360599998 -0.5931058864051098 -0.4449674479692655 0.15655026070231973 0.05961184953249117 0.8401202921306482 -0.45370537558239216 -0.7367323437843086 0.4955365457833088 -0.8545720835776697 0.2713333169021316 0.4378250975354171 -0.6993619049167277 0.16203986373822188 0.20068982013042438 -0.4488549580470526 -0.29208035992145653 0.052201670378580964 -0.4711067536732381 -0.10213153904301031 0.2578407367584972 -0.6725394518115771 -0.5643598842761092 0.15861156309913435 -0.2642128501701546 0.5185685684064951 0.043142960559669936 -0.01611582026254932 -0.6688587358713942 0.7120539825431025 0.945118945625797 0.6560231831211725 0.8092321396004061 0.41940719833025286 0.31379265711466026 -0.7762350937419711 0.3757604987599559 -0.428355482040793 0.1348051539144184 0.13897411291724512 0.40848341458525195 -0.3651514180326506 -0.9153940444994951 0.7302463189923757 -0.09067298251359901 -0.8827600588485162 0.289260272803392 0.723442681649522 -0.0790743125252658 -0.8950493261394133 -0.3462954581474725 -0.0021026934145777746 0.9316265404419589 0.437653455278181 0.11207439440960121 0.3144324360645254 0.24902679280801387 -0.3150913042541359 -0.3947147287697817 -0.010654891118758447 -0.5180388609954756 -0.5407902108155399 0.7316862650620525 0.5140657284646515 -0.20574548223732675 0.5480090339262563 -0.8475288273001992 0.15718967728492947 -0.7712102014408847 -0.9352736554131851 -1.0139148750618252 -0.4945570134170901 -0.08716216022778582 -0.6428871799716738 -0.40753469156592304 0.46434596989641447 0.551438611834507 -0.9246429175309334 -0.4614019644049232 -0.7014941538073992 0.3480874116417969 -0.8234516998969407 0.6040939966441747 -0.3996784529337687 0.748827759438071 0.564749599177871 0.9881199388025221 -0.5468604343601492 -0.905812174408457 -0.661061901721555 0.6035960882123208 -0.5161759953673919 -0.3703212442698151 0.23586404185053902 0.04853349903831396 -0.29056016840191023 0.48334105582824255 0.8428080225009968 0.3094469928604938 -0.828878371073437 -0.0957139901210878 -0.43010731200016644 -0.8332912671724814 0.01119146238926051 -0.009228119370473246 -0.9246588184564827 0.6931067625120307 -0.9529971682870066 0.8934499474578131 0.23690036966311745 0.8652927857532033 -0.7484757723713225 -0.05593184306457588 -0.9878075967607947 0.47047077656070013 -0.16177280127347804 -0.9584384722374913 -0.5566553337174504 0.9155788615829799 0.19847506522730232 0.6163444916847102 -0.26426972730027565 0.05421536495183973 0.3532316694720804 0.8116514547528308 -0.34363048188012446 -0.13928402205983167 -0.5029709773708158 -0.5151455150889693 0.5817512550658746 0.5272077054462889 -0.07088141584952028 0.22432865145667377 -0.36424710606848865 -0.9180882574147503 -0.9034831391116414 0.6381924677855977 -0.5898062357660474 0.23679749362371116 0.8280717255504622 
0.6316037902165752 -0.6115765989217199 -0.33575229336418766 0.18354782353080235 -0.03698045262917904 0.7854481628963985 0.8391253889891415 -0.4082992299687054 0.929992880019272 0.9817118661634621 -0.03717680582899918 0.8662839627569359 -0.873258634573262 0.08936849516515877 0.9584394417198019 0.22545257178989808 0.030155827756386477 -0.4591416688443173 -0.09754311791151982 -0.4097860512107545 -0.7539029911858912 -0.6553760401275728 -0.6180017119895707 -0.4539799899080721 -0.972874809310373 0.7094418287844102 0.2139998046156899 -0.18551482763131522 -0.723676695193253 0.10798791894950965 0.7224075995012926 -0.14239384673526212 -0.3321102483488163 -0.4681046605390298 0.34176420007721436 -0.6753665864322816 0.7429685502529179 -0.31557744578654023 0.7000629038864639 -0.5435282578702256 -0.09408486394033272 0.17680385450329536 -0.4609798540690919 0.2489917470042381 0.9219913349844102 -0.6815547322903046 0.7855042517959074 0.2711504328202201 -0.23305888579774509 0.33772286230727155 0.08752335079253344 0.2864854480197969 -0.958957285595881 -0.48854174628375757 0.4213226790950868 0.4973203327823035 -0.2075412678095392 0.9569046009295192 0.23927255796354885 0.27569895648943804 0.6691995300728338 0.1674279035050319 -0.43787507389397806 0.399910565267939 -0.2733581617326586 -0.207989965995628 0.6376585166327883 -0.5475911201955486 -0.2212657382140635 -0.3541072313630266 0.7220762818694257 0.16671399320795444 0.9411354504316491 0.6762179621146538 -0.946087263484558 0.9261053213559655 0.8579835872063228 -0.35800130492760307 0.4464294951766951 -0.788105085881808 -0.21977595916528667 0.055537981273172735 -0.3331696470999148 0.62569574551232 0.9766698450153819 0.3870315134489961 -0.13891578804389737 0.15236948889037372 -0.8644774500934282 -0.677886918294304 -0.19281563388201675 -0.8261165220146389 0.1826460663338075 0.9704141449408932 -0.029278072091015468 0.7506386249235043 -0.3063998824251439 -0.019855436176717815 0.12951032206188248 -0.8621388136622207 0.16173623920034963 -0.18680466900379478 0.3078343874195141 -0.12165954133432516 0.6652876912032738 -0.887966833179513 0.9380812174646573 0.9230960234853007 -0.645289657904671 0.4254581115849193 -0.2752391967306052 -0.06493370137624477 -0.5109191385329799 0.10424974763959649 0.92024935487721 -0.10847616166933234 -0.07920455427805273 -0.03234009408986645 0.7878056477658487 0.9298033270676433 -0.15883236231370754 -0.8631097204462882 -0.7662352783780644 -0.9681753331432006 0.13983957305347564 -0.43266782393415143 -0.1626976710244429 -0.5953505325306958 -0.7006080125511492 -0.23166444003855355 -0.6167928873252029 -0.4962470383103322 -0.1843267154160221 -0.8724954296455165 0.24254304004135394 0.6748346047985783 0.6682627946966859 -0.603715090996654 0.5892021124458359 0.20239326939989605 0.0069649358132783945 0.7621710737492682 -0.7089409676496393 0.6098609377197391 0.8467910695058463 -0.4833108804355954 -0.5878261007325931 -0.5082651450870567 -0.39750113890742955 -1.0943120345446102 -0.5113494144290325 -1.1789629948967753 0.24073416010344917 -0.0703479602242505 -0.4240726249902585 0.381628551204098 -0.5827377366106602 0.44501655715001504 0.6478406077532102 -0.17074029762924628 0.4298184475597122 -0.5138938832206965 -0.6934757415631054 -1.1471444798841428 -0.0917028695132613 -0.346165597952577 -0.3970557357990966 0.276255990196337 -0.4082138537364517 0.2547167717255439 0.2428489979763234 -0.5886933188552795 -0.32018382125951284 0.18060596349408448 -0.9653132070061977 0.19429143634046409 -0.6168279027845346 -0.5639105843072727 -1.3245411623619268 -0.4916753240403243 -0.20323039230096385 0.002896618103262474 0.29441785648451047 0.06210269197378707 0.5366403971170911 0.05631979405112588 -0.4847235694122071 -0.5027932948776922 -0.15634480586764563 0.2308207233446817 -0.6126552754490178 -0.9246158708962428 0.5623945564524503 -0.116704755967227 -0.44167453646757815 -0.5151648434835238 0.4138264950139015 0.9700824018756606 -0.7081750078868613 0.7301390427638728 -0.8298150840607732 0.5070838585279605 -0.3068974421427599 -1.0237782393837942 0.5922213880017837 0.3051257715100748 -0.6093514108409059 0.9383795248772835 -0.379604679456566 0.14400562635559716 0.5860765789309594 -0.47257192142655874 0.10995506350942992 0.9391560813387425 -0.5688612878906774 -0.8264975236269883 -0.10956635173364646 -0.27223010133106285 0.26878208876294046 0.3216836341141372 -0.31131542916082544 -1.182068051669894 -0.2923654540755716 -0.9992577099539508 -0.23036294471217103 0.425389051031759 0.1067936445395628 0.09518910008973629 0.9526291517448735 -0.42564800570380046 0.991776653986024 0.32883131588736364 0.3023819800025357 -0.5885181990109833 -0.5175598441704374 -0.8516950678166973 -0.8799041415581954 -0.948994603253038 -0.026231956019809544 0.11360648967518507 0.3945663284188437 -0.7535526845704726 1.019968111618672 0.12364629415783777 -0.684155574639383 -5.8489924978363E-4 -0.08713928054249043 -0.004429394512060465 -1.176929897513516 -0.33817193056660244 -0.40764749969992237 -1.0012620183802903 0.8062254302157282 0.9448520607431999 -0.07169617601340211 -0.7229488314800911 0.7442977698751544 -0.6589057268906219 -0.810680770500928 -0.09894211032629259 0.3131103174783453 0.14782071874675154 0.5052801409153189 -0.8660641949537018 0.49513479142532496 -0.649820749872755 0.577741632317534 0.14675349843802638 0.28709231344604674 0.8723708733868234 -0.4835394739166782 0.3745317479826946 0.5085321195035207 0.8728304557277599 -0.5749482286720455 -0.9071824328382725 -0.3747350841203021 -1.2363570107368167 -0.3750392558072754 0.11121930888349604 -0.46894778987073726 0.4782876255762535 -0.3775143488056874 0.7336703792140064 -0.16554669510562334 0.39533072236482375 0.7636289850313185 -0.9333287144029587 0.8547384202074536 -0.7216800823136538 0.6947298558553152 0.0909982580749754 -0.641921127807949 -0.3327808586121689 0.5254326437310859 0.5232144872822911 -0.2670629206641386 0.7040095357811815 1.0287118558787625 -0.29367649735976287 1.0114665079955367 0.33264664904535585 0.8163637289929073 0.8819706148297571 0.17317819236408044 0.22281695269080382 -0.37742845338718695 0.23824774211019092 -0.45814829930042816 0.25778703855427026 0.2564488163312948 0.09747432068403535 -0.8771726458168505 -0.10840604039218267 -0.7662966659306183 -0.2656546178914296 0.3606640668558141 -0.5373863304698654 1.0620538238900397 -0.2580073362593865 0.6540532883668146 -0.46467698418282766 0.16003835213209638 -1.0341772724987695 -1.0988823963496264 -0.7285332361017495 -0.28446670789001915 1.0288680185420067 0.39403636696880895 0.5161712000299652 1.0149896973431831 0.044217169449186834 -0.5856802532239606 -0.7058741699549812 0.4234538576277758 0.7989233226695637 -0.5477445476788463 -0.1360975595248536 -0.3469677484028721 0.6955852442068082 -0.4382279074922388 0.8007612934940207 -0.45430317546518717 0.7119353093212942 -0.14771483655735965 -0.5227637800742843 0.16431142752019748 -0.49489887905347596 -0.8023342153249008 -0.5582561112651662 -0.8038010263075978 -0.9676617648313255 -0.03418897579687964 -0.27901441272214417 -0.5038100686464881 0.9248814842937378 0.6972994155681932 -0.22033885766609096 0.908285179610215 1.1597301195865348 -0.16933442766389475 0.48978705807935147 0.444629807064275 -0.49444712704401184 -0.789315787635503 0.1431652389911197 -0.760595282000267 -0.3276991320343383 0.8633742677321389 -0.7522003536743513 0.07443491562489964 1.0207642145841094 -0.150754869981656 -0.2290454294629995 0.09230739529924424 -0.21276595419769798 -0.7680868233758915 -0.6922615638878135 -0.10280932321672491 -0.7772548591000503 -0.7558049806978238 -0.12149650882663626 -0.5144339391874152 0.6398386657807513 -0.3900198282791555 0.8594209890197145 0.6275204768294858 0.6496327834075403 0.2414349297902441 0.356449585471271 -0.052010125997031906 0.08424176150548436 0.43731512123855243 -0.27533821941452896 0.09386657526808061 0.7763515113259597 -0.15037696364278125 0.5753185658492421 1.3122319359658148 -0.28095591158114785 0.34788638976425074 1.027123589235094 1.1334861341330784 0.7276598753484382 -0.8130532673779411 -0.5529100405764076 -0.4369929778854356 -1.7670883451353347 0.11158703202259353 -1.27060644592926 0.21001888457063717 -0.0824938884263382 0.17785557025359303 -0.3197472107913187 -0.33120847726609437 0.8047424586112613 0.6751304638447272 -0.9312358956686826 -0.07920035361704109 0.7923545054197314 0.49857285920936145 -0.8158580302392351 -0.9059030040572494 0.5032240045009375 0.48725935644628654 -0.04361020954308965 0.9404427124141581 0.06099001074329839 0.030374248445266174 1.3921844329641393 0.81516071714566 -1.0559169729222773 0.3439842519376816 -1.8137430960800567 -0.7350053289938714 -1.1290817126640358 -0.29825870723946024 -0.40143718475042345 0.8598805144605749 0.026625544508107005 -0.2911997581226034 0.6542846673628102 1.0058690959171463 0.46871836088077395 0.14569771289569264 0.8091314394163273 -0.0495487222802977 -0.7604115854601975 0.3326529962239508 0.48712478595212727 0.5304753182276272 0.5612644672402288 0.6242496875670593 1.0321577592025541 -0.2962585825213456 0.5215524812563713 1.1274672104553944 0.9385076199124301 -0.2961242483567296 -0.6412842916320011 -1.460325692668318 -1.6585092888307442 -1.5932007964616428 -1.8443744449725348 0.3267472067761811 -0.6842981698106512 -0.43405470095348786 -0.4396556065111019 -0.5043999412058673 0.967554731700727 -0.0648124172268931 -0.03219869064366423 -0.35434846063411735 0.6718972119670994 0.04037753839709863 0.8666694076410626 0.01835123189656329 0.06562627093357515 -0.43957214705553316 -0.6263382976296771 -0.7170654598191081 0.761060948690146 1.3127865119522797 0.15663271763789982 0.9566136595050792 1.4101229393179904 -0.24090151553409275 -1.3811976346551547 -1.0101312689450503 -1.8507348236379968 -0.03698666560451985 -0.40420804142694244 -1.0752455729390789 -0.6140708329769199 0.16227750927294426 -0.541449876080935 0.3995145317955572 -0.7296679847953574 -0.695671468519452 -0.19826477508044116 0.8894389903432272 -0.6808956852082036 -0.2057119290904227 0.4528152909187998 -0.25487610315583925 -0.16730315839744891 -0.23785222071289094 0.04740517274211484 -1.0200002224192315 0.7237588688495308 0.5127075609294415 1.016316078773102 -0.3110520645076939 1.1812182622074212 0.7822055316411989 0.596199180578269 -1.6244838115721376 -1.2627861408205614 -1.0355763537751486 0.3682235662900495 -0.6428918458676329 0.6272899405494092 0.3002088564628209 0.12508347481785578 0.17956126997996266 0.8983614540656073 0.41748105558871357 0.666263357634636 0.279920530420368 0.6744006876819609 0.6030668013410977 0.2175566991561241 -0.8049743443036865 -0.448597312631448 -0.41600447219469733 0.5603450004276062 0.22586654862239747 -0.8600780614349991 -0.35980603793340155 -0.6430416211944137 -0.6032143963426326 1.289391851472772 0.2739244279236191 0.8087061149268923 0.21384615007184254 -0.7758486550294528 -0.8558051987099232 -0.9771752777451423 0.39651295557738137 0.2553198766355065 0.46271459876629245 0.42507695578631954 -0.14062368130070654 0.13544179661952674 0.8747562401755359 0.21166661242033757 -0.1638082739888967 0.03662224272722584 0.43803825911860755 0.5805092553413811 -0.6088901851112245 0.28171229587929486 -0.32357151986511534 0.5777704179263345 -0.21195330851150326 0.216132273875838 -0.08639260423061405 -0.09249609266946433 0.16021480810163782 0.24883490191937757 0.9865719752428874 0.9332107458353338 -0.4647124600896839 -0.051214367953771676 -0.22363492644436314 0.0100364358370633 0.37143328357702304 -0.21279822664589193 0.5074348440258891 0.12161109864305338 0.01601694843130116 0.41837426661278215 0.3309269179330225 0.6539209700625633 -0.879820324926455 0.4519078469738444 0.40141122684656344 0.01416309153151732 -0.21027145498157718 0.1238228714577158 0.9583559129831427 0.5513013821731548 -0.4723027122537092 -0.7487002249706238 -0.6544645469332192 -0.01704286434554739 0.540009521471036 0.23196962497056245 -0.0890468724455223 0.7443928809873502 0.13404128838367854 -0.6952310298024248 -0.1631979421481972 -0.0512655904308925 -1.0238798265423972 0.035109826552819724 -0.9541219258798876 -1.1514673539268865 -1.1872191130877052 -0.21962145986296558 -0.5254665563112958 -0.9421994218039685 -0.11693478415179545 0.0643766553505916 -0.6487538657666888 -0.5149025320082596 -0.18283338363116242 0.15605603996087564 -0.24692376345999037 -0.6602044718560216 -0.7102348300433424 0.2634399013811265 0.8462214759351938 0.3860142411695605 -0.8848169348791645 0.33233078113575504 0.6861458699326858 0.9077602299806401 0.13503845649702403 -0.6452611123840125 -0.9029805692152048 -0.4056513494674909 0.10724152863246322 0.4929910607529598 -1.0427495855704367 -0.3385011894215539 -0.0312800361316551 0.029430486917203222 -0.855533869682255 0.41049868232498943 -0.5809583816039516 0.8194976794522595 0.08274235137447748 -0.2929000834677022 0.14900909327776568 0.3378921195914528 -0.16478549697839143 0.17062143119148224 0.16550852066548605 -0.818948269332581 -0.5332139713428434 -0.28860956792748643 0.9556225113628729 0.851976176151983 -0.06780606688839073 -0.3772897077973948 -0.2195672919097011 -0.2580663958701318 0.5654949027055803 -0.17075927227519994 0.7811343551931885 -0.5679833682348886 -0.5341695379281486 -0.982814146395542 -0.10520604988730473 -1.0945279854078978 -0.3907746145686452 0.47957790878003254 0.02263345584026351 -0.9698473483326203 0.7907135330603123 0.6983953009491535 0.8244253712253142 0.20259166913753823 0.9036082383999025 0.37793938162979923 0.8549857889287839 -0.6036097206117828 0.5068444240598815 -0.6887480651183224 -0.5973941717801738 0.5174772623857636 0.8980185686391391 0.8024212758343131 0.35157766227387816 -0.47346396322574147 -0.5714104038220901 -0.5599179041582647 -0.368596570567963 0.6877832952330353 0.4939999016624069 -1.042399764699413 -0.5821671553838271 0.425457959487228 -0.14658807829994783 0.4797239991226656 -0.9702609667364156 -0.9892071108131364 0.4009866692002264 0.4408033838055079 0.765278822866241 -0.5913914282805142 -0.2385501612562151 -0.475236970606516 -0.002488688271318479 -0.7589880694862982 0.08326084811603515 -0.45834924406495414 0.723331358333393 -0.6182127007915059 0.8595961744458007 -0.6032659660485153 -0.9761285118124763 -0.8699673971615614 0.08845546570817783 0.05986716087566338 -0.4094807242330002 -1.052961253696441 -0.9957380756028688 0.8821434184534532 0.41761854940432386 0.12805295453641022 0.7559544834375539 -0.9086218831264578 -0.4752100969069207 -0.6894740303771412 -0.20792142088102117 0.9666187462813649 0.43608423120550244 0.6516119254508332 -0.10792093924743007 0.8999937511522682 0.446492877560761 -0.5751993721323042 -0.8891647439370278 0.6998981329199436 0.2163075435544836 0.907650337743565 0.7616883661787456 -0.5878974300959162 -0.5464595533774287 0.9741751253319766 -0.694506877819611 -0.38560112689715037 0.7607172804051868 0.9000349534935125 -0.3414129815179472 0.6133536433990578 0.01695605325845586 0.14921676743991555 0.2517977148921531 -0.8238556151902695 0.16296247979425038 0.31006598667773466 -0.8269726835757587 -0.087443596390127 0.23435209511085198 0.0571069080887836 0.862538926130805 0.8117446069236525 0.7294590168845976 -0.9475927234663226 -0.512744640899488 0.835734503125157 -0.7195010388449604 -0.4070750008118348 -0.4683036702984645 -0.22032412544883798 0.5540334943117237 0.8437290902301039 0.6358363083599832 -0.8200429456625837 -0.8552042217248201 0.19047507063786523 -0.8322256140522816 -0.5961461103484751 -0.6799688136828923 0.6656318567046348 -0.797570297225463 0.3934814304193537 0.8490860373405502 0.40399955486135 0.7437781435561235 -0.519600277883771 
-0.25812595991743503 -0.01936097161277983 0.017395486964939755 0.9742362105199105 0.33094476352372215 0.0332191920831586 0.8702481402309696 -0.41096483186225985 0.8175296194416013 0.22932253740944875 0.08704564331511566 0.4123042427174157 0.46003886073863637 0.6914001632425913 0.8843388876167644 0.9475887663642335 0.9102257326888015 -0.5130332721650996 -0.8043695354803633 -0.19159263884459676 -0.5748930375291417 -0.20280240537721883 -0.22413889484464167 0.04920584634295988 -0.26420474659175097 -0.29500645229785394 -0.6493254738381944 0.8318769238305082 -0.8039813158069966 0.13666743868897502 0.045630142092154324 -0.8482172731332844 0.5086344519414254 0.44379048484047506 0.14058646266430985 -0.3479702437075398 0.7728226265089162 0.32787743761830174 0.879251572923142 -0.5597342311421356 0.10389288709800641 -0.507900632426563 -0.4689114770689189 -0.9371564417129935 -0.5082216523967601 -0.07758148999105667 -0.38875889643308786 -0.6714925108147703 -0.28824276836625484 -0.5594555694005872 -0.05589857577523523 -0.14893945177240062 -0.5402702639187462 -0.9293796026015608 0.10297114132173046 0.2206842074948081 0.4561238854838532 -0.8411713059131904 0.20869984829683563 0.06482346569045982 -0.005247676228380309 -0.3676554534008724 0.23244227674030507 -0.4182940467563283 -0.07508035174315755 0.8183029398460417 0.23265843853496232 0.19106165088133828 -0.009423627454907558 0.8783360772489919 -0.9770441601359823 0.8429941853186366 -1.1433206959221018 0.21210813431806652 0.28683276023179244 -0.07057377272416102 -0.1217672958618029 -0.38516188913976723 -0.6739827976445777 0.7207993896641065 -0.48460702194124944 0.308659752350674 0.8653329409712482 -0.3725366133929382 0.3435863228318887 0.06345389587612638 -0.26067749589452016 -0.7222713328919981 -0.8705651964762902 0.2636801426782599 0.6622296336272676 0.7508998246938922 -0.9074333203019713 -0.9801176626606484 -0.7147950408273416 0.7380451691334482 -0.08920375111517108 -0.0870326546784779 0.9519451863468735 -0.7480034232359769 -0.5509582527735414 -0.012236571913422018 0.09385970350016758 -1.1144064014317294 -0.19000118760134008 -0.10520865691074356 -0.9139458049905312 -0.25566968986655636 0.129423427158371 0.6652457077949789 -0.8244142810323549 -0.6860677592823774 0.5252648639229835 -0.35515668639610887 -0.6273879200543998 -0.2439922111551654 0.08556205901146904 0.5123912228939193 0.30927335314575477 0.667780802340793 0.7508120229773403 0.8792795744509813 -0.16755703880319758 0.3304656056688305 -1.0042098346843749 -0.9405949367040509 -0.591864455333549 0.652961759026995 0.09737315808008172 0.3008754712155347 0.07184849058054697 -1.0330616485782924 0.16273482980000056 -1.0502265678294782 -0.7427956998099863 0.499979681431933 -0.8311711567410998 -0.8732622975754034 -0.5390175019236579 0.5501682960643448 -0.9116695802703139 -0.42505835794476043 -0.8954532785287255 -0.06854516549526518 0.6793619381477889 0.4766740187970525 0.029116580780493836 0.5287272818529529 -1.0216798051933653 -0.9336806294759604 -0.8000960784013625 0.12825501961807217 0.8232840603924783 -0.9624455702401044 -0.14595014819904584 0.01571609770345913 0.59432644510302 -0.3443206788275985 -0.8052043449608447 0.45036751937205416 0.664352510267064 0.03864409758627596 -0.011087891493189204 -0.24184919154768428 -0.6495226480656607 -0.3068572819512927 -0.5715079415275114 -0.2049695661475622 -0.3792899623809376 -0.08830097619807442 -0.8943044201641386 -0.5639590518484651 0.7305899570956975 -0.5772044797691407 -0.1396214748628176 -0.7809231663978333 0.5060128739795249 -0.5843448169760347 0.2982116408052033 -0.6563635395980386 -0.3247628373204603 -0.7936948224363899 -0.44229488054126653 -0.8737683859264334 -0.3700184492799796 -0.03179673166356532 -0.16816012793085675 0.22964983404198924 0.25570436046212086 -0.3123826141848239 0.6284445101737826 -0.5075748966696082 0.7180155015691195 -0.45241059809669926 0.22915703990710337 0.8168711119414777 -0.03521142654063336 -0.16045700331340607 0.19058408008457597 0.281246446346617 0.9357414507391618 -0.3406884081352944 -0.7352884423509101 0.6819265217191196 -0.5595340913102272 0.13362901904068164 0.6889130642198618 0.1454456474537602 -1.0001205035512897 -0.0924291240610762 -1.725839034220502 -2.0612662697353206 -1.0800105832937223 -0.42462160009941124 -0.7186516206938393 -1.0296622867878578 -0.25069360624669984 0.7434690016819698 1.2148022575145345 -0.2299463948728677 0.4715192209951754 0.03877580271003046 -0.6967752738926746 0.6734328246000474 0.853115791796571 -0.2272181031298955 0.513114915936652 0.701800344089485 -0.5407859982040346 -0.4471048735543679 -0.28581795699483137 -0.17111641506997294 -0.36448023006972274 -0.5628073042848248 0.6274315796053875 -0.559765704689758 -0.7112741347103326 -0.8954339100982239 -0.38278077002923244 -1.4985693264889521 0.08521762265935527 -0.7720966092959464 0.43411107056580767 0.8042285721850363 -0.3668606469122977 -0.16225490606035647 0.8135448059002449 -0.5019629223870193 0.08849379269897771 -0.17058477934437238 0.03207216282431643 0.9711700406914885 0.3628368890777416 -0.5590651146103917 -0.041317833038015214 -0.6364297658228999 -0.27689577204875454 -0.13571988547426184 -0.38823778286464294 -0.11308746689499767 -0.40056326062574504 0.060439777146340794 0.13147944041748405 0.48929844210638845 0.003974316440405762 -1.3014408484302165 -1.1948270366495242 0.06925790491949722 -0.2716551360092249 0.008714037240028536 0.15907026049851183 -0.3527162523470436 0.9006319731848741 0.420629393540239 0.14882175445180112 0.46336099915670476 -0.762734368890572 -0.329883936616001 -0.02129213601280128 -0.26750846450704735 -0.45651411194479397 0.2771785323037807 -0.6303462768272259 0.7333246821270433 0.5818193994397369 0.8330732108644237 -1.058785834007096 -0.10481497777993373 -0.0024080106957317816 -0.9211798617890413 -0.9582637182635623 -0.2053777150633445 -0.09276554205300805 -0.09255978071499672 -0.7983941834622442 0.7102357077137417 0.7750729332464471 0.6850864562346134 0.6830564659282583 0.04651980570819667 -0.4062218994928064 0.22304323773571333 -0.08473847861739035 -0.5593918981371625 0.6601877297802891 1.0438996951010415 -0.3443815096838386 -0.9756254143112408 -0.3275132496753237 -0.7389109605118586 -0.240847635988925 -0.057659062109820185 -0.3958025461164455 -0.345898723208382 0.6078593196218127 -0.8904719765972794 -0.6845121779207942 0.1723525779024942 -0.5626365122328608 -0.04417340292910914 -0.5313449954981605 -1.226528617826773 -1.16382571826393 0.3985052129148404 -0.5266616271173558 -0.4943510814438345 0.4429856407933764 0.029070334221340952 -0.16973304898368638 0.48975278666701816 -0.7635389040837552 -0.30951867156293733 -0.9340975842548362 0.2943093292903039 -0.011181376380531542 -0.16801772698557016 0.38848484811678596 -0.5363131724281689 0.2548814079865711 0.8557172186098142 -0.5006117512113971 0.6838293360215894 0.23387529211051764 -0.5889661573810737 0.1414879975806889 0.7308691625290432 -0.9066523765073199 0.22792050053661575 -0.057085249423993116 -0.5163496494682694 -0.26829128840952643 -0.09859009328990577 0.33131907973532315 -0.5758440783074459 -0.663335081261383 -0.5087363804963398 -0.6220840814321569 0.13073221640117696 -0.3915886074816275 0.6826912098234622 -0.5803063283165674 -0.16453049988131893 0.5190591753888906 -0.3293533056484851 0.42733811491793805 -0.22043046144467104 -0.004560015522106379 0.2784160031562364 -0.6705800542513547 -1.1295314431500099 -0.3173487051679746 -0.39523441126338643 -0.6627223676277147 -0.5878755215278699 1.0548502389469203 0.9670049321297164 0.6554971792565903 -0.09106355521436385 -0.8877837191815688 -0.43651547796922097 -0.6575895774860964 0.5043767034804664 -0.3953089195137632 0.6042458167364565 -1.1224249231234782 -0.09949593552803272 -0.7001888254809713 -0.35412679305154926 -0.2776919327958997 0.9454758212528576 -0.6677413120461847 -0.5838283638762563 0.853516080928302 0.7202789912273261 0.987333536817024 -0.07172297862770402 -0.7816905988516569 -0.9592743540680573 0.8129562667879231 0.38366038472154923 -0.033690618609042856 1.043675542843806 1.0005848645955706 0.8006550591716797 0.359756457684391 0.4057721883869109 -0.08394790234878544 0.44472618456182444 0.29207648216291443 0.7166663327196329 0.49146537449337174 -0.4999977637305582 0.5940646852518665 -0.5121166121690925 0.24954440276860929 -0.8286356402941119 0.5791415217273846 0.27704520630764473 0.35384181546651644 0.0678338669789529 0.532628060310413 0.832094104552475 0.5957191577121861 0.8683277807872781 0.9845264349312195 0.8421063986209819 -0.2728697618401983 0.8723910143109556 0.7582731328037435 0.4605275147730465 0.09350953488783592 0.7264594343080513 0.17833782632116757 -0.3181275306584985 1.2592948869244063 0.18361890604632675 0.6964316710277736 -0.8686746663503354 0.106705186540495 -0.35369027556982824 -0.10794588664598963 -0.7315653511208621 0.8769415203869313 -0.23285064053537902 -0.3453105831482906 -0.25604590724486426 -0.09480919263268507 -0.381639422828191 -0.8681154999033096 -0.9507037241902955 0.9545040678138663 0.1573115846076414 -0.2774976229543123 0.5902587147383241 0.878034627489562 0.7665005972765404 1.0382473865910833 1.136732120614043 -0.7591920892182275 -0.41014265262443167 0.9292924052676421 -0.05153544141998168 0.6503143456326417 0.2525918003455964 0.7765655112097251 1.1994030622055722 0.18844190773847577 0.40343716099045374 0.3478042104986696 -0.46739586140956274 0.1907017037942259 0.29270066062704825 -0.26321623081401874 -0.09474238013941584 -0.8126384914795288 0.4609121613411989 0.16381116895980408 0.31757954398318344 0.44038918236420616 1.0095997114860777 0.10530292707868963 0.40623789297756296 0.6358770833236194 0.21019062214753845 -0.16182511707923472 0.14686954288316062 -0.5885558471473539 0.017707138058869306 0.20576967077282532 -0.4383414539075031 1.1257173389227642 1.0275341230626087 1.1744285745137104 -0.37053586019754337 1.011969964632981 -0.39563865925899083 0.5891610841357255 -0.7756889163496649 -0.38853815656218565 -0.8938800074585527 0.7664148734088562 0.8631978303647881 -0.42718701864128156 0.04568206346074531 -0.4960511758088933 0.9955315906777552 -0.29091063687154356 -0.6366858859792638 0.1476390382813525 -0.6307757157758036 0.9740762821853193 0.6838990908174601 1.209679314829136 -0.42941183132736194 -0.43183290005707065 -0.8284327485325267 -0.19561965963597283 -0.1628420939628141 1.2207903023527684 0.14863531026545854 1.2213988743340956 -0.5558737103834165 -0.4991437983436973 -0.26165009391150057 -1.0451762413631793 0.36108586386518027 0.7792021236462647 0.8133217857671191 -0.7533183556574099 0.9528824780938788 -0.8477210920253695 0.1693840886728518 -0.5783901617901742 0.912287886640406 0.5836501710204326 -0.39965848807102095 0.3473197082158032 1.0424289679749272 0.7405005388040192 0.633786190438064 -0.6594941871259148 -0.30453419851377145 -0.0929904688352752 -0.27948047445178936 -0.2942749588565264 0.8034293628468184 -0.3046344813173498 0.15957823885707093 -0.34414506300071906 -1.0793111227887766 0.07369059950453229 -0.129603745034301 -0.22229054739978946 -1.0796702276151857 -0.1381895145803 -0.2913783402896442 -0.6415375979893415 -0.7391499158749971 0.12670428577727635 0.34652593965719897 0.4368975672118409 0.51615699102916 0.19516572036835741 -0.159381934895417 0.9516753755805556 0.8497749144184868 -0.8598688073866111 -0.8535226575460859 0.49787403522916945 -0.1301332485411825 -0.2785637733383814 -0.06858822337492751 -0.4596041777475964 -0.3845275606327262 -0.5877771865717817 -0.6612580653928074 -0.49935639557005496 0.5218157818510849 -0.5780398517606906 -1.2301030809154418 0.1861860719692337 0.17211795855627635 -0.2526909552388805 0.40726652310512274 0.48932028986752 0.45123590549310005 0.8017091412299823 0.2684016638913638 -0.6705281255832805 0.29307742088208877 0.14938761424433264 -0.6418201638228702 0.08040100428437581 -0.019677558324811856 -0.3411082925428942 0.19957933543958353 -0.19722987547859908 -0.4785348669981678 -0.8295699252413717 -0.14206580388410053 -0.83347808105063 -0.390055007497138 -0.9229291431501401 -1.1190398090532359 -0.042011788557200495 -0.07088663978863412 0.5776973934154517 0.15398887901783093 0.08173063789319368 -0.03956126970319478 -0.4382372993745796 -0.07437636799320776 0.16260475718656944 -0.013110287290289582 -0.40190294284948297 0.7457190208807973 -0.7516419669305645 -0.4347349452499931 0.4280172190709356 -0.030049032244003633 0.4642786478260085 0.7914156408800729 -0.3764831472146613 -0.05741822360773303 0.12832869042024767 -0.8081861705205913 0.3697996864853895 -0.8291134150550259 0.1265812035412222 -0.45285226504406556 0.021794740624201 0.5993226674951203 -1.0392733271928867 -0.8780620428997418 0.48790260761491794 -0.789994357541296 0.706608105257527 0.6760870660950302 0.6868627320408395 0.662753578625681 -0.6698744999285117 0.2807066680915604 -0.27537003379649194 0.37712355853499546 -0.7406273338948008 0.9002492968818416 0.20330104201992283 -0.03756123638073689 -0.2711537206731245 -1.0172912090691255 -0.18614360068718086 -0.8454690971344081 -0.9551431711632827 -1.205489352574496 -0.4451059587474196 -0.725858483176874 -0.2372403031859539 -0.12502306882582095 0.583195064498231 -0.9600820528814813 -0.03992237820180506 0.8873539590933642 -0.8984801993120061 -0.8033084973036683 -0.7304829708834978 0.5200443732666916 0.5429246835925745 -0.5838257749161236 -0.5377384178260911 -0.7352630299965167 -0.6329043591819487 -0.19785642176669493 -0.30912373028123197 0.6659531732063941 0.5202273519607752 -0.2267529154533655 0.9402348801082321 0.10840379728616542 -0.31554151313971096 0.28572734722600635 0.4498886041438846 -0.743807640072102 0.12554195511333244 0.08862500390709015 0.09578819796827959 0.25596876031547156 0.015173527690748399 0.26141468648315835 -0.6672150975328742 -0.23727143837256554 0.6729335803427422 0.546779200001436 -0.11365993919298374 -0.5704468671904556 -0.5411436886000843 0.01187757914650843 0.7389636334120621 0.8012837655524239 -0.009078306768248608 -0.08374575891659064 0.3718995916053518 -0.23727486337771864 0.08958184188564941 -0.06384456893044817 0.25154478553005244 0.2849507599410578 0.35540307248095027 -0.7216019988584438 0.3791353961559834 -0.2941608495591847 -0.25475409111300373 0.11528868301492771 -0.3964221975675571 -0.43840014544723677 0.45526024550836525 -0.19450039823997406 -0.18950352842436236 0.18236242007755984 -0.7824767141945326 0.2877829868261541 0.11564298959282929 -0.6460679577560223 -0.23277777220527834 0.38973711499755453 -0.011066713699172202 -0.14220502463075707 0.3187392131489326 -0.7897173135350712 -0.7278953044803282 -0.7557433099891435 0.27305624228623104 0.21120938115459117 0.43746913363442214 -0.13258311148958382 0.09629072230022823 0.9071575003570123 0.8670477458089689 -3.364450728171106E-4 -0.09692165717752049 -0.3255138506223558 0.6798921297427367 -0.6486022008389115 0.45157343189925436 0.14909253089549862 0.6473167396503013 -0.15837666268703152 0.3926815839833118 -0.7580482213947829 0.32309168724676646 0.09689389879936071 0.503875548730804 0.40046957417135026 0.4820869204489902 -0.1642484388109393 0.7485498273433084 0.3593500285842641 -0.8434436927653473 -0.5913520820412641 -0.12625456806952728 -0.8789646798188666 -0.046245218999022786 -0.6121810903606025 -0.8496278291562561 -0.48622546960296975 -0.6120831647220264 -0.37240858720171743 0.9749498099342466 -0.32961680934178006 -0.4046087562377785 -0.8408282897076185 0.6875229844021209 -0.07705152908967242 -0.782579158101991 -0.8264017229841639 0.17345278933139982 0.17485140753300274 -0.4702933740607983 -0.2905457672074503 -0.2501913050362129 0.3736405303138044 0.6476838332331711 -0.5490812862029593 -0.6295497265471082 -0.6630768905570454 
