0.7408867839129489 0.45326420320683725 0.6024983508661359 -0.6636701723295166 -0.2544217520085772 0.6895997307898858 0.7167809019246683 -0.4483612846389111 0.15733511034029268 0.55799760526359 0.47279571783826 0.2943325806410735 -0.29536543435209134 -0.014896711010892004 -0.3513574668192272 -0.6065286829833869 0.8094422806742034 -0.6626794009429329 -0.8671516302373405 -0.3182485727752189 0.6440452208665459 0.716629669830146 -0.9291333706769551 -0.7097171225590171 -0.4139567215991793 0.42639578644331255 -0.7958943942190102 -0.9650414167710661 0.7681441528826602 -0.9690762469883958 0.4154639370982518 -0.856743068578987 -0.11778357576864007 -0.9641474654120232 -0.13550962953294765 0.3317992420612969 -0.7942587146478931 0.6629399883500549 0.7776184380427297 0.8131957592613828 0.6437038874640855 -0.820552642228249 -0.05027063968296654 -0.8306520871128239 0.8863680159627974 0.12537146205693367 -0.6782666893146212 -0.6241733575839564 -0.28102721457302265 -0.03679608254723056 0.6407293032692484 -0.06879207859518566 0.6940744763172095 -0.5914442106109687 0.0665605871395647 -0.7005294831963051 0.10720613318232419 -0.4442574579341123 0.9472515190555866 -0.8218501834367913 -0.4685605650412987 0.9806514107479267 -0.5661813094207748 0.674110216509821 0.05429678249324272 -0.08421409693626136 -0.41823632776527875 -0.027368628456809704 -0.22244185649967657 0.5367398033211286 -0.44849317961914453 0.03075894704270129 0.7816615431424526 -0.054603273096598286 -0.45294215053125614 0.28766639009034245 -0.04423737990762769 -0.5276786901441308 0.5043771103375709 -0.8808412658726513 -0.9243346053928018 0.7924562572408341 -0.7126770143882601 -0.773087276804475 0.9254368975116525 -0.6800203415708146 -0.11323891418287357 0.6125072715576821 -0.8797085927579551 -0.8834820103597854 0.037726868168860214 0.07982450417491987 0.1319995096764377 0.8982006981975789 -0.5124116267052138 -0.3274926754107893 -0.14207651907817975 -0.795108045170904 0.9538884901437692 -0.9223441622154662 -0.5562821555879162 -0.14535962353575443 0.8561526787482012 -0.31194164570421207 0.2628608622727793 0.10116676743548564 0.0584224304544233 0.9758716906364294 0.10319608254159458 -0.7798733991781405 -0.8241812086606787 0.4553267723520922 0.19757585711988557 -0.32696802018575744 -0.5587061357117324 -0.0029729258682223386 -0.17127933283130653 0.6278977506603494 -0.5079378481838531 0.7464386464726295 -0.5095526472201438 -0.20377342047555197 -1.169978753207442 -0.6378751482791838 -0.5864686178223343 -0.2778181022084616 0.04128949482733773 -0.8188903320353601 0.7498377631305682 -0.050777286169552675 -0.20090198289814787 -0.19945969288681342 0.5219935058943697 -0.3471067561925455 -0.06970851469236093 0.5711896736904167 0.7480815697326337 -0.242914000884784 0.13854259312824765 -0.2164510966491911 0.1989970419181608 -0.31670844954981003 -0.6887246106382301 0.019511514949925476 0.1718880304184278 0.1099756467457508 0.6813522890139763 0.5849805452466434 0.22564093493459564 -0.42611895876814243 0.4989237699350264 -0.6133090106195699 -0.9145075978492445 -1.088113432433398 -1.0549577554605656 -0.10421270162706141 0.25953492151215596 -0.7381513564349726 -0.1516717934765643 -0.8795543521713114 0.8243843163825785 0.22484993060653868 -0.5077067051921205 -0.05380984218338576 -0.12397762010161839 0.6841287098838571 -0.6383389847907178 -0.4458886253306379 -0.6357718754181587 -0.7843077285524567 0.47729885196134275 -0.5874799527505912 0.3077433188936227 0.5784444455400745 -0.30238723264304684 -0.8406678366981372 0.5075855469506236 -0.7121483337254954 -0.9638096998725585 0.2662970770061617 -0.43127559440112223 -1.0381243752863785 0.31707627567009705 -1.0736117719211065 -0.5908901287401833 -0.638488180802807 0.30616662298517827 -0.2079601361195057 -0.0036912830460666076 -0.23611604639644007 0.733631597969807 0.3533361100800173 0.6535526959983982 -0.7649629961531437 -0.25569710307101645 0.9895155691270637 -0.16682305311238996 0.7503423301980604 -0.7664670751080932 -0.413819060469949 -0.41259245553797386 0.3729694626343135 -0.10887151867600928 -0.8418202137348796 0.21623179013036728 -1.0910064227951732 0.2134991364467294 -0.760844201062368 -0.29717041360172564 -0.11337693906873754 -0.9293054884032093 0.8512788907808446 0.956952784304494 0.20806919016591682 1.071193566318149 -0.7527510936925187 0.6742502513783912 0.5608320299315196 0.8325180706032539 0.8783638471828399 0.8655803352358079 -0.656597018075736 5.558192734206059E-4 0.006902838488692238 -0.15459449198488762 -0.7516411818555611 -0.34898171803168737 0.7608111831088141 -0.646295223389156 0.3082813819904494 0.7775161704677831 -0.20590705761370975 0.41758487694716173 0.4176502882301787 0.2895882983774227 -0.9858841572150263 0.2737792496057592 -0.9523832614904726 0.34510264870396135 -0.5779122675918782 0.582793546947008 -0.15157225197576674 -0.1418936119187118 0.5680611641008136 -1.1694923712864527 -0.9995785781640206 -0.46706814226520316 0.09469195036968475 0.6104298674492514 0.06732113423269974 -0.4501644568789841 -0.9448586824590848 -0.831958940011744 -0.9654133346767378 0.5631555325603792 0.3659025628546231 0.2912785159223523 0.768571056522478 -0.029049149040346292 -0.04313824566050304 1.0524630802642292 0.5940619690214975 1.2296595679893634 -0.025669949622372762 1.1851307393262014 0.24950065924835257 -0.3736615465337247 -0.7482722806260084 -0.5954334807747282 -0.54166101713971 -0.3524953605116722 0.5000159347527072 -1.3091947414536476 -0.3132109317284576 0.26257154703687074 0.9525476447199758 -0.6571984927822906 0.3637765405195816 -0.4224658116974758 -0.8001401333920531 -0.043411045972398254 0.01501451180513832 0.38011109276537636 0.2040950299133968 0.06849939511036231 -0.6457745707952172 -0.1486174429107068 0.29158152846045476 0.6606656656557739 1.9197324474579283 0.4963680982430325 1.0510534177307744 1.4375860829172424 -0.03251232055171287 -0.5968798234353895 -0.013326561658666634 -0.7597182618631891 -0.7668163564134095 0.19407276809820834 -0.007730400827341047 0.24658455880512786 -0.9252444228632136 -0.022850611640359467 0.7123403414111504 0.8351061404986252 0.793027346676379 0.30748732627427544 0.06663358858415076 -0.1530105082441015 0.6087142115881051 -0.9467424455698417 -0.7114238450031086 -0.46068549116576907 0.9103116817404465 0.9480434865794891 0.5987453053759645 1.9518581367136008 0.4400896302816667 1.6133008553995418 0.8774961228438622 0.6359362962327745 1.1353570962671522 0.23008468816325756 -0.6839777634998949 -0.1878727179002478 -0.6931664229629279 -0.7203183038839617 -1.4953367787804097 -0.46339981738287184 -0.06729993371855887 -0.4319820386726467 -0.32407765177763187 -0.16521148233552815 -0.8636368118803454 -0.3569541179241163 -0.6115121979863415 0.6642575473100143 -0.5317929800903214 0.568108174288068 0.5785979115663529 0.9101368924518916 -0.03071753273059245 1.6746283377777975 1.819425232250295 0.8851027657726095 0.16519259748723958 1.1085903833278787 -0.21245564094182098 -0.0800523638481915 -0.24758970760423205 -1.1762998423395872 0.42308909524639865 -0.4939278468394326 -0.5767329476053964 -0.6995660702937201 0.4031475223767269 0.07360997780284363 0.11274391632812317 0.6153205826334454 0.777020527317813 -0.5979901453572859 -0.04979670945693975 0.4516342200376799 0.5299171520204272 0.9149949338535992 0.5150352949800874 -0.6648783403249414 -0.45300552794463317 -0.35686530223336765 0.2262475052426532 -0.23579410476504087 0.10255451387442631 1.5027852683803105 0.2595287316396803 1.2893738691833958 0.9847419095634805 0.20315413500938156 0.7162182329768134 -1.0642644450153373 -0.2799482172414212 0.1224589682232897 0.2783060369329607 -0.5662274821603498 0.6519406222340329 -0.07526545973750796 0.543422814289867 0.9700953319801512 1.1437450117514665 -0.7936328996049817 0.7287185907397322 -0.6009405122241896 -0.05464133266002169 -0.8165799042440784 -0.10439291277160308 0.31291434423321485 -0.5394323220599114 0.056269481409804145 0.6552123791115737 0.34047117170836133 0.7503731124770185 1.542183828493235 0.9357377806692532 1.2426319224213351 0.4834289220025664 -0.5033425145537753 -0.4032056065807823 -0.09121649384394975 0.19084157581687625 0.8555961372747451 -0.17724850977164744 0.10153819041203711 0.6260219762323125 -0.11788954672096894 0.19193408149849525 0.7431249804585062 0.6525357430646803 0.8606953917077356 -0.7908897428509366 -0.711624781218081 0.5834055924224157 0.7090300980641664 -0.7380431598417679 -0.7162744031141421 0.7172432149760505 -0.10828813818145139 0.8602661728188662 -0.4074391622513571 -0.17968449726326358 0.8017506493077169 -0.3059510578468532 -0.15685343605279592 -0.38530841108518377 0.8217361248585208 -0.6318695548689475 -0.28008216128389823 -0.06699451793792877 -0.3332710228796738 0.14519288202231156 -1.056059945971823 -0.03422094298617461 0.2540714052852628 1.0396174203884623 0.5325999968165613 0.9116546266440277 0.4562181909430749 -0.05264151066202023 0.1843364459874034 0.09651446224720854 0.7595151241524509 -0.744038150478606 0.36582583720627554 -0.6946847043149893 -0.060642032850099004 0.5515995792489721 -0.1932077465618054 0.7032806671496574 0.05822022866371552 0.3624396529040371 -0.04966146475498607 0.5095630258175929 0.49881787302406677 -0.9244296917747622 0.8219088926293892 -0.5170329462036389 -0.15653231154993566 0.2038221269368831 0.39801846164064053 0.927834546678656 -0.2534228759069161 0.5449979007374777 -0.2683201930164921 0.6601066078328145 0.5943002741866437 -0.09251773563396695 0.45971370838445813 0.2225549277285107 -0.06283560289106016 0.2526143697385874 0.9550993883639539 -0.0791948114110376 -0.22435506062895516 0.17386076733755745 -1.2554260530780235 0.3568523986625003 -0.7210177505287193 0.40381274365591624 0.4393431402997564 -0.5198961332917397 0.5101806570688031 0.17496393738130056 -0.8251068209849967 0.4658682176980121 -0.916520916820099 -0.30619846677935525 -0.16736802859940503 -0.6256856279339801 -0.6790963810797458 -0.5468340359309114 0.686896546463027 -0.404456110973455 -0.9457166795540819 -0.11622069747024615 0.7118107908599933 -0.0982078731537453 0.2707150198513857 0.26290191524901974 -0.96309768163192 -0.41888082801886245 -0.10960216464980042 -0.4103628333315539 -0.03245569988002263 0.38615963718132584 0.4752025548374581 0.40917769445425944 0.286302947285635 -0.09529411731051057 -0.6449991462719394 -0.8565941962358241 0.08385363839642075 -0.4927601574068769 0.6222265823636948 -0.27557118261324026 0.12297998198343862 -0.785295259066441 0.01848902114200131 -0.46655184393861177 0.8678042459383689 -0.8643483328511058 -0.5347155361968621 0.6261840910256941 0.6836607831455564 -0.4359992911560424 0.8447616464081371 0.44125316171145584 -0.30742647336116097 -0.928505633140051 -0.5659785514600669 -0.23325131546623212 0.45432771961814655 -1.3387701179302895 0.20615634273043767 -0.5094955024073577 -0.4085283471382497 -0.746432176527383 0.41499779090107214 -0.34862158691767037 0.4054761770182833 -0.11704866587768667 0.41387877214425345 -0.46233277996506167 0.7503677056249297 0.0928125858367662 -0.4168820464447099 0.1219725218029304 -0.29102146655725125 -0.9967871534645024 0.2146662325442763 -0.17456144786537298 -0.7951644415728814 -0.33449424206434814 -0.1932451417592973 0.8473681790689043 0.4100327008677947 -0.9474596746993809 -0.4108352152360213 0.3616910205716472 -0.6961425814869796 -1.180221240619917 -1.116410452438918 0.15903554479430648 0.6511922182486827 -0.5799849210410534 -0.20024444608441266 0.88117441929595 -0.3742997231286126 0.04619775162069005 0.30184631428671077 -0.09731244104366202 -0.9603362818335578 -0.17087157981363196 -0.8448915453638034 0.07179876508048148 0.008398315510497197 -0.7515675729573936 0.03907169707824693 0.007043029275839545 -0.13278506758641961 0.6314743072176501 -0.13299473046835786 -0.9310695087138807 -0.8640367743102507 0.028894367701545028 0.31069650995475434 -0.13776102928027814 -0.6444335426416167 -0.836587405502084 0.27271626948310673 -0.5996731875773109 0.31539591354012875 0.3772022069189502 0.3814675535739485 0.7507096704368516 -0.04948470104331067 0.5853129122596518 0.21242885121588426 0.5846598633674158 0.46157707568441375 0.500234181101443 -0.5869279163522366 -0.3651400469685228 -1.1654251573073375 -0.26466385523582264 0.3456394487858112 0.6741018981371456 0.1853939232518341 0.5498342379795961 0.8700011214499885 -0.011889171806616913 0.6282500950643151 0.23762084036143263 0.5770390658594304 -1.02018889061051 -0.2108607670002399 -0.42652582078923285 -0.395344153394876 -0.6324136086242101 0.6326429729707739 0.1608171369728047 -0.4723537739845494 0.04071221640098018 0.22704662969111178 -0.6841236070691145 -0.39723108571674837 0.01467418766805253 0.21386523692560003 -0.7611887348791292 -0.14588883621865936 0.46045250166755325 0.7868615905004372 0.06478359964349957 -0.815873672485473 -0.09483583966385614 -0.35106034028334226 0.4776734754732148 -0.3342610591006967 -0.10418884334779399 0.336615297862721 0.09255505213425447 -0.22142814427658625 -0.33969260208983637 0.30188990830956264 -1.0429760607827314 -1.0018604340629778 0.31039578809460117 0.0910614130179221 -0.9839248330450341 0.6426589044680788 0.06500134533155351 -0.5124542318125239 -0.4261971656676293 -0.8465581807414013 -0.2885255713915978 0.02127362518733847 -0.2152335959922686 0.1386130206781415 -0.22122839701533137 -0.01979499585230292 0.8037207575709837 0.8540646690511664 -0.08202842122569681 -0.6070943039768752 -0.5688437222581166 0.34765588964856975 -0.23209258673289557 0.013352507792088892 -0.7058229021351156 -0.6675078432818367 -0.1403147998597965 -0.42113247260517195 -0.41537045967129643 -0.5365364779955545 0.585822347515125 -0.23587467393740633 0.09130721336072738 -0.6459171069934547 0.9586733440711087 -0.3373562684213173 -0.43324183589250675 0.8790802777303062 -0.15243528536915546 0.0933574504824621 -0.6427189733731763 -0.22079961894810068 0.9225957545110983 0.5059216677120856 -0.9840804880139422 0.7360832058920405 -0.32099448582068674 0.8696899281189081 0.36603655789949907 0.9491438708467403 0.5873836350958639 -0.5414030204892428 0.6762247771239454 0.07366955310906345 -0.32012693689978183 0.28119472127367373 -0.5264918767201636 -0.5113560377411566 -0.49481715452313724 -0.9307783075976929 -0.3321376846683363 0.35134531244248685 -0.9548087206920339 0.5161960972020494 0.5873737058769866 0.2735626405048886 0.7759470413701888 0.222404429477828 0.7206152798860254 0.3096943829577426 -0.568372690701405 -0.48377079227396935 0.2375543263621595 -0.3789572065237611 0.4182556314617294 -0.7078593344834252 -0.008332937600284973 -0.09648327127242196 0.281003274627023 0.6009226134322521 0.21825196963949578 -0.7974345648404838 -0.05807520660939317 -0.3691821376095517 -0.6504407440961338 -0.5163389649431411 -0.26526361723671854 0.92212564596975 -0.5293428246691527 0.5437009566076176 0.5545622960895538 0.5037582914496028 0.3987246105340462 -0.6772481397443254 -0.43421327368595863 -0.9126610641628038 0.29351646373895207 0.7098824283342814 0.5741452032376501 0.8505049651086027 -0.4221907062951659 -0.8578097903804451 -0.46926782051812843 -0.7413638741231576 -0.2973665861332728 0.972690440625182 -0.22189511562289588 0.35224743959049953 -0.9107748943419929 -0.8549068171351738 -0.032459770550602104 0.2714199519624128 0.2027035614142712 -0.6878358522739808 0.9776079419525809 1.0087986861690987 0.6338469085484232 0.4338326775834542 -0.20177152122832076 -0.5305111783697013 -0.2328198392603616 -0.788479799529047 0.1467286667487595 -0.6959638538038754 0.8947901507864521 0.3826177744419866 0.18356602215111145 -0.20294027576024837 -0.12377085714665093 -0.4231489793387666 -0.5212983836080469 -0.1288369940794134 -0.02366069336548038 
0.9377297472414425 -0.5587360825622165 0.4470174392421711 -0.6625756011363124 -0.9960524414530001 0.8604988101052038 0.4819287945713129 -0.7781114224202044 0.3019655637639349 0.0012976219011087142 0.4259319353724087 0.18558810891046185 0.21698513843653755 -0.4262200796908542 -0.9916952804052244 0.30646514498558974 -0.8232366306737613 0.4760692299050897 0.609910190797553 0.35206437817453584 0.9581641124460825 0.6284478982177872 -0.8389844050314814 -0.658196197858891 -0.9857885172466845 0.4455831212176755 0.4984865045474831 0.34463740288392075 0.11980214077300899 0.5345313093928958 0.42289605026522703 0.5500121327233749 0.3471233918332719 0.059744643949075193 0.315229267807027 -0.3402123169451776 0.40744064499312604 -0.11615144656107823 0.10677647907060797 0.48048172129436295 -0.25334386528130437 -0.9340165054893295 -0.37760875616601663 -0.8452493857248337 -0.6784724675732435 0.5778469434988199 -0.07021966773645726 0.17994369775792504 0.34340464510799235 0.31638779477526946 0.10916664899547951 0.10448585898963025 0.7516125262270967 0.09582953378331927 0.08533452368248051 -0.5051357193715886 -0.23702654805385492 -0.5015252797255187 0.7307814942927766 -0.8250155617228933 -0.03603688026474069 -0.42995346396748507 0.08892557238880405 -0.36087758209628373 0.9919177187009567 0.9573363925996695 -0.1569870668779036 -0.9726629688465028 -0.7177823623048593 -0.8819090833434958 0.46140812811281756 -0.6791399345199413 -0.8090588697621223 0.37193325906964103 -0.5377180501661123 0.7843696171036877 0.21842415318056135 0.24456146072224308 -0.29206829833863385 -0.07352395418833546 -0.5100049559516852 -0.3393889676322464 -0.37600914069750857 -0.8095964607173567 0.46066837303811115 -0.4077355945481982 -0.9817201962983424 -0.8988215575515703 0.5170918165913173 0.6398202717092246 0.10328744078839178 -0.7144886204779064 0.2366815777180233 -0.9574973203405961 -0.9795236334006442 0.3433984815474713 -0.9233670118351753 -0.7056355533845994 -0.39005858899317963 -1.0110668932914324 -0.4070256464124461 -0.7933852137772106 -0.5495545919343982 0.5797848325297928 -0.5833812589030452 -0.35180391552366475 0.38928827145485817 -0.35827721836241994 0.9559114827012579 -0.7394235116591276 -0.6636697606613174 -0.47683178149973315 0.14551017445490455 0.941560402735123 -0.1250965705593705 -0.2649524655038132 0.7023476970092211 0.7129981040204736 0.8038567318981424 0.9258703817973831 -0.849540477041617 0.2362426271738725 -0.8592208475717135 0.37664032322863683 -0.9426796043210427 0.22091411532211389 0.4984123982855358 0.17176884624006894 -0.23126903948442445 -0.6273220847094417 0.40234825763146137 0.6325744432108783 0.8853051048944827 0.4524882477798529 -0.07907576259142214 -0.5597004687431765 -0.23016004168341703 0.7273100617290246 -0.765476514395446 -0.47984279669271557 0.6876446802363472 0.1969751524324166 0.7588073572139307 0.1483298049861292 -0.6351859097783765 -0.5068093439444377 0.34820118082411083 -0.9545837157204127 -0.8208743473962122 -0.3262145438031823 -0.26996432227815165 0.29552222085675267 0.7763069255043296 -0.8387703546311294 0.5132857584992457 0.7483259189909378 -0.7269157404014273 -0.2037992387694961 0.009747068030212715 -0.5875901827442418 0.29327052874217274 -0.8134351105499651 0.005327713604021997 0.5122139427724778 0.875015918252027 -0.7661166073847108 0.026935466625577862 0.3234519068144844 0.8595441139590272 0.8613987743314369 0.4450969084654436 0.8213696433224293 0.9872845544234647 -0.4364244912329153 -0.6905871961727005 -0.41201532093834686 -0.33030453030516643 0.7323380845435429 -0.33183793195405614 -0.303801990639463 0.14523299798626457 1.0322372983808314 0.8102731490690229 0.48000629178733834 -0.006940418927117092 0.9416670314589708 0.8024139757078568 -0.08285638858863609 0.0749922873796171 -0.07180944515209263 -0.40624023497527906 -0.6115982415501057 0.21841731598229083 -0.3149060618930737 0.8222864427040236 0.047367523747396945 0.32567709833566205 0.8854920405422297 -0.8619638582560948 0.30261864839758307 -0.6166992805971859 -0.44619822290676997 0.7648911350753451 -0.04173301269721271 -0.46106786860464427 0.29167895206767935 0.6379631261538562 0.8306287677406542 0.909350497738315 1.6934079159522493 0.779937971814288 1.1338683498432214 2.0312597999141264 0.8358842335458326 0.2484539852008287 0.7925466499782231 -0.3262825168201204 0.9753761436746015 -0.4938239261310767 0.5411520892598234 -0.6153539382882453 0.5889964972771322 -1.0229983781204468 -0.005380089510631013 0.403321680749807 -0.6408342871295406 -0.605943020552966 0.4472615509025522 -0.5671465476699303 -0.40320937461623596 -0.7786763622835633 0.77462457499578 -0.2887036570883472 0.3355201359110256 0.9536934121231018 -0.02036862943012066 0.9614479739447699 1.0411278249101168 1.5763670475847749 1.5884632296689607 0.48774239473965736 0.9872076690813606 0.8613836383075705 -0.5379752260350056 -0.2758429534950201 0.19313661362908824 0.14465833660342037 0.17981447256101446 -0.20904436194216997 -0.3454905555133407 0.5587623533315639 -0.8521545525992869 0.616188524523482 -0.9571035885969702 0.16304279529135082 0.7581439498310238 0.6576083416022058 0.8497731098429837 -0.50484126808054 -0.6038709734912787 0.9571069785572545 -0.6300134797438806 0.9297169871683881 -0.202751551322218 1.351916683938308 0.7641201927995859 1.2493586036830182 1.0267779600345144 0.7633338700694146 -0.1427727807289191 -0.1851262755541351 0.6333110756614171 0.2828426420950311 0.09337243558227065 0.05033648800702203 0.9506107933264112 0.5283354008066915 1.0266280462457398 0.20101534656667827 -0.1344791961387796 -0.4745870083135902 0.08616128721001146 0.6686233572770038 0.776968374825863 0.3173997333486803 -0.04513700157060572 -0.2912213852961149 -0.21297912859938153 0.6577597720367762 -0.8540106724367071 0.260440739922655 1.0704499972070145 -0.5417000633817776 0.9536881929323662 0.9617315996673597 0.09016177510701638 -0.4296093593966269 -0.6608039284150732 0.7126154670497009 0.4835566404449698 -0.6844407292319638 -0.5866187625331455 -0.29850041918043757 0.19562966930419937 -0.5520099497604941 -0.5491302418388344 0.1694448585946796 0.2090303920822232 -0.027135652591607797 0.5701481728927098 0.30930565753448686 0.8248600394465895 0.9316419903781009 0.6866875981103652 0.9871057300947019 -0.10027785695260856 -0.6904014427521064 0.6895809558156104 -0.5894505130518388 -0.12459271436411785 -0.9220432593098036 0.8412238329704868 1.1259025955527013 0.7957624816531549 0.023407206788793825 0.28728644140951687 -0.257274290921469 -0.4072023899806327 0.589224792930225 0.9236905898074569 -0.4459261200911976 0.06115852664045871 -0.07137026078195939 -0.6144427479282001 0.9354973692711365 -0.08988161329840051 0.7096114397559805 -0.49997309891182734 -0.3107631628960274 -0.21416824781324323 0.15084373072215668 -0.23717592902310775 -1.0123296189877542 -0.36494773467401914 0.20358347762057394 -0.885024497524486 -0.864709745615573 -1.2796067439918337 -0.07662977868472923 -0.2367283835176277 0.6673947042366191 -0.1543724975317503 0.05639082422374113 -0.4434985861189267 0.6244823377600145 -0.7913695063718882 1.0131500768894717 -0.04770643022549479 0.6626642617746861 -0.6200992616430079 -0.6677543899202266 -0.35616961408808107 0.5137092681305097 0.5909209840349952 0.4077752465725495 -0.4933907596878009 -0.4355202197318408 -0.7845171554932411 0.7391315889383223 0.07834084230407844 0.4946430089309699 0.6013805857494645 -0.1709131292690795 0.3071530082343312 0.35599192503803184 -0.3965418615081079 -0.9130344342382408 -0.17898957851764855 0.4765282670594364 0.4936204027732902 -0.18925330541086102 -0.5480518278257851 0.5761807414913308 0.0901666985036262 -1.0921445731774748 -0.5907798244354814 -0.35206712615125463 0.2827177773625203 -0.3659890689882198 0.5770208540814521 0.13893113612875163 0.011821024564482092 0.266888622494756 -0.07028042489854278 -0.17650861709530236 0.7656350450479525 -0.774517757137726 -0.8254797722102513 0.372524893829498 -1.2805111729026988 -0.22789960400639409 0.149959163672182 -0.7781956211807067 -0.6026695911377707 -1.0643197898007344 -0.5359639241517291 0.3595880107826503 -0.38046401430347593 0.6885524518301002 -1.0771748967396864 0.13423999502200798 -0.5682449080552645 0.27395114789755726 0.27319408022787617 -1.003337186276303 0.6678357353697707 0.29132976916058523 0.5222420516330771 0.5874800184092059 -0.8680993475458978 -0.17372572456151536 -0.07657463189026442 0.8731167935552286 0.07953624593940431 0.12717178569122464 0.19825275814757795 0.10993519874828606 -0.6272619218668593 -0.9615450175308596 -0.040557291664599045 -0.24528008798868262 0.22198069327852765 -0.6115107068184223 -0.22837607527548764 0.47614739225418534 -0.369314757922185 -0.7559904094800057 -0.00325474974531315 0.12798903219931185 -1.0969171637478612 0.31502082413685933 -1.4979616766975652 -0.5260838920667592 -0.7493699744777931 -0.653781720804174 0.655216093577284 0.5927520376809554 -0.929141436588394 -0.8171568815057315 0.018152747538364024 -0.8176728242657209 0.7541777001725692 0.16683006211048182 0.4045863289670843 0.012136209126291698 0.2594861019978632 -0.4631382206691241 0.12278706586688909 -0.7406112723015861 -0.36401058217062554 -0.7627720025017718 0.3309538282075868 -1.3626356266672535 -0.18797699398301063 -0.5853600331872999 -0.16900169692642322 -0.624533314848132 -0.13135805153737057 -0.2946979419468021 -0.35812881189940876 -1.1458127625085872 -0.166529807284458 0.42053808795218844 0.3219378749226013 0.34805150227344495 -0.33124977476198697 -0.4108943280611108 0.9449578224817956 -0.37167128700260915 0.6667390535273185 0.7213963858829024 -0.9605190134785702 -0.2671497448022947 0.22166787145457512 -0.09457564079205082 -0.11345026788516377 -0.1747966875350844 0.05942534123767189 0.08806390879013011 0.2373505187666977 0.026941348368495217 -0.7893572065991659 0.317430337162697 -0.7172559354407178 -0.7337627045547348 0.41944269306837606 -0.06196847550212297 -0.28075694709171334 0.6126798408096152 0.36286383729552285 0.7563411463263401 0.21594794853060434 -0.881969911820095 0.9123855415567584 -0.6291990034024448 0.6518735394334576 0.9303701859366195 -0.48064820382120377 0.3172214032791434 0.09401534968882358 -0.36068337014189505 -0.830682808979978 -0.02237033323947454 -0.05192955771336002 -0.1126764054906268 -0.45164172044652945 0.2512692407551312 0.1701017838976674 -0.6472423359228358 0.16855648916024007 -0.062064496551386246 0.37906571626517643 0.02415617879580211 0.8787271877658084 -0.4308052836299487 -0.2309459250950554 0.37638889745877996 -0.22808659187676364 -0.17599363858478187 -0.23818952413454086 0.11720352708029098 0.5427041439282017 -0.7598364620546392 0.2307156054276661 -0.3197212121039181 -0.8032915876880514 -0.44374072751067856 0.41047694121350947 0.06484868285470831 0.2988807242805036 0.3685914479213168 0.23074605559636557 0.463464661553105 -0.610834943022534 -1.4144895036041105 -0.5612785024249773 -0.6331101068338579 -0.6856098750643475 0.6195118810968758 0.6424463895542472 -0.7264406570582387 -0.7382211824142778 -0.3641079063787835 0.607609511961328 -0.44232185936622087 -0.32668364033896174 0.002090046376958975 0.06443593959731887 0.568179861843136 0.02174850409920892 0.46695354664771616 0.947570142482367 0.6129166713975102 0.8115380866277059 -0.7179907822338786 -0.4476658699467006 0.7621647576314932 0.009738520381223147 0.8512256697760586 0.5562240347469315 0.38438692844442174 0.24378479815199064 0.5661084383030514 0.40649203078954244 -0.3463808703388624 -0.8711996696932822 -0.5320197933747135 0.1748599792837006 1.027864892003499 0.2089716598890645 -0.6219154744036025 -0.43586001093651017 0.6060322775052015 0.14876804967586832 0.9340934459878145 -0.6111295750775874 0.9849001302730367 0.5363449788618404 0.7983369845581798 -0.2616778385475347 0.3756443692867176 -0.44699810466983936 0.18442005356675994 0.26722570994070466 0.9032202697496203 0.5854226712985574 1.2168446704768061 0.1662801088577939 0.5956108524845581 -0.12191513865447381 0.5318651555734752 -0.7421081669568507 1.1132334265081785 0.9036536105048725 -0.12555804991735972 -0.31935997547232764 1.2592178918487837 -0.3018379363151746 0.6367501313794993 0.7909890490729303 0.7731317485441626 0.851052918992778 0.3827131280473751 0.9690195453410592 -0.8767503233643816 0.9141499676004938 0.8521296029716925 -0.6162097049005844 0.3914525578946657 0.5369629704950059 -0.038362781179625195 -0.4145571254051228 0.4310367770978649 -0.151228094998419 -0.3015596412408173 0.9949127461996463 0.951941087550398 -0.419071942477514 -0.7095122879192045 0.9226592399559649 1.149406527281812 0.8767093513746326 -0.02982563164397151 0.21866621950572865 0.01060991550696278 -0.4826320948084515 0.7460998835295641 0.2773435646486651 0.3168179566344505 -0.6455600490690634 0.8485371281488904 0.17889309165844972 0.44595555180404917 0.2124938654986841 -0.4881201617347515 0.12002068425326051 0.3438813787394082 -0.31061346499865244 -0.44543400452512993 0.7527441823165438 0.5439701772800498 -0.0620550522895199 0.31804075464446596 -0.17950213634353263 -0.3353163227541619 1.0039272974786428 -0.4225753498420903 0.905605055120797 0.0762696875363119 -0.39052790512666274 -0.895566463315773 0.8042634699024896 0.13257051285572463 0.37949882785141964 1.1315533822422421 -0.7763775380125538 0.5779594076841512 -0.6931517987740617 -0.12919874085546174 -0.23753547109682516 0.6299807210668215 -0.6872708037349309 0.988371763945918 -0.33218947883474903 -0.9690306384704666 0.8518616354306656 -0.11498527207794318 0.652337446336363 0.06848716823601775 0.786995333375049 -0.6416048365603404 -0.24852955865740728 0.18577565882240712 0.17519265783702515 0.3137359883639468 0.6234620306057908 -0.4320689907128213 -0.37181508075947967 0.592405536010382 -0.16152617941839995 0.1986858728152575 -0.19297525264265233 0.3634767788285988 0.9013810588447033 -0.46529290261961354 0.17216814131401684 0.9907732025200187 0.7157684338370879 0.565874784056388 0.11254909369200883 0.47374247398710967 0.5815466474208744 -0.858584106788026 0.6617765914976894 0.5163428625163825 -0.9092178231271278 -0.3351683045389739 0.06457686876907547 -0.3733737700226225 0.7994483681082585 1.0225196879503538 1.0085533149707508 0.7782565126434199 -0.35936164349851096 0.28272950653222073 1.0956625502052764 0.6032885726574884 0.24167823040558217 0.5540044864278072 0.01760012785764 -0.1282522083706703 0.2563315936614624 0.8372824553308122 -0.8606586478640932 -0.2981167406334574 -0.5590545749302678 0.3600192674208902 -0.14398925472077728 -0.22097676953044876 -0.5790399738174512 0.10245643734666365 -0.8320611552457033 0.9269757401897225 -0.43736657842635135 -0.5676833027846473 -0.1340376057499311 0.675032796139709 0.08747084245196826 0.9790207060799526 0.15997583419016312 -0.8043866301766778 0.9852172818992558 0.4942243551354352 0.28445074128618675 0.8915433181913455 0.17679550885671383 -0.7901631292978029 0.7942335197595254 -0.3536250543141563 0.8679645221557318 -0.09292308908731249 -0.40781008814849606 -0.614768167638266 0.042924157042862454 -0.009291226424287702 -0.22423665233545598 0.9963026332103766 -0.45958702360324 -0.344895678208496 -0.15851174039985994 0.9450431682308927 0.4336318582068715 -0.03602256388357389 0.7148646219214668 -0.6545069326900035 0.25974371021570464 -0.10197513919270554 -0.41672745442879744 0.18745782447025033 -0.5531031527853034 -0.4414930633305465 -0.3878761646180877 0.23699468955614406 0.18679871322256822 -0.8894072567480844 -0.6343083161541575 -0.8454509818999651 -0.3260064448416847 0.9912659127275263 -0.9336674598273265 0.781448236623701 0.9838566025157172 0.8531493115079753 -0.4557548157486111 
-0.9353995692386403 0.26885155729921695 0.5520924936422154 0.7304288311801492 -0.13401459995729947 -0.12813682981803498 -0.609234273295538 -0.9493952599722313 -0.31311404651524155 -0.9331066264240997 0.58334714196031 -0.6383512740654267 -0.6362407546906441 -0.23023794334108905 -0.9651696084564405 -0.6162460021869887 0.6577906350413798 -0.42513374626088773 -0.8207132764961165 0.5434010479128855 -0.35581378835043065 0.09352346691405544 -0.45986372946303544 0.9720679885857659 -0.8494689897934633 -0.9453461629484052 -0.07710915443928323 0.04038153659794186 -0.8560664170213981 -0.08042906828682073 -0.2925301240589855 -0.7453263529187755 0.9295659164078083 0.866166667069673 -0.42366837506680644 -0.3973251098088362 0.29859989833207135 -0.08620798080643668 0.196304259050642 0.49766066474466253 0.34490612279460253 0.6781004404023102 -0.1552652020127548 0.43265615288757775 0.6224671013502572 -0.12932009797269337 0.9488926119296717 -0.11775049531433407 -0.6542816226318519 0.7152578972507321 0.023861483549205007 0.04069556745466474 0.22538494318988045 -0.7868535616305472 -0.863249190364626 0.6355786501972773 -0.08505656914170245 0.42245718448261416 -0.7537226184322217 0.7186325670500138 -0.4441155704237352 0.3076781305642141 0.05278510114633416 0.027577271078253536 -0.8027486206437242 -0.9688857970243824 0.7537808625901667 0.36008623571711684 -0.32542779228625573 0.9259507983452024 -0.13530963857062805 -0.050826430197265134 0.6805180381057679 -0.7847974873603711 -0.44699342855386226 0.8108750832729023 -0.2583021387773645 0.8257140342495493 -0.43748495785376 0.13715359692714102 -0.8585861351022146 0.050894199312560895 0.5662731557945588 -0.41242329956085744 -0.6781534813535972 -0.587615042284394 0.2093698686041754 0.7881472590738511 -0.6386943799040828 0.5670306387309364 0.7062651543842089 -0.9046641962993495 0.7973026828043858 -0.8919791217169223 -0.2080669071415153 -0.9356013685816443 -0.9666360692333991 -0.6834390357206307 -0.4270301368602156 0.09417019566494916 0.6465480868992505 -0.19682478211417118 0.4553387004561395 0.55379840809525 0.23636711712958425 -0.10332195432324302 -0.00617901548707802 0.3218389609553188 -0.1442904593189989 -0.4235184794698498 -0.8573057316284487 -0.7970108941846288 0.86435997444679 -0.6640340298980527 0.16197695170494406 -0.9566262667948185 -0.12655275478121422 0.756500067562106 0.21360137150981845 1.0107187411275906 0.24390867479396772 -0.8281501646397101 0.5528921017338694 0.6168386373708885 0.16771264673440447 0.8895245352282345 0.9075510760777193 0.3557281504760564 0.18797951133436117 0.9210665582104401 1.0541691957075963 0.11298880054800985 -0.6126927475658847 0.47893253000952674 -0.731127022673186 0.6833603098772884 -0.3659014533542513 0.5576581810039062 -0.9393040943858085 -0.8108788870374524 0.3196447466020065 0.5548580895400927 -0.3588584015281384 0.4060189304378383 0.04404976002722634 0.9558510540074487 0.020665972525956554 -0.7764644946920424 0.12078368234158178 0.7846705578293007 0.3284006383794038 0.4923519440216817 0.13794812515550095 -0.6947801074427256 0.08779599090989315 -0.30827822077375355 -0.6009153799697639 0.4305395370411933 0.22199130607708256 0.4406585765311952 0.9046236201985173 -0.06113794056085928 -0.32021676042917147 -0.7122715300679776 0.030891837250882626 -0.8953418186855587 -0.44882162461160735 0.06300747076977146 0.7381992912480224 0.5273619115643117 -0.7705783310395315 -0.7504768096923798 -0.25053888228 0.9217603680024969 0.18970745376380055 -0.05932326634962381 0.23542915094952266 0.31517075789856536 0.2257377544839694 0.19686646027092497 -0.6735940261217717 0.5737280865247041 -0.8076812743795464 0.10534574285902268 -0.9027155936807005 0.2473303378732615 0.06148263412021457 -0.36178900485284304 0.2503748320295914 -0.06406100903280307 -0.5740408491854728 0.8486845409029442 -0.25807448404859396 -0.041362059301741146 0.4359450619840986 -0.38200658522956954 -0.2919725709674612 -0.058953961456395 -0.8679888954252611 0.248966381274051 0.1363051980639713 -0.2231480363872421 0.4468251508284742 -0.13177979386057284 0.2871887472619872 -0.13453505878145755 0.649659464534708 -0.5356981365579503 0.40724739446937575 -0.9416974305414416 0.30912565571377026 -0.3600620269134595 0.21097870614778294 0.027351006312744588 -0.6349036837451828 -1.1741490469318319 0.5458607092202987 -0.9359460046051126 0.3462620312274469 -0.07858382789213575 0.45671189400013007 -0.36476817010171764 -0.13993794745810434 -0.7151446509636835 -0.780704930917735 -0.8523414775098253 0.33583775976100755 -0.5309768685571605 0.20104185568939867 -0.7737501754876493 0.5012304370995404 -0.7161332441794175 -0.29664516269916746 0.1359274255688559 -0.8968838179297222 -0.6292428007265994 -0.38728082734687075 0.0087742853922472 0.07348120126663907 -0.7324940398400837 0.023276280661798914 -1.3378848103291363 0.13996639504209724 -0.5014604011132048 -1.3062240582839155 -0.01803105682641425 0.19935767877227256 -0.0054967144026988116 -0.2851694789373642 0.2202881722109101 -0.4014540659137762 -0.30695954732075836 0.9870803822337417 0.417597308546772 0.9046203564747162 -0.43748589338794275 -0.17576114174773522 -0.8375432681257511 -0.8417387720206755 -0.7136710443140346 -0.8977579446273952 0.020673575882483457 0.6083190024268212 -0.7984081888786434 -1.0372138133391338 0.337373894378327 -0.17959147506254022 0.16677481791660806 -0.9466503395871763 -0.8103019825639606 0.17145334733569328 -0.7890807988880206 0.49651291736648645 -0.7814970882448905 -1.0357381487330735 -0.4598891654768104 -1.0854341302036723 -0.8472352303981345 -0.11008798903806481 0.004790170201553519 0.802713356304499 -0.6153192183769898 0.538579090301629 -0.06294169416429721 0.6853199324588284 -0.4789081837349788 -0.6619122769840512 0.6442566835528099 -0.12118326603440968 -0.7511369135945826 -0.030124831726271638 -0.6575447650898306 0.2918095636709422 -0.9906389135669322 0.6383040596660587 -0.4593809052447542 -0.7895907295503657 -1.0428440600312894 -1.3743863423398293 -0.6623993456359134 -0.0902022593158891 -0.0015856649751499845 0.4333396616967729 0.631434900089166 -0.9025619052684277 -0.245596500198499 0.8677673862322494 -0.6040064397196092 0.3845908611722524 0.5914900343597697 -0.6243244612029131 0.5074915617245374 -0.7377000634444977 -1.0334086971195353 -0.2714531905447248 -0.7009678215852605 -0.3584393051546652 -0.6806083078774877 -0.36062903139640673 0.5048765742355903 -0.3784879092413487 0.3449979088319601 -0.6951250471622868 0.7742092111461373 0.0780889231393109 0.16647048326507685 0.44219163620076685 -0.8950504981678344 -0.7079398549178119 0.2989801149009613 -0.11662752301430829 0.041120064753050314 -0.9876635984770251 0.6676047136434975 0.6982192594020232 -0.28257444260267284 0.28724385096321936 -0.7120842203000054 0.9863118030183982 -0.020771003419119225 0.1281391648007959 -0.1672936328992445 -0.8853897814962973 0.2783282505356876 0.36844383768846506 -0.6895320031602857 -1.1905000646730493 -1.1234322024679924 -0.601245435828607 -0.22822539971299416 0.6323043195464485 0.2937403922406028 0.34656506915081225 -0.06517797634168623 -1.0545425576824226 0.1654705552479106 0.5383133288822012 -0.05553370610993767 -0.9255038499947988 -0.34502617000422975 -0.4899317880314366 -0.5556878138894686 0.17716937074146685 -0.45913918621558947 0.7028247009706383 0.5013002134069384 0.6674866478494088 0.7271825554065925 0.7176900186337873 -0.029310160459030336 -0.44297801579688867 0.6621503417458598 -0.5573564489319209 -0.37379479246007025 -0.8097033190498345 0.34861523226923524 -1.0760252954145537 -0.1832558466618367 0.584670911351206 0.9124683403663795 -0.37089379259723676 0.5922007082006385 -0.9969685108259148 0.6286853738570286 0.12265441289269258 -0.42599586823608765 0.034999899961703336 0.9100230022791758 0.014404646877821472 -0.7368758946247314 0.7976625485428241 -0.18242208447386069 0.45207205700822084 -0.9013948771133582 0.5852320014338798 -0.030611111416975624 -0.8515945312457499 0.45806183042472526 -0.2262176632754141 0.03212318542139085 0.10826693096645665 -0.614469846527551 0.9734535939183514 0.38026346617883805 0.6321583109105755 -0.504981609339856 0.8351385597838998 0.4033489970251015 0.05580675553553603 -0.6535823560693302 0.7790242858816993 -0.5224149775571449 -0.7381287944926398 0.6654700974440639 -0.06427771030871328 -0.6619124290357545 -0.4033865043943341 0.08555557954407422 -0.7815662003798637 -0.03334613448805283 0.11220273312216222 0.7394236718936489 0.7915708353435198 -0.36919834165250853 0.11339947197231973 0.016074711750351012 -1.001399285710083 -0.2877677433712136 -0.4307162420546226 0.8420990492974795 0.4908442728481782 0.7518121447923184 0.8171826031099289 0.24401424440095298 0.5444993427322513 -0.42537186768804774 0.2816547753427047 0.004886961175918687 0.4487792321318211 0.11400606046643505 -0.17490670996823593 0.22108199093622286 0.05651609546418203 0.5289209075802335 -0.48388357919731084 0.18096834707777426 0.8814933393987249 0.5452661440279164 -0.9329307411180436 -0.3289830305389654 -0.07441402380013419 0.13336327954009097 0.12741912940387642 0.4781114010563939 0.5649325840248726 -0.600439932605997 1.1504458295020046 0.30810255123815933 0.2777832656363466 0.19321896977041633 0.8334834405669063 0.5490580409425091 1.1880486902094007 0.8774118241819815 -0.03029690533073196 -0.7097973786692094 -0.6203442597919708 0.8101002408688873 -0.7477520913735323 -0.1438697495263733 -0.19535594438625004 0.2428894781884861 0.38259033821055616 -0.015744209459119394 -0.11405365994165949 0.6758240474067749 0.29031381892534736 0.9528807313232379 -0.6555459621674832 -0.5717077020036707 0.16894091790180416 0.36149812728026615 0.8001530838320235 1.1438627486378785 0.34828973778656364 0.8322371378703655 0.685841798239312 0.2478485925054774 0.7881384211115889 -0.36558877320318917 0.8950403345509595 0.5127229664289492 -0.27856767800721377 -0.10664927776940332 -0.6120124840679658 -0.13541947925104067 0.8020306762177554 0.5928748128465894 0.1360135984930975 -0.17249788324916482 -0.341983253197414 -0.9302858689930373 0.05898976215605135 -0.9284863510034815 0.8851383759655662 0.08077760693574274 -0.4809015664143158 0.8667167643410869 -0.5741098118401204 -0.40362079574717596 0.6362396178777281 0.17577929761959868 0.9674126834761575 -0.6586724383295528 1.0305090201789036 -0.13314678037630825 0.8773517126100936 0.7806732063982811 -0.1211552312289617 0.6750040614722855 -0.05051370578883803 0.25249362682765014 0.5746440260374954 0.7401588446196076 0.4970371723428767 -0.49825676813079894 0.5843808624419403 1.1024588696055324 -0.7566368542617644 0.8270439738369076 -0.6763034973443 0.9206869760212806 0.8047028931602782 -0.04217355626669899 -0.12237955033180324 0.903746868145732 -0.24083228683204125 -0.9526650535903496 -0.644690134598501 -0.6704985594225914 0.4803345842792291 -0.5895440846727407 -0.0014117144009149702 0.229766157394059 0.6902178464783479 0.8270703200192961 0.5285635005689371 -0.8195129121930547 0.6996943073122457 -0.33585593053609836 -0.642113988260553 -0.2768149164131429 0.5930769929635591 -0.06547489900337175 0.5907878633084664 -0.5110885582198529 0.08348663180288557 0.21114999661013786 -0.58103179308555 0.9394413102074132 0.7650530803478399 -0.015845734006420215 0.7864208834432864 -0.6615477353469745 0.1508242938200646 0.3310108345731043 -0.5471444022141839 -0.16141357904763673 -0.3557899480144461 1.003475061103136 -0.5300851224739552 -0.4763336621997132 -0.05902184182964769 0.32526514292759745 -0.09396846176639438 -0.45292014660405494 0.6512044940898399 -0.6814729571906029 0.4486794762281964 -0.2755216869214777 0.8190363611039979 -0.6149983970998406 -0.017740613346940718 0.5837946995048469 0.4087226875179271 0.5727226614126304 0.5916230561144106 -0.32864895964008434 -0.8621296378810974 0.3563164820030101 0.8611558133279864 -0.3736518304153414 0.27709535196642315 1.0847308996868814 0.32626132401466823 0.1237288595896298 1.0087874135418033 0.8612169077284868 -0.3380103402864681 0.27910987710661056 -0.1892784916308655 -0.3494125530822683 0.06782093527028585 0.5287241172857067 0.4998733677419556 -0.3993880301601489 -0.5229973773551913 0.28141355970627446 0.1892780798470801 -0.5311339516341466 -0.6630562020296457 -0.8291954469621708 0.3655240747860395 -0.5677024591748177 -0.7357296055189616 -0.44180330225014797 0.5732271814057628 0.8348348724374777 -0.9819081500189711 -0.3262926487895237 -0.43144370247769015 -0.2883438479334647 0.5007058699495627 -0.5644650319334716 0.7353069098875402 -0.042347760364695536 0.8188259536578488 -0.8708596180812946 -0.6571569726163953 -0.07492471570577108 0.6050187919346842 -1.300025600095463 -0.3433286522789403 0.39521843550732294 0.04661104585630438 -0.6825194577510564 0.7673271353052347 0.7057877046535865 -0.2645990510309886 0.29231607069289156 0.8726380984833958 0.018401402493299447 0.6131890780287222 -0.559423702014813 0.25292114470314453 -0.9947897866598323 -0.646337603546447 -0.1647722516910652 -0.7592308290754708 -0.7841978701979052 0.873149034005267 -0.5165723251550088 0.8837290619577028 -1.1108853073993517 -1.252644570273449 0.30494403340433296 -0.24995824144271114 -0.0844003735444486 -0.7990548821119235 -0.14325783029523664 -0.7160014704982497 -0.9664655282937369 -0.29983638753388864 -0.9248696548570964 0.9103807955816324 -0.6043080394619196 -0.42879710066581095 -0.4723468933153513 0.7316784510228663 -0.20330744341842055 0.7313450631420917 0.9695362727717118 -0.9871473409572893 0.5391502441526876 -0.5171944450506633 -0.7345475939446944 0.5545908404151842 -0.998208007883948 -0.6561307318771318 -0.5954141391444611 -0.6823168423500232 -0.45344214080677153 -0.21896668509116154 -0.6620634623186966 -0.8956727438729684 -0.5109430494060775 -0.9656144105363819 -0.03060903534097237 0.24455443151180842 0.40467578229965295 -0.7719320466216909 0.7053601399882546 -0.8840189358661101 0.8141328048509925 -0.4636594154049879 0.7056391914960431 -0.9800875759834693 -0.1454307230856031 -0.6814617130639873 -0.07987099094036632 0.09830072888321628 -0.870131509968439 0.21506097694189097 -0.9159652837268679 0.781678419058973 0.31334819615013293 -0.2261319239180466 0.15058830823259695 0.22318467722641586 -0.35921589454541564 -0.8633796017504809 -1.022550553659826 0.11614342514060735 0.42598594889604935 -0.635655918018545 -0.49502102682328697 0.4757858043649213 0.16479648212335665 -0.5583689837908243 -0.09767181103089968 0.1659945136008951 0.4373756689899897 0.8361351508554102 -0.2872324205695835 0.4416878255485487 0.660404485162672 -0.9174119650639045 -0.40493232480829744 0.02884300634623793 0.6284600922662613 -0.8960339682890306 -0.9170166409480802 -0.34601209370602154 -0.21108388363044037 0.6406727907149238 -0.04473172637545272 -0.9434098287823509 -0.501733009121037 0.6368676159959691 0.5356937585850652 0.049924499064784966 0.09064376728182516 -0.06318556438954996 -0.017401941496942606 0.6267024213335576 -0.6247051892173435 -0.8982253653016437 0.40705563239315645 -0.41935982789017656 0.42126747106058615 -0.6665011779353667 0.7228730012472893 0.18069621591663965 0.08540370798693943 0.5180533210834737 0.3914151395152976 -0.049944525752505964 0.4494230025358459 0.29259747568775496 -0.9907979988491844 0.04367916003461283 -0.109584105124489 -0.43846733659556597 -0.14381407072098246 0.5387712587695522 -0.34736310403067305 -0.47878403765761013 0.8912719039021779 -0.851888781708251 -0.5364325559080287 -0.7169601733704559 -0.16078063658978387 -0.12226195377461248 0.30777358152818346 -0.3167786038030902 0.6289404184401912 -0.6131335489244638 -0.38366908573906455 -0.84685425646704 0.7242429439113856 -0.05437441538547083 0.26754279185892793 0.451820561289179 -0.8244894153582378 
-0.0629801686221545 -0.4581070536933953 -0.02016537085214276 -0.8415512957892066 0.5130018773525373 -0.0926075854869659 -0.8175955297659705 0.6401448348261245 -0.35001383141496034 -0.026845065635263676 0.8309622501114686 0.4189027046975282 -0.6756196733696486 -0.7672470788852581 -0.4746888991960714 0.24138002883510978 0.5596361756429078 0.32953041161041985 -0.3723107163391728 0.9587067975619581 0.35629016887664067 -0.510044808307363 -0.9783727827669759 -0.24441943831075297 0.1058851653233519 -0.5001722775286208 -0.4173785751000729 0.371100800146658 0.9900547564537627 0.1391778609350991 -0.9457103065760819 0.927370811047012 0.07894287669764921 0.34519945019410936 0.1428127011310901 0.4925239276229617 -0.6034646007349408 0.5619388185811842 -0.9141245943425144 -0.1756739786631482 0.8403556435532549 0.5311948762648838 -0.4007836916202197 -0.13758683745411684 -0.26428239013506427 0.19687648035512584 -0.4847324752931595 -0.4163350934158127 -0.1842008087376788 0.7618713811428998 -0.9516009043431245 0.31191260013493793 0.0013789343882031346 -0.09130925221790198 0.3116251639751211 -0.38708876114824564 -0.07401971217248948 0.10269239075238867 -0.19467735879434778 0.7955580122594905 0.46082079627214306 0.7357991133942556 0.4361093574926988 -0.41161237431676784 -0.17605429500762235 0.4024558618221493 -0.8755131784178217 0.4204535094412567 0.7453568467579696 0.0480715686455348 0.4193865315902261 -0.6265692698752386 0.4646476300343415 0.24499518136125517 0.7022679501547964 0.32778276105890136 0.8777375564256128 0.33465316371244114 -0.10957101328156008 -0.004702283357603508 -0.6413402282757709 0.22225692688775464 -0.5980562867586128 0.4526555081935597 -0.9813869961229398 -0.03259019546603703 0.17714127286000736 0.6267087196909594 -0.12312094248081154 0.24240451916043423 -0.4006997360859016 0.484247693013265 0.09274397613186457 -0.5958899012367815 -0.3121594427943515 0.5514265751398129 -0.7556180842063817 -0.5362996680097724 0.4068559682376363 0.3467244657017262 1.0367523409871293 1.1343982866692974 0.8834924950523185 -0.3219138512601007 -0.03904805051984441 0.8615990367512815 -0.8677844398723996 -0.502343765327989 0.0019677381426564775 -0.9376954876046477 0.436948502123027 0.9267486977608821 -0.9199175651208287 -0.22553666280991091 0.776132902042059 -0.6764047343054821 -0.3166790359836496 0.49991097609760216 -0.7844831813919887 -0.914302698167703 0.234354284109108 0.09344245327439049 0.5328148509892703 0.8805012386033153 -0.30143175323843874 0.7814236127861911 0.276024359746038 0.5563526990300968 0.03038558358805109 1.014893274551019 0.001706304778189481 -0.5689527118458123 -0.30976504444569064 0.3672859379166683 0.06835048322918916 -0.4283419227121027 0.02278488102987238 0.1157888980406476 0.6664124703369807 -0.19524432564754335 -0.30005216354406294 -0.5574553639085595 0.7730195880669655 -0.293316681821038 0.4509432806318257 -0.5202820656741799 -0.22016168003418335 0.0818269455480082 -0.6631246228123161 -0.5263933923765682 -0.004621954807471603 1.100353244019996 0.05442163417694802 0.5746793822745637 1.0445296970170974 -0.11493230487116525 0.646191519878268 -0.385859693540822 0.6135212394722463 -0.7186568313517275 0.6176167475494256 -0.7017684144817001 -0.006424250561975913 0.07785734869158917 -0.8899795105210532 -0.05016439218270304 -0.36477198143079537 0.03486996844653121 -0.42801368046262933 0.7832634747609954 0.9616546640309915 -0.05099555849882587 -0.3388774147991449 0.714152621972792 -0.7120785593142961 -0.5054799994763083 1.1524656937175883 0.1795282037846296 0.13292787621462648 1.0754377681518723 1.1847002927134134 0.23570550483639882 0.5892518120347098 0.42358603719396726 0.4491113594106303 0.2533216536980299 0.34875897863341127 0.24790947622703258 0.43406563956818683 -0.7459182771379245 -1.0933362409456835 -0.4135877858241305 -0.7742723450206692 0.7278507035219858 0.9820083489984941 -0.722167088210489 -0.761086495578229 -0.6948787994539944 -0.46351485124663433 -0.8403788801258363 0.776660254340444 0.4033244195551611 -0.8363427994906394 1.1260680049024205 0.9715096133588921 1.2574973631971849 0.4532733535154942 1.248119345103635 -0.6706217744097485 1.0874785925065702 -0.6988099363417695 0.11944116557816276 0.34964654489952424 0.4355480070525935 -0.0497896756918069 -0.7754394931267053 -0.24429951409539902 0.6198774952839129 -0.6451939234373625 -0.3514484711972793 -0.20488854644371524 0.49249236039686206 0.0037510263329118463 0.561585605043436 0.17318843434113387 -0.30866500372365185 0.6767689164704489 -0.41075134870787683 -0.3461803072300993 0.07059080776500366 -0.35422901935022894 -0.8244597784493147 -0.49403123868784654 -0.5702905689111316 -0.2933007400680012 0.9587843061778444 0.22807558028435343 -0.4882437639756055 -0.006586106914172562 0.7209044949506128 -0.048316726813120436 -0.5084476132546337 -0.89223882105097 -0.15420536351047762 0.48498163531987 -0.86690936873992 -0.40810183922088944 0.0431960496549827 0.19778504872611094 -0.830383070209672 -0.08074141316529089 -0.35531541442764786 -0.11255445780129802 0.21258424635162088 -0.3864740347220981 -0.6201378668429874 -0.25819289567494474 0.4418683169120869 0.9728323462647382 0.9709304205915409 -0.7600277590259896 0.45473903090185924 -0.6212824879388622 0.014477848266620082 0.5087282298671632 -0.7487295059044344 0.9229704069274605 -0.4804589638491031 -0.5119869925060946 0.2957367319738845 0.31655463679716067 -0.6360782385427917 0.6753361968788998 0.4604365044876045 -0.8151613854835421 0.0635277919666068 -0.3887319206344619 1.0142038555188075 -0.871163629619232 0.44176108130935254 0.7309856000340185 0.5055880716086454 0.8841468797855295 0.24995249255951857 0.6864939424341034 0.08435315260555443 -0.09766306113765796 -0.09116675814274333 -0.5795574037738719 0.4323704814732787 -0.10508551839040975 0.3549212983883257 -0.5931409531333867 -0.6918861135047567 0.05915486317922516 -1.1431211442500415 0.19150598601832428 0.5032555634500083 0.7468542947008192 -0.5436971771203069 -0.16803401969637294 0.8543283758402057 0.8832774789482178 -0.5558681052831838 1.0917804294954745 -0.5379581999510733 -0.7209013714197586 0.7515272342288508 0.17904721386753591 -0.09428279517144927 0.38730031323120884 -0.7187052369626109 0.4938042497028216 -0.023757298405682314 -0.8033749850997634 0.13067322672393739 0.6836421339488284 -0.018343916221996936 -0.508860518687828 -0.6308201195639119 0.08530489484800477 -0.6986031584425991 -0.6870199524144464 -1.0187960782109238 0.047390996925684686 -0.8958066111002699 0.7274277134755616 0.35738808267716626 0.4538244192028699 0.0020167587052438074 0.006492936251572102 1.2542941851551912 -0.16616512571295516 -0.6370444182306254 0.5369466534084236 0.36753288777262855 0.7603060399255839 -0.07134246831571593 -0.8693176336050472 -0.25589499792865106 -1.132620904287019 0.6237509530596337 -0.8356966475089092 -0.3573869488959516 0.13441089292622357 0.26604951887263933 -0.16291523533629687 0.787971137128645 -0.5140634818613455 -0.29376986526932036 -0.6956129690378624 -0.7819734839425817 -0.9900274434104259 -0.93944703082859 -0.6423132336617201 -0.5597413840165154 -0.9841267667926995 0.23933797346872174 0.27738111712100877 -0.4630216408185021 -0.137279159694812 -0.17514500150990256 0.9947493604999655 0.32374892227611934 0.29051092342666585 0.8118296484571405 -0.9078162734776282 -0.05323271814306058 -0.7470313118283523 -1.1213953365758522 -0.593835049670039 -0.6576109120677536 -0.684836704266952 0.01005458904219789 0.3910982572086446 -0.11609212353413553 0.11010804831442801 -0.777846234768727 0.24059773706476173 -0.8114271938384722 -0.2002817971368526 -0.45358443338207677 0.5564766617120155 -0.5462738006772396 0.5129657283286162 -0.3917129532996307 -0.0834302346442464 0.048725634613081346 0.17311766426470165 -0.3880232141359772 0.46502596243356525 -0.9594644587860945 -0.20112829834109425 -0.22367354440444978 -0.9371476309649971 0.5599226353296239 -0.8868702556320432 -1.1655090627811275 -0.13183925904398577 -0.011778683249013315 -0.14077703035068725 -0.4644905424581954 0.055953181086817204 0.3159386966681632 -0.559490718300676 -0.10904843346402109 -0.9145296091018659 0.06714160848703347 -0.3069946502507975 -0.5362476262480649 -0.3255599458026204 0.3184721536562689 0.862240035431522 0.6167597949986273 -0.5592018480075659 -0.30896272043777384 -0.5248523223495845 -0.8014846407276646 0.8549316492228344 -0.8595082538884397 -0.5729572439088174 0.20970718124116772 -0.6473879128268338 0.15306408567941823 0.7303927200983998 -0.6760907461837515 0.7047009371613316 -0.3080747818121417 -0.9699479270606839 0.16077915833029763 -0.5462103445000396 0.3928756997843037 -0.12367118613863401 0.4549951650888027 -0.41991202695186536 -0.6705447054131799 0.0764797415940151 -0.6468915856964019 0.708760032144008 -0.9141933165748226 -0.2686338235560836 0.669490969745727 0.7536594986484976 0.5555460991601582 0.6491146177436362 -0.04123291197520237 -0.05912558290327619 -0.777739553971599 -0.3259795910977274 0.2366858119276029 0.008234732571132651 -0.7555322153576961 0.10806595330052939 0.3511788473521257 -0.7862796293019975 -0.8073214331100574 -0.032429744431292755 0.8506161113159498 -0.31402455439890464 -0.6870353781140278 -0.9487507580089477 0.2515718939510243 -0.9169361194289924 0.2856345480223491 -0.17696916235471022 -0.25530768611963234 -0.7797637059711574 0.36884798102625094 0.10452009624198597 0.9949948418916394 -0.7975601896546813 0.19381178674053345 0.9181056330362617 -0.5035494630005166 -0.8814183919437174 0.1533393611987341 0.633014120786455 0.053694762212979696 0.6012360455791205 0.25385267184752675 -0.7828734446687414 0.9735554610328782 0.7296752971967196 0.716452052460419 -0.2465481715998108 1.0141776959940259 0.2482369364005595 0.32786346957789325 0.6904593827836383 -0.6987531425679373 -0.21528941852131198 -0.6243667367222636 -0.5433856031752112 0.8732589253442528 0.5779858371960096 0.16100836201705318 0.8131158805736665 0.34634459919784344 0.9849177722392061 -0.20644516961192202 -0.6112221243760495 0.8171983038874977 0.8586564832631306 -0.6125704683118148 -0.6701505528423755 -0.008225847440568597 -0.22648016565311346 0.38697357541445526 0.6504041561088543 -0.04554142820204162 -0.4447227115473884 -0.5214742453759795 -0.11841142174935425 1.0770531855677177 1.255446259581482 -0.07344493115041385 0.8028147418775072 0.03572143703153405 0.0864772469547934 0.791841487182013 0.8795387308990832 -0.17035607951188544 -0.03368566386653864 0.6677899761735615 0.7747542425871007 0.23446429260705115 1.119120021751581 0.6450950576430636 0.2658470958782437 0.6318588934314805 -0.215986104296429 -0.5228006787147758 0.9229812156957491 -0.4272399184785619 0.5329500539576123 1.0155829870463637 0.10258528621853252 0.17325823788539715 0.06397105813457998 0.22315258984329087 0.6253836018172665 0.1858115484477176 1.0091024585700448 -0.2261572114118133 -0.014849692457185353 -0.5413004863368116 -0.8234493538539792 0.3921423793421174 1.0432651896521958 0.423832107971278 0.8811094383674288 0.3047886066560141 0.9243704160265614 0.022054862017853387 0.4759136628433299 -0.08626496478046643 -0.2989751559331431 -0.4808055245362442 0.8282290991335229 0.19106275671643586 -0.6371773647187016 -0.19497503199766586 -0.10212774173076217 0.6129741862493533 -0.6401977271769621 0.2994679449653771 0.015228321732440776 0.3551141576835204 -0.6270891262450604 0.480600924206527 0.4343550059210124 0.6035207150237997 0.12383005290117824 -0.5419498324772749 0.8740438099336714 -0.8077107819838333 0.752387527458925 0.24907244635394035 0.6203900608601443 0.5869745563032284 0.5800056111711989 -0.13031643683100283 -0.5896160841320323 -0.4932170936403313 -0.7505816738928937 -0.3391911856033681 0.2461196090531588 -0.23388536262446996 -0.8662955470812407 0.602016515156999 -0.659055569500924 0.8422764286457111 -0.6916453376376042 -0.02637456703430219 0.46660524585095237 -0.5015067147815716 0.09174777850370529 -0.806784380944894 0.5079671133651744 0.6242410009318785 0.05658085330374973 -0.19258788918529848 -0.6796271142822236 0.8250786579091554 -0.10846203950910187 -0.1130128740161194 -0.30620037143427503 0.9992434470954835 0.1766323508613033 0.6891745804662548 0.45282509353842443 -0.3166526627309831 0.6742221568968982 -0.25491001016385323 -0.24707288634604296 -0.5578654194257953 -0.08544415561829416 0.6465554607601626 -0.22962714904221568 -0.05279572984841139 -0.42626270650480913 0.09924182341919971 -0.757128929442637 1.0728538838126842 1.0775541170022673 -0.7904986775668392 -0.5612259376550792 0.6919938176749612 0.6891153373561054 0.5771308190069893 -0.520866313372269 0.8690416377842545 -0.7763456792477733 -0.8271699033687695 0.12191156666688692 -0.5847860018951903 0.7713719382240259 -0.07155875023608822 -0.3117701120333195 0.7385909811042967 0.6182963811158806 -0.11491097931281831 -0.04783330141666573 0.8370432353650206 0.3948228320209568 -0.07317491107007723 -0.8878621788647181 0.757125614396723 0.8857469068577531 -0.9696149094556487 0.6609331120166732 -0.36732037285442587 -0.025840153990081507 -0.13091785330774705 0.8151378130821343 -0.7418969879624389 -0.06602702880928277 0.6293890577026978 -0.09193786200282404 0.7265939915912996 -0.8895887937873446 -0.28767653117360714 0.704689959224267 -0.9594284853184508 -1.1894391979097438 -0.6713787676842625 -0.5516258857091293 -0.7602332286458212 0.9818457295337399 -0.5749886150551627 0.5123324867907046 -0.20401565380942888 0.07002513368948948 0.013435790581436402 -0.2261724617852522 0.04682436243720752 0.34878330182274375 -0.0885908183573972 -0.6103466825891817 -0.5743514126131793 0.3265705225033523 0.8283033199671441 -0.05593031208210907 -0.06252292732770381 0.5189329535062048 0.5993295577132448 0.2354569344324834 0.9300388858585831 0.38558256567831894 0.16525349321042074 -0.06782253066562961 -0.5069210396485001 -0.7577793354640918 -0.6261360081104348 -0.9884052277622403 0.48209714302681267 -0.28624871649963257 -0.7794650706288438 -0.717836716297541 -0.8975316305356635 0.6167451778659052 -0.46151015429349385 0.22460269474327108 -0.544146739199323 -0.026356658111054334 -0.4084585174578219 -0.8839556004283354 0.43086987560564355 0.7977994670871686 -0.1880802348102484 -0.051450999225487765 -0.19188703159396675 -0.799858890586936 0.1367475842775759 -0.9777702451701749 -0.3720555313235777 0.032675435406874856 -0.5902543728797354 -0.9724632091731559 -0.8241214764327908 -0.14591483787628493 -0.34643469937947424 -0.5164574421417107 -0.9371374104066172 -0.6187178057672739 -0.26086158599812215 -0.7830002206794389 -0.11172433655921954 -0.5902686444312766 0.39891259252099465 0.8004434202368254 0.23371990178604696 0.7936779824582058 0.20322850196270045 0.1795813152061346 0.5763415132888141 -0.4794464871984486 -0.6080764613886288 -0.9465187732108836 -0.7147153268262193 -0.3435492058750613 -0.44848563310350265 -0.2096035830437505 0.08489985751302483 -0.2161989832959407 0.2896444938719672 0.2203535567115128 0.3784925505097345 -0.5329125859939923 0.12690856179318968 -0.9849019497135383 -0.956735520445281 -0.06302155922922731 0.27338016514669694 -0.196460969958397 -0.2865254040811116 0.8941897171805593 0.03880011248016735 0.6620898807001625 -0.5681415742368161 -0.2575177184858092 -0.17679853433858106 0.5651670059818626 0.5957597773176551 -0.9006178670709831 0.6202580596939696 0.3740651692575194 -0.11872071269842455 0.37820932083046305 0.14931438362059368 0.8653584949541346 -0.26937781907755964 -0.9798811012441829 -0.6637008717919822 0.24169221238092803 -0.030845059973827513 -0.576156966532079 -0.5978800600958893 0.7325600181819782 0.5295929731270617 0.0949307603464078 0.9065732043829628 0.5534329178215867 0.11019342556464995 
0.8642286116898983 0.6289287507395334 -0.6792805212048496 0.35640427826593357 0.8119975440248093 0.5157101657807992 0.1182949958943964 0.6221353013998656 -0.46964777896042964 -0.8731830516812087 0.046106014284807095 -0.9442848194355664 0.04663592031304452 0.30857980511811395 0.7905387143965369 0.5084493288483304 0.004725836802617511 -0.7527997300734599 -0.09082907110623273 0.2665819707056176 0.21882978223590843 0.2129267502969172 -0.050657803489276176 0.9297213776472151 0.5522291096377046 -0.7161347487185732 0.2641470495355758 -0.1064464694106324 0.22381069108587037 -0.8706992730917542 -0.553940328727462 0.8419341294726885 -0.8918763964266964 -0.46404893435260713 0.6675688908172704 0.4132037004009526 0.37047745113094793 0.777353882506022 -0.09989040337362472 0.7786409284132948 0.8574658892359163 -0.8573327336277671 -0.027919006339512584 0.24786499067534037 0.10210648392932979 -0.9532186270715917 -0.24065272316976452 -0.7522393793219356 -0.5139316271182377 -0.16515819489167666 -0.6536518134614338 -0.05426453931194719 -0.06558570576926859 0.2692401175105792 -0.9478485617736734 0.7404338531402423 0.5194583668166992 -0.9257361627706153 0.3348709468026714 -0.6442142576323404 0.972990722722726 0.09027131807712188 0.2129218737627951 0.7844292091088145 -0.007600944623785992 -0.10575138750331833 -0.31552693898895595 0.5626379012101645 -1.0275339682856404 -0.49145613450368114 0.9007896501725932 0.05035497055525082 -0.26202059631218 0.8474367768784934 -0.8535749536364479 -0.0916115156852743 -0.7653764772300756 -0.9364687893051307 0.5010766429289789 0.14272210877201058 -0.21823187255765686 0.3009347883708972 0.6576511012655673 0.42150433918571295 -0.5656508656761328 -0.5392404406617128 -0.7828230334971832 -0.566197862182068 -0.6265391287283201 -0.5510825166979729 0.3891705778447559 -0.51964360353153 -0.9735049860905721 0.536875355034493 -0.04220495923341485 -0.5454010269471173 -0.7792639876076537 -0.5287749178486659 -0.8982554124720672 -0.10521226414717903 0.5179198356633922 0.7273687501174266 0.22101787084602342 -0.9963273353472263 -0.6168370996202674 0.8195801781508799 -0.17764275091006798 0.7373314974004439 0.7013884400064608 -0.32870324472366114 0.2017036687953635 0.644230800818433 0.5213265934126468 0.3487695837891909 0.5710204848591878 0.38335083997340075 0.13822607201809783 0.966518581154868 0.3968350999699944 0.025406928295967086 0.1587580310714089 -0.8319453711205423 0.1660437109671549 -0.5613409342047462 -0.4165645312251813 0.39013130954805675 -1.2755478281307233 -0.2651123508416776 -0.7963529453844475 0.7994463129135502 -0.6416736447775803 0.33552453783185443 0.9255715435913223 0.7258715632933244 -0.5098063683275972 0.9396876760589088 -0.16307385319344686 -0.9122438675413208 -0.5469060014283784 0.7243196003111829 -0.2722539536291342 0.6990457337878271 -0.20144031308118598 0.26818967353949386 -0.707303659204 -0.5143006281514446 0.37027703665224393 0.31044124005833856 -0.48217312800929263 -1.1275396899430676 -0.08141479391103033 -0.22080196181837985 -0.24493223659711472 0.22890553172078992 -0.7218379792022063 -0.6548503268083674 -0.20360342565161654 -0.7691293967955087 -0.31651835166465814 0.71954664637469 -0.3903368541902162 0.0030315291712266716 -0.0028859680344250154 -0.6903296521489942 -0.35550645345331056 -0.46940109167826016 -0.323351732010672 -0.7496625214962676 -0.2720383009649563 -0.42327504097698565 0.9772612417987447 -0.09276402417899933 0.3534117255736931 0.03553315420683885 -0.15477347376735578 -0.40989864527180947 -0.6756140505477908 0.2472915827780134 0.2283437244227188 -1.4001709302816665 0.30167930102564816 -0.7141235989057632 -0.724871427509623 -0.609427015723051 0.6929358838222752 -0.10973972987669187 -0.4030827640449064 -0.09566148827438263 -0.08769813278947644 0.8245499095513774 0.8922344687896281 -0.4405102962467858 -0.86807112097608 -0.7997027327594294 -0.5283059577726564 -0.4594563968633009 -0.27034539648155653 -0.8592884060456204 -0.987548428334079 0.18185543495906736 -0.263127612794581 -0.7912953868133045 -0.19316376467419788 -0.14535479828314965 -0.8162582583977179 0.2919917213955122 -0.14329907603640862 0.5301724241094815 0.3281083273804043 -0.06602138675205997 -0.2827148175494135 -0.49188731510557376 0.1126668040521786 -0.8053891788660774 -0.718635227328334 0.2329078522219595 -0.6418726465613818 0.44490740440505644 -0.8244044460026276 -0.5678021571686874 -0.1035243518974933 -0.8169038467385354 -0.6653403058937961 -0.9843886396418492 -0.741976748626308 0.8159755344157414 0.11996591113131651 0.885543965279418 1.081847330728325 -0.2168538017602725 0.11977277037818436 -0.8166446537553805 -0.5266659036978981 -0.5741372665624949 -0.6890016444979901 -0.2910903058006719 0.7635776985196775 0.7794060777282007 0.19304620867885672 -0.24870412910862216 0.5312326061802953 -0.20765654745577877 -0.3150263669996386 -0.4904318131802835 -0.48182157234001555 0.8113758879867934 -0.30998863430972046 -0.9205771101347076 -0.4595386743803522 -0.5380692365473722 0.44002452951598425 -0.38383397787180257 -0.5522107091459489 0.7143194096977616 -0.4226325108399455 0.21317391243339598 0.828225241064635 -0.7801402918508709 0.33725518979836316 0.7037562566713117 1.263310911669964 1.0632535153231892 0.8999993938515823 1.0169798447248288 -0.1037075037684952 0.6905633393113051 -0.6975455597757962 -0.7314632118657756 0.26213686389834456 0.8133277744572524 0.5868104690125457 1.2294812120120835 0.2772767534305498 0.5211577934041244 0.7201249071537336 -0.8417463089648957 0.5859637522969754 0.4939745037851604 -0.38186249362079594 0.09712785983522049 0.5839711541615025 0.7216573281705172 0.1429092327291182 0.046119013180386616 0.19181790492086817 0.4886131390770406 0.1297804215349069 -0.16538642540069662 0.8323952307805339 0.9779535783000283 0.5300353880334592 0.3001736469300575 0.416555592955298 0.2865284110761035 0.7205822318592485 0.5716447735660908 -0.3802511783944036 -0.4203488406264865 0.591675572825949 0.0740833671675066 0.10060730991492088 -0.20333637300073956 0.7800889897858425 -0.32772552662669735 -1.0079501184798194 0.6011159374939499 0.9654831632666567 -0.601273824261634 0.03654972131442391 -0.30269141109203535 -0.9604877714087723 -0.7489437756233449 1.0655095845421014 0.7988281432836846 -0.7264839397298299 -0.1305733197817182 0.6611629603096849 -0.3058732070389306 -0.69080121514299 0.1019814520179811 0.7946394765537786 1.0234352064033327 -0.3145657361038482 0.719560671211103 0.9271228505467815 0.22763037786784512 -0.3279048901012894 -0.09952509770017197 0.960672355355195 0.2758352160711656 0.8415643107060256 0.3131591999606158 -0.8120639793355431 0.7077249015886453 -0.4901175532363514 -0.5841712914660715 0.31731540856442186 -0.9801927159477261 0.6248058716183129 -0.8624326548312357 -0.8506440771225044 0.7378331582354208 -0.4324406273306835 1.1508381364108093 -0.11774775541531941 1.1286973860361778 0.8330995710775582 -0.5469272442012909 -0.37117713593628965 0.211864854742791 -0.3831270040974927 -0.02671327686943332 0.524281957608969 0.4047792660102033 0.7816909909549985 0.4553766920159497 -0.07412086702392341 -0.4750479008185261 -0.9777299050323136 -0.6805201003926004 0.7312886992282968 0.23956066574665286 0.35942072976712436 -0.8362942283064091 0.7663558109976895 0.0021072453886601733 -0.6651013217188593 0.2824531231085934 -0.5511464352627634 -0.0277342491543467 0.4816501451251928 0.11640278129455625 0.32639982910160553 -0.31147517508426364 0.38641353544656576 0.5041042350816578 -0.625540972777477 0.6431071246169295 0.14105435014930456 1.0331162335354949 0.7005200255648106 0.10568785177203491 0.6414061403567659 -0.026936958642598825 -0.20422970233818788 1.1359782594749623 -0.7928309925403006 0.06348477496864281 -0.13286653208906754 0.24373010461902042 0.9719363410538736 0.867260677400037 0.3366469655514295 -0.04859420058960201 0.3255212970960951 0.5386114307659511 -0.12465931806367957 -0.673399563430095 -0.7574158492027989 -0.3163474436271698 -0.290016698118386 -0.49614013291660763 -0.8664619471914656 -0.9024871831133024 0.763628996277347 -0.22096963653586266 0.6921140320670693 -0.4388696481451414 -0.3866462729522433 -0.168090622250959 -0.44271228043288235 0.37463728270404245 0.6704798138445229 0.02231827587704301 0.1479814563254372 0.6108778185805596 0.6899531665555484 0.1423053615707093 0.5427085686095809 -0.4104218760638661 -0.9038660401840652 0.35057733438879146 -0.8869467046781598 0.359295878586583 -0.2970665840263193 0.003956360386360108 -0.3767824987394434 -0.39919631750578366 0.27014758462800526 0.3101056935107242 -1.2905533303846803 -0.56246999893837 -0.1258228133815123 1.0267197646122839 -0.4307797493931259 0.21052802420576835 0.7448888274020778 -0.5771029889839979 0.2372405608086723 -0.36882373143503294 -0.4987408454607789 -0.8311530797335773 -1.0561559902483093 -0.5589029192957709 -0.2860702873284467 -0.2667417103713905 0.2360929988690192 -0.15228961750552164 0.40452371461353787 -0.8723616656628967 -0.828070206642614 -0.027697483363747655 -0.7065663557009789 0.0761763880732832 0.4310758043020393 0.21155413137229603 -0.0720575202733049 -0.1837030634069093 0.43829775988129793 0.3851323582844024 -0.2664432261237746 0.7963994848211581 0.5152855765415395 -0.14965553344763988 -0.559462358553143 -0.30318881866340913 -0.3388025591682842 -0.33774411456646786 -0.42922588643224846 -0.9396984098531609 -0.19146008589588315 -0.27111554320852566 0.4144493324576076 -0.12306394761018213 -0.24971731228982177 -0.8184796312245164 0.2473866346070699 -0.8352732167295045 0.491368751679379 0.7266352732913366 -0.32197812009315513 0.15213351670393271 -0.38690467673557455 -1.0139065950675605 0.6621041022460071 0.26680755752048846 0.15219196336319757 -0.30836728904220573 -0.2454702939653724 0.843277519200019 0.9790420202831358 -0.5277632756644892 0.9516289471139633 0.17732227952970836 -0.9738491260054233 0.09574025709067148 -0.33922447885283885 0.45273185312659014 0.3380051232621013 -0.7028420836109622 -0.13579589239401113 -0.05497893758851709 -0.6845921970721547 -0.1749459773964449 0.9230675748148294 -0.9597164009755879 -0.03475656453234314 0.2316177196262325 0.6925197629557066 -0.65290372472154 -0.8360966843503966 0.5605221597242711 0.4233178002825238 -0.5517554814387476 0.15532075246546576 0.7402723974699759 0.16112612487177466 0.6225050769582057 0.9780972749313682 -0.6929224313116683 0.5683621682133776 0.3526777039265521 -1.3534386197528925 -0.027545603644779475 -0.05384023171741789 -0.06504111420319865 -0.07892356816316712 0.33465590601854883 -0.8036012762284512 0.8649596135552894 0.265910352583801 -0.4632878985955087 -0.821709033199753 -0.45830323020070174 -0.8842723908000484 0.3156972428255662 -0.5881584422991336 -0.6191408510676604 -0.5315635388807622 -0.961338793484938 -0.8551625459365961 -0.3702258586252745 -0.5308357417601944 -0.021041354367236628 -0.13237767576057 -0.19475947168852645 0.1518164815565802 0.36012086458224396 0.4461254601924061 -0.4334297852288785 0.3754342657019521 -0.6331512793809329 -1.0576226625292835 -0.8676436480412647 -0.051203259470811884 0.6934640390404054 -0.04643111529057196 -0.39290921971159604 -0.4555467354730403 -0.825315046107692 -0.023763069833001138 0.7129085021770873 0.7666054500545911 -0.4186245554163698 -1.029115431220015 -0.0911728349756181 -0.5468596719812956 -0.7716006710274976 -1.0114629276402962 -0.9441977883995069 -0.07290719464239089 0.3540726858852182 -0.951435258369417 -0.7726158849525847 -0.5420755607616019 -0.2870523109963443 -0.8788907425752996 -0.3019869984194654 -1.007277171290469 -0.16662337095471708 -1.3341949511173978 -0.9264299552024035 0.0429196943394956 0.836561440791916 0.8421453583533759 0.24096932061326462 -0.2036709496256987 -0.07700839735586892 0.3562558473026447 -0.8807478619105517 -0.5558090165986541 -1.0070830586351833 0.21396304859472592 0.0900739152079991 -0.9107137999855062 -0.3199609354759008 0.008242484607130932 -0.08791068633060166 -1.1220023039122384 -0.8861537121712427 -0.14725745835554221 -0.0949732447993185 -0.44684351806528533 -0.8855084666885383 -0.8024636031501323 -1.049452282343604 -0.7714585383190357 -1.0966406966839628 0.290057861080976 0.6439658645446829 0.4883879337786464 0.3849418601664366 -0.30186926156150296 0.6885367388280167 -0.5649749401527691 0.9683561793418567 -0.6927201014747333 -0.38633582239868725 0.6143968489867335 -0.6831241301670505 -0.11722649692879726 -0.09321717477903325 -0.05007195016636299 0.7506764419719769 0.6037432416457599 0.32604870133345737 -0.6977648058904632 0.0608710453382831 0.35859778696719363 0.6596609382473614 -0.045470949976609554 0.6012429751144646 0.46233850473714283 -0.749585652989818 -0.21037793612991357 0.2522386637746375 -1.1425484043641576 -0.06103401671308642 0.41358888269084326 0.8211016969225495 -0.4125840912795865 0.5090591122998795 -0.45902444776631934 -0.9088050724884509 -0.7726203201909441 0.18041041571185334 -0.586837399682901 0.8073062302421187 -0.6254506037755063 0.3011982589035832 -0.26150863404788277 -0.22634482297129202 -0.35167772962852506 0.24299859552957107 0.8880309001223555 0.7873006392537466 0.8387933317868222 -0.5569573541497064 0.29106977196840905 0.9289453890535183 0.6528372827677285 0.8194177327329811 0.6770150674387989 -0.3653721188331685 0.7411958037499181 0.3813601544656761 -0.5525242685647341 0.31781417657416505 0.21228960117830117 0.9318170120644405 -0.3834957443673488 0.9469197025333591 0.37980583237509036 0.4107544292254739 0.3550714456176286 -0.5733828553484241 -0.3762402696701438 0.7714371590234981 -0.06425187947981488 1.103949813900129 -0.008247941936059142 -0.024637651876787812 0.38372587127913454 0.5181054204492265 -0.5186493623145823 0.6074984078852701 -0.22984166154359215 0.6074833172919891 1.0161335167816896 -0.371937835422606 -0.5632361011037674 0.11537860736947997 0.5005890150852069 -0.24348553133799059 0.7617770257603008 -0.18119446567961284 -0.34197003979248164 0.5872106009255573 -0.776815292889897 0.8261514774459549 -0.21875492732038904 -0.16913828889714377 -0.6547980575007866 -0.6313404467901526 -0.7826089878085708 -0.6056613045850936 -0.06927914567587753 -0.08511615210966723 -0.18050215824084462 -0.161783255335022 0.27137769164574155 0.3359390390370535 -0.11882286833032613 0.028086938193136644 0.2657163705405729 -0.6023616217090224 -0.37684671630491184 0.2414095947671442 1.0331915486399208 -0.9140951813856106 -0.247549961316605 0.5874605204151807 0.15322642171740697 -0.44622617260477465 0.8090459971104325 -0.2763191784914045 -0.04508484046518513 -0.6215154236820264 0.17091209970180432 -0.34410168458947243 0.4642869436539683 0.17944740180855745 -0.5029284010236518 -0.8684447586125665 -0.2572370967952183 -0.5818674018651532 0.9067048732551182 0.09293992384916093 0.5359562018064233 0.05353678686725202 0.7465502683559591 -0.5647269898518533 -0.48514763139702616 -0.4142417333580945 -0.6167348583174271 0.6090290484456446 0.6210910447974161 0.8385675852310784 -0.012904036748351912 -0.40243305208915325 0.9130247462044315 0.11252124977222355 -0.9148150588345567 0.747616294086662 -0.5906162802227299 0.16970006422443062 -0.8905123865380511 0.5852462903591522 0.3538751500324946 0.10926096233330673 -0.42818729298210534 0.08518357205055961 -0.5794844084802353 0.26818911988022476 -0.4061247451950925 -0.5150382536767685 0.3654791941555912 0.4868741408131189 0.38012572652137144 0.8448403712740239 -0.8739773989801756 -0.3598043653648221 -0.5396400373443128 0.841158381509453 -0.5449200866049291 -0.8518478445339843 0.035079677565538675 -0.0793194238513164 0.8287253831893949 0.2083280681059254 0.6785473854303148 0.467593158484751 0.947592070674862 -0.9854984104679354 
0.8448047503066762 -0.017719656916772797 0.44096285966662463 0.9067065342418277 0.19292160754548915 -0.49626460399704575 -0.18250906310696768 0.6416631840870086 0.539665588002735 0.4011156284106916 0.3331718459903852 0.09763571501498536 0.4247156369196161 0.5045964159575451 -0.3964443491385279 0.7058551078517128 -0.2720204950341061 -0.8684971943360511 -0.8809355436866635 -0.3539796411333702 -0.44484497204365425 -0.017859679150270313 0.5094187305758375 0.41799934028869856 0.6955513771638822 -0.8917325700576682 0.39732207885886983 -0.21338341693620033 0.35657691791409674 0.19816676373133513 -0.011806235054998337 0.29368078231526473 -0.4078092291663588 -0.7242119853648643 -0.8381263364598515 0.5410695402619947 0.867088049177049 -0.4253807535822301 -0.25440314649704454 0.24834311941452533 0.5283226940801906 0.8315055601540632 -0.9720178512064432 -0.09172772566798543 0.7029410408827624 -0.4090175431629559 -0.3016499227425259 0.6554816128235159 0.7274539309488599 -0.09825610947625457 0.008323516579873362 -0.451850469259812 -0.7199110027252404 0.4557247182027446 -0.5831451077881886 -0.14462828745464318 -0.044651031627903404 -0.09733962841349753 0.7925905090591912 -0.7980287160478077 0.760810022570923 0.5177966518099029 -0.8914176514517652 -0.601756048869657 0.772456461574542 0.22320169407133345 0.46840958015389966 -0.5195899227261906 0.9102038478463064 0.5463353509876546 -0.6737834385053865 -0.8309834210683135 -0.29093695975563993 -0.4882240606107768 -0.99716357414623 -0.2741952191238059 0.21649631715611703 -0.5019783161009488 0.8024595113436009 0.6225449975522978 0.6659868242963156 0.4693944097894345 0.9791069580649545 0.43261758794668825 -0.03875324787425782 0.07589111264351467 -0.5781188912041614 -0.974245079772568 -0.4074118584095154 -0.0024964295766296872 0.6621396897982545 -0.8138575416769452 0.5512050875994006 0.2050691632895377 0.6214854585726699 0.7741495506687063 -0.4715515869546075 -0.7613293864636623 -0.48425295731080314 0.5104184217979902 -1.0278631986344648 0.5226992364061092 0.44979376933495996 -0.6343084873373249 -0.5495560512560775 -0.7064667507773662 0.08064974224240938 0.6322686394708233 -0.862567080468966 0.3642767143233201 -0.6319035160762264 -0.06385796362893847 0.3259883189707409 -0.20635222595628688 -0.8791349889549093 0.7127513380130928 0.817323881354158 -0.6083778460873523 0.18523119814397357 0.5970041489547898 0.21894120225870883 1.026936348100744 -0.24732523759799668 0.027284428484511018 -0.13160610821496965 0.2886679978051825 -0.3543961112132286 0.5129600268817346 -0.19138770012731987 -0.24200659690881632 0.5035637340612561 -0.6661849461421817 0.45932394537046795 -0.3203925388872794 0.9510780137633267 -0.11833076018593353 -0.8569217363436855 0.5664101113224946 -0.7922847749463406 -0.014526015964446814 -0.41298759530700435 0.10468178798459249 0.9517797487367317 0.8476098672272354 0.5281350575552439 0.30585687770900194 0.21652014119397825 0.49660548358566065 0.49622048144380676 1.050241470206062 0.5298290032378203 0.9904177464722003 -0.5349107316550051 0.46676148086583175 0.20560518977853837 -0.9121690576114025 0.43172732714691353 -0.24908229955285505 1.0110531881150502 0.03981684109987825 1.0701083034523944 0.2067713100613853 -0.174548858880869 0.5631288288776332 -0.2105748315571389 -0.27930643677830513 -0.7222364758880302 -0.15672563980809018 -0.7445304911147113 -0.8479303661906847 0.3474759315660071 -0.11155414458278701 0.06304365079698604 -0.4257069240259463 -0.15319325721478888 1.2365249289449687 -0.4453030003724744 0.6764701301539617 -2.3274486728816404E-4 -0.14204152217879995 0.046811862047188686 0.016202170433412443 -0.4849714396206735 -0.6606859829134116 -0.5056628796188177 0.032826420243538934 0.5133856296466671 0.47903207724491476 0.07644803066235446 0.9411540107518181 0.4846749411817774 0.5193767137377484 0.37701170423194635 1.0731714960762844 -0.3607292004243881 0.00334269128953624 -0.3597879073568333 0.23165076693447925 -0.9223251222752251 0.4197797214371357 0.30242573009766427 0.8992212480167759 0.7122742022982766 -0.058133321196854854 0.40004753418858296 0.13635420108603835 0.35746058835535943 0.052803089910053565 0.4608349902053111 -0.2933213683956637 -0.1468234347710844 -0.2934924498909786 0.972848850179291 1.186269427432774 1.1592004997890513 1.2508617219394835 -0.1947462340724413 1.3074595109594784 0.04524998575003545 -0.5579262967892724 0.8869714835928157 0.2815794850061748 -0.3960073407339269 -0.8237075912636378 -0.8021897759790992 0.7093890027720209 -0.40952436338316645 0.6514609665006911 -0.11849983065276327 -0.2406414605510491 0.06563025382027118 0.20632894087878403 0.3251773584522556 -0.5298385596180852 -0.2028094957740984 0.1976980323805755 0.7209811169775378 -0.05939469361302385 -0.637928243440715 -0.38767583633004266 0.32417532435798524 0.6640787941387087 0.8628763250388409 0.5296101269888505 0.5149711118644882 1.022226022494912 0.906481165403301 1.1631273648352118 0.9287158647204509 -0.23747445806950293 0.0627868546973543 -0.7508019636143329 -0.22660257138283166 -0.36622369521203957 0.925016195788728 0.5198483869276765 -0.8557771827064029 -0.6622340722189215 0.1456121148232241 0.11875532013020845 -0.5097034348242622 0.15028646136605353 0.671773833985736 -0.2272780103099375 -0.8740413851805101 -0.18545439370267902 -0.6770037786379394 -0.032809230941131785 0.7481940263151644 1.0933944043047668 -0.8681427264457052 0.729014868703055 0.2696850147731571 -0.10171178211454437 0.18877836795891798 1.031207197851936 -0.4712666823167508 0.9773404848287661 0.5705771060782623 -0.3543333590177771 0.5642342780962043 -0.5101736316020553 0.7120961935263231 0.4401722745498862 0.8302702460730623 -0.375323634874752 -0.15982281468557136 -0.12852966212812753 -0.6718558346474471 -0.23238619266614383 -0.6585651254848448 -0.5121534401230128 0.7934631359744769 -0.5935116726757106 -0.55981237614338 0.7946354214292911 0.5863086179434502 -0.3322595260820234 0.8006126986212883 -0.6962566369291641 -1.1117198929896233 -0.09317308912709853 0.5722445857932181 0.2825302918332625 -0.5420107255806071 0.6592649517923527 -0.5544258734194145 0.208198878908779 0.27672586375140196 0.8125247396190663 0.33036368475859745 0.1793159685042964 -0.9230939001201691 -0.25197342632756425 -0.7134228306685317 -0.016454984653168605 -0.27518767178873493 0.6622509601834781 -0.5450530569033054 -0.3987043041473838 -0.591274157135 -0.11370082694049904 -0.39104575619188336 -0.6181930781538336 -0.6347290316379984 0.6040674296303292 0.7294280499638011 -0.27224720865151575 0.28040349074492704 -0.6856677539960363 -1.1161044861709717 0.4394202289351863 0.729358049447165 1.0300920228131774 -0.32435018894443424 0.0751573678638891 -0.19949506447972776 -0.6049838925160579 0.10697249584745497 -0.33348999310788446 -0.35523115608580513 -0.1341804437467594 0.5532514070505875 -1.1542213123315832 0.529425946731682 -0.8152081495371885 -0.16935059074199743 0.16479835112313027 0.5978393270346768 -0.45109991779315023 0.7001374721564405 0.5408152174959348 1.3098730752031431 0.6427361210610338 -1.089334492805353 -0.22698722456851977 0.2888514555395948 -1.0453168148373424 -0.15620195954778354 -1.06276441702755 -1.0923935922854286 0.09833722516993691 0.7377314546677723 0.9495027629244429 0.7434512487635829 0.4504253719184821 0.2905698592349073 0.036526774823432064 -0.11475825128175764 -0.39196425247897965 -0.47960142112268916 -0.1911801498858523 0.20185631076504026 0.6065851112936476 0.8348611159719783 0.14038866654186882 0.6368014182092396 -0.05784042905601991 -2.6627218180513634E-4 0.834423547962528 0.3961691025469187 1.035113633991736 0.42171681434985253 0.010293219148926435 -1.0467154596456765 -1.1840150188274041 -0.28719079357845434 -0.7084456291649734 -0.08269196308966759 0.5850385135941127 -0.802024074099413 0.9271897317497794 0.37311431473271983 0.4293748755054956 -0.32901123206495025 0.9664087639683246 -0.2200327360971222 0.6897195616832194 -1.0203497948243319 0.0365975073871628 -0.21210258744047333 -0.011937229832521306 -0.48487501696536417 -0.7649974937949792 0.014340649623865163 0.937268217390978 0.4256993257158207 0.5695802540738513 0.8877847756293185 0.8995646530026614 0.887335295133719 -1.2604598230607822 -0.9368535657623634 -0.9440863232737144 -1.1729218750229975 -0.12345769307915232 0.6442300281456491 0.05157989705838524 -0.5861401235420047 -0.59757206226733 0.927804149614402 -0.6462802323537259 -0.9045961857122309 0.629347383739619 -0.12083922838370208 0.33961220528320396 -0.7239191918792269 0.2739993654829409 0.3205010945682412 -1.119736859936584 0.4467503560914266 -0.18688467814655388 0.6967772043651573 0.9336940080072407 -0.683808415544239 1.2060399669549284 1.0910617588057072 -0.11632401510599426 -0.9078202304757802 0.19420089740611024 -0.8122875844691194 0.6943418593252587 0.5145560408687371 -0.5469847130014749 0.29302125747216984 -0.5679348961293619 0.2415021540868599 0.6500462824714355 0.8377317304149778 0.06162052448354927 -0.4874222749876342 -0.8980096108799445 -0.6302471980203554 -0.42479251589342715 0.5657124586443419 -1.1304865621930063 -0.67876143555205 -1.0640947962622371 -0.5716874849235788 -0.07639353696847201 -0.19778396041223 -0.2995492458781351 1.0320753383411256 0.8882093932063396 -0.02357114632705815 0.5969903393512798 -0.5385417947635875 0.12625268903306486 0.7214088735637039 0.24035559150786298 -0.916827112525183 0.6442294461793413 0.6864062872698792 0.8053622816567093 0.5137331735847049 -0.5571073123570375 -0.8250816580768032 0.34244361945983115 -0.07344673243411377 0.010700121353494326 -0.40126779212652997 -0.3780150632262174 -1.2294433609449968 -0.6897190634653285 0.7485893961349235 -0.5070171299094148 0.22551128359229872 -0.5881830760955773 -0.5505371970900772 0.2095925750493197 -0.5848362406310629 -0.3817051464464782 -0.4461120021103528 0.35779629574842925 0.2950609015501554 -0.9434061230003301 -0.2863565536506792 -0.7126498790898023 0.6861441757728813 -0.9768837959540264 0.1264125242047561 0.32101709619210056 -0.6951689395169959 0.5095532016755325 0.6133836356155535 0.9636698714313421 -0.4888376557086329 -0.6904691101485185 -0.8879391619595047 -0.6934386781976046 -0.24624368544042685 -0.5933703399821494 -0.574517166632715 0.644584803198166 -0.08673646975929425 0.24088898926780677 0.05920430543349962 -0.5882176023460898 -0.20036743733107748 -0.44203430791484133 -0.58634541248158 -0.061984803791148776 0.2575129080397378 -0.049354707143814715 -0.007464590674035911 -0.46239253993827056 0.73635921598223 -0.4273712574441868 -0.044900892898808886 -0.7293604049192839 -0.08842451214638788 0.7725427828503921 0.3314363014413071 -0.5998672992017383 0.17896205184143132 -0.9370031738944083 0.3014024638687428 0.3401642740259735 -0.5146270904669406 0.10062156965627804 -0.4144597344319092 -0.23307415993332362 0.34590100760470704 0.4170707478416114 -0.7858795737141328 -0.6849615210030816 -0.31121929922223757 -0.2779875302929343 0.6595552371185812 -0.8164229676095582 -0.11880366750669748 0.3627324617960248 0.8892041085427023 0.03076876522868545 0.46512289436090704 0.09604350496060092 -0.6451801185229611 0.9354807728722349 0.25837591183541914 -0.8706479624274869 0.6257811676205041 -0.4449739222744742 -0.9035629654257749 -0.37997274751080995 0.20037361645915358 -0.5283985677056413 0.15920616264367093 0.5021824704606184 0.5660212575759671 -0.39757285945297577 -0.0876752864079998 -0.61112545209201 0.4565618047865235 -0.8931392641856011 -0.11847492510172539 0.50805741256455 -0.9925219120859856 0.6233729617751211 0.14680296312734004 0.23238509190271245 -0.19828320984355777 -0.5081144474181697 0.11270652436187446 0.3963105305092387 0.026135809383348172 -0.6704465413067617 -0.23297816752074152 -0.9514944844466278 -0.4674515765999352 -0.07263851251666618 -0.7778350848044157 0.14800185002241584 -0.3978391606147143 0.7293479655055034 -0.1394884027323039 -0.07082687390783475 0.3522891273147683 0.5885685872015934 1.1688645952131549 0.4107846197658194 -0.2924451035108181 -1.1310098981539598 0.2780129673142817 -1.0275497549185362 0.09613470522151178 0.6159351043793736 -0.2657204368453706 0.7895824318119814 -0.49923524857697726 1.031116287638029 0.20809700929627478 1.0090218113294007 -0.13501858852272566 -0.1110434667963328 0.8213065431096134 0.4500536951588454 0.46324007332424166 0.5342840817218018 -0.6592552334178875 0.0793786206429162 0.9174849557202833 -0.5508450019487591 0.9750171993095564 -0.559490700738624 -0.43208709423885366 -0.05066315701096586 0.23608180450450558 -0.8633040337988687 0.774243894120372 0.05005716616116335 0.21366978752380714 -0.8917465265401595 -0.5316827196934102 -0.00970027791110924 0.2017120038151035 0.3415398585279454 0.3545732836686714 0.22869340146896075 0.3403689811235736 -0.7675147073899555 0.9062597906241805 -0.37514399798054765 0.5756307090568397 -0.7753143947260881 0.7639799398456351 0.43748264616975563 0.042466959733383124 0.4484246483193295 0.817248264895925 -0.8797598016604783 -0.8246074246831917 0.6990542970540813 -0.2715469818679607 0.28597451582575306 -0.27333165984235713 -0.26423127270201285 0.17417613022002587 -0.6418257589825436 -0.3085637484879302 -0.1255615722334445 -0.1788432112184216 -0.29602799402061347 0.34786869696878614 0.3872924464723883 -0.31526860160725856 0.9547260294576697 -0.7061610395379946 0.6276064332631077 -0.21048096863651267 0.4402446456094123 -0.489523131174113 -0.6820864136430904 0.19434414984562132 0.9515025625026559 0.0262083231970701 -0.5851459468904231 0.8483543092255066 -0.9001756872761486 -0.4141497575538792 -0.5077769718872817 -0.20848464879524317 0.9446497867397177 -0.7009725384551978 0.29787799880320426 -0.6581259799991335 1.0038130410358148 0.2746462472415372 -0.6153468839243882 -0.7507653814513573 0.22687436616631865 0.4636197171908703 1.0017055273039133 -0.24216612936698975 0.06776685981806926 0.5752114291808421 0.9548234481909917 -0.727924388951006 -0.8002922375863075 0.9978342302594483 -0.43444970846105035 -0.4025603043026902 0.5278359634599414 0.3283277295844567 0.47234613854534163 -0.8886706910303515 -0.23161075667032358 0.15028831895190836 0.033450480266419266 0.7280558576886141 -0.8641625763553138 -0.699061348357036 0.15538953083679466 -0.05326210882925344 0.08735651766133493 -0.6855855628047798 0.5068941937967465 0.4827045382024992 -0.46200950711234334 0.42423321901668687 -0.1715187073579817 0.21594042324269935 -0.6490100210406607 -0.7434765826415425 0.16022105180109664 -0.9878136931846795 0.5707772877542174 -0.7969187037050471 -0.5860397457543927 -0.5042111537494995 -0.08788069005035815 0.37627060147104485 0.7999214950661226 -0.41009506773437376 0.04467583799691626 0.568428315071068 -0.8693399250059609 0.05658537364816572 -0.17202070589464913 0.5867807782509513 0.0335034655532945 0.5943671242588517 -0.0462589779922366 -0.4552370266643713 0.8919434788488353 0.11195802319372185 -0.0792076628145855 0.0783298162299612 -0.8102792761471104 -0.11775120085145617 -0.3171685887570976 0.9461372490014499 -0.34658607051199536 0.5481883590180814 -0.7935285825614975 0.8929668392153554 0.29333633559619865 -0.0020314931280225323 0.462809188500507 -0.6151186929922536 0.021653523543905262 -0.0633760804884731 -0.6112842451098528 0.9087848099419167 -0.792994529449049 -0.3216511301550019 0.8612440260809234 0.7230007402641451 -0.5098864915637416 -0.7728421483741487 0.26663386510403236 0.2607773832680852 -0.3911898157428754 0.612091108154083 -0.17003739872142196 -0.8652691244557413 0.2895948006176001 -0.8263719633101198 0.7436226008811008 0.31707372583032417 -0.5670861489318728 -0.3776652518525174 -0.14251670455836796 0.15080042440617936 0.7345159100090661 
