-0.0861702963119988 0.37597094663328523 0.9153492880097411 0.44220021312059354 0.49648199388315795 -0.04622601289266126 -0.9107039165370223 -0.33610620246859146 0.979765484158023 -0.7749258024243937 -0.7004645320565119 0.41324370778949504 -0.10801091008372077 0.04956901473441011 0.7974525894947448 0.6164470331197249 0.8839426345496351 -0.5710138707177814 0.043846384727035836 -0.29451740409151617 0.4009206663772378 -0.17440251504721993 0.9248235035237391 0.35010091547957756 0.8121303721365505 -0.5906140672436022 0.8247647714257917 -0.7110925121334761 0.6215681955649999 0.41898264974183896 -0.09982423767713855 0.5159466468315732 0.08952732618478842 0.8546989657385922 0.3853656534980825 -0.8550141026054291 -0.635326560486335 0.3192157323058059 -0.6968167347112166 0.8903754576655222 -0.9655980306310862 0.9697708150822512 -0.41110172501098485 0.32690944186107757 -0.0421432003281446 -0.7084190894322206 -0.73979456553174 0.7797897173568984 0.10768700441508572 -0.34326265921473653 0.06654411289067164 0.08090500993845184 -0.7744620570309084 0.4849371817285901 -0.2016521547315533 -0.7420759411199134 -0.8150669650656084 0.2472389173807097 0.31759316026884243 -0.3224032619612407 -0.9442778932576272 -0.48585549287082164 0.3020548082676359 0.17203304678816583 -0.8945601932654718 0.7653418506376323 -0.33884032730742203 -0.7925091688245024 -0.839551482305027 -0.13343919495977802 -0.2946396716111452 0.3330092598674306 0.2873291841858748 -0.5676684479324409 0.9537110909647385 -0.07752027022379197 -0.09171651957364875 0.3560967672294009 0.4478857181732023 -0.01827824692988078 -0.13580456622470471 0.25021341287319965 -0.6753130057659431 -0.4272382982374383 -0.9995068699559393 -0.7571893760307733 0.17903059741842342 0.6714940149824516 0.6419919302829605 -0.4190741937228572 -0.9523970383136645 0.0649604039510004 -0.39923572900279525 -0.6678024496163265 0.7543792361355536 0.910193666376624 0.703913692163622 0.5004718799323358 0.7348934472433512 -0.060062357851985076 0.741609173586903 -0.10587726025097594 -0.27332656592093574 -0.38251393562388253 -0.18424020414532716 0.21721460781099997 -0.5089257114906758 0.15169512693359147 0.9795649491132056 0.8019404796327316 -0.9118654396353245 0.6229291411900659 0.6693055839707112 0.10438252640434964 0.5962973604199298 0.7980329569799418 0.668069062879082 -0.287914431150635 -0.6861679598706111 -0.25463243151647924 -0.14669569372621696 0.38950635741025835 0.5677783825498728 -0.3748536588715 0.9402846048263558 0.3636680270325127 0.06197305721397661 -0.35706075158416684 -0.8432418704606093 0.8275257640495937 -0.11113925033927073 -0.6144785181947129 -0.1258002314781831 0.10464626077484011 1.0230868744763884 -0.128390240207359 0.5401611361456817 0.09719342358809425 -0.8281298763453449 -0.03465566025881306 0.6994613212979661 -0.24376721035276838 -0.16343262501178835 -0.9255307650802058 -0.8630407151455083 -0.1487986510969399 -0.7567042504019784 0.26675920357409993 0.8192043551545596 -0.6105548718422111 0.3769457488681836 -0.6665976824057538 0.4276769683488766 0.12198602243091194 1.2411852865174198 0.06008207248673107 0.719423416488829 0.4961625221384297 -0.6202423910086317 0.50730849770584 -0.11704878434221039 0.06302101983389315 -0.5795446917824731 0.4515044249515288 -0.5833479304469144 -0.5626779927406685 5.498683714558365E-4 0.46719831508145565 0.6900931709336766 -0.6452823018471578 0.17739420417308588 0.8209769030817304 0.7857370598192697 -0.7391751507728748 -0.8330663316729927 0.19560482824708417 0.2973485572351195 0.0016648899964130275 0.38968067437922704 0.6765665312622042 0.356405725646155 1.0957058525475545 -0.2018415593350783 1.0548433102188102 0.24850595016834282 -0.28497618135171743 1.0295091410268453 0.8004451983245388 0.522151439605183 -0.4512300525735102 -0.2705926905907857 1.0661180522478977 0.21691668497353395 0.5541741977640274 0.44098512606469265 0.3240703935941634 -0.3640580954854754 0.589665765066785 -0.37646847604826794 -0.08780011395818625 -0.39029091665651255 0.38807106356210214 -0.4727771004736167 -0.45823683527329057 -0.9410301633067437 -0.3446469595533134 -0.40230057613972864 -0.9999815257318625 -0.8038884679308084 0.9925215498776768 0.4091995705976564 0.029993473211475732 1.3384868878996017 0.8629439207373546 -0.05691930522391235 0.4684208118823807 -0.5849628092955935 0.5114966663045722 0.4827003004800878 -0.6171673708239258 -0.17705374607903318 0.8705253064152086 0.21449132013754835 -0.4638706644879394 0.5716704420527711 -0.6005414630598902 0.8689799705404428 -0.19417210756270112 -1.014475845950214 -0.8878593169376102 0.2082595508205501 -1.161926780222892 -0.3792744543185593 -0.5977626631681822 0.08534915864350455 -0.33458227700541104 0.5551863758800327 0.5805722238516593 0.6861248233539309 0.05450684133250268 -0.5285035793410652 0.4553852616357264 -0.37866582735442617 0.02892289852543631 0.047304345675344216 0.3308761059782806 0.4067727772775942 -0.1080327356974521 0.9632565750133313 1.01541665759061 0.7111791798588714 0.8519112267123347 -0.20731049407519278 0.021385600205008567 0.34244881733373106 -1.0566182730731286 -0.022294169387056594 0.16038616450045548 -0.28130437206072584 -1.2556130970317467 -0.9895801725448656 0.07316298794907383 -1.110512684132734 -1.080766410615181 -1.0084347733863561 0.30702691535675875 -0.6449605904856707 -0.05563492948289607 -1.084780057132162 -0.23100128955441449 -1.1731967438842614 -0.7288566161086758 -1.0499044922750511 -0.9115251004285204 0.7710539192646068 0.38686951082663673 -0.6159598248922777 -0.8905067062153237 0.8690353000236775 -0.8277510222038732 0.34413285981389663 0.14957982868511055 0.7661815512007717 0.3962717507844111 0.379828520434746 -0.39682946560349597 -1.3045290648784602 0.24150999019542713 -0.2211442295620692 -0.23721054414103762 0.2765208580386734 0.4217023283200943 -0.7976952810203543 -0.2505316342804825 -0.5882646057945418 -0.7076224571038063 -0.628172925349506 -0.8202941878424332 0.36683711958576076 -0.08786098373500117 0.1352746794247283 -1.16048999206824 -0.6484076775899326 0.15091265846256602 0.8903483914297322 -0.9540959605050026 0.42675837104398084 -0.9748975417780655 -0.6471166901726622 -0.324310722288496 -0.3799650599132951 -0.5763349731832634 -0.18950101104856135 0.3568002854540384 0.487264507677101 -0.4316445808074642 0.2623633052254873 -0.8762886419330235 -0.008498993926337094 -0.7776386328393706 -0.24021842845510577 -0.41956903436164 0.3674361670015588 -0.9658697376118196 -0.7326075797501269 -1.0648366582311777 0.39908287261844366 -0.3083180217377783 0.29824777635145594 -0.021075445881706116 0.32220841677088513 0.5477231192719634 -0.47609697462789874 -0.8760905741589665 -0.16833612339617549 -0.613758681486072 -0.812530604338684 -0.9527304966760282 -0.11320174072036766 -0.540229039040964 -1.0388049941605249 -0.6290585135906658 0.05399511809816164 0.8449488806531493 -0.14077060628187105 0.6758011589474288 0.10242370272712278 -0.5523791725635981 1.3269637597593558 1.575332014682269 1.4300336712970454 0.007442266756707559 0.07702196379303142 -1.0193655107778494 -0.5816911805813126 -0.05474933188338161 0.5686121783131854 -0.2734712690564862 0.9195612214597757 -0.5532814612160675 -0.7517096115667321 -0.010016536502095195 0.06862903547121003 0.5201322273846827 0.9139917122256977 0.9353706945949269 0.8443798514873135 -0.9511524367455297 0.3340724490531862 -0.21719676962987686 0.7917481986928396 -0.5064931974377986 -0.08059139571014512 1.054689110021323 0.9627285686150138 0.5020795902083078 0.8261499308793715 2.025892622422219 1.724414983111226 0.16747158565332815 0.8715212642442576 0.37513590839533517 0.17703064579770067 -0.14764493357862857 0.20957114646723674 -0.23393990466060732 0.3821538122895103 -0.6169832716626255 0.9063443312230641 -0.8866288898130996 0.9620698797712604 -0.6379721048877701 0.29383706585787794 0.7438969364373111 0.5608070041227009 -0.22677310114704585 -0.5861396057744828 -0.7087575645132428 0.809367639136707 1.2146337067304058 1.207093432540156 0.9118993407769262 0.5944751399885293 0.6988550275086177 1.601649928259553 0.8606823189772878 0.43501740040832426 -0.22571265678670147 -0.20556844603886068 -0.5004153807504301 0.09499151718057966 -0.5640629940451803 0.017564092598205905 -0.8671101098094962 -0.18017388554815691 -0.24769391244588457 -0.36617189604057065 0.09826565682050475 -0.00331182390921604 0.9422668291636522 -0.5068730491079297 0.22698549369567256 0.6826442789311942 -0.6743281615097999 0.9200135222371614 -0.5225660316234841 0.1359339026268903 -0.2155035093978712 1.4808115761601714 1.0918667228221417 0.2946203912310755 1.360271948873665 1.444453277112075 1.6727977358968238 0.5085622247231476 0.6857677404683552 -0.39427870912866436 0.5541294864230096 -1.1627714455355986 0.3765484755646681 -1.0439946646810885 -0.8842223457484042 -0.6005464927704873 0.6747246698599797 -0.8593765558174905 -0.2130529029408813 0.2744385237991519 -0.772597838161665 0.3300200853591943 0.6754686646957423 -0.550683560725034 -0.6034622519949264 -0.4554799513699792 0.39984883920282915 0.789797596254293 0.2912820939558073 0.5440521510352645 0.36555104366245034 0.24589971004554279 0.7985911684018923 1.4289103817403206 0.6609835420403194 -0.599823016021204 -0.3614812292164075 0.26077450650966183 0.08687479646007289 -0.8498932663847818 -0.456869952858928 0.45492165133632373 0.2543546481978068 -0.23730435276461725 -0.6025332645055458 -0.0890055031578507 -0.7486886196193383 -0.9818138394276841 -0.4335561184313227 -0.8849625855384333 -0.9948088898543109 0.7893063547073788 0.791828471441693 -0.4404239467351049 -0.2782663327512748 1.2162616415962269 0.313648995352938 0.9352976222629511 0.22733287237033442 1.9570410096238162 1.0699661252316686 0.2184548518333433 -0.01839136795334355 0.5145536770361292 -0.871960844875037 0.30447761594280653 0.12886655785789008 0.04206341931278271 -0.8155054974332774 0.4025969515395087 -0.34985541738925613 -0.35264607508205453 0.5414402603437481 0.08254787374644115 -0.8626984545660935 -0.9630204934359714 0.6830801186080683 0.17717278937628259 -0.47293555118712227 -0.4210588286227127 -0.8353171823245018 -0.356780750207649 0.2339397107181388 0.9298395160772364 0.8999824852586638 -0.3262373602896094 0.23299989518717099 -0.23232149512576664 -0.23538239664619034 -0.5832468893825096 0.5755061448719923 -0.07709573712063368 0.2345474680272367 0.9183133014888194 -0.9757494624097713 -1.1014533767886794 -0.014952875005429227 0.2627814851439872 0.46543591833176773 -0.10817785455746637 -0.220043182883769 0.2761757392017989 0.6770604424945121 -0.7899687259288841 0.8402577679682707 0.5509820630488431 -0.6320846610672193 -0.2650315186672595 0.6899876005492718 -0.24895214935605287 0.7660726976924783 -0.5699438274273733 1.152149292517069 0.6804064676153544 0.8167089791039192 0.4788800470425493 0.24045958716818328 -0.009898536932403359 -0.04707083629788833 -0.9806002973341316 -0.32848476849020636 -0.5109516871644051 0.6551178944462246 0.1627699770504893 0.663934131552758 -0.17523008587964423 0.03257813772398033 1.2016106172375318 -0.07838845624545183 0.8504941689230127 0.30003709305740456 0.1614292923746858 0.44348273891000556 0.12929776552476313 0.673531416756906 -0.8827329729095824 -0.5694621888950336 -0.38543066898138434 0.4848278493750099 0.3630409065043653 0.33033540987849175 0.6279047300423057 0.5562146433131874 0.6685772392292683 0.45758399095369906 -0.7375009478461617 -0.029838635385265624 -0.3421300738996771 -0.059728421481561975 0.681538170944023 0.5574742527386315 1.138112166537355 -0.3887250451943058 -0.11498113747303677 0.3537424469040812 1.1335163777088084 -0.024889902350750826 0.5483611114450195 0.1464270487363869 -0.15018961363798294 -0.10996819683833725 -0.14495834593645496 -0.17959959327874558 0.3131055698445936 0.6996833181332553 1.0009198707652052 0.4530687498540735 0.02599155210057514 0.3924642826771521 0.1009612349618656 0.6077125969780949 -0.3479342818248793 -0.9332434667321231 0.257486978386902 0.550075710779732 0.26507619892759926 -0.0995734917752955 -1.137478073662306 -0.537869261860524 0.21471774484728628 0.6247889527634631 1.0156982815459412 -0.307942780441664 0.3037968516232233 0.6364938414889942 -0.5227252690878753 -0.5960246240317164 0.41178231477361404 0.9983020141356582 -0.7708735729430978 0.8958661078923734 0.9838581034702397 0.4370325040585114 -0.007768960711880612 0.894047536378543 0.6748476493876157 -0.18378910334988144 -0.4035284069554796 0.612655034840325 0.5019936149070364 1.0496902817846219 -0.09142497426333582 0.5802359191464725 0.4450620245117146 0.6300325527675498 0.45550248550914624 0.3210121592110825 0.5622646885111573 0.16668562990510014 -0.26610903024327387 -0.38574710081289876 -0.29920759388598167 -0.2219172109921529 -0.3561509201426032 -0.29872867315374085 -0.5736322996310735 0.7763219111878723 -0.4447361215968275 -0.32291520667799967 -0.8380209565208937 -0.7057764848735292 0.3225933348576158 0.24610653978909297 -0.6304883785421699 -1.1098742710793315 0.48266659538991474 0.6066107666294158 -0.07785884955598063 0.22190362446511197 1.1777173882238745 -0.6202604691229171 0.06955543714791287 -0.4314560387275298 -0.9019272217861016 0.8170310036560062 -0.6871764910220672 0.0491446965017752 0.22688240800966974 -0.42324492786086115 0.259124560547731 0.896560768742781 0.3524819276604181 0.303101931501375 0.05884799615506988 -0.3318019912049166 0.9219502176036125 -0.7525944348184381 0.8796152116311178 0.48079532139929076 -0.029023118395029916 0.6173901414860473 -0.46881097010179534 0.5182682657092139 -1.1577565590203585 0.6979106144405266 -0.8494609760139589 -0.5297091839868331 0.3116856233854019 -0.5358786583600572 0.38116877623381784 0.12126713108649147 0.1208234577463679 0.7341460577384126 0.9003482609467488 0.8184815322513619 0.724041863972961 1.1146042190572176 0.5987850741929435 -0.48517576550191127 -0.8798514803564408 0.8672785026445039 -0.714391275035478 0.7335190881017168 0.939656861625493 -0.7655078081781514 -0.8116389942058376 -0.697482142751891 0.6242218024112466 -0.6543788222106234 -0.04150768372389011 -0.3198374077583263 0.2520351119052104 -0.3895426935143921 0.4142095445358523 -0.3623977714411505 0.08994974424086413 0.275777067114898 0.05514003432313344 -0.81161588685359 0.3081920439689372 0.19571556216243288 0.42635776446344736 -0.9053851293139863 0.25477188806945006 -0.18764731571908913 -0.4222983904569826 -0.2939453315118755 0.005213261502876933 -0.022640179760269108 -0.43065533150279056 -0.5345046965892919 -0.29369024164522206 -0.5623051168331097 0.7092812510011299 -0.8131933587652518 0.21880268896007285 -0.9458090308064413 0.9214357341784166 -0.0669539961103354 -0.5057186224661177 -0.22425446951624697 -0.6947625985420373 0.7725121122219845 0.1499705485146321 -0.7996834790971677 0.1814641352871106 0.041000403159818684 0.6209087509464246 -0.5700838590273606 0.6881918556590514 0.6022318849435143 0.4152275826271912 0.12391231706804541 -0.9140760862067316 -0.4209016093658864 0.7614101655380505 -0.28981187726021085 0.9700279152095255 0.14327865014248053 0.36671887783247814 -0.6671029428737447 -0.252692978977086 -0.5604947775359013 0.287733650505132 -0.31467119428471135 -0.9057302733040692 -0.6636900128265394 0.5191564622658783 0.2741736494383043 0.8339038893072319 0.6242904061446741 -0.4226574603126915 -0.3176319508322866 -0.8743485955783997 0.310560230428926 -0.8992219485031432 -0.8273680270363576 -0.5041092162826052 0.14549871256760913 -0.2607473249140904 -0.4288794248232418 -0.24270086373661623 0.038795289023246075 -0.7712122414253499 0.6465463691615463 -0.27599918586916616 -0.2591348511761651 
-0.038302099630471265 -0.39874119755453274 -0.009811933622045688 0.25935240357991196 -0.014620306403495764 0.8597678883418478 0.5690585738866392 -0.8349210231808413 -0.7243298598703201 0.5102849537990115 -0.8260355640922794 0.15507616381756817 0.7915343328230431 -0.4666801049411129 -0.6814078895526657 0.360628104034618 -0.212630538093316 -0.5342171065671943 0.5216166199980259 0.12464747531321918 -0.10560133364383173 -0.3083263729066361 -0.6294363430175742 0.5711979784067267 -0.7270250312099105 -0.29341027474537107 -0.18982233715771546 0.47943145018651045 -0.9698083453881605 0.423984342026106 -0.30558334814468213 -0.27383888076361096 -0.9477262629785954 -0.12569084817348752 0.3900661514460319 -0.07670063254607544 -0.5705209783454012 0.5058410968946269 0.9362010522891817 -0.6004627817976959 0.6507646526916119 -0.3886927640819037 0.33080902842521087 -0.7558330650988878 -0.7889146370481048 -0.2255843940304612 0.32913222390416574 -0.8194007850807525 -0.4771354111132475 0.48558443458035044 0.3784195468394055 -0.6629421714114075 0.45622704930502955 -0.7788176005702783 -0.05383548306141628 -0.8880878583376588 0.632807570040242 -0.18155753307302902 -0.9305696509009906 0.8120402514867225 -0.08175406051193106 -0.9741667128641956 0.23994854358004533 -0.6666824698173701 -0.7357974320880646 -0.377064715062067 -0.7988243425649231 -0.13904883016351094 -0.8337335908517814 0.3589071194772849 0.7126336355202783 -0.8045871016041891 0.21819509055776162 0.6918142866828878 -0.023424626889541337 0.3233348200609536 -0.6257154397805945 -0.2990426843546098 -0.4652901801931464 -0.6478873487109045 0.4121987306630209 -0.47500478442519883 -0.18156424077619104 0.9680771069235572 0.10772498265827912 -0.238326826684768 -0.9526016408722209 -0.49547996814525636 0.48652264217177815 0.43131330287041864 0.8234231498323097 -0.09577806604213539 0.7335930078299231 -0.44502570627616117 -0.26373980336262204 -0.4018759006318843 1.1622378139150447 -0.038183376066756564 0.8501456001983004 1.3547383141278662 -0.5265434376362632 0.8666400524938128 0.7018106707461617 -0.6412513824634762 -0.49011855457548226 0.3980030974892307 0.13917598450319557 0.31012856937068545 -0.16136922126823536 -0.78666646828044 0.1495347931430467 -0.33467905296010914 -0.04996528448865445 0.25551574941267696 0.4748998832614372 -0.4075855112618429 -0.3705376483045221 -0.7629390539420033 0.31776909425739597 -0.2715133937240976 0.00479688986407468 0.7027198050964966 1.0863737488501268 0.19954475066710828 -0.0202476424953373 0.797975190050275 0.4505983040317103 0.13120156345291895 -0.08946914469812073 1.0376574159205334 -0.15308062817612872 -0.4223901386862014 0.12088759864261439 -0.4191845767779126 0.39986183068673004 0.5324442433301155 -0.5380000961259559 0.9819042825779266 -0.5561172715680894 -0.7949348214705134 -0.2768603939109118 -0.16670211326770268 0.06494139377355934 -0.6351666904833249 -0.42267604959101746 -0.6518778808551949 -0.05253934959748329 0.14859375360980656 0.7586617693138523 1.0330229454187707 -0.5051353562541868 -0.4247880686953492 0.6699400326208854 -0.5884497517422026 0.6698467966977064 0.2726055141565296 0.34649258024640844 0.13707988823639916 0.1224963522851628 0.4390731474952541 0.24983397182590378 0.05897989759423397 -0.604322401381093 -1.1113269518109197 0.32494715729885615 0.699974820536342 -0.07572485921225383 -0.07482433627723163 0.8659234977056272 -0.7086024226333989 0.17874654728498138 -0.6766665998005591 0.49542743672013945 0.5274864853788747 0.3835857199505659 -0.36778533811455805 0.15727287452479355 -0.5693363057288033 0.8636501346649399 -0.709379038401361 0.6021664635508139 0.39014017825298886 -0.3410910546284464 0.7718817008236939 -0.8567138463222043 0.011230705588163028 -0.02116720074741727 -0.2712703733886169 -0.8671835386787815 -1.2624148790197085 0.0019245094510613647 -0.2629459179807178 -1.0075070607445653 -0.9204880808314129 0.24382579283792347 -0.5325092091079319 0.6519766882215006 -0.34818015115361883 -0.3104621595993104 -0.4853768680881975 0.3894668534750965 0.4029537185268817 0.06315295595571256 -0.2974763808557806 -0.35906133983311533 -0.0065005626893051656 -0.36834043641709535 -0.838868586680164 0.4955788947244395 -0.7673371608260299 -0.10705767642270562 -0.18178053839987443 -0.43654529352586624 -0.6463561788500108 -1.1077517747400196 -1.0098868479068346 0.39806684030593675 0.04697692502369764 -0.25679579030929134 0.3962594845583264 -0.13482132863835797 0.6630839892297782 -0.7594240847877107 0.5648336947201272 0.38724135389848535 -0.5026860745786165 0.8339668704658165 -0.5945861862662318 0.8094591543564896 0.06231599781839962 -0.636116226328253 0.16586708127576114 -0.7712541256389766 0.48395248837019456 -0.7500857547720525 0.45952416663680584 -0.5942127415005003 -0.9471157757545754 -0.3225740774043518 0.07827569513096426 0.5028966709949988 0.4234911400165867 -0.20992574751818974 -0.5920812624721885 -0.289646624786342 -1.064358152293864 -0.724972956962163 -0.9145806143316968 0.06703461122965305 0.6842273008123443 0.962251415354139 0.9700866986235946 0.200020545657532 -0.9981512575158833 -0.26853758211836176 -0.04550195003906416 -0.27758166326453176 -0.5934745376640342 -0.7746638139297578 -0.09640103489127086 0.6714315326280187 -0.10108112920994325 0.2863600170073844 0.21469557302463643 0.057469591803363265 0.28258850166418775 -0.003859352402967565 0.32458109473251234 0.53544865683317 -0.5066949944692055 0.13224087509927643 0.0142687878104407 -1.2274457519564277 0.9173554773669078 -0.2724880261913763 -0.5804713428344335 1.1453144368396109 -0.2910542752260421 -0.059576078027732654 -0.558104130462173 0.48237153937434696 -0.1620636488781716 -0.6113606676826033 0.23662787031989763 0.5368565884983371 -0.9243397325251083 -0.12135249669647412 -1.0834480081064353 -1.1438823794988182 -0.8391890738768679 -0.5862458142076199 -0.8371108454295104 -0.14152316644212387 -0.16439591042217222 -0.5398292924012602 0.0019256147658468707 -0.2427390567337214 -0.41080675019739593 0.6015538902327776 -0.23801095237709186 -0.17694494517948103 0.7512822427407245 -0.31122297203772326 -0.2931465073088962 1.000444797193828 -0.47372540813665437 0.28779605846443135 0.8814709624970841 0.1844826924459806 0.33071696979254783 -0.8167353878233139 -0.9147828338499964 0.4023611680672644 0.8136516574161112 0.0815645205525657 -0.16168842185322593 -0.3432953593101102 -0.3310231981481994 -0.3151587446102373 -0.6879163202800612 -0.3144965222093228 -0.06981915399101647 -0.6398783273225654 -0.08953221140007188 -0.7257163915466456 -0.16314115742925817 -0.7733385875342907 -0.3723705625560928 -0.36291164135524284 -0.06428672792633609 0.3634183673505059 0.605370929386416 0.8233871199623987 0.9207174816096859 0.29834679996195607 0.7139743241549844 0.7437106413765546 0.9619141244068116 0.48112153168200156 -0.9301684414380686 -0.5850156907631991 -0.5922219583052836 -1.0287382919299977 0.44722568048462513 -0.05000892086029701 -0.6039453072569437 0.6434956399122843 0.4392657729931561 0.5774817378485734 -0.5923067156784336 -1.6427804023755723 -0.9957830419072861 -0.5366880759443533 8.381711903415403E-4 -0.811603703407774 -0.24010119028946586 0.308812154130944 -0.6620951725051182 -0.6928328084755119 0.30475331086839197 -0.6772721203199831 0.10559537579790769 -0.44301593960708474 -0.9925418302393376 -0.552465592187805 -0.7259707225654534 -0.9838252437548414 0.27414374194277613 0.37260938774159236 -0.24709156784981426 -0.9568178853253895 -0.6072284647029602 0.25545069615263305 -0.23144931031193253 0.40330496336735183 1.1556645286807075 -3.719727021073942E-4 -0.308463598680207 -1.0080464568295016 0.24612469141102997 -0.35489915696498087 -0.09708371824670807 -0.9005918918423981 -0.41766656253057527 0.7472237096134865 -0.6829763700025717 0.045921180439739306 0.18376338265077488 0.6160992144495232 -0.8685520531507364 -0.01673790257022729 -0.12279512796383922 -0.5155225228087673 0.9436112069887947 0.7830509494918074 -0.2576956505696931 0.412501903490495 0.07185219455436265 -0.5628862654669985 0.6462797941010554 -0.064028517346523 0.25251616501534774 -0.12672615067649354 0.1689760925714153 -0.9158840928629428 -0.4794186034720406 -0.6342977665355869 -0.5528537590314779 -0.14793152378832541 -0.32617271014295474 0.3959043398962491 0.20578867381669833 -0.746709044814597 0.49236340336308715 0.3587710693373887 0.3000009614276028 0.7700486071576682 -0.8336410562396511 -0.48824883516585554 0.5199760015896407 -0.1682162347259333 -0.42824975422960776 -0.3228549108808454 0.8844622292453489 -0.4109998255221096 0.5129006205433515 0.14763085982043533 0.46286297764023393 0.06254852052426806 -0.5439891329795301 -0.08022718067042217 0.42847698013710345 -0.12138350920670483 -1.1086511361397948 -0.9749759384563423 -0.6402855439090402 -1.1830140493747214 0.07906483597464327 -1.2422430860136624 -0.2517233498078078 -0.2783752237313309 0.05310206913293111 0.8484114091306129 -0.14934375107723172 -0.5386609024436876 -0.13064486687316032 0.011606602030505028 0.41156033277478526 0.4515860314828808 -0.6486000280754348 0.4619605731386965 0.5690554974353271 0.33112442488630806 0.39175878506678574 -1.1177154805023815 -0.4953858523304726 0.3587502809199315 -0.3630413959965789 0.21357817904781884 -0.4390505447629682 -0.4765176506021425 -1.1292023369073043 0.7340152232269435 -0.8408507223267013 -0.6145639540357586 0.13728526167580518 -0.056281867152329676 0.7071656569238646 0.8743538771162186 -0.3548411206296533 0.9337920550058917 0.7245176066358303 0.9024580953358783 0.474307907577778 -0.047303663133952276 0.3126595909779822 -0.9519725967679962 0.3915090806687277 -0.9020719871596649 -1.0036550608275197 0.5172515464342257 -0.29674496314113125 -0.14971600545991545 -0.5204810838535131 -0.22883705842155724 -0.44068679806747446 -0.4797909795464215 -1.1871314305308494 -1.226834853173483 -1.1671433846738304 0.3004915314318935 -0.3129528014285546 0.3891506174965561 0.17601849694091598 0.5826605151989134 -0.1752687394212036 1.0351808175552042 0.45028588099154354 1.1007451662227896 0.8124713934384117 1.2734677742551455 0.7174847445503306 0.035003562741842666 0.6895261599575768 0.8283430874225239 0.003444992086996945 0.48960386282810114 0.2853065134904999 0.284717962808832 -0.21908458061445746 0.8284467493661527 0.8510111158969506 0.1479140455147893 -0.6209233019143738 0.9819746087947555 1.0934127337270554 -0.19539586374237253 0.941874846067021 -0.029644434587585936 0.3368780570730982 0.3685096869487114 -0.38877640606943487 0.4924719639146921 0.3146379901140947 1.326960248946198 -0.054073363285608717 0.3855041873255113 1.6314197372676267 0.37358327765080845 0.6296264765308258 -0.9045503769391336 0.11040248334896062 0.3630351478355054 0.7268563294381032 -0.9062509180192652 0.7265858095405795 0.44014692129905086 -0.3219612931618197 1.3241555304793804 0.4723348949317983 1.0584785701521948 1.214555711790003 1.0606707077527187 1.3980680700281658 1.1324925576443066 0.612470779125476 0.7030080639404487 0.5408262450916402 0.729462834084517 1.1519047093622998 1.2984850501038097 1.2250324592845263 -0.1972761222072635 0.15485713319249592 0.3763736504545044 -0.1657460771448543 -0.22512580909532842 0.49436846673536533 -0.790525754251411 0.07194865183361232 0.7167120976925814 -0.7194837584647387 0.6715254827797044 0.68060250354895 -0.5007861895674529 1.1858432461792117 0.6304990866437199 1.2391019862104624 0.3035813587749894 1.2575920858899072 1.236214623052907 1.458960884882806 0.4376230064226502 0.8397783820300265 1.3958117825169079 1.4048251915002352 0.4727938197832787 -0.17860089754583883 0.3355948032487755 1.2768721655709163 0.4018731808470516 0.5628533342983848 0.7566912329762829 0.7381254875033642 -0.5908214137473596 0.7754348498577518 -0.01748632148336332 -0.5334156236618097 -0.45972890421822243 -0.030416831187800506 -0.10996809335985623 0.7171003314626374 0.9036556251930312 0.25041309239736065 1.317038318863031 1.0328143972824249 0.5274246261763297 0.9929300762981618 -0.27093033258227256 -0.03655605718507717 1.2572225754076223 1.1780451258982791 -0.3185049283752581 1.2077310570848583 -0.42247002109423537 0.9201307946857075 -0.47950403103182604 0.3309318578259731 0.9885341012695271 -0.7782536349754614 0.5539565641040017 1.0292402013476107 0.7682459115841569 0.33526397837418215 0.9062935502459757 -0.2616152038624886 0.7683128457728581 -0.6369038283621253 0.0030495111705411745 0.00704508792554419 0.5193452981290055 0.8967316991491602 -0.5747804794487472 1.0260441504711215 -0.7450489833832191 -0.09858274797554298 0.4044817923236854 0.2542058808626672 0.1048692550383296 -0.25279485592323714 -0.2404012385201232 -0.43466962801792025 0.6198884597943078 0.5704808479948232 -0.9066263180784158 -0.23517274147631959 -1.0119624791608246 -0.4939267829135855 0.3017227044944672 -0.304258533445628 0.7113157018333383 0.2035115179136326 0.5877735358284515 0.3915049846172378 -0.039977567456262575 0.2775558659948103 0.3033311039348277 0.6818367919445184 -0.6051917497360554 -0.6382599912536958 -0.15954177237586603 -0.7122612204228236 0.47239369134023934 -0.09933093531780551 -0.8329237286901986 -0.8843287910980293 -1.2519025735374238 0.0464970977360085 -1.3458956286512078 -1.5049444374661605 -0.33137132877236053 -0.48023506624892354 -1.084903563994922 -0.37423598365459787 0.3089959863583173 0.5439424595601526 -0.7996903336980465 0.5446309039409225 0.05871728125321801 -9.83902445153066E-4 -0.4789341278498784 0.1801336491246024 -0.8491021552409692 0.25925385782202914 -0.6454277616218156 0.008796712927818476 0.9153315256528243 -0.5047483104868453 -0.18183271506833332 0.1296809199331253 -0.7835212060001224 -0.18950392855444154 -0.12644918733530097 0.03256998636168282 0.06388461910757112 -0.38392141739923874 -0.43546885709946287 -0.11417011056127549 -0.41077688381231786 -0.6667966887677508 -1.1028958529555941 -0.40954908520750366 -0.04740859042734198 -0.9258442253350015 0.3488669141913956 -0.4660927389094344 -0.780767143399546 0.024115686620694375 -0.439911531873145 -0.1377085311036983 -0.6494466147900668 0.8546845226093991 0.18809390652554 -0.6066512133634212 7.945869920751282E-5 -1.0014820447240433 -0.18848154176887993 0.27957818621069436 0.21468871343273419 0.17578217622441 -0.26530069543995666 -0.8278303388169292 0.021528456815962813 -1.0470207739603408 0.07049064903942755 -0.9660732945911018 -0.7743283689452821 0.3987213581653226 -0.6467200859832634 0.3969086360885781 -0.27704986676672305 0.09303706455777058 -0.4065364317229256 0.13599558641216866 -0.3854733190410192 0.8379235080583858 0.1645716339039991 -0.09684450918359833 -0.47313200735434413 0.991145058277445 -0.7482632407335059 0.8629130187481409 -0.08825546145445647 0.6025103700834191 0.5803869759275749 0.15797964532030995 0.8277205561066003 -0.47214958817859604 -0.21917364228765926 -0.24542893320143708 0.44432839824453196 0.6566957730507756 0.515957269061562 0.6248994735443414 0.622255275550647 -0.38906341708728914 -0.8629475430900331 0.0038547506078430616 -0.3875710260595161 0.7650658163221749 0.8603044046811051 -0.4043510254955487 0.8616775017463161 -0.7180895883602254 -0.9224732084699652 0.9530433663132127 0.059328166708011 0.7604439645756711 -0.3831807616329099 -0.49117178462873023 0.3845539686167083 -0.621161386940786 -0.9822209623094689 -0.8710125005184609 -0.20237118126903297 0.09755885567180032 -0.7935863601724649 0.6856026866012893 -0.5331225970007202 0.8428228167861518 0.7944386811963592 0.5779302426153015 -0.3062439518193394 0.24509572309983071 -0.9163761627702236 0.20162897346560968 0.12465873300858009 0.7216121804355317 0.6095374977179864 0.18284249479228953 -0.20881639998779944 0.7999214579475384 0.4429372663497839 0.3021453671938872 
0.22449231760808175 0.8068290008547834 -0.5702489303061529 -0.6739785957639319 -0.10140660152628089 0.05686931791660843 -0.09091211104346963 0.9177135023972263 0.13642359921976532 0.5812238314847644 -0.5933378827076197 -0.6081284291038382 0.39730748513420244 0.239982278209403 0.8128578886569107 0.950460541239956 -0.6529799272686159 0.8142299247650351 -0.8295410242001855 -0.641052361186981 -0.7285968299347392 0.6683271887968991 0.024957640950869386 -0.10660419518563824 0.455666388534288 -0.03757661243169452 0.14804890319726582 -0.17145575105867206 -0.705917366678132 -0.6340515394695614 0.3687474296443818 -0.2610902503479864 -0.9001343477439061 0.7560311885322046 0.23289061680992784 -0.5506045093946368 -0.14742256806704843 0.48045335344672824 -0.7394071712457445 -0.4011520304297458 0.45063383690384695 0.42328269934339 -0.31813085589613516 0.46768874875919314 0.42615736137903787 -0.6707949603969958 0.71061572170591 -0.013138784616549687 -0.4453064716549894 0.6414463684372316 0.6319105927677864 0.6100341085566106 -0.758529375636116 -0.5957498373879959 0.31777350406298144 0.208016743040895 -0.718713275878405 -0.2151368815130954 0.10038841549321376 0.9577196963619139 -0.9367158731325308 0.12269094317208896 -0.6120461659451609 0.8019551089930861 0.13112506931188095 0.5392082641158571 0.8813336449254354 0.06365822573167798 0.7007307811992305 0.6837981911769889 0.7868308137389592 -0.5586960234958104 0.6175181488120616 0.4228191637314524 -0.8162824326206605 0.9793581188724513 -0.7704923644216654 -0.09564150396594324 -0.1493912123104626 -0.47384957616278495 -0.18010344674420797 -0.47799819261571286 0.508236499924551 0.34356387771803565 0.2634322648164802 0.07382873001601253 -0.5948891220430366 0.03851007847212113 0.8324189932908691 -0.7273293306174677 -0.7016363946950028 -0.6938375343002167 0.6578030311749914 0.18523968074371433 0.060355260505037304 0.15549947104482434 -0.8606645225090876 0.5285987035408095 -0.762457689253838 0.30506833248125387 -0.4653751289311137 -1.001142717483691 0.9483200354405993 0.9575903586293918 0.6290447542744744 -0.23278218361549943 -0.7093776700908134 -0.6322331338433506 -0.021830732951030666 -0.6246746563304062 0.1946227929136856 0.09956928676176768 0.539272790908105 0.6987726622194539 0.7523323303817306 0.21378725128768106 0.17748765853269174 -0.48195548757258216 -0.1522160292634677 1.0343443074380987 1.1339645782340393 0.32117652811442404 -0.642586360319691 0.7256480925019021 -0.20213945055128554 0.8325313215864147 -0.2727915550282432 -0.2241547866271504 -1.191229351397133 0.3663335652195686 -0.6791661767790059 0.6983044712253521 0.7880970851964108 0.6155277776559008 0.04913578031415917 -0.5379031908963524 0.08117253586910295 -0.7285135988797259 -0.36635862460892005 0.48993898358019705 -0.3532963630998671 -0.5809091140533107 0.6547336126956994 -0.30948499889483855 -0.7202332763654143 -0.06090067897084058 -0.44682068453532436 0.4471501183102759 -0.660669717989092 -0.4346402849338932 0.42005620786331643 0.04813246214550711 0.6896770530960104 -1.0348681386960465 -0.10532917872255068 -0.7692654876526871 0.5410341598090342 0.3076149942488526 -0.9175290416979816 0.5098810914502561 -0.7866017496364716 -0.1972649481076065 0.3573707733380183 -0.8247609161010674 -0.9039111318163069 -0.512642597984826 0.11253113230597922 0.4715202524058462 0.47180374946190384 0.5085952940636804 -0.8826029642828979 0.6707721895717295 -0.58545938442167 -0.08992207054672437 -0.3283374136381811 1.124376934811134 -0.011678664395203561 0.4380844765995434 0.8752779231017142 0.032775789499869534 0.5946161885326742 -0.4620735429633383 -0.963357519210503 0.6613337571149133 0.4434520681026298 -0.460238368923233 -0.10358109497448968 -0.7967760286652169 0.7191284657604228 0.07186160787268894 -1.1446007843574677 -0.456837507146159 0.4444975039257102 -0.515665560571771 -0.07003388550844133 -0.5707147982263123 -0.6773248492417218 0.1681931713232322 -0.0784612629969451 0.8430700512003034 -0.7387073939808503 0.979735302975316 -0.5964166074636088 -0.4796594944047935 -0.37106418965728943 0.9800513651988829 -0.6116841261675928 0.3584157429072794 -1.0182372879661772 -0.20620324196266632 0.052785218009958286 0.839921151109273 0.5722037396264126 -0.31995397338073406 0.5458653941581181 -0.3939871743720395 0.32768646573144916 -0.5782437448151455 0.3451498845111917 0.23001952415592544 -0.3143206692978105 -0.20493423297318553 -0.6782807125002434 -0.650805947010787 -0.07836148624612616 0.3466643207795684 -0.6553898042718589 0.08632827013157884 0.8288407894524784 0.9963012445459268 0.10404114000921358 -0.8709844709352039 0.6300350470174245 -0.4621606149131306 -0.20629530881186273 0.6118035148623829 0.26778302320495084 0.19990364222035678 -1.1416071671994303 -0.2934511015239106 0.12925612138664413 0.9782544849378823 -0.7639545067219224 0.4042202098381281 0.4662915110282353 0.7529592654967536 0.6858589927467403 -0.7225636527454424 0.16124182098070283 0.6413752971381043 -0.317344911704461 0.38353158522692177 0.7867817456270757 -0.4672151358094373 0.2230011768123967 0.4559329377881334 0.3338951959603646 0.7159995052275296 0.4225294185462092 -0.2105049267223178 0.13668586732486665 -1.1319454150283115 -0.9229259758386507 -0.6363529531227619 -0.8289821528238018 -0.4232143695884678 -0.12127817714926671 -0.1217162052719878 0.11348692087472298 0.8323283950412322 0.24081375855513368 0.9609221819149849 0.05227716115004421 -0.05953574342998355 0.08688351662569141 -0.13162869356070214 0.03629825498589153 0.7936583773187439 0.11425718882105362 0.45554479653273444 -0.5701682029049829 -0.6353147065802128 0.9548872545425882 -0.29997832417501047 -0.5747163195751255 -0.13071593690814134 -0.3467466640975418 -0.6804095405360363 0.4974301017887528 0.2591235004272196 0.20151054203594085 -0.28671183484864676 -1.4784992193995932 -0.4203358877029939 -0.17523578109409696 0.7267655010763119 0.9801827520078212 0.2544000919184574 0.4963896975143923 -0.349700877056652 0.191866693245549 1.1410021620117543 -0.3127509654150483 0.3664272399065304 0.2403630581394721 0.4808330325430469 -0.28738721954849017 -0.9632001058622007 -0.8126671601593983 0.11849895251805205 -0.657362506558938 0.24401997130887 0.7750862473629908 0.08618755232152098 -0.09744704987013596 -0.7205479420129911 -0.05712090623622608 -1.0596578903017126 -0.4800276689195067 -0.7608429200689167 0.13988547056298165 -0.08137415534917526 0.4878536408039899 0.9698819318303528 0.7435084460630591 0.6894284705747751 0.2570812278172654 0.5665564834065113 -0.2478847182194605 0.16424628004535424 0.5372028891873428 0.86465403163156 -0.25436678668999535 0.604395400192163 0.01594213407637855 -0.018594892270603385 -0.6638413182618002 0.31085937110339984 0.5815523449730358 -0.8157711835075253 0.88737803616888 -0.4251536997235215 0.21445889825745643 0.2143500184730969 0.16542125394135226 0.32714238533372025 0.0782930719086345 -1.0048874924103273 0.5800583103608954 -0.3140307147265058 -0.0838718254599732 -0.5269820651170228 1.2645200694751082 0.653847849075314 0.6237016531862948 -0.09023428744163585 1.2957157231557788 0.6818267237023127 -0.6551706234358612 0.771881070926516 -0.547098419808344 -0.5238883786331032 0.5212330097066376 -0.1653614471047981 0.4082601635262292 -0.2797830764593196 -0.05276893705193232 0.4096465049069453 0.1706241494167038 0.27795808299274066 -0.2463127840561114 0.4996281744724687 -0.37540712283133043 -0.6621779353037867 0.8265745843460225 -0.09998869727809434 0.20213046605607837 0.6855515696258286 0.3035595475320691 1.0216639392630056 -0.5825206508019979 1.161338686606807 -0.2121394333082696 -0.18389455595115803 0.061116665851116 -0.49041331390295634 -0.5571071205591694 0.08536053701302242 -0.33000080989929637 0.6891684934048632 -0.5468580550627864 0.5233849133591344 0.3267695932948565 -0.8009699719387746 -0.8825505833789338 -0.14261859041884833 0.08298826817215096 -0.7660013735694469 -0.3161895820028528 0.07948285081250125 0.2626276131309668 -0.8837901034331282 0.8463432234560203 0.34405788934929316 0.9126615099415579 0.12413337024987188 0.6168332764041453 0.45735957923118853 0.7910941823609705 0.10613392272669431 0.7172386705662205 0.1897716905401564 0.5203072153451218 0.6129902045334377 0.6668247183353839 -0.20214786256886316 0.7168833313156451 -0.5871665406315564 0.6453600359875151 0.7885907403472792 -0.8695424291858544 0.5837833659410558 0.9938429052794737 -0.1080754164064329 -0.30355588337237854 0.531767673319826 0.5117304936881141 -0.08146638005185965 -0.04355530378274409 0.6958841934253083 0.5051915390381378 0.06628041358667268 -0.11079984836091954 0.937055656750259 0.9407617817335967 -0.6683139204386004 0.5861545783222138 0.13423828204236424 0.09804854863731988 1.0613547437219966 0.1955360840506002 0.11172909292929956 0.24439366531522885 -0.5966591204587675 0.3586355355598698 -0.05190938911150138 -0.05564950964976653 -0.8992156220184035 0.6193284768061765 -0.05409748954087157 -0.7225514400889582 0.728823256276642 0.18493329082013815 0.3763855824805938 -0.2314064987160344 0.718103328276123 -0.18143020235982119 0.6633777462225959 0.15315575352560323 0.9425026367805889 0.32369630382813025 0.1432725905618075 -0.16996084252607518 -0.3573394236600699 0.6973345838204557 0.3686377133901196 -0.19254974554207238 0.07770121131451635 0.6494109550879457 0.8361912076272427 0.4185099728536298 -0.2984142890649149 -0.21289952491378814 0.7298005776770847 0.15030815101349107 0.09038128667622243 0.3019083485624843 -0.7423780945946954 -0.1624452748273421 -0.07669381095934363 -0.7715366576844914 0.549923716417965 1.0009571227624148 -0.19964821281611883 0.13468385071052277 -0.7622186500434733 1.0597928281068625 0.351737732499408 0.8749251832088016 -0.23926133374612604 -0.14317221762950355 -0.6399758581892411 -0.30215850152056173 -0.11811402952090568 -0.9880372458669798 -0.4323895531358525 0.24804174140544563 0.8996566412157275 0.5395442341278467 -0.5152826733395502 0.26615867686861655 -0.4258852526095176 0.7088216837118834 0.8057730542201154 0.4448163124022828 -0.6650948393843241 -0.8516954531449076 0.4295162554661097 0.5781109353225138 -0.7710155489605081 -0.7490186668760974 0.36713106723643246 0.909111601567691 0.4031789145538417 0.8234070768972563 1.3421947525108002 0.21044238699532075 -0.2785706217149949 -0.2052501766625076 0.32700211614525465 -0.7420539544954715 -0.6082934349551214 -0.07090606624336647 -0.22427643564578834 0.0647468885079176 0.5574900435911956 -0.1608510843401561 -0.7977224387749727 0.004003455159320639 8.216712655161204E-4 0.9962220298486717 0.2838636821790403 0.9406758713371908 0.6382921097579054 0.7463401602712844 0.617765379829508 0.26804746466169244 -0.4943219706382097 -0.5556073998653178 0.44502987727325394 0.6184410207031706 0.37689728850739657 -0.5002934557901797 1.3579816537825433 0.34999123966372425 0.46429037322300265 -0.22413045077170846 0.11750008610997148 -0.5796392305376753 0.27009005292830085 0.3178657473201656 -0.1538018073473167 -0.4575965563716561 -0.07392246154684794 0.1571287967714949 -0.057794854854864464 0.6667835320673255 -0.2629094183737963 0.02870937630570401 0.04508985340066177 -0.9662229706488483 0.17860681024984199 -0.230628196442907 -0.5955869070238079 0.8641911839276907 -0.751103078170331 -0.5645566398449934 0.2040220159604734 0.7574860673649116 0.13043822458479745 -0.1696172786933651 -0.4485487100186136 0.547509177337217 -1.028150266524645 -0.4739739173621318 0.5725885739369199 0.007817839219303756 -0.652617827454582 -1.0854542096814348 -1.008634039404317 -0.7201299690943965 -0.7999819321213811 0.5366238145652609 -0.8342072732872962 0.690963851837627 0.24873246233990165 -0.9674916099565632 0.20514831763600827 -0.29035125902823333 0.34324156839611075 0.1854739374483579 0.3105255089281964 0.4175926665424701 0.38800591628427633 0.6281207087808099 0.2603135537422802 -0.46342333878538083 0.3907620981794673 -0.886965094497442 -0.5383954152351047 0.09748989508075617 0.24541950969828616 -0.506568805245278 -0.9923605614148655 0.49965772618563326 -0.3445764237351577 0.44419652277677396 0.4993284804789359 0.902648652492728 0.3686325428280465 0.4421963891344425 -0.8698729994409103 0.49504981156495614 0.43813888678152996 0.09921385239821508 -0.12557164119826925 -0.23908190617961012 -0.9543414288432619 -0.6856043775437725 -0.4256463113221023 -0.008061555358800238 -0.5049008000792665 0.3875281652305526 0.9278956272634489 -0.5940544726191133 0.030604112899335685 0.04657030394037947 -0.6616230514495993 0.44102295267032054 0.46393005880516347 0.33880278119899976 -1.2577366991136845 -1.2947578365125052 0.4173865005581224 -0.14863215205160726 0.10508723666396702 -0.8230041938993766 0.4800852906661481 0.7699587266417995 -0.20264293621530222 -0.7157313909514 -0.841067020952723 0.5906265380939699 -0.5329292149250819 0.1841805703718391 0.004365692145509303 -0.344115183106544 0.2229510429663639 -0.5982172335181768 0.9593559435356989 -0.6015193857107956 0.2989099364384213 0.49686305799679087 0.22753015966913454 0.3643868500713578 0.39724378226224305 0.2686938512015588 0.6425886988813242 0.4355560631872133 0.16756254566751214 -0.4360544935439411 0.7073841525851174 -0.2648352727552529 -0.48001980271726963 0.9218572019485317 0.8742593694475723 0.02821075365861714 -0.4135356552299765 0.33080921378868344 -0.3680059929037984 0.7530862734848623 0.4303410251086477 -0.3573169126047473 -0.5805631024091003 0.917919490545712 -0.7054877930262264 0.317051077581643 -0.26454224849342856 -0.4699557600326227 0.08708645468208094 -0.7353613573056503 0.20062397062688925 -0.9003590055788961 -0.3349066518772172 -0.48693489998254014 0.2519372144751187 -0.8409218967716041 0.5419299144701206 0.3797011770940864 -0.6003746482849023 -0.6349725870975315 0.7110880876744737 -0.960433658874168 -0.1363268275911342 -0.9496764806516338 0.45169774303271154 0.6054300158944209 -0.05746727810821188 -0.7738320635645979 0.6960020761906898 0.24720046231060322 0.6335919044963578 -0.5999207877875516 -0.25159961012287024 -0.7113010533288722 0.1544891399111188 0.10903151639399532 -0.14015805322152813 -0.6107812274554261 0.0920676487841862 0.43977118117344793 -0.4340091549201585 -0.779299353108695 0.004423817188191128 0.6202944548134864 0.40914445418514406 -0.804197138712752 0.044848707384775845 -0.05271528602889623 -0.8783533445399212 0.4820377820215059 0.7305872907394289 -0.37801853065667146 -0.4423149516642239 -0.44241889977417975 0.11732899418454013 -0.22593750789076172 -0.07590268727642746 -0.13743572404702586 -0.344328062423203 -0.30139998616870334 0.17407998348902762 -0.008153329335457855 -0.6549635096754046 -0.3257156806958817 -0.7309657854946576 -0.03570427260234455 -0.03216179294136229 -0.2598456378834104 -0.5391485626572383 -0.3929253923539567 -0.3434839189732919 -0.32253841816431944 0.07728169801397965 0.24803247821102004 -0.9354053856149991 0.9041795118322326 -0.940496314423677 -1.000728004797879 0.8357350317501113 -0.13542172110608242 -0.9707481696053454 0.759539522841923 -0.6010680005351865 0.7354175735084159 -0.7068779239465133 0.5398794796867392 -0.35589147103106256 0.7626325338186173 -0.7126462102152418 -0.7522589081219491 0.2588587262263968 -0.5705654083747118 0.2648218875195298 0.9635619834339967 -0.5856141869664738 0.9499501546609029 -0.40410811970235755 0.4198625575954671 -0.8309253651389946 -0.8582556370248796 -0.7906119159829781 -0.22951733753542408 0.33330076253432933 -0.29048589187306884 -0.1490390980376076 0.5412172223015116 0.20746528433486425 -0.1410406600566773 0.262007068690397 0.19462460131966197 -0.4106816263520465 0.19930913699749708 0.21835880672451302 
0.5045451177674978 -0.3938158481103802 -0.9456069494462549 -0.3390696386956873 -0.6557079979176532 -0.036355818377760585 -0.8263885031372757 -0.3885694615252824 -0.6046530416672915 -0.863103645507852 -0.8168869839827668 -0.28697186098520944 -0.8405752603569132 -0.21958074949547865 0.8365676272653839 0.9966630895562674 0.5893290811471723 0.32098451674741924 -0.8317998778887963 0.08983405092041075 0.8097775018294635 -0.6436090762660291 -0.30697917215816517 0.20630213563750366 -0.8743336169501137 -0.9688030704645934 0.9101739310998145 0.944603702470556 -0.6022293765134485 -0.33541389579130865 -0.4608478137192742 -0.8247808676748907 -0.27100496643637584 0.5821797707439225 0.1535592199188573 -0.8912995879102313 0.7178144827726531 0.0025616026376445032 0.1870849947039329 -0.9775488638673197 -0.8539840692830263 -0.1600454408210934 -0.3876844427097723 -0.9281301295744578 -0.17739617680516964 0.8700287189304063 -0.01672589640993662 0.9673637297912848 -0.7549130111311869 -0.4055771648176558 0.6814146629447732 0.8702165051982796 0.09122190701447241 0.20818584838505516 -0.6701678790839887 -0.5385340089220547 -0.8256403453642787 0.27595820703013096 0.7501853071427598 -0.26383788465190205 -0.34792062874792623 -0.7820531859120393 0.6094686606329368 0.4488608155320697 0.40386148268441446 -0.1770462475793671 -0.7294066419700989 0.3753733803967684 0.7318944428379391 0.3957102862670311 -1.0425244608657016 0.549402667465917 0.2622708553765696 -0.4128985639771697 0.6157658982004075 0.34284446071280394 0.5941736821913487 -0.5951191381832318 -0.32335590498620687 0.1909880105409377 -0.3252651290715833 0.3736590773133417 -0.855007855162595 -0.37112559670360556 0.2021100618747793 -0.2431424862445113 -0.9134477634528695 0.8190341276005989 0.6867796657005191 -0.634372425624995 -0.9318206950182001 -0.9948214171504761 -0.3551966818200061 0.017513520303685418 -0.3661931837998902 0.6982648391137015 0.528931766483748 -0.6714869806954614 0.6399769076956253 -0.35505668999600004 0.30705307194107456 -0.5090353671144652 -0.6304720456461775 -0.12934902728331651 0.20543406073575207 -0.16482116123909551 0.7186320022698371 0.2209512017289762 -0.8495650836723555 0.9332006752371734 0.8075792128503798 0.77737776752414 -0.31174267706347303 -0.619271968440196 -0.12357319095840273 0.34088901566387625 -0.3335837901622109 -0.5293916823462167 -0.8499268771646158 1.0519528243291822 0.012413762310041227 1.165319951685727 1.4337746273243788 -0.03412651305658408 0.1377163897997682 0.866198816650339 0.8364820249581612 0.42747749845590327 0.8156702601256569 0.8321954089466496 -0.26932215992361885 0.0732968558135319 -0.916932449537424 0.4437882793020508 -0.41809550382667604 -0.29678628772739996 0.3788647136787875 -0.24193839670917994 -0.5686859155550427 -0.6377196425948773 -0.42403296653645906 0.1552042041323458 0.5346402965951409 -0.7731225647943795 0.5658866212896522 -0.43545862140611946 0.0501695486671341 0.16691271874472607 0.776689113334676 1.2787911997486616 0.31733714362151455 0.971635318390243 0.6618154252089898 0.47370510002743554 -3.4359467249839255E-4 0.04214824325409316 0.29309510732897687 0.603814981890361 -0.6154705822887555 0.1709075436549836 0.602771372166039 -0.9221097494501982 -0.4820416405993391 0.19026483343883502 -0.01887453991437044 0.27862438354371755 -0.4569423482041106 0.5026074260661205 -0.4910402677711505 0.17226175911603675 0.2786088095759954 0.8699174156849951 0.6463577489464474 0.7724201014074347 1.3723034892878063 0.3790228373857549 0.5561893957740988 0.6712543417854326 0.2714457902704863 -0.47506493125528726 0.4765795409156174 0.5700575527704368 0.7638505551801849 0.29275223827822205 0.6397486495833293 0.24411956710450666 0.7850611627652472 -0.16921778756859263 0.0360846719760334 0.9448259968536504 -0.16172339218594123 -0.9782192742117761 0.5061253468256601 0.4451798113929603 0.7965052248602312 -0.5747041391972023 -0.6450703233407814 0.14465087182096345 -0.15351652562485968 0.440913510130073 0.5490271846954036 1.2131976637173865 0.20328101879184302 0.15495817229168724 1.017946553696084 -0.7514059855139532 0.40713127721632575 0.6136100508206455 0.719039600823267 0.26224306844288975 0.42435258884951205 0.3654946883767269 0.7698410156312927 -0.27317282888500316 0.20235802222282795 0.3385934287094249 -0.6930644097746794 -0.09226884997074293 -0.4618140282259322 -0.33850501162598035 0.05005846235657342 -0.6085017592721046 -0.19359578557495108 -0.03772624645047176 -0.8915024531629306 -0.5915015762493769 0.3272050237349066 -0.6287565948192563 0.3780573847488212 1.225704668162071 0.6604477101895405 0.1441440043103191 -0.6689019105943576 0.7994472852458792 -0.0870716384007828 0.1639156336330151 0.37786598226742013 0.30933710678229814 1.011539754524276 0.18045711010283944 0.37358362535956596 0.8640726880331725 0.6859223772746537 0.5704253873119892 1.0317241242957056 0.26090701829269436 -0.5294211311913782 -1.1116381566376896 0.11569531913125383 0.7002402030225516 -0.25465479065307534 -0.6882093816171317 -0.23798536108440455 -0.8062036352338142 0.13999173104588672 -0.7966277400580436 0.5895421969787009 0.6718513265495367 -0.31519489692936464 0.22208423448641154 -0.3814588965441408 -0.7036288843869182 0.1836952403651702 -0.5275616304672365 -0.5399170517518325 -0.486139177306386 0.31121803581145574 0.3727849611095351 0.717575716344733 0.16419673622188555 0.5854893835226457 0.0808987063472333 0.031170889272812932 -0.7434817941946038 0.37303232073809994 -1.5318173222020155 -0.06639319142791436 0.6422681305509026 -0.7247713269625824 -0.7222779390068131 0.9376148017129615 0.7660078541172074 -0.08013075053726111 -0.5082998310606485 -0.03801304385250093 0.598732401429672 -0.049820135792510205 -0.9326338396747254 -0.8748282573518589 -0.970619458173358 -2.1961576010829194 -1.7518786511870903 -1.3605037135081237 -0.8147498171652228 -0.4069573277262413 1.518567443952436 0.2446311367845251 1.3312161980766954 -0.053910037439961415 -0.4182963214750574 0.6498753250234816 -0.46373203919086037 0.3776575028324837 -0.7098466101278319 0.3310970794132361 0.013203697652203392 -0.26438818318124596 0.1422266397208636 -0.28351202560015487 -0.034980537692804084 -0.14665902858839278 -0.6516693388550721 -0.5235142637889936 -0.5223802845275624 -1.6850161008848823 -2.0990520389643903 -2.494515825212364 -1.7656156343873046 -2.159333785726708 -1.870281272911493 -2.36399415160721 -0.5400120586033864 -0.05244287450581148 1.3732324689181528 0.9008393024614862 1.0596046985776475 -0.5639760031254476 0.22591443016612758 -0.0772272348360426 0.3991206285847831 -0.6436074997286422 -0.01126527729124675 0.3971655717922698 -0.3445215587475914 0.3479197702197494 0.1978755853759897 0.181427926221295 0.771045494303169 -0.6959293390459022 -0.8407538998597092 -1.0736961412845503 -1.1867868715888932 -2.2285591958195585 -1.090525660209596 -2.2640295604824905 -0.540944160420214 -0.9280751748108409 -0.19078636225168855 -1.2528031479556228 -1.59467499690447 0.0646095092580993 0.9940772535252486 0.6917427015498223 -0.38118782115943706 0.6160362286065023 -0.18315634404053563 -0.07526955830899228 -0.9249712268459148 0.42636620948970166 0.22085208538996504 0.574513434643983 -0.46535679686398357 -0.6895970724326885 -0.21352748499414262 0.7062842702459486 0.3082891829654462 0.4435616798703307 0.8067821744210041 -0.9310899261860411 0.09142068199040085 -0.8687374233263407 -1.6926917666543917 -0.5912002691063134 -0.3291405472003878 -0.7592726337852981 -0.42291985515980157 -0.09322432942846184 -0.3955661354576586 -0.8330767694501088 -0.5588208855895958 -0.5003759511500631 0.03270276889371424 -0.5111746504009699 0.03202262637560865 0.13560943176538823 -0.7887866182714615 -1.2647155735997977 -0.4969228705973285 -0.6264086819761436 -0.33634905842882346 0.5714299135347132 -0.5548846080875769 -0.018972725437608196 0.26792863042410914 -0.09258579683902314 -0.04559117987651194 -0.03725703067215428 0.16946887445431558 -0.7542720885230763 -1.0825729797640313 -0.43986098687340897 -0.07317043676679907 0.39318452386149294 -0.6956762319671376 -0.6549877061481125 0.10461114265446081 0.24506745775232375 -0.425745313814506 0.6569083366168975 0.8924115013339277 0.3470863109213347 -0.15710014657008592 -0.19837200548348036 0.2532524150979928 0.23335621681551427 -0.4707963431069075 -1.0835620393369094 -0.04210640686717115 0.8499242824657517 -0.5668609845481161 -0.846287750265504 -0.13135368086898688 -0.9779877103940856 -0.46771702507326357 0.7044338437124751 0.6102757915345879 -1.2662025167439825 -1.0075539085478165 0.30667134917035205 -0.028274345762453218 -0.4961073181836512 0.11702733135199389 0.005380928707641075 -0.10925048682154276 -0.39245519734285716 -0.08745283385935902 -0.9553654960339735 -0.32447647171538024 0.014368005121406477 1.2100336580335453 -0.47936889773174235 0.628831653352986 0.10210479083198765 0.5610171711986863 -0.21431222383085277 -0.0073746682701358035 0.3537070120679672 0.5707507317659467 0.3007083443277292 -0.3595195867546862 0.45807758932308756 0.887109171679975 -0.7024813418020296 -0.3782797498145941 -0.5735234370017216 -0.5159809063877584 -1.0716602760396894 0.0729202671980174 -0.3149100540253772 -0.3964690375287037 -0.14043748304311293 -0.8024166809389104 -0.43913076266443174 -0.7429197123233345 0.1411548708054274 0.7797560023035219 0.43416885351450035 1.005003415932118 0.28902273372327836 0.23242371326748124 -0.3181991465133186 0.6687055948937363 0.22977087603459623 0.9925503102576536 0.4655234921929933 -0.14971644858054983 0.7041339310788903 -0.5839997948830863 0.3934232900869914 0.7442019115081205 0.9339044825448585 0.9167008748169757 0.5062865280850654 0.7136156056348177 -0.7114876006615343 -0.13048369409033564 -1.3866680537455665 -0.08275249428444512 -0.6418816093972363 0.846737670115629 0.1954687096217414 0.8777879802505222 -0.00525306255579208 -0.08084390460626087 -0.4211155862614315 -0.6152134104792908 -0.5625269534414038 1.0156361064724257 0.3135226364903179 0.01145207306886373 -0.9921993822497073 1.0240542506163772 0.9484480413078907 0.8095957924176795 0.12052077718108434 -0.05537883462832541 -0.35029520026177263 0.15922761354369938 -0.45101292476854016 1.0842585828612223 0.09027007852307113 0.37467748319010624 -0.2593070625899241 -1.0823332561276988 -0.3333662475095114 -0.02946338678989639 -0.8935615924577556 0.10731571647002103 -0.12688049336733004 0.06050475802826201 -0.4878283889563462 0.5546556078597333 -0.14461870398788518 0.5933094140896882 0.9349480986142727 0.32652521314139116 0.27499491512419755 1.0188250417026954 0.5859194893920314 -0.19211422276489448 0.43829369103193017 0.08295216241933873 0.3673048091039288 -0.48400058274091184 -0.6110844726907713 0.4776966842087333 0.882791023189663 0.11255573970541333 0.9183280396979989 0.6449619504495846 -0.16328685733113157 0.3060951496687824 -0.4185236800057862 -0.1273302532491092 -0.034798268371553046 0.9697259711414842 -0.6600587131006685 -0.10082231362613012 0.436299244552772 -0.4074966866706969 0.46224657785750195 -0.25132699103942213 -0.2818210099087121 0.10134885952647903 0.9447676701533542 -0.17027173311033428 0.4578423027303854 0.19143057053016502 -0.030809496334336817 -0.07265074569993081 -0.8661781630889414 0.8884477876154019 -0.09263063266129462 -0.6594054903391381 0.5522235017885005 -0.21509747188823666 0.9957201299792243 0.1531242587041429 1.2403952988779299 0.1666736611736788 0.19119792151535434 -0.4225984876808429 0.3986300095491138 -0.8447291658924363 -0.31519985737485134 -1.3276311596565802 0.12424613874046618 1.029564694468796 -3.0685967845645685E-4 0.23707152859116706 0.465941128976094 0.343469749729444 0.4044327320428475 -0.16574685712268708 0.10201752882338738 0.9319442481734993 -0.8321300337411391 -0.17275027748689076 0.9410627285113193 -0.3384667445062721 0.5643646032686107 0.5676875642972573 0.40449477665637057 -0.19207545685932226 0.6164877039068073 0.22964521719779316 -0.35036022184805393 0.20026273052893503 -0.42633062247803943 -0.250896969810796 -0.6841741143689343 -0.7055612385633918 0.6475524274395932 0.5802738711052015 -0.5628791472418848 0.08460814471557584 0.7799546374631614 -0.2653194877410567 0.5603929131591312 0.0146838853569209 0.7499603355637569 -0.6749215301312288 -0.3880413798527842 -0.17610729346946116 -0.04453131209443743 0.5529473482556395 -0.370477657895649 -0.981812806914365 0.164541482731025 -0.15398542705917473 1.5923642074979516 0.02503128945178588 1.0599275125646634 0.018726192433499964 0.8144257613339112 0.5274467013869385 0.670940313554115 0.17102697809594034 -0.2568457003177833 0.017601772223955696 -0.6110042212854458 -0.3245613642022149 -0.061736610035452166 -0.019660801059059825 -0.2791352520233208 0.46578876854296064 0.3807442236958638 0.5353588939342566 -0.4730390024452882 -0.22153930309498024 0.9015366599283209 -0.34011489959488317 -0.9217998688714262 -0.7867712781154341 0.6470530003888308 -0.5204095399759079 -0.3766086956488888 0.4849507326890997 0.7584657764705248 0.027864803816574663 0.1429826108464169 0.7677855073778215 -0.46477350204073303 0.6081754874683842 -0.11095589347207528 -1.4051896374239192 -0.3084134183822274 -0.30259938266438213 -0.8673344673396729 -1.0302391122116554 0.0013667945432040455 -1.1736546807426593 -0.9006997164616083 -0.6381123379867881 -0.8713473380899841 0.4904759401483851 -0.3265391364543904 -0.6345960521943377 0.24819321888054388 0.9785653910178136 0.8646569657684718 -0.015371089999736576 -0.2612871696081773 -0.02394022853454092 -0.4003897061965684 -0.5305569405362152 0.7716803882581511 -0.4647171044458296 0.9584088465351998 1.2441634999682334 0.6633392830862209 -0.08899932049289282 0.4539257004495779 -0.29547377940804226 0.4238634704532265 0.3005397021337846 0.5307629130641098 -0.17470371809199192 -0.7141382043222188 0.1562073356822205 -0.887788512108292 -0.35185911097989986 -1.2812389254034857 -1.2452158633788062 0.7903595867938666 0.6914153896955458 -0.5956567667034888 -0.6139639757546947 -0.7714047336825431 0.26131794589802637 -0.5918230491350747 0.13221134858876393 -0.03483728999282998 0.23954074941317846 0.33206696836065575 -0.7731470707982637 0.41418652286487195 0.8186252165038369 -0.16053605991769354 0.08908542105592551 -0.49345782349084527 0.9597415529818789 0.7527689991367882 -0.7102762256319095 0.20266779893200634 0.922667753676371 -0.488677362834516 -0.6677491180902013 -0.13164914328010985 -0.35357963372508744 0.005694354055837454 0.5484732422110521 -0.3445784885748881 -0.03835747455206002 -0.30070311490670504 0.0815299964821119 0.7505068877671295 -0.030384249650523776 -0.2746433342136141 -0.8020400537117733 0.5996995815739046 -0.31321437732071833 -0.10961485487774557 0.10003474132099127 0.5206132135321861 -0.19525903658631755 -0.08270173860847368 -0.46189714289034706 -0.6597665450722687 -0.586693942746211 -0.7508635389052243 -0.26897837324485563 0.15102496896339487 -0.2791114372537156 -0.7723091270882787 -0.7300376231826811 -0.8136420888769432 -0.21824842266407726 -0.6054732665112501 -0.3873857944984372 0.8953514294367926 -0.8956267206557289 0.24986872978513142 0.892858460066518 -0.9967144935360599 0.7318742914165295 -0.3025481743341534 0.5276469062718321 -0.11898806090992253 0.8450247767099714 0.23565576339095617 -0.7561570204360663 -0.06949451333731282 0.8189099444650991 0.33956167948398464 0.3542230122774276 -0.28023030955949807 0.8281478633309226 0.8197133261584445 -0.5886141642528823 -0.08003161313603165 0.4436981153714626 -0.02039055670260422 0.36648461059071896 0.7015313129900307 0.8502984784697067 -0.9726149247405416 0.9911074318958288 0.14528083220562701 -0.33118989514325603 0.22057204010481968 -0.7424550135533479 0.16194501676896667 -0.5588105339861769 
-0.4992619402201437 -0.08221818292926786 0.3895586574538552 0.34777480724000354 0.5820922175757364 0.6069734696472115 -0.4136921080257854 0.87279918498008 0.8199391242327352 -0.539653811833841 0.1507580286335446 0.8220194193283501 0.5675133776995025 -0.5479364661445159 0.574270893630366 -0.6530302063058042 -0.8136347588075477 0.4477787018966177 0.8665677746189382 0.44513885687004295 0.3929753525141777 0.3083352192256763 -0.7056411237005715 -0.21767765612654166 -0.7956445062202988 -0.7097157199782183 -0.8657279652997147 -0.37714224804641905 0.38796908619444426 -0.5404128006729136 -0.4348580776170743 -0.8446008605331459 0.026384910978535014 0.8680761491897182 -0.688950957660279 -0.4336472054916258 -0.4253994990664488 0.8383083762563668 -0.8018571485147593 0.8445883459240549 -0.37812299005383576 -0.14201983109030217 0.374898714771003 0.45292424044373 0.4338966264488738 -0.6860795757217418 0.7102530673421166 0.8863046451406349 0.40369838834680294 0.5667735406314832 0.4442354878072034 -0.8040320601434237 -0.634692611105764 -0.2812445494658622 0.13480368251800523 -0.2895530936601334 0.04135304392114603 -0.15426160736935235 0.7933346873656928 0.5000388386221296 0.850749323051842 0.41325991672832074 -0.14785135305922997 -0.944595457532185 -0.40204547973747745 0.15607273618909256 -0.20164675612654143 -0.62389323190357 -0.26587108599362047 0.6258772536344148 0.20959455372963295 0.733029092755086 -0.16771975007074494 0.28389947151913497 -0.2506116799687519 0.11865782591246475 -0.7498843682927031 0.11409660001727431 -0.09985888396154603 0.6450356094072409 -0.8409529001594211 0.1457652268799391 -0.26812425204148393 0.05380189152494119 0.5336390938749134 -0.7086065904234018 -0.42460976688187335 -0.6798083193464025 0.0692700715202736 -0.7033056531601592 0.4320111642802585 -1.0304378099784703 0.3134755978291178 0.012516017766690035 0.04117460268370948 0.6197769616998924 -0.2276260948643138 -0.40369235445784124 -0.2230013925443639 -0.34288039206323484 -0.8981954953276301 -0.04757784338594787 -0.21632685143208505 0.7714588570474584 -0.7822652769034788 0.7764040077306281 -0.05892676187860598 0.5606075144396324 -0.2001160163752575 -0.3060179112550926 -0.05273031988893992 0.10326123394507558 -0.11007055770685437 0.3878115901282875 0.049988760672576064 0.6041981933636142 -0.6538200822100781 -0.19850642561462484 -0.7332704045989141 -0.4150700519299311 -0.513124465957448 -0.5585759091097638 0.2052809925977071 0.09675453693791439 -0.7603578869509133 -0.1912227337549274 0.5476902912314985 0.10199396991430593 -0.555658138369448 -0.07605989572390862 -0.7652811956533168 9.710493592876676E-4 -0.6750628085220182 0.2626132952547719 -0.963296593665918 -0.33081315459272226 -0.05234703203986531 0.6208727478273607 -0.024911040766701947 -0.22118778641269152 0.5104091140746014 -0.6974378732692141 -0.8412252385111655 0.19409091516716775 -0.24902654608909744 0.31044708246694963 1.0472932960325985 -0.11959813821601085 0.573063635196813 -0.27938656158916464 -0.9463998969639887 -1.408763206502815 -1.3961656383332837 -0.3883401176956344 0.19682694377127266 0.15901204949971898 -0.011792154427960347 -0.17333587164023015 0.7923286969679234 -0.5974336648194517 0.15373879869545956 -0.37923320695565305 -0.6921868304544343 -0.2751525311850425 0.8154996149605005 -0.0322313224435155 -0.47586798375676503 0.5348649571441083 0.419264969395436 0.7735273652016705 -0.6822392494418419 0.6661255850010733 0.6073856323267278 0.16238365806923766 -0.5225690809640714 0.9670531814426531 0.1415515096418094 -0.26378271723806773 0.5118361672137833 -0.21047239432366102 0.217262079832771 0.6409943120141325 -0.7293145288927759 -0.9362635847144439 0.7444342148492528 -0.7054942627442135 -0.28356781682682564 0.7735457074311988 -0.4925290424457966 0.26207007861294174 0.5649487132915444 -0.6481898012808445 0.8555159833334613 0.703584035572435 0.5398038153141554 0.07112962862775915 0.4476428300621571 -0.6853916252838578 -0.7714001837107144 0.9622083989323339 0.947743218608002 0.8612922925703284 0.45468839296081065 -0.7068052525502515 -0.7344310576046071 -0.33307097976850536 0.6566467903073233 -0.6792194215301801 0.2797133388076461 0.3762106644269222 -0.25776721608548886 0.5929340362325005 0.7579853183244379 -0.21145794422380151 0.5283423530176099 0.6403687551214374 0.0875098589157454 -0.19089721772602727 0.9462573899555399 0.6856073218079212 0.32207958148804733 0.055002776702417516 -0.27347496596652743 0.026080948071838073 0.038569844576887835 -0.040756312083424964 0.9906591748543544 -0.8858026111633582 -0.655881857882515 -0.1822194478255585 0.0016022060692182036 -0.49306386326937063 0.2727206955458612 0.10626490210261831 -0.2275825629163307 0.2798620722949793 -0.23353255412628893 0.41898789300353945 -0.2192941234842448 -0.6064967392256211 0.9186257378859664 0.7412795095888792 0.673342131406615 1.358313704696234 -0.4258018610668698 0.13395092187601307 1.2793521021789847 0.21546355761035008 -0.37580987732616505 -0.5112231790220109 0.21625962951429759 0.2276754060916001 0.3793481045980782 0.7140712161260716 -0.6867088717974636 -0.06190938552264474 0.8841286635733451 -0.07213371686720943 0.596232695419162 0.8516060092739038 -0.1274480004301157 -0.06004348455706764 -0.19379462809863557 0.3455206124918112 0.3922094309296858 0.20315304285821892 -0.23834406147428 0.08540262657162098 0.9079447529497845 0.2955393702299927 0.2217012027525807 0.4959691760020063 1.4374526263352299 0.11854143810471988 0.455964313057608 0.24128636874082365 0.7774842617631463 0.09985047621743252 0.21615106078960356 0.5731505930488785 0.022001901135878077 -0.32387729434852414 0.14183457067210598 -0.6004555258447398 -0.5491856364013827 -0.5802618287342046 -0.7559442848504141 0.05162345511899389 0.7295190426990088 0.9667970956189791 -0.31521702013275044 0.3485731743245626 -0.5136201337329961 1.3039362618482364 -0.1560595933084174 0.16339946458372775 0.2739057583981492 0.1239278021843956 0.9264532959386473 0.6410219517788436 0.17787103110257263 0.14722594851954618 0.4865162947597475 0.6371310194533624 -0.027251099405944276 0.7863344837603241 0.7699276793640898 -0.6163708888006353 -0.9550586564702963 0.48620761946447694 0.1642737312369555 0.03285858802343442 1.0345959777333205 -0.45529140424862774 0.31039853068232587 0.8528818308596992 1.0094782251084458 0.1534383666626803 0.4204881638018218 0.8791228362532858 0.24370779181987887 1.3063152276761931 -0.27107193112201355 0.5437285500442472 0.397520346177854 -0.24067244808821303 0.9638646196822934 0.8885843320370033 -0.5677126976721244 0.7120923434612354 0.9161652544220126 -0.7884071163902593 -0.09538823090853422 0.34452236505904427 0.024361430421215118 0.5943155857400648 -0.8609185097969871 0.47401858377141537 -0.4683807939651611 0.239323764198015 -0.20999073718493258 -0.01925699853852562 0.7051967065355522 0.5050370954885841 0.24891155240511428 1.5838599591147955 1.0458107382678021 1.6506672847085424 1.4226925771440615 -0.20673292178671537 1.0404561497028113 1.2071092153403487 -0.16404970189586252 1.41259664665587 -0.35075187382484885 0.9988520253332487 0.21588744632943777 0.061045706260681946 0.46539969127293895 0.6585362041617459 0.7498903620026965 -0.5762775742705503 -0.7286762704908462 0.036599779165148 0.7692348860623266 0.383380096874117 0.714657793074198 -0.859226291463936 0.25655839590109425 0.08179367705594086 -0.2532409671467496 -0.6272534566041905 0.31150942022531036 1.4386930523850896 0.21600855590000673 1.2569629644584521 1.573882061924868 0.26064902239866883 -0.29614414209912754 0.776664582071471 0.3381498841069132 0.06417821960170823 -0.16195173141438673 0.619734511984717 -0.13290832830070087 -0.45624659082119595 -0.9694187572870282 -0.5111917399997965 0.28427207012719263 0.4825457847935715 -0.06636469060509634 0.07870607334111808 0.7666738147973777 -0.8173488877948512 0.4810608775698602 0.41490060518837785 0.20771831876483624 0.4566685185411601 0.5159659901262824 -0.26812323450479175 -0.6578112100224913 -0.14232118624180393 0.7691001862992094 0.310999177421522 0.3485641966396053 -0.059461044997246054 0.34607047493444243 -0.0449833223680899 -0.02987181474158037 1.400902714315154 -0.6460684534395811 0.950932408815538 -0.8717446368350802 -0.5859808911635481 0.29255032076596005 -0.4959377364841393 0.21655311024839122 -0.03182185507070747 -0.6237306816307425 -0.21585842615699277 0.35133602939820907 -0.1444379999180644 -0.49261073807653294 -0.44901510340250317 -0.3084259660894668 0.3020807914028371 -0.714959185560899 -0.7383434485747329 -0.39938269279007993 -0.7787225827302453 0.2815143919709642 0.21179859725606628 -0.424469535294506 -0.11556760295950809 -1.1577670113283702 -0.3163761462962392 0.614695294214991 -0.8938612887638234 0.4879902436506501 0.7301240702713453 -0.5664211738106814 0.10498064798146632 -0.2386561058619061 -0.7769568356298718 -0.11297086766324076 -0.7068002159840492 -0.18338125352708565 0.7831025073202726 0.6622263070955929 0.5580769240546838 0.4585810219789635 0.913172119084629 0.8893031939501176 -0.6932393029774905 -0.5083559721972434 0.14029195895859256 -0.4216440226226572 -1.2204828079521903 -0.22423137650065242 -0.3015951787026445 -0.31452376298525675 -1.128783111971327 -1.0007666058266795 -0.033681117824180005 0.4498898360670933 0.15336714602187992 0.2782820521280197 -0.41991554841642587 0.5906087468875116 -0.2255120394448122 0.13059624079115464 0.4141005666197321 -0.9346107270402647 0.7304703431595457 0.7848247469236529 0.6897957247293619 0.3921444551418849 -0.2065488475609047 0.5627765014145677 -0.6249501103310583 -0.6225753607869976 -0.3526105395216132 -0.8152089461254537 -0.08171080109203009 -1.006056259569697 -1.3055886119646465 -0.45754967431596916 -0.9599368444665377 -0.5129114959136394 -1.2526168682626222 -1.609372236112216 0.017674592341187824 -0.9133373232483161 0.15531245622323744 0.5031499751996351 0.47846790226546587 -0.41736569272401774 0.7891371054091924 0.7014867072235377 0.7353539031704919 0.3059994325927393 0.08095472279799627 -0.488895884690312 0.7401778714405997 0.07794798395011626 0.582421524543303 -0.5028829546499445 0.12437013528379223 -0.3456997713867437 -0.08271407143779173 0.2327594653109934 0.16722953035857385 0.42568185435998285 -0.16893201990129378 -0.5508287100427627 -1.6068207936983863 -0.34439534549490314 -1.6267835354034423 -0.310568740642968 0.15410844247773423 -0.46532098041183795 0.2996676099679369 -0.17271733076248055 -0.15533394553401483 0.858502848067104 0.08246929795084106 -0.6891278054419219 -1.3313888273845196 0.5835972023054645 -0.8203398362564379 0.16602203631516552 0.01398971149460757 -0.00986400538872112 0.8310824785880924 -0.7131222753730766 -0.20112796151102144 0.3437747196143528 0.25919456733014534 0.38331380128693837 -0.40962384974689425 0.8095349052672305 0.5935028768609236 0.06445800807521819 0.32322783805772537 -1.4100613430956506 0.17229693434126916 -1.0655055878571416 -0.17956866732554128 0.3712214053270438 -0.42151610130456924 -1.1039471010550654 0.40477839458590636 -0.400691370073913 -0.5535334482139469 -0.3381575381168114 -0.8885011639512823 -0.41560585261402955 0.13273990270370936 0.2181565719761672 -0.7989182832808832 -0.6043806973330956 -0.761553200899401 -0.9100652659044814 -0.4237648821265028 -0.2992591197308539 0.6726861022462169 0.17260347345155422 -0.5867695424101393 -0.08256938238449868 -0.7629480890825155 -0.22175203689405706 -0.8924108279620951 -1.1453092815671626 -0.3556657696127352 -0.9808243686290575 -0.3002927106476073 -0.10003702199782119 -1.2253022062916719 -0.3083974835981923 0.5087764973938531 -0.13730818687596805 0.2877462289251109 -0.16731888301856335 0.2514512268981548 0.16893174107858278 -0.7917560289920357 -0.18550944750674542 0.46170270196225016 0.2351196345634754 0.18969543891457052 0.30715522414091934 0.15657266061735034 -0.07322253919973273 0.7638745011903246 0.7327372953833549 -0.5675623438105323 0.9164164305293874 -0.23369812493728237 -0.2571624499173483 -0.20860545606577985 0.6796311054030204 -0.4533437130271237 -0.3322050325836245 -0.5729172445616656 0.4067318407330755 -0.26021168414286794 -0.5645793075770943 -0.3224800013479555 0.6549148296787106 -0.7317918430979624 -0.9479121812363097 0.6668416720324774 -1.0821377390355322 0.5079703771488953 0.7133249792897727 0.4173289308123145 -0.03828139728731439 -0.8854748995845361 0.0025121564632788313 -0.9563396930023166 0.3172743972486778 0.6224677073020016 0.2083373995161269 -0.4001141195330452 -0.6511750738625839 0.5722878398399709 0.5883125390661785 0.5584675075479172 0.24193863038544122 -0.30801326303653204 0.5456294278364306 0.1498232492621776 -0.07554676477261665 0.07520393398589985 -0.7247050987665627 -0.5295744703879315 -1.0953158354626964 0.492210570063059 -0.6480872759131291 -0.2532794304463906 -0.01060961494636628 -0.4821042751182225 -0.030372572211164992 0.7552584317929554 0.4296560133990548 -0.23971840361800134 0.8244346489588112 -0.7730498482679325 0.11386943845992197 0.14404201742776254 -0.2894219844372933 -0.5366157404286195 0.9135950732756318 0.17214537296262802 0.1389619745022439 1.2763736526417058 0.41108756053244033 0.9552199112349132 0.009943433405627183 0.1674284706193453 -0.24446633935884785 0.7455596448095982 -0.8122158196477833 0.6098681718692445 -0.02049732137450128 0.1512854848650854 0.08923956160875836 -0.7568327326854406 -0.8753206899261021 0.8191801293861973 -0.023518135083841353 -0.6949379139288714 0.3025542663095684 0.733769668317336 0.6230853277933472 0.4872186016477866 -0.9465873007330992 -0.6685265569027127 -0.9076471956269799 0.594607437156192 -0.725324349476387 1.2923444533352195 -0.4887595576357091 0.4573726861310766 0.18251937996051176 0.09960538100130462 0.045706987159165297 1.0891794112164186 0.34360403622724506 -0.5089783269321444 -0.6431938391880968 -0.6912590852912746 0.7933112164229393 -0.499409859577338 0.7978807327544868 -0.6059197597156063 0.09395434138735206 0.13959744851220826 -0.6131652309531461 -0.2402887074733715 -0.532175437326432 0.5198242867780027 0.10436380682876822 0.8813377061929673 -0.6417365284470423 0.5234195677458642 0.7438067739097146 0.9500750758405186 0.6671535012960471 -0.4048146482058371 0.08821050638565547 0.9224052037322669 0.09375409295044893 0.4115440847583411 0.6882314761778688 -0.3925425247777275 -0.4984909050090608 0.44014627660039085 0.44691882224360385 -0.2178471418882309 -0.1316370030594274 -0.5642292289412222 -0.8016655240509857 0.37355110027219407 0.42393525881383753 0.28867580652342434 0.19666071730432802 0.46609836530039694 -0.6009114505232167 -0.04072875432495149 0.7547232927808183 0.8426306967690391 0.16493347726277718 0.7135859419640173 0.49389825546144434 -0.866880933245255 0.27963338261158815 0.35611365541544443 -0.3739555790829962 -0.49761445462167025 -0.2661099336398091 -0.3238598361883161 -0.18769933707836292 0.905445810889325 -0.2512835082547991 0.4264548223384336 -0.2706061609292673 -0.5900356024941122 0.5770439396637899 -0.5424732729436569 -0.46975463286820157 -0.40205710918964854 -0.6354218906490136 -0.5788192851996261 0.9377371630097655 -0.10084705182947529 -0.6989735736070226 0.8946122821805824 -0.7729733199799425 -0.5354623913666645 -0.3045455402027775 -0.5845132651972521 -0.9784257857301523 -0.991137933236677 -0.3086278555285436 -0.9404336166326367 -0.8707451360190499 -0.8429079929343295 0.1418876139827761 0.3317821189106664 0.3829155363625595 -0.15704326635636714 0.2074524381325185 0.02813651016800905 -0.4161955313082599 -0.9185898664716042 0.4732464114994191 -0.43858115551851873 0.0980069231717526 -0.7792091407609988 -0.5393430425303318 -0.8503489369635413 -0.02541521751713538 0.5607037921610549 
0.20114184394825352 -0.6516035679344243 -0.6749765452605843 0.41174859008634157 0.9645257319229816 -0.3676319142502784 -0.9803745958082022 0.3000533567328807 -0.335327718953512 0.618423356520698 0.8008915320250432 0.2918262123153619 -0.69552959824367 0.03109273544923729 0.17572708775375123 0.1247653162047367 -0.5812168251411971 0.537593454290394 0.14574398800622346 0.8834135266324663 0.27184051443101653 0.17139570073773802 -0.7022010780752355 0.5692010536855758 0.39214064189635645 -0.777295761551617 0.4011956903788998 0.10868912812626785 -0.0794886588982402 -0.8048459125745551 -0.6679577738299005 -0.9045093746620185 0.2020873069957968 -0.2888655555690739 0.8828188513407402 0.8808176364066665 0.07079371179288815 0.09393823181448152 -0.18914411089706543 0.4673528043817475 -0.6476088712426801 -0.23437749542089265 0.32725091242896726 0.2304705832747988 0.28208122246213463 -0.44414694729481957 -0.7849115429880319 -0.7957810860371604 -0.40996432696519225 0.5481076611301746 0.6524866951846335 0.6728824968051282 0.675831218928316 0.34219824292042333 0.9462138604378485 0.5242718601149936 -0.9393360675265965 -0.17902658987010556 0.40698059489302557 0.6113115799823763 -0.9900183239264408 0.3478024787707381 -0.057579668662479024 0.9246360997841704 -0.09738467140906117 -0.3243308945412758 1.0067116043748578 0.7989818024578041 0.9474635529303861 0.2383204062419482 -0.31629659092416695 -0.47036828734621533 -0.5773055150339952 -0.7681711810942681 -0.4027020847783553 0.17936449802787893 -0.46960352738784017 0.07775544656992021 0.8496896073761723 -0.2046570638161955 -0.7039075504165284 -0.36496381551281504 -0.339866051691349 -0.9361312574293104 -0.21368440566066393 0.7355016305830693 -0.8070719259586954 0.34422351308032445 0.8724409270975625 -0.8321335793455547 -0.6109522194340853 -0.4669836604924861 -0.955973367723098 -0.2587227963419811 0.9260801641406881 -0.32826042773305725 1.067183709918883 -0.41757384406910586 -0.5715258803251517 0.6821449620201088 0.34055422102435956 -0.699021509825202 1.1219276863358179 -0.6430312161892413 0.33809219952423897 -0.1356055286804301 0.7531861240837505 0.058201355199203914 -0.28621163999091914 0.1520219050945838 0.9561028396245002 0.6200560020960446 -0.7362396428200333 -0.4906427486288045 0.6456845478172809 0.5972620486001908 0.7829874910997164 -0.802648231140573 0.7128307469394887 0.7112455342045841 0.8115859376025656 -0.7221000152130784 1.1830040375165052 1.0906528282019128 0.002292780564433767 0.6292285805588246 0.04283987416329969 1.1581979025890363 0.6848430356836218 0.6215635660270398 -0.7146577008917476 0.7965622574808607 0.7370429966574256 0.3840401829593852 -0.9562948473929408 0.019531851495241864 -1.0282627040734296 0.45886227913581906 -0.18792793080348502 -0.07023337146393716 0.13229854411894615 0.7556420572123921 -0.6117314046378183 0.9806398462551864 -0.6521719990075295 -0.5747226117847554 -0.952870912382835 -0.08071162659780369 -0.5939145503457516 -0.5866655668820481 0.18155747709011225 -0.7993003935036551 0.6833332131424511 -0.7229900762106699 0.3504247153245387 -0.9444981977980723 -1.01088006745791 -0.7300119100677432 0.10325495002577886 -0.19057954145114184 -0.18789245153625955 -1.2702274669338278 -0.12265200484949679 -1.053986273092287 0.10608634862326936 -0.571202154057367 -0.38621484955921037 -0.18057841035406022 -0.6588390149531544 -0.8425558114554809 -0.36663520167595237 -0.4083790165114731 -0.3825663913207874 -0.37486484878304943 -0.9031603421699578 0.549460057568199 0.08501972212833482 -0.06726725510857763 -0.7449210806037014 -0.13756640386375907 0.39116940468472444 0.07618010130223943 0.13768588324279 -0.07809174492933747 0.6771578705823537 0.09437620415653389 -1.129425048514572 -0.8084785490775361 0.6044117298602786 -0.2484714139670123 -0.8108962450551933 0.518072626632625 0.11043059777408798 -0.621930860217148 0.24128764041349982 0.3702743978880149 0.0769651895336676 0.763324588241262 0.8942842402983315 0.3293510878185981 0.768741045677214 -0.8817368645100006 0.320764985976416 0.6923032339309418 -0.08630339717993835 0.5731809064400306 0.2122869493272508 0.5912720406710595 0.4070818112886036 1.2941829727229972 1.315302603870576 0.5424837309065895 0.979748249342055 1.0780401117444884 -0.05213439917992119 0.6520395217753719 -1.007604866486202 -0.17639977185552777 -0.6716790653120064 -0.9478688080950185 -0.740378610263816 -0.14353082036996873 0.5130478079647445 -0.5026405508366077 -0.6631812439446694 -0.058355055248366185 -0.6959919910908537 0.762602288663599 -0.028431797897843964 -0.532611226869905 -0.6121615823631864 -0.0583818890748832 0.27273653326552527 -0.018539885566644713 0.7074254874623819 1.2500678141054813 0.3197206368410498 1.4727694456517866 1.235517759578012 1.5594474786012864 0.81764470469985 0.7547946133450277 0.3446885117698912 0.27760004850695585 -0.6398145117800486 -0.9884661912086189 -0.8674090165839714 -1.0515915477865239 -0.2905383206105593 -0.939036651918049 0.26487762050726404 0.06814287365451072 -0.030321869856058104 0.4201610991052257 0.3966479832531241 -0.7537447028559566 0.5221236080476935 -0.4983580420202543 0.27238934335158055 0.6116323002672971 0.7165983516803929 0.30140772619728823 0.3138135293133086 0.6275168319385205 -0.381336352670499 1.4657328612010976 0.6964244291919629 1.3292263070350374 -0.13554339376411237 -0.17096433506741995 -0.2441684322511874 -0.4344649006052359 -0.23188415859931927 -0.6451774670926248 -1.0075124420244999 -0.5468766811377976 0.4524548526515537 -0.7478532000383746 -0.8207079293988885 -0.014730562604916907 0.7141222995379781 0.04032886858350874 0.8256939367275397 0.9032425468783462 -0.5429996599503718 0.5882930355422699 0.3311245977975721 -0.6886632950998033 -0.22499646783410762 0.05411634298939142 0.4370120560035243 0.3714903153452087 0.6709764686576546 0.27996547092156254 1.6546957986618112 1.0341215158878192 -0.44018876805360846 -0.18304787003622539 -0.30124198878929137 -0.1158493346446233 -0.49525861447233255 0.29260384193023947 0.35093314526411223 -0.6441478564140494 -0.03879439869923729 0.3917859626462626 0.39650485676199054 0.4833889729772503 0.902477152772642 -0.4433637240993913 -0.8715846374730117 0.1405355659771 0.33545654589827084 -0.08565893221875183 -0.36679526294759734 0.25366466454494185 0.33119413358580424 0.12432401963394751 -0.5124325357386429 -1.0430847880819814 0.048159736686098666 -0.2597354865986483 0.9902951911820245 -0.11536579717888326 -0.4174960404575673 0.11721815434035184 0.2895067742651927 1.3102583307667317 0.20286575660668046 0.7702546227057311 1.1162200286603694 0.026684561535135362 -0.14837491126346325 -0.49478877580286046 -0.7644687704942217 0.8101072049723226 0.08083267407631678 0.9410469549996384 0.27177379264210944 0.5488855197578677 0.6661002230511192 -0.5720106392819385 0.9111098969674756 -0.19741910155127174 -0.3213890317087372 0.10302029094276463 -0.9466845099127495 -1.3284206506686218 -0.9323397643818961 -0.05115358679327904 0.3916218603138722 -0.8683540576447132 0.00500720351062938 -0.5078092992528667 0.5842632598262527 -0.4491836855500463 0.951645928252604 0.08172107284111642 -0.2816789238358418 -0.2401380279619942 -0.814591024163694 0.118482910581073 0.4681851594378845 0.09683736857009541 0.8158420055710012 -0.5037560906862528 0.5357961639364177 0.18260439272107815 -0.10146918212835646 -0.25336655324111124 -0.9522836550323205 -0.139587716527557 -0.772699836744454 0.13228993291935226 0.26218160295721993 -1.3354606584124882 -0.9857479587148391 -1.1117820724771854 0.38129580802462865 0.4161775247295064 0.09193517764316518 0.469150002390964 1.0179472101760805 0.45226383374618656 0.2173467171178876 -0.027926547262932852 0.1310408701224847 0.6259266524113728 0.9957102308480585 0.11027722525276665 -0.11920246052544851 0.3845898310356673 -0.5918352410334162 0.6466576600970582 0.21494751587366442 0.0821336862891716 0.7006642950184886 -1.1534434778785885 0.030670626551805823 -0.695071161355634 0.46062287638186783 -1.034773407920046 -0.610634785492793 -0.06837493961605705 -1.125464162577196 -0.630677930247174 -0.18414992915004955 -0.40759143302122836 -0.7099076944271949 -0.04055471812427528 -0.7315417038941628 -0.5177485811223073 -0.8092804910261672 -0.30500230785049104 -0.20698070526008838 -0.5317813256074607 0.7360750562854852 0.43592971167672184 -0.6043082210352276 0.8979302361258128 0.12977593168931034 -0.7386348063080885 0.6069087415524285 0.8648048635149295 0.10175188702017311 -0.3196851779563951 -0.20900299145596868 -0.43445284409706225 -0.8091200172233546 -0.8162844759227484 0.39003203192909913 0.1280047934515108 -1.2609848462251672 -0.8848795336428761 -0.24226090291377864 0.1845751246535613 0.8658449908501533 -0.7541938218745923 -0.9282249611263144 -0.10024798985136474 -0.3672810141851808 -0.11565575112983242 -0.18221775699223147 -0.6927158080169806 -0.8676716291961288 -0.7878724954999027 -0.1712551391675811 0.8844390259915201 -0.06918780039755013 -0.13483186199629524 -0.18926727557748985 -0.8827555048902875 -1.1313644363843522 0.297343270066524 -0.49663409375581713 0.16173493062479452 -0.25748761860423375 0.39823518044784767 0.7505234249852389 -0.6307515122846803 -1.0329982888586382 -0.47984417556849673 -1.0874252209455961 -0.7101271657542082 -1.1012993406664782 -0.06172266990490446 -0.19472110161920486 0.002759390273765098 -0.07250674374012973 0.5753952394544399 0.6349859853467819 0.7967542882758153 0.9458830879334995 0.30780956647905117 0.3395491164881325 0.3358190444007718 0.3290527916685295 0.7342011147292455 -0.8751132999924719 0.7899201518306389 0.36768941723898785 0.9254601112725287 -1.1198474730445613 0.07139171089941344 -0.28358637273194776 -0.11391134685700093 -0.2782803314496497 0.21732150860683025 -1.2645180874610553 -1.3945080503383362 -1.3365330199664904 -0.7041426803216225 -0.818480032478448 -0.3515433210809445 0.22172628428528968 0.17635093136186047 0.12824902003188937 -0.051794200120161275 -0.7454537107291029 0.3720215120478449 0.4258853472197506 0.4762859291778756 -0.9532152032957691 0.9316522782647639 -0.5944094745391778 -0.6082285454085239 -0.5856099339579647 -0.11978803418963233 -0.7314256621563198 -0.0711826261845146 0.05694479020093174 0.5656951367969274 -0.8421368547363491 0.31476081859821115 0.17978257937737205 -0.19455475242025352 -0.49301482695596965 -0.19585413312530514 -1.3221405120374607 0.20267146327981309 -0.07525070004201397 -0.4915131081648277 0.6525739012430007 -0.06146262856442058 -0.4928179098191216 0.6612662525027196 -0.16868210020491697 0.41264695535841983 0.6614615497316618 0.068780433863306 0.8827966105831685 -0.5087727789474267 -0.5680201454906173 -0.48565913951261824 0.562146555212112 0.07470322709036557 -0.7730216975074485 0.9702796541447276 0.6686769763894619 -0.09323705866623416 0.6446366304044179 0.5371986294069347 -0.32823100649914283 0.41310367151536215 -0.47055047575964964 0.34985271371799215 0.3554784476230634 -0.8459480976136239 0.4098190321562907 0.8142892612967938 -0.500028708248831 0.6651507485021161 -0.023467622316038095 0.4960255605331578 -0.33839859968166014 0.7787004832471632 -0.7813009245696049 -0.3556487993251275 -0.3252412160852024 -0.9382530174557651 0.8769628388804387 -0.354138464343719 -0.6773107970371245 0.41743735580209296 0.6057993012833999 1.0137367593867137 0.10074039113347354 -0.3641436187060373 -0.6832142102610332 0.832252950569869 -0.6734394507237893 0.7772382209280285 1.0219283345856696 0.6071262953842657 1.020805625080668 -0.4366590186121849 1.1097726504711847 -0.5608500038800226 -0.0015311598129906067 -0.5284360820537826 1.096002582284705 0.7324305109843228 0.6079447421302444 -0.07543084330000749 -0.9157297411788593 0.24934798301753938 -0.5868061263026525 0.6812915853536371 0.7730180852513114 0.46993035747786777 0.32648572752665056 0.7548686317762521 -0.48278654028379536 -0.8567117369568815 -0.056293700347469965 0.51661038940224 -1.060439642680017 -0.3816871906905041 0.4511440187891856 0.5445467661026614 0.08045928800058509 -1.0900191260977539 0.7943505964033659 0.6757185384150602 0.28839104563025303 -0.5912502515218381 -0.4962598968475135 -0.2638247749297502 0.6935608479606041 0.6975000182264434 -0.7031776228893537 -0.47466016735298316 1.0143420811370245 -0.32120133233799736 -0.4838594362709872 -0.56056334485427 -0.26521682988768447 -0.325632427080179 -0.4800989756193757 0.7835808575551929 -0.5432246034878124 -0.7044135611024205 -0.7222606731625986 -0.9717966809462434 0.5610383114684425 -0.09904043814965599 0.19694407399469785 -0.5134398031405523 -0.8613234225309646 -1.2404018551310436 -0.0891604394250462 0.055880192870642144 -0.7396119743143745 -0.05507416272422853 0.29010837307299403 -0.4456706518563119 -0.8657169209156037 0.2457326559926805 0.35653612376171306 0.03855079403432585 0.9840887044359696 0.234680125117739 -0.021325674433999804 0.3225354112258183 0.028675032551876756 -0.3387194481281739 -0.6035992681928127 -0.8712082753379934 -0.8298255498069499 -0.16334472572371264 0.7860491888042607 -0.3758885721435483 -0.5167360989473339 0.24941671234388085 -0.7048442981794029 0.4637633879708904 0.15693864274191624 -0.43333324365610626 -0.9091192216563446 0.04297007191958697 -0.5743707059497862 0.39519099035342997 -0.7135157321327538 -0.5517781111726429 -0.5750365981357203 -0.3242287449414144 0.8979710579692786 -0.4120959431269474 -0.8726756316414792 0.8772779899844185 0.8196827291650571 -0.14109095037207853 0.06569858291246655 -0.48475769738923535 -0.747320544649181 -0.4486163580187825 0.6063413290761005 -0.6401877070111228 -0.686108064355565 -0.7277843080800775 1.0265995587679766 -0.03084141375512985 -0.6283251186312694 0.7674576730859202 -0.8219068108894084 0.34308323067567603 -0.5855992827089611 -0.3650529304610488 0.07173932958457434 0.36226706422955174 0.032614276910640436 1.1290079768767702 -0.29446708194520915 -0.4811387302881962 0.1820763057162357 1.0024328692562776 0.2593279025821492 0.6653498325552399 0.1755274767151826 -0.8411709468050907 -0.08369086897918532 0.7366553387488013 0.6022361469122561 0.5583760587372315 0.009086795619873569 -0.5330425546185756 0.6498651775868796 0.6900424528029927 0.7162335107494546 0.5690907909731032 0.4954044942097984 0.4112039025025713 0.4282170989348043 0.9365698631227873 0.7379599887897161 0.2371593255922222 0.16144394906617307 1.4521617010221488 0.8485768182717829 -0.15420701720872923 0.10163888831083225 -0.007175101217867269 0.8566821399681861 -0.6300567863276824 -0.6496211463520885 -0.42391942253733217 0.9938371703554898 0.4613168660556817 0.1563467887466201 0.2817764158812823 0.3841778885686946 0.5653332252044982 0.3058530220265086 0.8777749803645258 0.05647146254356852 0.9591382045481951 0.1213973810753176 1.0469207969236118 0.7431763356622338 0.987932586680348 -0.5759253804394174 -0.18919471383453806 -0.031566437845421284 1.076011162152054 0.7362165476126328 0.5424837092613477 -0.6658088232165907 -0.2251109576864622 0.6578830790725084 -0.4057894577948677 0.7901064930879131 -0.30279457058247683 -0.4277048590718753 0.342833558409376 0.9313285172478187 0.7300177311874663 0.4956416904890655 0.42085713272511605 0.5335562599638892 -0.20674085764713257 -0.1794136386237537 -0.7887568995865044 0.6743413481547467 -0.20678442315558898 -0.5926577924905194 0.26036321749365954 0.18603211174431664 0.4098754471997503 -0.1730313654369496 0.43270109973163245 -0.6176044510100321 -0.6528644570909444 0.9756357783778764 0.3778733297023101 -0.9482176829317472 -0.0016598769100125386 -0.3475586362829315 0.4429234225875189 0.013483498862150611 -0.7256873592437525 0.9183036063035495 0.03964968089254106 0.46785449653797695 0.21898594853079256 
