-0.2281911941383834 0.7113271110884223 -0.07855604805883742 -0.43510507488068173 -0.22993614930208484 -0.22880389981047888 -0.693313400690241 0.12972197288047793 0.43289202433039997 -0.9208449613274032 -0.6342142759979055 -0.25133230607943524 -0.655144769920568 0.32156326093844767 -0.32504261198454887 0.6115840477866932 -0.5708691240215171 0.5490626013233075 -0.09148156968879917 0.7494727299174764 0.5188474295288061 -0.3123477239498136 -0.21320653712669912 -0.9189138914428046 -0.5759297646829007 0.9044618845519672 0.6777632872324355 -0.3184770549335656 0.6138485238897986 0.15120484764917919 -0.19509078673097058 -0.4383024125660815 -0.6230690226200428 -0.6568166837201659 -0.8359048186890791 0.038558074505412626 0.3812908402484587 -0.4350506587516928 0.6802193687560675 0.3250690593312412 0.8852032018195516 0.5331376284043597 -0.8321288815057196 -0.1850830190816852 -0.17540818357917853 -0.01938733120962087 -0.06853093902527235 0.2700072316126685 -0.022131691581570648 -0.09587078275895287 -0.31802143737778177 -0.8224970933571168 0.81683340280709 0.7143534419365078 0.6079774252659065 -0.5417412858973207 0.383396208156388 -0.5931286415109658 -0.4576341760617213 0.9178760761337982 0.32725837063842345 -0.7801068327655039 0.9479805372264527 -0.015550329781760226 0.3156279422955579 0.5258790313228734 0.28664155257059365 -0.35217119071489844 0.6613039017931495 0.6401317247556738 0.633740088925729 0.7148081205490905 -0.20697044118959773 -0.8547618360716547 -0.6107642919740791 0.4468646468251678 0.6401760732743688 0.011512703891522202 -0.20610608077137912 -0.45013523868962935 -0.9218369594709608 -0.6843314531731178 -0.36437046674207996 0.6209795136565299 0.0049293194758519565 0.26858375929996137 0.044175257374472594 0.9563851625781117 0.0597864830137843 -0.9160553216466955 -0.705976621073097 -0.7069875147458659 -0.28873161549232906 -0.527470564695474 1.0308508968873578 0.3273222822414452 -0.8926006056038774 0.28795625567897276 0.2709092408443197 -0.19792159680335025 -0.2495930090403398 -0.2537268951524627 0.4933998048926887 -0.7616937618439532 0.25784796279518857 0.2862253996898343 0.32992500040603473 -0.5434012204865033 0.9140824416774154 -0.6717057909790314 0.24585528241976984 0.8699726384707949 0.6758970388996788 0.08582223647266198 0.9837462586742425 -0.9110685013017837 -0.5265475084916832 -0.45707586930350447 0.4501804663151169 -0.5653550211758981 0.6388332816923498 0.3030841494760646 1.3199236916539925 -0.24051149625951138 0.6992262638424712 0.5137467700734488 0.6479384743704817 -0.3556036863572652 0.6065400338427953 0.13423891057139414 0.5912653431734939 -0.2774544482990304 0.386737177000816 0.28488690590881727 0.4664184959267802 0.09078927034332672 0.4335547972038228 -0.13360798319323386 0.4834662478978045 0.32526263867134814 0.8146372478216477 -0.9084695029863665 0.023272457415872555 0.24801727228993162 -0.8457674444217935 -0.7951551414779924 0.3630094224478454 -0.3502563801429998 0.0732515098957853 0.5346544529421816 0.8969995282434299 -0.2701821364963378 0.43511034225119627 -0.16680836824203113 -0.7215576389605795 -0.2193956959707685 0.8948875431106884 0.3355442243653844 -0.9057781240273326 -0.39207015374987436 0.8174347332705335 -0.023371644938674562 -0.1034446996018052 0.2534341116933784 0.6813086960281826 -0.08892085082428092 -0.8690721499397724 -0.5971166471664417 0.4499994841782604 -0.12812569152710787 0.3346771275124052 -0.2787618240542991 0.33879160157859256 -0.049647859702041774 0.5992742986920984 0.28720954618643885 0.07712319103266944 -0.09346921184142075 1.0312145341680066 -0.39873190932368374 0.8440451169953633 -0.23691092142813674 1.0178585986993187 -0.5121484037412819 0.3562805136102641 0.516317249736188 0.5863057625734109 0.11661029321978984 0.22242643089261008 -0.5820150374500362 1.0357216711706247 0.3275988462415695 -0.3670321137746496 -0.8227328808841148 0.3375301362982705 -0.4038044265256627 0.6632082422377774 -0.9450576637528866 -0.03124034166317779 -0.04937708510651511 -0.8785400864625558 -0.05876649302797045 0.44395379142394115 -0.5392172031590569 0.7206100264689265 0.21548104012235508 0.29357106385929604 0.43396371971158754 0.28378826803233576 -0.4181365123737378 -0.3975093879659828 -0.2242833596779136 0.7975368202974765 -0.36135269424278565 1.2046732652010292 -0.36565352110539295 1.1938547239250081 -0.757723577238049 0.1665944123632569 -0.6891784518136033 -0.4496309168647896 -1.0012018879448707 -0.9324862431228804 0.9972130431532662 0.811168734842592 -0.18067949371928968 -0.7917970680184874 0.3096670832616321 -0.7070613811412382 -0.1702622728660003 -0.19602608820396444 0.24937413823690568 -0.4949825966264796 0.33002662283883605 0.6709455487920266 1.1115134826529203 0.023525833637478438 1.2096059319364845 -0.02963979947298251 0.6417237165075845 0.8072594673551351 1.249821877866157 0.06544865831786897 0.4535384120320063 -0.2756637256475059 0.6530815718335102 -0.32846077682971786 -1.0439485731073588 -0.6328739922086849 0.9031002985108595 0.5094504586646404 -0.6382780649236118 0.5708425215004841 0.9491314689073007 -0.9894535659943634 0.15948450175474038 0.5185187761402422 -0.6257999399523072 -0.16014312229989544 -0.038720846267811485 0.06483570794435192 0.5879499323064273 0.0989716027928965 1.3462811069591805 -0.28313492034624616 -0.0628492944645508 0.4746519121591303 1.0539142909428734 0.05830696742009233 1.222034205745879 -0.2845014298203565 0.17330222970235623 0.24667267516101302 -0.03317659026622463 0.2767709668862546 0.3320775853502869 0.21404587567964792 -0.6723137727344888 -0.23020263430786725 0.590266678667584 -0.6747839726597527 0.19836500622649467 -0.8433422510202083 -0.9355748303286194 0.8060457475234623 0.06007536666716849 -0.04131713639588482 -0.1846957079817935 -0.789345304893328 -0.28267539429880334 -0.8527039032767681 -0.9908475983221102 -0.8328083577833733 -0.7537583181811893 0.4907427852293401 1.5175147693732225 1.2326058457737454 -0.4948079573554965 -0.11791640130814411 0.8131051779757197 -0.005770752982663923 -0.40967885452332453 0.04062408618037123 -0.5801543750057849 -0.8037105179674382 0.0015944844030592595 -0.809110497317884 -0.12934821624139112 0.11952771506757899 0.10771546651148023 0.7718092670481085 0.8346675417488381 -0.03134164346935197 -1.0676151512822367 -0.5137719026677351 -0.5321502609047867 -1.184912883120639 -1.4553556260958467 -0.840031678883908 -0.7859358637727929 -2.294447316660176 -2.061331491725269 -1.7200783057301112 0.12712417417466043 0.1004624229918454 0.28478452360761713 -0.2694273464704345 0.30288698188704904 -1.0691352202173787 -0.20381706868933022 -1.2447860762115261 -0.15807687104454954 0.6918671204142317 -0.5680670121053455 0.7174514995364891 0.8407653345514806 -0.7476417604964583 -0.17239257786188802 -0.43883208951058067 0.026942343619772772 0.2039443050146917 -1.6236366001440132 -1.817022662696264 -2.1101286140614985 -2.284824897984803 -1.4717853365747406 -2.8350833462182212 -2.1025874879530293 -1.0885241379738322 -1.457630963417149 -1.347710871616561 -0.5571018906343831 -0.46668116362517365 -0.3275994331347969 -0.5149468437143624 0.18464516353858118 -0.1706152670046139 -0.6452034897860757 -1.6863688394884913 -0.8246282364254461 0.17964726773329306 0.7914643425506036 0.9425651869153647 -0.5615538021644394 -0.35042564824155514 0.38008478374501986 0.2555251757923503 -0.9526841458450743 -0.06119714035274313 -1.144093109468293 -0.8606723755878473 -1.058534740166331 -2.5505504463959836 -1.3288030343117023 -2.1939930907883007 -0.3269320141767028 -1.515845185780326 -1.2727075272398694 -0.4320393442647615 -0.9146784485384335 -0.8691202932709063 -1.2476732387449125 -0.33926371171776426 -0.8724055933486518 -0.5489601723439648 -0.6938037790988985 -0.3436604914764191 -0.13024096170383062 0.10816833136044107 0.7293738242067217 -0.9375926514524896 0.5959198002889011 0.3996601782015117 -0.5661569246744215 -0.7946755955068938 0.5472250721008982 -0.8158120176471125 -1.4614474048724269 -1.9224332091392944 -1.9167682696980048 -1.167740674314198 -1.1487705966999324 -0.2870982581203493 0.45146107407699954 -0.4146891067012731 0.7305795043278497 0.2123730647201099 -0.6338897027651741 0.11989550918443923 -0.3513329254392098 0.23283177479099007 -0.07257389900916716 0.3516911645516793 0.3179136000542192 -1.0465635890904497 0.2531542629560472 -0.48033780412838184 -0.6177591506618952 -0.2685649491614887 -0.12538147828314677 0.26456697281815034 0.9954870501471974 0.09149628107708693 0.18688206198061874 -1.1062953026254434 -1.7131038479397809 -0.11238399860063601 -0.8424349178653349 -0.6645105365026891 -0.9090467625658664 -0.4449533167081776 0.8912661284880008 0.5550468980653362 0.3192393368320808 -0.7067490442532337 0.16480255460403814 -0.0016761302189039627 -0.605978479265492 -0.1148757559154545 0.20808828742084332 0.011855812123053077 0.28470200465492257 0.605084392257941 -0.47485466305606167 0.9963374342023866 0.905774924718969 -0.3693708764485755 -0.010635693881194506 -0.40095651204910343 -0.5494295154596175 -0.011463897282667255 -1.0127985858459625 -0.3465600737499418 -1.2918636178601268 -0.7361479453186088 0.6001262092175825 0.025307469751872362 0.7794873356734089 0.3716741248992366 -0.48714494252606655 0.4817585663969689 1.3039989104279857 0.4380665691136153 0.5110798511522212 -0.07590879843410371 0.2562476508437218 -0.11274739485287434 -0.1809529916444173 -0.6905387927418498 0.05299833053860337 0.716129860598976 -0.3807275629350431 0.8585008722716273 1.0456337072919069 -0.22814408106105527 -0.4967533980532655 0.9177419100617583 0.041140951432147604 0.8998776805858001 -0.5980859730866647 0.5978136589080896 0.6092278345319075 0.923666086291672 -0.0824714362196011 0.6196023953364779 0.0406968377084861 -0.5747833845701453 -0.19924599511107022 0.4804311694441277 1.3974676373445194 0.10839534274386951 0.2763953966009389 0.5597043178121655 0.39786731794304236 0.17815819810592323 -0.3877720689734486 0.8362356820499722 -0.17824066703079475 0.1481220694330547 0.17215150778944316 1.4089016346629926 1.1466947760119912 0.18551294555947243 0.17378077835866657 -0.6562699069790041 -0.7300136527420585 0.49320503732080373 -0.28556212567823325 0.7513529020923789 1.0587129440622765 0.956189335970673 0.5248763907185304 0.22277896487938642 0.892990562832075 -0.009324665645960725 0.39644909973898945 0.22720352652782433 1.4021639709622111 1.3202560749392784 0.9808477164929138 -0.5616347527209915 -0.4230104856056985 -0.9463633355886298 0.2845364072834009 0.07567252171964838 0.43129482022466936 -0.05018206172298121 0.2521394089830613 0.6031611583785128 -0.40361815267665974 -0.7401799001132238 -0.4821869211680737 0.35363094890117885 0.8238973351425095 0.40429745256033167 -0.37195419767488463 -0.5604547628249563 -0.43274920426763236 -0.04406343450685428 0.38499356298373005 0.8242493470869852 0.008759813839077714 1.065297951676428 0.5223165926443228 0.6654762499633728 0.8681369063986725 0.4319309180574956 -0.11702044753724669 0.2916061613452262 -0.2761506532382438 0.1445923245766846 -0.6825052486877972 0.12018373425730382 0.388291734231204 0.6383966260663013 0.9728904786954683 1.1867601891542015 0.6897631631411424 0.7244243163440032 -0.8328850100400584 -0.3962504261805164 -0.6541176131059427 0.8156190964641975 -0.5214278215749634 0.44341092733039444 1.1660282083220563 0.5262492360212895 0.12341421148395881 0.89265167513054 1.0101788654682782 -0.738080568395871 -0.16867944830421153 0.3554991915423526 -0.3404319413943008 0.7939937713211765 0.24093692013377166 0.23268307386649936 -0.8621408082498405 -0.6241245179193551 -0.3585607105446443 -0.5063706400643537 -0.022374816335317932 0.006360242522121689 0.8452747061754602 0.7691456957359936 1.0436656740483194 -0.12406632931299613 -0.9284507715837798 0.17819198054661456 -0.17977834053450886 -0.17072337050999453 -0.25134973488150036 0.6846445249716914 0.10989854023742184 -0.17705765718301467 0.238943412884923 0.8502114875512642 0.2700549838649352 0.6675703721422372 -0.00762462066171903 0.05446472362869165 -0.5903465946817215 -0.5990408166758162 -0.7039271657838543 -0.16755597983004206 -0.10635440716423127 -0.32653420325934535 -0.03588567622225717 0.28685915656759275 0.8977588097884696 0.6217512294113161 0.6849972595761755 1.0727341510209256 -0.8891555529217715 -0.7357133077100774 0.9869909900276372 0.34411884847488783 0.31027256030295214 0.20303231521938087 0.2340881887256674 -0.14028813820395722 -0.2587804142989132 0.7753941337202598 -0.6509368294173552 0.3533791121797837 0.5763970019006991 0.16695226904829794 0.3336261945667831 -1.0285743895378014 0.16618306003482466 -0.6582676086540243 0.3821925366730864 0.07947988515884068 0.025874670251723013 0.3130671079802527 0.18144937985835263 0.7252229593843804 0.2582359250382895 0.11040485203538962 0.247475189444787 0.18053760001061744 0.2194579385823476 0.39991061105080034 -0.05592520386429789 -0.16908014536537097 -0.7338417571152163 0.5528542186266382 -0.3320120989907737 -0.3856390000445539 -0.6058908536856874 0.9805217064365981 -0.6734523830378752 0.08752958406528841 -0.3591878808640585 -0.9108451515724638 -0.4484330392121575 0.23471099755977903 -0.6120561091500812 -0.7321476615340704 -1.5192379968984697 -1.145102983143433 0.27451811054392017 -1.0604893103724322 -0.35397950368346487 0.4502235664233227 -0.5016492680622631 -0.11443999784762773 0.5451522069768796 -0.5504692005199338 -0.9218543814345861 -0.6401539571408458 0.7330546221934429 0.7692327476863936 -0.9675384150909621 0.40922985391925093 0.5646473842722828 -0.4221708632195534 -0.10967958105003776 0.7802476035758293 -0.35888363120650496 0.476026081875821 -1.2322913831471625 0.29469617534286957 -0.08528759095414859 -0.11040964201731558 -0.2530989319684648 -0.18645615090319673 0.3730008418272022 0.0961136271232678 -1.2925284844081188 -1.148362639049788 -0.39657058760433983 0.3849781064490714 -1.019349569680866 -0.43841585613070194 0.48774550113228005 -0.43001166040748257 0.016293015601854297 0.13696461560176562 0.39421135471508784 0.7323742082073834 0.4074113898688392 -0.7159137646541429 0.16403867245197573 0.27130486348557076 -0.75159784703469 0.5959695985128799 0.8949354190223447 -0.40750262717539265 -0.2866526173633435 0.5267849267633817 0.4538359368427083 1.265939310737272 -0.44948987219525244 -0.41303637707820745 0.9134386908884954 -1.1867076528276672 0.21876500582763728 0.2377408261189981 -0.6543528206673904 0.35044451968715223 -0.5029710187682609 -0.1217564599319644 0.45219888954857057 0.42314453267504215 0.7646202172204409 -0.5721686425705945 -0.5277548941775856 -0.1831117607257271 -0.5701054073411151 -0.7136146094637512 0.3524797333801475 0.01635175557357791 -0.2862759583972395 0.8828273806919279 0.17917762986404537 -0.3834031103562886 -0.6347886586401963 -0.3267361831660105 0.4779850696238911 -0.11639253838121737 -0.6441154594438954 0.0558177796963985 0.5877948820688893 -0.40703336845612714 -0.20777443170419949 -1.0639840461365075 0.3183008088808701 -0.32809577172192717 0.4175908433844453 0.3691874017148002 -0.9753233283542015 -0.035765127963673704 -0.5159302214738632 0.5428030975508698 0.1988691315111546 -0.6194404067142087 -0.6896933459614185 0.9020308353038111 0.8437686329736602 -0.4323640746114385 0.22233295004542597 0.9662253354359212 0.35402234703284674 0.47593615850151755 0.6375387325876009 -0.42598061689839156 -0.1453284163132312 -0.2212559754752397 -0.6835203506169856 -0.27103901099001004 -0.7101420262077044 -0.5681664408516423 -0.8288313150981124 0.793446601646089 0.8871058969523042 -0.6017193843553512 -0.7122079374119239 0.5804017690305264 0.334691786941109 -0.20680397106917248 -0.996542222280222 -0.0415606471036889 0.8728316122862687 
0.925380004411523 0.6605288892923413 0.009803754825060684 -0.08511945384493891 0.8436870129919622 0.4704652859755274 0.31928966675387693 -0.7666664724590224 0.8318913014023137 -0.7126131419051862 -0.6600400958143104 -0.10335420445987542 -0.09567135197324862 -0.4618227875695455 0.6762151423342622 0.11888035616293334 -0.9758246542891369 0.6274796941123109 0.26085087580701627 -0.02245729946855035 0.8415018010892601 -0.9063528756683314 0.8609641454239956 -0.4422488931733921 -0.8840442369696491 -0.43395551206322613 0.13937873733936756 0.49760695958621715 -0.3304043018505649 0.1252824363690741 0.5650617602930275 -0.8627316485384506 -0.28968413511730606 -0.9305639655153964 -0.12397426218106802 0.49820062921995545 0.6461427568005368 -0.7928301196500176 -0.6477676845384144 0.2308224628819421 -0.7465001195078693 -0.6554938511978683 -0.37880116254044616 0.4545803085179076 0.9028027735350005 -0.27225342786633455 -0.19041918179659853 -0.1078298562997393 0.19521163940178904 0.0017720735573988995 0.17329230943393428 -0.4880980294475717 -0.1522585835019774 -0.9551257720383288 0.7330724554131867 0.21551356624474072 0.5971048961539471 -0.8481415373970338 0.05610974843876075 -0.8428606580084832 0.042878030227291836 -0.5790086762469028 0.48952272341889347 0.25680498568347326 -0.6312415897212854 -0.2026029263598673 -0.6670116599168854 -0.9622428923351192 -0.24848452530723286 -0.48481409158939887 0.28134272821121475 0.17853785560703866 0.5342942107065523 -1.2036258428751994 -0.9422093412348232 0.4302826180935029 -0.869292229938255 -0.4118876545235482 0.39102681451436955 0.28957482331021284 -0.8669319587515502 0.14264501486732656 0.6162576279552494 0.24303175265879995 -0.7958845947179807 0.9574900148233219 -0.32388315436575543 -0.9829238036087015 0.5209325767478266 0.29250314388380005 0.7398002086547802 0.6026332341126669 -1.1587980683216552 -0.7303630096765301 -0.3076479386794152 -1.5332631877712726 -1.067158812422733 -1.031556933644838 -1.6782306470838793 -0.2635562403485561 -0.6103852985539375 -1.5289657804670653 -0.8405170717849013 -1.2799119237306549 0.7080977289295517 -0.7429824914496235 -0.5462623821313571 0.6443087322987989 -0.2639142656588236 -0.6999261756379386 0.06148877217710207 0.8656095423902384 0.7821124011039697 0.7633956346508348 0.17244202601812825 -0.030089882251372806 -0.9317708862621266 -0.08255314210168405 -0.4808194925822781 -0.36404467591105183 0.14424546230058563 0.08694252178927504 -0.831663238190507 -0.2767113060445512 -0.9012770158331089 -0.5554402859593062 -0.4637766401982576 -0.7045559595444955 -0.7431820185025058 0.01770231040773971 -0.17749153029549625 -0.4282564806760469 -0.5829219917001821 0.5601947071540129 0.2799494398064849 0.4114659718767645 0.2515477841760489 -0.060711447023680275 -0.7098493688946181 -0.40873867146733023 0.8828273039034682 0.06179161829501245 -0.4514963219359334 -0.8529592336723651 0.730420172582089 0.16951867649151608 0.35170514656182594 0.11635639314084499 -0.6829038715810097 -0.5799619364309813 -1.3215405123743147 -0.7492563703522956 -0.99105221760454 -1.2067033792975117 -0.19143282305242795 -0.6457975044558297 -0.8738006422734993 -0.1551876162881486 -0.6448006576815382 -0.03317715997775037 -0.25537556818247303 0.17341465870650397 -0.19751832558173588 0.330450605725922 0.0568014364206341 -0.6469242003611896 0.35295981733827914 -0.19017551595182053 -0.3949608138316165 0.06692950813014148 0.25474347147788434 0.466679640842119 -0.5876405590658623 -0.13757764958770827 -0.18735348946432603 -0.3202937453005722 -0.36020861839515905 -0.7762107353597817 -1.1079554063690087 0.393989734982756 -0.5084879715397449 -0.8993200554507409 0.07068264188700857 -0.5569542220050462 -0.16125385739700868 -0.9551004540758361 -0.06799288610176334 -0.44242068541259016 -0.2616007075532493 0.42180384914972746 0.30030533140371823 0.9131785889072125 0.45928285303029326 0.8788575630122785 -0.6694512553641936 -0.8884173979160139 -0.4753186909817233 0.5734175480421522 0.923951722807089 -0.016467067794671063 -0.4170818171546511 0.8281795878687412 -0.8237908163385599 -0.5439063442652624 -0.9170070368361815 0.4146143975017835 -0.02813925491141301 -0.5141999445429694 0.16215386093605996 -0.2290403602657218 -0.08891917719220044 -1.1350188746135481 -0.18475106134106636 0.14797930604579193 -0.6514218106956784 -0.022365203632530407 0.5074873578248063 0.6322745203488738 0.5427615017164313 0.3646088052184466 1.407281222628255 -0.6014326722240412 0.1375251925800056 0.2033126076621166 -0.5411351338535157 0.2056363274328498 -0.3495103962954897 0.021411295203773627 0.152232122641836 -0.6267091378102827 -0.24718358831710333 -0.01518191923006202 -0.1114343270779896 -0.07522659238767096 -0.10108128854704004 -0.6931502745667332 0.3497086803987693 0.8615903099857558 -0.806123048585255 -0.8098737402272996 0.18301615411403 -0.292944473931053 0.5765496307983967 0.32283766581787354 1.018450578134783 -0.10199403762410658 0.9641790879796884 0.4533543607412042 -0.11666157112312052 -0.31130836201323936 1.0202164843619304 -0.14870404561183256 -0.18892595039529647 0.48887272030883777 -0.1314021922455805 0.037578900932603174 -0.394272474879514 -0.14418647759840247 0.11590177811804173 0.2611077271326249 0.09623148222006701 0.9236446459245085 0.5525564760839905 -0.33960707493331505 -0.06969798814587472 0.48093370569683014 0.1165555119423571 0.720023000669093 0.6382394944971912 1.3802734686626392 -0.0015051705058392705 1.2193746759918165 0.5973321866141853 0.5829086749492446 0.32178847928662735 0.4222695464889346 0.4855574553198951 -0.393930515674617 0.5386474622151831 -0.04960674122324888 -0.011073655035443053 -0.6971436884401903 -0.4718763876896083 0.22913462937424 -0.6003581567010636 -0.537341799480494 0.1731867919232046 1.3036967432928652 1.4507827725188143 -0.5883460533763624 0.7705742515022963 0.07584895190336341 0.8130800285412247 0.07268878958383279 0.2557350811625914 0.7761804516472788 1.2246834029787985 0.8051498727719443 0.07819728580847815 1.133847456775139 0.6110488227676151 0.8235438372812331 -0.5393735404282464 1.0024276794586704 -0.3005724218520603 -0.8765914312654748 0.008190976432224968 0.9641187807360002 0.3175319879318873 -0.9126370959913184 -0.6323339506744259 -0.6412113132657677 0.9947409936310057 0.5178527691034689 0.0792681779690884 0.6732711502694372 0.5179497224248031 0.8644660873791986 0.21060772417553308 0.2623433002848557 0.9906835616640419 1.3798888063347052 0.6519656151997963 0.18120853980329094 0.5788317314738266 0.22227059732870816 0.9426354281758471 -0.5132641704905234 -0.4190877125073535 -0.5675708177442045 -0.3205701657437476 -1.002043766280506 0.21592512846246564 0.7765906950653284 0.9703871528823987 0.6690602198748837 -0.00937120202234265 -0.18831729969090183 -0.05080941736454254 -0.5590427544328825 0.9146973448470603 1.369600523620036 0.9136130775876751 1.0171365877991918 0.48936450268323395 1.3255876111999796 0.32624199559121475 -0.014918312098370775 -0.10272099411439373 -0.8574219209330842 0.48307580413819906 0.025450808916337702 -0.24268410596675008 0.6515810382214414 0.6521017359576461 -0.14593321570554824 0.1135694616462011 0.1835520312487761 -0.4064010487053479 -1.2197107992941958 0.19330298769470985 0.4661149512016053 -0.3415277646658616 -0.09893583202842503 0.9083086660300665 -0.44069687429884963 0.1689235435522839 0.2553874101824906 1.1011401230277633 0.5889316337331559 0.7478187206733904 0.6331966544941332 0.29644868707845606 0.48471362859889283 0.565942741497863 0.09598910815251176 -0.5775146957994697 -0.6314445629908909 0.3461493350883597 0.7778112867299859 -0.45290325473987614 -0.051383651939209414 -0.20260854873728038 1.0363884195724036 -0.5345564096029488 0.4361082961686781 -0.3200147774988132 -1.4435023373562044 -1.1577135815783393 -0.03334080985328147 0.6991247593949672 -0.6942849908158355 0.744290117065024 -0.0287926007015622 0.6903135549853925 0.37329981583103233 0.14521312600153982 -0.2718863248197153 0.6202155188095392 0.6004242207752735 -0.8738645566246055 -1.2395169389094565 -0.8096338057839351 -1.4808445246126394 0.21875632439702197 0.2783940912439016 0.08150452225985277 0.27844346052801006 -0.6136881359873353 1.0231669465526436 0.8701121123726618 1.0716991171418244 -0.9511182753164416 -0.022827316176018672 -0.9866600285049273 -0.8731860972374448 -1.0627264724579926 0.8799482202212956 -0.5434391366184896 -0.9446158522031167 -0.7326633811734997 -0.042050080286059326 -0.9041508136236404 0.2081027911850792 0.5357953153141826 -0.6304271821372115 0.38737655122838555 0.27329468157509723 0.18807072906774966 0.20322235006144843 -0.1544132092243863 0.015854116137400176 -0.22820568881565745 0.7535715474313097 0.04071474709039047 -0.38127604896140466 0.08768857526763288 0.19598043835242862 0.6711839912022176 0.08632626385635882 -0.642057776871593 0.254148793055615 -1.1114827384498571 -1.3488451517625277 -0.8884320623698128 0.14198543204247827 -0.962589146318631 0.22857465428471346 -0.18944300830415384 0.4953588845028925 0.517119260637453 -0.21510249340280482 -0.8111832584384506 0.8620399898937697 -0.5445415265083265 0.18084028538689204 -0.33296286342771464 -0.6583223069350957 -0.3857224534000489 -0.27429985646489086 1.088187976828212 1.0887860526270614 1.2675313448244776 0.37177030587589605 0.7779286593443575 1.4718138426646157 0.027994128709147185 -0.7173503243619667 -0.5990292613662896 0.24815438429227002 -0.7852577227140622 -1.4651086527596568 0.21809962579064318 -0.7549504498815812 0.49557455657452454 -0.0075476968654006 0.8389667354760844 -0.6891233554149279 -0.8332882964961528 0.5721834109001559 -0.5923815121360727 -1.0141671656290532 -0.41576547359457366 -0.3734613642064837 -0.16908366174983003 -0.43141654144688707 0.13537546535060402 0.19974888583128161 0.7313675984912698 0.531043081050347 1.469589439514072 1.0247122857174586 -0.1700123230235137 -0.9212458469263165 -1.1556671175564959 -0.22652211173910472 -1.017821155753125 -1.100360187927947 -0.3042643884280251 -0.6308489036096663 -1.3923746144582514 -0.8294402925866398 0.4991136740072314 0.26195995918825377 0.8098292681539627 0.7999725040521416 -0.2952782239847409 0.7739130982877015 -1.4672100978165294 -1.2239122441399815 -0.8561939237427727 -0.19409866486568755 0.17315929558113896 -0.5098899284536316 0.21336458575444422 0.1361439732087986 1.8136399822228457 0.5733860524720412 1.132744622001126 -0.5779716408402997 -0.11770651640844648 -0.1575516443927751 -0.9965088654485523 -0.11540929567098446 -0.133236202198032 -0.3744884141983654 -1.5397807838595792 -0.2117584925067897 0.4378417338556059 -0.9470112923348167 0.7432201550949225 0.7399365197620046 0.9519368419526453 -0.04197606803240055 -0.674330671612852 -0.7203129912585964 -1.0465848928170391 -0.1005907766944685 -1.3769842317509484 -0.3007989993254642 -0.4912684938316867 0.09152721365148289 -1.3168925709555368 -0.41506257872553826 -0.49912761186303767 0.49548354954381946 0.10413784726308972 0.07233796191022429 -0.7462414603899606 -1.0000457105527052 -0.5291128645061125 -0.09496603162626281 -1.068666143383427 -1.506684454864874 -0.8566984075053096 0.008737754494932857 -0.617591857796407 -0.01406476254624542 -0.00909409977180493 -0.028378115053113242 -0.7908687935907754 0.9736631600443261 -0.4547616243249591 -0.022928903521592093 -0.012341972321140003 0.009903198495080055 -1.4741835741262144 -1.6931192114697875 -0.6222342567592972 -0.6086043465597543 -1.2173628578488027 -0.3245113238678392 -0.37259254343460374 0.3031367488595862 -0.8212736178948081 -0.1848676843988175 -0.4703474492831622 -0.4985197016486027 -0.551611704432042 -1.1656050628970107 0.0159510692050737 -1.0989567227126649 -0.9723656476646668 0.34964407380297186 0.48515111910396064 0.7825000676949802 -0.015566930780746693 0.8038320033165706 0.4000050100994177 -0.03792504738734456 0.5884875933882892 0.68297170208168 -1.4582581358956856 -1.4111221032497703 0.11753422834144553 -0.6750867636491746 -0.46965226901315116 -0.22913223097411164 -0.47019762739860144 -0.6572385223900211 -0.7724030573750876 -0.8755378649932389 0.14554852091955975 -0.10043148594565576 0.025611706949536482 -0.41783934755758345 0.5880577210449651 0.7672727281116991 -1.2900632481981231 -0.7033474572337668 0.287581879824039 -0.7220816153434504 0.17114902420887904 0.19939271992398402 0.3389913626041889 0.5921301114283566 0.6398659653473642 0.623486028852306 0.030099878266617478 0.11848596200957609 0.05414826572277453 -1.1263536161996366 -1.1034325342178724 0.24026186513763467 -1.275844891603994 -0.3582792182335133 -0.49294746998315275 0.18788179208656636 -0.3385530699384287 -0.7896930492119029 -0.7005017884791529 0.7889954919638105 0.5137878003684565 0.3776245681884968 0.36102546974381233 0.04686937823920217 0.36337045217391384 0.2325817564209092 -0.17948009021580907 0.03024912564597615 -0.6895339552238947 -0.009552801852005686 -0.23489863081811285 0.6430369617778142 0.25268497684811564 -0.2893995712394122 -0.3847717710245442 -0.6111763610717995 0.060364770022750876 -1.2448390781026069 -1.1243342454121101 -0.8962274309027076 -0.00542011448056925 -0.2484496228527614 0.053748005476438335 0.20104551908419468 0.08212781606811076 0.16330469564574063 0.9414940796737825 0.4165452065532105 1.4934045372383535 1.0392661288256055 0.6618089713628369 -0.17836932389315938 0.630599927687407 0.7163506748846383 0.30590174413056725 -0.5641498701084782 -0.9422458285138731 -0.6306528492506824 -0.9072791723471934 0.8660413564082701 0.7698919411982827 -0.05582926673741784 -0.8142554240904726 0.569492687087565 0.49706176783564504 -0.6536533600533464 -0.7115139725151413 0.6203543418440377 0.4142438491735942 -0.7847497929629335 0.13237373771971458 -1.202023466528569 -0.5703218383537235 0.08895696388525871 -0.1855006767381474 0.7543274751162161 -0.16962231446470585 1.183550130433998 0.0511511734072401 0.4086643344014671 0.6034294810661534 -0.0250476234382744 0.7479668384237641 0.8386913393988 0.8123373320133698 -0.3538439724742585 0.01760798840459147 0.9334181476999157 0.16952205435384204 -0.5368945251587207 -0.3856503017202092 -0.5124063887020098 -0.14273644805336275 0.6374255591775638 -0.15337161531196222 0.40765979993883616 0.613216318886002 0.06913840182035497 0.7611551376503023 0.9953828605673677 0.958865228237909 0.49937097257928353 0.9999845841684476 0.23876042928691993 -0.22502963775968923 0.87057963943345 -0.5401002162349006 1.0459731149073765 -0.15357230099583805 0.828756137910117 0.6916926062452812 -0.18133086452618183 0.5705505935553621 -0.9183742992838422 -0.9326508580859404 0.22141143414660513 0.2533572380824409 -0.9692712165549213 -0.47350686185583535 0.6577957031120865 0.8277875193461083 0.22904586184815415 -0.44835775531037747 0.40729209765434665 -0.9036621928538172 0.015548413422609089 0.8830247307681506 -0.33554822628468733 0.0901366575707596 0.8529583088096728 -0.05812746509241863 0.9380155299290933 0.9481913529289023 0.03089984403866086 -0.12698092524297921 0.2520311123494817 -0.5177281171659215 -0.9083364846194923 0.05325678505446206 -0.17021234333906338 0.688811489708072 -0.6019886025391266 0.8250611653240723 -0.5281449011152248 0.9913464395395875 -0.9592881124074049 0.2282186673606701 -0.9131583249442525 -0.17204722400480277 -0.9362240562416451 -0.10747982136547152 -0.9195439938540445 0.8030136172070798 -0.14870039898569934 0.8791077254779014 -0.6415213522727694 0.2755041680522298 -0.8141344704661975 0.8847512850593547 0.6911335525153028 0.0698567416727275 -0.32340974724848204 0.08659645537083566 -0.7531461350343237 -0.3452135013831283 -0.8206567585446386 -0.4570250262729104 -0.47380632715269977 -0.25318169617425235 0.4411059139120457 0.8256306640762017 -0.5331046664874268 
0.7817311498476756 -0.12389807128345498 0.6454570659368106 -0.22394353563302372 -0.8905263469100326 -0.01484880739546024 -0.026002614556677184 -0.16957359474882638 -0.16382291503308166 -0.9370677413655164 0.5876494433758164 -0.004311787683275892 -0.9274068441068948 -0.19227604343481142 0.2906872735175756 0.4551605605722191 -0.7006243440668705 -0.32865583756633443 0.3781427327426974 -0.336307800932953 -0.12924688550406604 -0.9775770826147332 -0.367505696367588 -0.6007780574154733 0.2975235016900106 0.20192671844085885 0.1718523161392922 0.050493756365970865 0.8819413456341283 -0.6278805815396662 -0.19478205120741832 -0.7420696703946887 -0.4787916513664907 -0.3050913751847115 -0.7992138161921527 -0.6843142214813656 -0.9470792599093447 0.8227932400757805 0.13615200977750042 -0.1535870407485025 0.3849643640680487 -0.059408219412497125 -0.629482130930402 0.1882959685951876 0.8262954241384177 -0.2932162881918049 -0.6979479604390971 0.5686192671715744 0.599500150743805 0.22224904943284987 -0.6554927098778718 0.9975443890238467 -0.9627800553634303 -0.10781915726106406 -0.5619263410610771 0.5589061552628916 0.7594686787963882 0.018162599272271374 0.3016085923064509 -0.3422763338720365 0.5321791092607087 -0.04556526783148788 -0.892545104492412 -0.7560565985562613 -0.7065539217077745 0.6482862131822038 -0.6699641718318589 -0.03817612814950439 -0.8620864681420569 -0.2019638939597704 0.12178378196737989 0.3385891205023095 -0.8761126649230704 -0.45555101317902574 0.7469502283234845 -0.4112173707593229 -0.9091394560305999 1.026581836941693 -0.2550231395952433 -0.922572916348142 0.5789285935376896 0.8006437845619325 -0.7145727391130909 0.13834732116265913 0.7935640413888079 0.10672051309681385 0.27420684089806124 0.18209157163165918 0.9053147365317582 -0.9493695973969063 0.8327675753249311 -0.6576356558138483 0.3104538379978367 0.7307320809880428 -0.9698761647013883 0.4315103590685437 -0.5897699233012264 -0.6707169662863732 0.5934743392745171 -1.0777873032050673 0.17578939850500425 -0.14907555550175888 0.9241588678599768 -0.12141810231068934 -0.17647727149607154 0.2735426027710796 0.6214879053129507 -0.28449059297922047 0.28359763128594506 0.5023976225470453 -0.8832687227984045 -0.4684321551092858 -0.3722529252164477 -0.7033367889742503 -0.2982950807555083 0.8016441499552011 -0.37974171639746657 0.8774728740750225 -0.053037972399608856 0.39523799642423213 -0.1814332767361698 -0.052788600744992864 -1.1091246456407182 -1.1538992301320203 -1.2940533930206317 -0.27890603857522794 -0.8614413875801784 0.32044899284505635 -0.39692840391483925 0.30535115503795657 0.210347758204311 0.05978429702455069 -0.21280965841493074 -0.4844497223736486 -0.07363961522908616 -0.5266827351307155 -0.496509490206375 0.479548120462281 -0.7554428312160111 0.7049388016647156 -0.470243360588273 0.005643165526634464 -0.7258001637171637 0.5198259671832395 0.07241382646646002 -0.273719114069414 -1.0281846267429773 0.5835633822904205 -0.793244680549021 -0.23287234470122675 -1.0030075841335875 -1.0667006004771042 -0.32379511040329195 -0.5155337809724174 -0.8752708040535271 -0.17002566204361472 -0.07811689286119211 -0.4674814389057248 -0.4747930592995398 0.297229402359822 0.05131716970518045 -0.32082901262551017 0.9421544849605633 0.4600234930446386 -0.18145510851605226 0.011726536951163326 0.4945636263893676 -0.8236515691715511 0.3597105841982613 -0.31889252961926573 0.7771092620043051 -0.1022194461899243 0.9257958286329969 -0.0372911414508572 0.49815235992378276 -0.003962052471496415 -0.9630548209824686 -0.2989121636830254 -0.28535135512266113 -0.8708338732831271 -0.4255867862829079 -0.8809991640791884 -0.3375710353325638 -0.3012834305902224 -0.8798142664766788 0.12641667817011298 -0.3830703243219398 -0.033959359150356416 -0.2593290949740677 -0.8578919079908157 0.7620263093961824 -0.21027301923510672 1.0187795802972452 0.8535490837246713 -0.5952680502511632 0.04848199588581036 -0.8211152657940135 -0.6783147643082317 0.691472236656582 0.41350128002012415 -0.8065626458576177 0.6639621444468842 -0.6459559088975415 0.35953484597225743 -0.816817199337219 -0.34336569420283886 -1.1453569560553105 -0.7806734125687892 -1.3231395322374548 -0.401083030150932 0.278665510612551 -0.8196589659623074 0.5429470174894617 -0.014777220521408724 -0.24656356258710502 -0.8441856220725148 -0.6910664287201133 0.2384871015152726 -0.15454571842975223 -0.10701120393905353 -0.09389662639262188 0.8364534829494484 0.36360343340829426 0.5624777715740191 0.15066181116397792 0.6304532826727561 -0.12999611365569985 0.11951647430717328 -0.731440704368058 -0.8506425276903203 -0.15556995333398263 0.5275929888757499 0.10651196118553657 -0.9997730512200896 -0.5984304304837593 -1.2748483903106804 0.5357051386094394 0.7064049149559284 -0.2598523332827611 0.5981591043492729 -0.39004893750891256 -0.498263540398047 -0.07012692234621938 -0.2369998468712552 -0.9618307382062723 0.2042433377966281 -0.15460687543267712 0.19294256381306107 0.09905605021401874 -0.030476725903700024 0.32248991209225997 -0.16789663081793293 0.19229228979605448 -0.12047718629527791 -0.7951548703152738 -0.894673156858722 0.8050247858823084 -0.5242596814201255 0.47745816943618197 -0.44722839942043663 -0.759285772169259 -1.2089057696897099 -0.8325484414366053 -1.2861797893159965 0.5495360342966455 0.399715253086946 0.42168361469648435 0.08758882151941302 0.29128792210403354 -0.17969062949518205 -0.16006839952349727 -0.2041505620778296 -0.1615690062971977 0.4956592485146026 -0.32998264369973296 -0.25459686829823885 0.33470281893389 0.449353397784241 -0.27798967864899443 0.950098122244492 -0.17283779829566245 0.9459932935603632 0.7220190319194786 0.6087709693955381 0.6158768466504473 0.3273777222459219 0.0020319536619602583 -0.8627082362553615 -1.1102484383327218 -0.25013452746104364 0.19680753758344 -0.4401540809918944 0.43611595960847904 0.5278622407997292 1.398240012421699 1.416392448623213 0.0024979641303231608 -0.060719224286887516 -1.1697394879899448 0.464547876857474 0.19707518368553736 -0.5366054499422114 -0.15326627343126759 0.8662923328603124 0.39528927762985455 1.0503445274959262 0.824410549367403 0.4454281167630819 -0.12259439330957735 -0.9359733002016165 -0.9278655337727604 -0.9341016651953075 0.9215731901649715 -0.9415865272522055 0.8070563329610652 -1.004019485986022 -0.8820591566252339 -1.0349559184353783 0.08913794442026372 0.27088088588320913 0.016450583220577183 0.46600473070313075 1.762422575098497 -0.33754658096956575 0.33326598053136414 -1.1472973487430786 -0.3847298060491257 -1.618500754359282 -0.8080744765876521 -0.659987698041506 -0.5638042798832321 -0.7283960775657128 0.6470898611238272 -0.6333007620771002 -0.7399728697674601 0.18953250773778405 0.9948011987910941 0.5759682685724357 0.1723124659161149 0.08498431541313399 -0.26626518643085206 0.15084228140725525 -0.7294936294897526 0.7889002423579053 -0.4452484107635593 -0.07927000411127516 -0.8145321799807976 0.23352930590179236 0.8091095913654394 -0.025893294805625397 0.3653699568946998 -0.7042796989114153 -0.09965878524195128 -0.7261179055550119 -0.021989079044269146 -1.17210600705548 -0.7137716661499707 -0.9918642075464595 -1.264429419170483 -0.36632896261318415 -0.0041957607135064 -0.5874903917387682 -0.5894746354540161 0.775775287778359 0.5883145628225507 0.435590464733934 -0.27810456555697666 0.34115386904065415 0.13277518038747002 -0.35380832325574035 -0.5280751591567633 0.47778141228064913 -1.21110857164646 -0.6891890925389441 -0.7815861075522423 0.590362702748569 0.19613404684610844 1.0684749298844307 0.5240993993622113 -0.5785178419765793 -0.006146443591235666 -0.8742489602666189 -0.7381948656642988 -0.878464900775142 0.09070364395041253 -1.1312687526446148 -0.49500119547891 -0.7777970526171274 -0.11658036213885445 -1.0323087725962532 -0.37903743436869836 0.4432778616903992 0.45910573325787785 0.34050740275172053 0.4562546963239519 -0.18855650364946333 0.7052886898917823 0.7013535371665524 0.6919168735591863 -0.9950066622626781 0.5334706026789708 0.189789892852591 0.5839395037724497 0.9291484703461631 -0.43552715313475726 0.24007901566087897 0.7108113388110415 0.10390746202601457 -0.28029524184507204 0.42624292667640257 -0.8084997526451297 0.7800353210137387 0.21786691194811136 -0.7577969628164984 -1.1393141893193395 -0.5558633138868676 -0.791534322933666 -0.3109744383160745 -0.9207923865637082 0.18477408540103912 0.3726431524285212 0.17716208188250082 -0.649111452130892 0.07838561699273738 0.006707885703758555 0.2883158271813036 0.6542726411408005 -0.8357439508731016 -0.595229511196184 0.22753933441684882 -1.0817676801646097 0.48571806510230237 -0.2153531794612723 -0.7622311868927755 0.5040494884606329 -0.7187203219945831 0.08578708259601955 0.4483375483968836 -0.6799929776375987 -0.7343459044199613 -0.8676473305844454 0.4706027390116906 0.4683056727945337 -0.3317978778307238 -0.6803940998134986 -0.6727409710392623 0.18530046851119988 -0.35231758029894283 -0.07536261542827494 0.02267233967655124 0.5054599558130825 -0.32139897091385056 0.7718428509004469 -0.2120554653031563 0.41408361706520286 0.5720275676997633 -0.7263906804446945 -0.5411022619756113 -0.08785435712229256 -0.15242610896943007 -0.8799954083127344 -0.34744559297615835 -0.3052282816728153 0.3600728339420766 -0.5640817966703797 -0.5184362532798016 -0.19594073167426837 -0.18797622963193159 0.46092977839195876 -0.354672159331338 -0.009937676551011342 0.031455156367326056 -0.21739419928447282 0.4441706732304072 0.2877611427572256 -0.6813642196588484 -0.6380173927189856 -0.928145927445366 0.15417362668677095 -0.014007808850205241 -0.6279656957335802 -0.3603217885929956 0.734137676667164 0.5397921066283863 -0.7454651497416026 -1.29325994450548 0.6012849320497388 0.36589726966114366 -0.3804335911852437 0.35255287828441306 -0.458398340899476 0.4104177146104694 -0.40020641643387606 0.9684230580064891 0.20720402655281983 0.6011183811547234 -1.023272519420561 -0.13921291338161665 -0.2935744169518847 0.06566078172725916 -0.7902507506748893 -0.20819283091863458 -0.39041181666314256 -0.8561170537023947 -0.48586035074769857 -0.1940930708084052 -0.8521240991614418 0.13098112446468302 -0.6959472604826088 1.089913821168767 0.07653835392321574 -0.7387858415901284 0.44153591025505917 0.1768775246624051 -0.8991720248453297 -0.9284743849674729 1.2697245487773023 1.0199692741221342 -0.6623424015482858 0.8369820378669564 -0.423860617045915 -0.3589982064191402 0.9066672807681067 -0.11060481199966751 0.24010325432479077 -1.1570118958767155 -0.3881186339207772 -1.2635883470483924 0.02530910825963446 0.34476863254996465 0.1518220920117929 0.3288022152811975 -0.32818459121143184 0.2592790636336361 -0.6540288412026217 -0.48267717691720136 -0.733724573041568 -0.6497481382056398 0.7859868795218807 0.6192273811406842 -0.6062567096497168 -0.611209989094752 0.8099580552891892 -0.32279759206544884 0.07748271648463466 0.6805800995759459 -0.47492983251423165 -0.10821362492427854 1.156633336662815 -0.5410318965770248 -0.5164842641183542 0.5045783317718258 -0.8479290420038427 -0.8120620975433455 0.29192085517138255 -0.9897404013738319 -0.460415908984039 0.34372616790030236 0.24491379370974828 0.942883873391509 0.11989377240436916 0.4971273736811647 -0.3848272053374769 0.16403751571231762 -0.7473094493325275 0.41266030919535 -0.08948701477609215 0.04594762498849613 0.3354620409854874 0.042588866590014186 -0.20278942517093784 0.8792857960890256 -0.07563443808362495 0.04422714412784541 -0.1251493977961657 0.4062681539949464 0.032568872957819114 -0.5534693722428288 0.510834904646258 -1.0806179661079192 -0.8402222309843869 0.5962108513286877 -1.0439649866857699 0.1249006229051127 -0.37490829472398646 -0.7806175577239793 0.10554775347910932 -0.0670667808794462 -0.9136151461764136 -0.570882704265639 0.609500501117595 0.9639930304998093 0.8410532473940525 0.7341936949078136 0.5872699327383697 0.5016143148688311 -0.17930109720780218 0.9802372607398732 -0.12842844882027177 0.9264242013420741 1.0844680297593232 0.7892648544398009 1.3481169679317162 -0.051768648873918764 -0.9773649897988306 -0.7138720878391116 -0.13445028600443962 -0.47053836198724625 0.5021109102155313 -0.9168176499399621 0.2926597362323572 -0.8554095560932665 0.6926649341161268 -0.258100681086685 0.7043981512704504 -0.48373494801056993 0.11519126252322949 0.5440377141366892 -0.7988396768025692 -0.6143912618283982 0.7115119318592714 0.7502760306918103 -0.9787126719162538 -0.9919378466473404 0.22429892964453133 -0.6106182246248938 0.18274545052325325 -1.1007653381113027 0.22366355965018464 -0.34906448851432487 -0.6016918060538599 0.4231065643682543 -0.6801230836121843 0.7351972792703462 0.27415764034289963 -0.9477191519747145 -0.7731447540868144 -0.36672110660494434 0.27597680475256736 -0.11484492152381286 0.6265152833609149 0.8926691763635353 0.8546946165353876 -0.8529091033875515 -0.6984600955777491 0.7365521184615815 -0.8543178991542755 0.5801817669072304 0.9551513202512095 -0.1817940786681517 0.3003619673829393 -0.41957645335352084 0.8369422770687529 0.12068471539810756 -0.838640997571606 0.583452394634023 -0.19138731331072947 -0.7881659546064128 0.439827754781146 -0.23758910124955776 0.41381622648447663 -0.4941665142737357 0.39980038204765894 -0.2772094454906468 -0.6480566695708381 -0.025285233039578147 0.01950342747299479 -0.9907084218660426 0.515351847735565 -0.4656446551951987 0.0032028360193900505 -0.9331746765922793 0.4472124648007012 0.18813950755060627 0.6478402266560936 -0.7145500244881198 -0.557571744751798 0.20162751035382517 -0.7269905101066945 -0.517523805251819 0.834587714738962 0.19073130195783186 0.35560830043483643 0.7370507171526987 0.45203821168718117 -0.17088313783520365 -0.07667674901216709 -0.4137618188213411 -0.7221692124479668 -0.5033982586261587 0.8595417998787455 -0.5851042146533251 0.10907119860859997 -0.7487655390446205 -0.7015061797533224 0.7712405079506298 0.5511802801878746 -0.8273306762234276 0.8140869214687477 0.019536542418965963 6.424868996446342E-5 0.02437450914418493 -0.07537162087441684 -0.6612850524384812 0.3113007808751723 -0.5697585572619506 -0.4446194602303785 -0.04372243802587195 0.0635142250235762 0.7741299043874166 -0.7260756187109755 -0.8503393367138822 -1.0304910104811627 -0.8112746712721931 -1.0737921086148736 -0.2913964115841644 -0.7584666709714227 0.265677221746825 0.833282695083236 -0.28042110781283514 0.5201554135972976 0.1285870091477925 0.20635788346265888 0.6818304422978709 0.42347646853928383 0.6036700798422479 -0.5229055098505124 -0.07848081688457609 0.6371616665674722 -0.09224281795691902 -0.20704908605536843 0.7348242676978805 -0.5835230510791662 -0.7293979021175334 0.4146416114755414 0.2907013913318454 -0.1599117962329536 0.9154821126171576 -0.1030247584495766 -0.28500147600380704 -0.42455880081533953 -0.9888847702205892 0.5800618540824216 0.753972516911477 -0.2773197159458778 0.30317811509040893 -0.34217598469040333 0.8961010891988301 -0.1007230295483922 0.9661312926629984 0.4099773306075738 -0.5187958838987821 0.6094626481921299 -0.09114416657497482 -0.03349747358687005 0.20018383601365097 0.5309833642998292 -0.260948046949701 -0.6474271544641947 0.7356132746409998 0.5725578324144334 0.19602419796378112 -0.7291288944334358 0.9002335655178934 -0.241183619758025 -0.40093774830664386 0.28556195761201497 0.37655715985177807 -0.6872016628556895 0.45052676605971165 0.26886281044718896 -0.11941216701342364 0.504994791614677 -0.7807810440085481 -0.7256476148761976 0.05352698069316327 0.16786810547285302 0.11084878257771069 -0.11320303570965362 -0.1850624642234111 -0.5022005039031698 0.1611180097374647 0.9641966867879548 0.11797236024981061 
0.7083843303520381 0.42173439854149786 -0.6378358738532577 0.1117250053274701 0.4479079558531851 -0.827371501726266 0.7291168647837867 0.5516257821198254 0.4913751127597872 0.11580103843802436 -0.41049433183126793 -0.02620272981911964 -0.8444516361297596 -0.672322496153736 0.24289687110733027 0.6248690256198441 -0.8713158565089707 -0.6193084209236457 -0.34030763620419924 -0.5696859602664965 0.963318580753437 -0.5076859947374794 -0.48265350818835007 0.3878442221496523 0.3495953972839434 0.8195068015931912 0.7963307780440023 0.6884151527658287 -0.5317300216714544 0.08885014069164732 0.942987538823751 -0.4040923830219667 0.2166626704347958 0.6373536548942492 0.5050570843651101 0.6505226863113017 -0.09552613682112089 -0.37520094549094085 -0.6452514012446608 0.14514220389393184 0.10735513366032831 -0.22850236729836274 0.23268339974956836 -0.003189678618728032 -0.869502533052403 -0.9573734358497056 0.7855768938385879 0.7978680527835613 -0.01070781939503721 -0.7510721263799065 0.2904159928374743 0.5445156330695486 0.5772037097871447 -0.8708189771982553 0.5766542906404466 0.7699629397376628 0.5681247944930288 0.32615990402158457 0.3858217344619408 -0.5418240384078056 -0.8381395148627396 -0.6486726177700323 0.9513415393067786 0.5973465518771114 0.21202271391882657 0.8431010082242013 0.2850673733044604 0.6506184229420625 -0.6746254102002626 0.11705513120204626 -0.35815653124285673 -0.22791651104191807 -0.21230049000864518 -0.2945093435958221 -0.6706581746851205 0.8732775078881071 -0.6909560037393576 0.36735570292428665 0.6265572537095387 0.094348224220699 -0.5734392788932875 0.8420140253405346 0.7732661138793084 0.5892407334076517 0.8211792531735687 -0.2522887234622022 0.17458387492702632 0.5849948143134288 -0.40375943794073754 0.1781565813879621 0.5902486014851516 0.562314213010967 -0.21176855923347515 0.7105877652337744 -0.6892807812176132 0.2918946639218566 -0.8560738675051696 -0.9064225322071324 -0.34143836967446994 -0.04687230404943047 0.16024106129951585 -1.1183242222315277 0.253371433132762 -0.04807541922063695 0.06620058011495178 0.17512775043988224 0.1596416026567768 0.6458330061060836 0.9819013727237768 -0.7238523096504961 -0.37125678409217544 0.2988879307828207 0.865141413918705 -0.21024932851137648 -0.13449301218744492 0.6112425324704596 -0.08689386547167742 -0.7871195498756912 -0.9352479109036201 -0.6609336755314709 -0.8717495561353742 -0.43088579146893935 0.5782902228328294 0.06793211575804649 -0.9593148239221512 0.4322893004417982 -0.6848516039063774 0.11489680182587911 0.044100816004248 0.33453641398332784 -0.269354102419473 -0.47717275406608745 -0.09451326951014852 0.24981341957947742 -0.05275434229140215 0.48754250853091047 -0.6767259002766421 0.13160810493223457 -0.7365844140452114 -0.7838531113868554 0.17005796570772902 -0.2139084584240698 0.17318374571203213 -0.4972080627084609 -0.8010497754700251 0.5164590116647493 0.42661406303312593 -0.05780103558012321 -0.27326192697328416 -0.20531545874474266 0.18696750087703895 -0.5098436392354491 -0.12877420195938324 -0.8233503094949232 -0.4373270716162902 0.06478063684676033 -1.3147142525373618 -0.23502101339564865 -0.6598728185419424 0.10539759240255468 0.6774711936375629 -0.6759432679712979 0.9195674462291255 0.41168288109494167 -0.2310061394162061 0.4231189977996181 0.8847566776795841 -0.8827174278589355 -0.15298773287942313 -0.7269584195746036 -0.4681775172537374 -0.423291800651546 0.7074741109094819 0.2530174965817074 -1.0272981425408862 -0.02567452032567702 0.4421468594058619 -0.857940097812363 -0.9227489138706552 -0.6449626742733848 -0.3008178375772591 0.6460865530274448 -0.2856524540587889 -0.0332079061463716 1.1629255044482216 0.7450802175764835 0.9830601899403432 -0.4403492433924118 -0.35195040397992483 -0.16165548947859176 -0.3791530528833409 1.0121664002739938 -0.5043541628890278 0.10532599087991162 0.30433968184378885 0.3782610556058067 0.5010059216979025 -0.9543062402302005 0.38532844283221973 1.069314779384001 0.23329168428386426 0.9349762653199961 0.1971784636983717 -0.8581750010440711 0.40760714641848766 0.418676201739579 0.264011379370609 0.620771836256955 0.9865926788484469 -0.4256955050284106 1.5100216333662424 1.31160082249138 0.9545822799542796 0.7969305096376209 0.06547022213947881 0.16190430778425974 -0.1662690007620794 1.4624264751172475 0.1332335452456426 1.4722086713977405 -0.19179363267707733 0.39152088072656427 0.8135342381258606 0.8506495812933502 -0.7622584882142255 0.7216289619450008 -0.9159475752175514 0.1178400252484132 0.11451285504840286 -0.9488078783048065 0.22484174633127527 0.557887717111541 -0.5323196258628078 0.9009437693722443 -0.4048065087971247 1.1313420513979373 1.589303854884598 0.8565328906295085 -0.7344600788890969 0.14539256855766772 0.7953413756337043 0.7290439776506399 -0.005688639135881614 0.29516620892583006 1.2656450047010763 0.7449172724756378 0.5360678392219758 0.319905414610406 0.8208326443958672 -0.556319434666522 0.983115901652593 0.20049259770088895 0.012827549611768 -0.3433877362228808 0.8271855514769254 0.6660950856540814 0.24699116423584153 -0.8429860013415139 -0.02977770219453151 -0.4989657131911987 -0.0844041332737695 1.1654463399510158 0.7708051428784571 0.9296186145465034 1.3572208337515812 0.6490992432422934 0.6715720445485078 1.0168369190370383 0.8307690042104593 0.19410933339100792 0.5633816411020859 0.8285163554013485 0.2705438908007912 0.6010172329265019 0.4987678914889643 0.9227891761838538 1.2201852377345874 0.42815211909273526 0.6915490007716935 0.6740276660017939 0.6784968478323035 -0.7258038705910835 -0.40622239009733635 1.0700241047578196 0.7695533845111592 -0.35849770731645425 0.18715119094803304 3.28661181978261E-4 0.03685848017882923 0.6685619986340191 0.29539454836979545 0.7684904944363086 0.8124169941276969 1.4881012979124917 0.36529623206126544 0.45635034550776327 -0.27222768169184075 -0.06068511247840807 0.7333912769880395 1.2314410313285236 -0.2931136134826043 -0.04422940781485035 0.6282241085826096 1.5509454427369427 1.456898678948835 0.5385564020128845 -0.01400221058218986 0.16665484403557665 0.6697108803307013 -0.056766259751706 -0.8866120566705907 -0.3426582255488798 0.8397165267821034 0.3939997419345802 -0.6915924965613988 0.9993992420793251 0.6798595883420449 -0.0041055335292003205 0.6753351833110713 -0.2665734542269675 0.012824908049015402 1.3318211890026497 -0.6007338973063908 -0.5715440141077603 -0.7360669734641448 -0.34882072727871105 1.2167477111999825 0.09375974470602748 0.9658699904543026 0.9463830331340701 1.160659212233423 -0.1577230313317441 -0.26871884222801656 -0.3774338248549126 -0.9260426048114613 -0.11818917933349996 0.696737705801632 -0.2845125389715267 0.438545500218804 -0.5724105168697969 -0.4724204548938554 0.590841209642893 1.087481778979889 0.24706503888013698 0.14198834260808818 0.4205649914832802 0.2260245577234695 -0.36857506697260517 -0.8366910564820493 -0.8252449691126721 -1.2956613142834734 -1.1822929337452759 -0.3990114617032655 0.5135941302987048 0.45682810878203517 0.409144229902497 1.0908242004728101 0.8352669488695281 0.04088952559037705 -0.04514894335420339 -0.6747583468177861 0.41934681121437295 -0.29626978260938747 0.23068006395144341 0.7730716631767727 0.38153610127492216 -0.03264382567927794 1.072407322441141 0.3079884555350501 -0.33114542039440287 1.113752903929004 -0.6175728148496897 0.4870362022341496 -0.48285901863915615 -0.8359828169828849 -0.35008500617691357 -1.1652206431412124 -0.5822932610260859 -1.6864547659213218 0.08574785395479094 0.5631213370918681 0.563494136554339 -0.5806599015379678 0.9985735498517966 -0.576420420899788 0.5312853637575286 -0.17771726465506427 -0.33656804313122346 -0.9088793631685089 -0.14685699123529755 0.5298516098396313 0.24084706196317224 0.8241347906560532 0.9389690328301139 0.6398026689462885 0.14776237518227012 0.5580892305380827 0.9204173316444823 0.24932747004309186 0.5495207270083218 0.2100114343543308 -0.12395939863809104 -0.2784979288693714 -0.5696115826961993 -0.8732860513218975 -0.5955758806765735 -1.1161557328768685 -0.47475118872379757 -1.6699483216807005 -0.2780195356504313 -0.8573413158624451 0.6810738153865129 -0.46124595700088805 -0.18978264753417337 -0.2396580645186625 -0.49004958530509934 0.9266353890696245 0.5870019130010707 -0.6752088856482066 -0.14443069134727365 -0.673999905537603 0.8142443836123955 -0.7130878219170608 -0.36800936038069126 0.15785877348157315 0.4716449802318106 -1.0594849054605187 -0.5286425203929758 -1.1355037059897002 -0.261424322344014 -0.40923618806666817 0.32415942906012085 -1.0613140204297755 -1.2715619661892439 -0.5733476999161247 -1.4109072953149164 -0.9696982994801823 0.11057650164911746 -0.6989447603843504 -0.006135765005208577 -0.10328560226874753 0.18713419847877552 -0.6228727210555797 0.3690328656910869 0.38730136018246947 -0.5794663145910238 0.2192608158479043 0.15860821524059762 -0.21024570436392653 -0.18406713430015623 0.7810554013102112 -0.7664118112583136 -0.939936499275844 0.7872205757755817 -0.9797942720818341 0.6353767261510644 0.44305433623457174 0.04413819196678072 -0.09983221253588836 0.3717124153904906 -0.6853407830603556 -0.7506812185938501 -1.6966055519154921 -0.4947569327603507 -0.7070094816423124 -0.7751614447822619 0.5476548433975512 0.7057947845261472 0.7918011223088147 0.13991258149144378 0.5243892479474642 -0.6632193912495513 0.7442562490955733 -0.7779153411065031 0.3419360268182991 -0.4657522662043148 0.46374709402020753 -0.21527290155141277 -0.5374304900317433 -0.3301953078255662 -0.756889538291884 -0.7099131630959236 -0.6683751220500911 -0.6131265465320674 -0.6447378218405015 -0.20283229184992307 0.7753184825826293 1.13389095967427 0.8300827782179877 -0.068865460504505 -0.45181004794986374 -0.508287702717917 -0.5321473691584118 0.9413640621812813 0.028390024376868373 0.2898191357468997 -1.0881588168224647 -0.5634806300697947 0.6153459010443494 0.2410523380364714 0.5973163135693449 -0.26232445140277993 -0.8012774817856724 -0.5006037022309829 -0.6297839973563734 0.06939058737695468 0.5884297773428172 -0.2662790064722351 0.6605324938657556 0.3058278635920037 -0.4177371804203524 0.17847824705000098 0.3061795080279348 0.5814208805794538 -0.043723441223349035 -0.16723284416260786 0.21775459522316737 -1.1277059301063455 -0.37969255985369055 0.24996797595266707 -0.10503062004641125 -0.029492426813463223 -1.1461868062834337 -0.8952821905506024 -1.1965612653824382 -0.0066306685198040454 0.5210412963635027 -0.814566582148086 -0.7932415087795976 -0.6582792749431511 0.6855330203439985 -0.4608206613284516 0.7236894085564041 0.9028252626223566 0.7205421360865414 -1.2308270929170342 -0.6698007474836424 -0.5274205217717307 -0.10369542667168054 -0.7033822504040047 -0.1678893103525801 -0.23511966587112149 -0.4600495295827886 -1.3426368748319852 -1.2386376997439872 -0.31740875534991514 1.0867547516334926 -0.37116161402807546 -0.47437046487009543 0.35750866757916233 -0.9325204434939683 -0.7448461802174396 -0.6227372306312908 -0.8861576225614001 0.2349097081740232 0.2593395248444722 -0.5258957973818184 -0.060505330873526025 0.18007879372938668 -0.2698972554452339 -0.09976666234121856 -0.8374089093395283 0.6469540343075767 0.1760232871245154 0.2688476651156553 1.1185098641158795 0.9166181129657344 -0.3068788672033853 -0.34539418678527745 -0.18877629252105704 -0.02746724879170337 0.020020473732220028 -0.24331769009431678 -0.49180247914480596 0.15339637893313754 0.40103345718191835 -0.7127205512827359 -0.5991735051664413 -1.478817163966813 -0.8753340456203804 0.25005609124300276 -0.49145173424765626 -1.1732287047838827 -0.47814194364181634 -0.8111570021211809 0.6501849231402599 -0.026674037020527935 0.9747512592775653 0.4282079178321585 0.25262060541888415 -0.9610398612686099 0.04998301687001062 -0.40241744122183853 -0.1873632946672159 1.2060057269102775 0.6885534760962343 0.029862678255891752 0.9251473190713617 0.34135656160399125 -0.12887092209185114 -0.04324692596701262 0.9347575813233647 -1.017120761727971 -0.17914766825348222 -0.7968086388127762 -0.17915709146855688 -0.30054363866413525 -0.013369830262496711 -0.6302212631710694 -0.8782487164264485 -0.7884545746596878 0.19250072596207837 -0.8140533708844032 0.25036099139998286 -0.5690444313828457 -0.6403007633297664 -0.02835989262446681 -0.24080031377350528 0.1760862074721013 0.3344700317965286 0.563846797202976 -0.5181505129607207 0.17534836677712726 -0.5296680589728591 0.9519288908192339 0.5787353454301414 0.3833129937416512 -0.04184525071320921 0.8812183879890408 -0.5927329430705126 0.5788064231228582 0.3788874518061306 -1.0016145802581438 0.43432296440937573 -0.42244302333967765 -0.5867662458884138 0.7527573882397606 -0.4727155789951105 -0.753965577727611 -0.46542119785663305 0.7117717777310009 0.16077785513251644 -0.9908472933821394 -0.41041847956538874 0.9539198587054682 0.911017083422933 -0.23785107901209804 -0.04427496202663676 0.586926774212985 -0.5118900616058699 -0.8175968572213135 0.2524649296148343 0.5769796312971659 0.6523072050676871 1.3313650186479178 0.6362734898225978 1.0969137027983007 0.8911717400803013 0.21363263223421977 -0.10816573601009993 -0.35087483523014934 -0.19152067703345688 0.7054341290699824 -0.98995747081944 -0.9206655624323163 -0.5913028164344142 0.10732616104519535 -0.5317455957235746 -0.22858811840994772 -0.6494748196515222 0.17318658432709794 0.5476430194843189 -0.6588124478649897 -0.536605024305925 0.5080377090513284 -0.38149283109789 -0.5187039718360406 -0.3387517183745237 0.5132149765539215 0.7263259257262872 -0.5856880711215305 0.41439649297733955 0.6567912319706416 0.37997542833843534 0.7252800687149624 -0.406110238714503 0.4684547147709252 -0.4902806134270544 1.1035965756019597 -0.4657298155334883 1.0131699984844145 1.0651837254312855 0.878752866617087 0.37824805637171943 -0.6878082392573402 0.8247728864798646 -0.5071229484329707 0.4763210551743846 0.4984517909654763 -0.17604243950661114 0.1607007792265429 -0.735762794461696 0.364759820703128 0.2505536361426946 -0.8617398142302626 -0.29063819777374245 0.4478738427188481 -0.48523688684232136 0.6774166420117136 0.11160863395613643 0.6405128863284686 0.012707640736129873 1.6068729408008305E-4 0.09157588457556519 -0.2632567918949995 0.1791614583253948 0.6922454245226636 -0.20452696649767343 -0.2756045904062841 0.532519620316268 0.17792151260498792 -0.4107462676460981 -0.3790127325675738 -0.19712544224847714 0.7718775937251782 -0.3984347913477375 0.24408290864386323 -0.469016756728557 0.5737002728175908 0.5659500749762894 0.1361393896519909 0.8480493027937602 -0.9608374469036877 -0.8227284905321025 -0.5115346875130354 -0.16866894133374577 0.5296937413261176 0.3689654242231632 0.7496313063823806 -0.07090115870465073 -0.8068512079191381 -0.010437139404745721 -0.4682912395824295 0.7023329892382754 -0.08405695820461409 -0.13423307887425098 0.6243112832720255 0.6162208701280051 0.06841104466563348 0.46735717195794046 0.03244005756121534 0.7800714044877364 0.6897276956416613 -0.6351041404135325 0.9720116277067392 0.8930766298974002 0.7539336333080104 0.4169807591829098 0.8875537588491633 0.23937826431747045 0.6021023426624448 -0.5787566452223302 -0.7044226401799868 -0.3872861567411965 0.8114097385996465 0.9710477695582636 -0.6493977882012395 -0.823846753509314 -0.6932320942816735 -0.29731643784102235 0.9903344368892103 -0.44589406734606085 0.8636098854347795 -0.37721937802270006 -0.32955677479539724 0.7675742515083959 0.5569926952851435 -0.9725354962988442 0.2844734359014156 0.8523974989722669 -0.7652981713931986 -0.45112634331180756 -0.5345375716106917 -0.050932772870416754 
-0.5578617211889336 0.4830499505747947 -0.3485602137650796 0.3012294919874017 0.4884654932414325 0.9525912348044541 0.12383296193151438 -0.4331571509353922 -0.9593346707175843 0.6377100067389714 -0.42440900531857984 -0.06042689065157636 0.7522379596731164 0.3799384229583504 -0.9499485414772691 -0.07439907678908061 -0.5002245864089516 -0.4744481560786429 -0.9599935496309 -0.7702785440572182 -0.2865068474117647 0.6667988544997203 -0.25979476751857167 -0.4498552342257769 -0.6042256536391075 -0.06201947046239398 0.9741068192232734 -0.7513886221920847 0.8534233460546927 0.3456887262670716 0.15358542947189568 -0.15904848683408068 0.9134644265319619 0.7472777151451776 0.7806767833529444 -0.9558129537788114 0.44153570702044215 0.037117297339226044 0.46196531127671986 0.7325439858578232 0.41750403018033394 0.8693410184678868 0.19856010421234158 0.4902806178784098 0.24151449748720147 -0.198526631832643 -0.28954989213848004 0.8619041216764037 0.5352282023803193 -0.8611747762552011 -0.7519493189862968 0.350273320133969 -0.82093449216489 -0.06823673832884469 -0.5534142533175983 0.6513690809996779 0.6086331791811199 -0.28960798201974636 -0.3329882681402677 -0.6798690254451691 0.167923969514504 0.10226942632935183 0.7632591078284431 0.34486803173187697 0.2875856746718658 -0.5939896710131811 -0.5820406323031608 -0.836230907057762 0.11867557496331958 0.3994050920516403 -0.085118594970277 0.641277243848357 0.31242961922319246 -0.48905446812818426 0.7988594723685613 -0.7273391477811884 0.8812279994573441 0.7078690694487292 0.33597512684135916 -0.19277741725033906 -0.9005840943796792 -0.39629138511121176 0.8205494483528089 0.254089410131634 0.5424137135432228 -0.9710338945006145 -0.2999218013046807 -0.6818376694548924 -0.5782672409021357 0.35107512272366526 0.8807773618779499 -0.6320816378947499 0.1616028689360295 -0.9987101842235078 -1.031902608882853 0.022747685563147203 -0.007376549845094974 0.21656288011577637 -0.1914666046872424 -0.04889600989084429 -1.0130601849000334 -1.1533861866479984 0.750809731477712 0.1881467498597355 0.7329312667150113 -0.8239751645200535 -0.8687948059511628 1.0266226723136322 -1.0062589029099027 0.027142757719987337 -0.11409124301981634 0.07420611814400879 -0.39015467075474275 0.8004786793143457 0.9688568410192336 0.05449471665467229 0.9447351733351239 -0.6862425279384227 0.13244305470130585 -0.8449461820745257 -0.4426315178228441 -0.5034458521050132 -1.4678603156311096 0.07314476535995589 -1.3967962466573878 -0.2336456193202208 -0.5220793027933003 -0.7441051931394754 -0.7629929679223625 -0.501769352548689 -0.6338468788004327 0.20432755637467126 0.3605043372387953 0.6178369660274724 0.78017636591081 0.44277897551103546 0.48684810714423044 -0.2753411532602901 -0.10794285118980736 0.4095592984354737 0.6701445513736295 -0.738035354023495 0.07125597487063429 -0.6043434220572366 0.7138597731063703 0.3647591436822941 -0.00207016499351276 0.5337485129089974 -0.3036636663499623 -0.5853192856510614 -0.45221295015480917 0.1300147966442965 0.5590008190615251 0.0809666764412275 -0.39970257009330884 0.6480342845672504 -0.4569075596685942 -0.6395195296563504 0.8192474027011964 -0.23346939709262726 0.5391698210226006 -0.20544790648386804 -0.2084557597170865 0.9975429021738201 0.8006932645289033 -0.4317815033126263 0.8823616845304205 -0.2277344612457723 0.6700799996092277 0.3166284047005752 0.7014313140701952 0.6239172420537251 -0.8347492041063923 -0.10896931577415067 0.2515003830834031 -0.7532290350355378 -0.9581072834313604 0.5125649078874267 0.7606841299044985 0.6071249563657953 -0.640330187001112 0.6090190177865229 -0.4888820473117969 0.8279987820927849 -0.31191292225442546 0.4363648223468595 -0.7347045851733328 0.1071025334987699 -0.059109737014744944 0.22559524864178104 1.0019685327772219 -0.5290189757102367 0.9260319667736229 -0.08774397153509939 -0.20126346953062357 -0.037545097636679826 0.6813859110796754 0.36025123399089193 0.7717514458288162 0.4871464053114167 0.24382796869840995 0.4226001344028882 -0.6154869047570992 -0.2604198863372047 -0.8238539100270775 -0.2920677192268533 0.15110521749650022 -0.3368214622084587 0.4270152532017771 0.055346130575077146 -0.11585547353851502 0.6764213549370454 0.9000619279184571 0.3738493799849643 0.3068659776480708 -0.40733811041909196 0.29314655068665924 -0.5627377828736319 -0.07403057195876633 0.3642047646903758 -0.2645212035228997 -0.5424309605220424 0.7179058579303292 0.2076811507672242 0.3655996586989032 0.2203185634713795 -0.484588086145632 -0.27881294093947695 -0.7999779183084311 0.27148823364581565 -0.24366995294108262 -0.5399135901120733 -0.25286742850252214 -0.8501067448231179 0.5468340851304145 -0.4489575081092847 0.06151382968783615 0.4645125268277945 -0.6704967281592449 -0.34850009516911706 -0.010976715870397205 -0.8245771589324786 0.247727422224078 -0.1066025231165708 -1.4374230058047701 -0.8865360524938861 0.4074855168299937 -0.4305959340389287 1.0453970754556006 0.7462679257954049 0.5008068370346489 0.27717961175599276 0.7463878919582317 0.49942772930273377 -0.7897165990302999 -0.012416503681359353 0.10401180889179013 -1.1479224207448884 0.49114343359973683 -0.1404358525381526 0.9374860283705407 0.368005263741248 -0.35164417327128694 -0.49415755999515165 0.14281545949478658 -0.14010368984641966 0.06055550532248842 -0.46616632942435493 0.5635075317172591 0.22478414991210194 -1.0438175884735372 -1.3647646463389747 -0.25992124809012723 0.3721331288950539 0.5616616909608951 -0.11709980798931251 -0.08843054537466143 0.4839303013105851 -0.5023262588913061 0.273101717232174 -0.33642998456818457 -0.31342405166501974 -0.6244962117418638 0.1349857623599301 1.0076316254432234 0.12000310242767258 0.12276210600904804 0.06236246768117242 -0.41915850844427144 0.09550318074885972 0.13620496911013705 -0.17995879586992533 -0.5222392496742229 -1.2505637908185772 -1.543391071531048 -1.2496262104816789 -1.536911876488514 -1.2118180435092634 -0.4909866633524402 -0.6900643166710655 0.022678019318276243 -0.8602865191949264 -0.23550648690323855 -0.3526819951842171 0.4755254233014831 -0.08434551960394061 0.22684976478719301 0.523423215072132 -0.035317167164578125 -0.19117964740215554 -0.6238794054827423 -0.78636311060523 0.6493380400222227 -0.32601751994545203 0.024693537598870698 -0.04747488130268482 0.49741854831281723 1.0701951388628421 0.0011121606634829021 0.192350835714426 2.629635127510368E-4 0.07012777098768153 1.1600354790684544 0.11880167821944077 0.09222314614555528 -0.2831755353712537 0.2069503110526877 0.24458119169459833 -1.0299119887747437 0.3111867700233802 0.2324683184674344 0.843189551363671 1.2100821309938783 0.1848950457145116 0.7501580485593314 0.9425015980030718 -0.6409232686533309 0.683877903894382 -0.30557969615252706 0.6576136474845466 -0.11192091726106673 -0.17347092278223622 0.571305048009697 -0.12929499510610437 -0.7786048603077524 -1.0252321839908485 -0.4557790209045997 -0.959386815975319 0.003558150191979902 1.6470553145661855 2.6378718796375296 0.2212604630568108 -0.007508391163836927 -1.366837438970905 -0.4084616758866523 -0.1489033460701587 -0.0927951500966235 1.0380668302015574 -0.0323405718368613 -0.5114144240607575 -0.1404697184692046 -0.9539137797064744 0.07284310097452255 -0.1414182542938138 0.916177424596764 -1.0041483546438525 0.06340074713766541 -1.0169620806453927 0.8862066230097552 1.199751552207815 -0.39805874415527326 0.5667301546280465 0.27879602265782216 0.5557374282352273 0.5570421569373183 1.0609969671718358 1.6768727490863837 1.150409765195321 2.1129397643876358 1.2069814713630096 0.2718621177454342 0.2981690732447944 0.4034164547936299 -0.2207643953413057 0.8961477231147 -0.06615493838375423 -0.6868901792927863 -0.3237409055657966 -0.32443867858312253 -0.30632415027547677 -0.9050053307991792 -0.8425303572347559 0.4336574308628305 -0.39572933787163195 0.1181466663960131 0.8100426136375729 -0.8365534423292619 1.0692840511450192 1.2371409519799832 0.6943435362644261 0.7173581394225993 0.8425713761338849 0.014105619257201453 1.3162633243761341 0.7373793187968823 2.3351518055272495 2.1736309111726984 1.2626724881847835 0.15612418453778243 -0.011851324826120082 0.2975227541406433 -0.039509732611549234 -0.40585851567336967 -1.0120508200672456 -0.7212171129493122 -0.46573018418664075 0.3527059254324005 0.035921099078315095 0.7944317649009436 -0.45246595882937624 -0.6670283256955121 -0.9043980683840395 0.49544967918676214 -0.3935817075848711 0.6713735572106935 0.07207077841764123 0.5788380631947556 -0.41818821099073517 -0.407853306887272 0.9329480051904275 -0.31189210112828675 1.2844221624285295 1.722982458770077 2.2809359938393206 0.3620521894217595 0.25195612347954927 1.2465088048757214 0.4266921942532158 0.27413746183414317 -0.2049291732287763 -0.2896774201842786 -0.5587527667406756 -0.3602645461928169 -0.5703033602074419 -0.16236918022442506 0.11596883005455957 0.6549733861028868 -0.5191101731481144 -0.641238709833772 0.8650504316181293 0.528709181534498 -0.16962058887047715 -0.5512389108940534 0.6416100542294316 -0.4111791470924851 -0.30895578525636225 0.70464389197609 0.9072687072407353 1.2760697251040767 1.6056458919823968 1.4196130291725244 0.7744541596183716 1.255724166507583 0.24462807244725407 -0.7572952412041801 -0.448338089276635 -0.8091216906106864 -0.4471681437601322 -0.35099080689160944 -1.0697998910109514 -0.9134217631804504 -0.32767256891969665 -0.0718461646705632 0.3229320951502497 0.8161393372868453 0.7228668214186782 0.16534482444002707 0.5115331089174201 0.5930125867518111 -1.0044620055704385 -0.5341036516486843 -0.9218177855784734 -1.360340816392037 -1.3598329161307932 -1.255632876817029 0.7243940557163322 0.16199234286433878 0.4270763644633915 0.4907404373146254 0.8580749599546319 0.1559342988389457 -0.11809564066066307 0.17980692713553417 -0.08781142715141223 0.243486471759088 0.2448724564112641 -0.5205184273363729 -0.945349462504166 0.2425333673893631 -0.6067711731027307 0.27799451325238 -0.5678147119860004 0.6089830881336531 0.8453085794941306 0.8675268794725706 -0.17461333161115364 -0.4271094554088028 0.37678147848989596 -0.7282722601308639 -0.44591414812776264 -0.35380950187385296 -0.2733375138800586 -0.6790482927655519 0.002678933175896709 -0.006065508634219347 -0.1457845871323245 0.9006493805269323 -0.28306640712303105 -0.06138902681756922 -0.6111915994186043 -0.13657225108720986 -1.4788156216698516 0.009648096808636625 -0.39421839871051034 0.15238630292829797 -0.8804395878745578 -0.9729969861321053 -1.203757425529727 -1.143123535939239 -0.6153971845889818 -0.6118520616058893 -0.17171391947801154 -0.18465815388147033 0.45774344095968805 0.44533285761128955 -0.3587732847279707 0.7579457611240513 -1.0547363811257964 -0.1396914384557492 -0.4509113722932153 -1.0419945337574794 -1.2229947969118315 -1.3882442671024688 -1.5918668150270303 -1.223691934456317 -1.598041456284622 -0.6815301448611302 -0.11317624670610428 -0.9205533017394673 -0.16036453321948727 0.2735288813423953 0.7685963008747447 -0.3975526573944118 0.08242442500294077 0.19966911950013386 -0.9636795275535023 -0.4360651565694594 -0.533281908774833 -0.8218086152849403 0.5721000264075621 -0.7810870230496749 0.8045775416003702 0.001497230534100113 -0.5875058997509536 -0.5968103214285172 0.9205491988474792 -0.4056305793750224 -1.0003287747624292 -0.8946820693843303 -0.5436105854124156 -1.395559216512276 -0.773202967613606 -0.6600421334400537 -0.9205971594911037 -0.7163813519388947 -0.5865765353043427 -0.9822975504894493 0.4054298415025492 0.25241614900030673 -0.6076518024010263 -0.45662798474540767 0.05649424660662325 -0.5027229505119669 0.12240860427260784 0.2974773093519871 -0.3206041753464694 0.208604741325313 -0.6597016983463602 0.811401016414852 0.3174673926578902 -0.6743624249717537 0.050904838481056175 -0.9612706421149948 -0.165018366910615 -0.470342418878276 0.2124465152825597 -0.4992927055412617 0.2687131716167363 -0.5506315494466205 0.4036127130318948 -1.028284520649215 -0.7467768808692687 -0.5395034374453794 0.6092789161805696 0.41155656394332124 -1.159530347397084 -0.5535742215274649 -0.511132850505266 0.020351399626894456 -0.8041360505994345 -0.7333462530201668 -0.7346957841085797 -1.007596179118167 0.6256945357265712 0.2272704836651175 0.25891558939200787 -0.52428402488698 -0.8336024904755297 -0.10030527236021938 0.8854691203733576 0.07481492959863827 0.22640114075353054 -0.23389436553956994 -0.5241956469050898 0.14988350088387292 0.5194349452505367 -0.6971976083756166 1.2718939657121777 0.03474366723971483 0.6761751766260312 0.14941301118939235 0.4872288327554161 -0.029175636028453834 1.061211602273484 0.5576640697441664 0.8334519888464618 0.43575460407262556 -0.10587983015994455 0.1715084173195466 -0.11809504794182996 -0.23135907073445322 0.11749739678392784 0.343605527274003 -0.4562808911964549 -0.3025414337230261 0.14505667719601045 1.0018264480294827 -0.3321553076638838 -0.4900268585661428 0.7529317068159318 -0.2801058270127048 -0.4033737448340286 0.7417384907550406 0.2607365924998464 1.1437375189263144 1.0672531160378367 1.527360421747594 1.0628018848380016 -0.007472872569851204 1.0385955931786788 -0.22662432075296612 0.6196172553020252 -0.006854648908203521 1.1557091192143487 1.4452433431200675 0.5586523214273411 1.123398022065551 -0.12344671569324751 0.6792929099651116 0.650086222731564 0.9362410899024279 0.5465588917075384 0.8231230511834811 0.917193376561303 -0.9832371822671464 0.991630171955497 -0.7103310755123272 0.09759430342568974 0.6062388568700063 -0.08338391838849989 0.30780620415173476 -0.5616795648815716 0.11316717894821243 0.4114420586304478 1.0157508535726598 1.034803758464322 -0.2264624146652635 0.20149728293276142 1.1280174897206119 0.14027986611066656 1.0763074250277962 0.2311172436826162 -0.1304226646844505 -0.17888248212428717 0.7892853314468145 -0.7777156993160944 -0.4543029280419154 0.7530747636349348 0.8472587581876165 -0.2662348481831973 -0.5900311611111071 -0.448820157176794 0.005692920027722202 -0.2939609447008883 -0.7317559545717418 0.20639284944383327 0.19138896110580947 -0.558881329951059 0.21450436071102594 -0.5663455830576323 0.0017824358319815353 -0.3450990051297089 -0.9623458195792297 -0.7934625455692179 -0.3937384218212147 -0.5790737764660254 0.14922077788427338 -0.09688837023333671 -0.2330543499662284 0.15597017652530698 0.09180313998786965 -0.3251893185383948 0.26772887777436416 0.910910375166013 0.6478336605856857 -0.4279369125364342 0.10336370605530651 0.43965562370403743 0.4480182378615509 0.26792475224137546 0.7357941370183438 0.9832658289677689 0.7905623887443798 0.8757999308758782 -0.21425662586700106 -0.26798966461223717 0.32238191354021983 -0.6689608355015919 0.5736378608733568 -0.5982427867114443 -0.19456764075484714 -0.2503628095680188 -0.5117164099849993 -1.1286882173750812 -1.3961809621137824 -0.6964640205796618 -0.12049811572219205 -0.9590813321242119 -0.657803442376692 0.7394664466998847 -0.9277306965862521 -0.22473621039044392 -0.2095956058076947 -0.6033011324603896 -0.8913901317635575 -0.34531022518729304 -0.08372359532446949 0.8927952826500947 0.14924142076424518 0.19334612408344243 0.5795065135627384 0.5379145895273518 0.5401382153053207 -0.5761865120604458 0.969332372581203 0.6055012075494023 0.6744635983419784 0.2646498323241113 0.2479448228522964 0.06190269326963655 -0.8717251596330219 0.38329698569973425 0.8263575590966237 -0.311369449546444 0.06975489326878181 0.22844680880366455 0.39677538220575265 -0.08395686847641275 0.8692438375886844 -0.6679009375024081 -0.10867469751740733 -0.9514377517512957 0.14875574315618012 -0.7887536985675034 
-0.9955876237263883 0.7600024555084619 0.6952806744378717 -0.14245561796000406 -0.01215172321529967 -0.6970366904182379 0.8800760331581157 0.06263103334715825 0.07840730276544394 -0.2859906405336776 0.30888730936928477 -0.7681647615506395 7.90510580331622E-4 -0.020389818345074265 0.7981856466240581 0.38242709228938404 -0.844046855808078 -0.3725930953968928 0.07308932218363551 0.975800717300807 0.3079472325675472 0.3894729919427764 0.037907320934694955 -0.20175001529387737 -0.31736748921514435 0.7893297940308586 0.24168989614035974 0.5210151133831087 -0.6122212968579941 -0.23456664560921459 0.24904288797925478 -0.20120995775323136 0.8065988209725923 0.27766390386591255 0.038401508296466894 -0.17471624969312724 -0.9404228931449784 0.3257064454366584 -0.8141296293017687 -0.011842115879735696 -0.8462575327467212 0.6930634778283478 -0.16022695763647155 0.30847575890170803 0.48265435926677924 0.5914081110111833 0.44319502577010567 -0.7011297697228508 -0.39098052089823854 0.29310048279327705 0.34962831955918716 0.34384805462109447 -0.6184611451287887 0.39189526800360186 -0.30370754597368244 -0.503488228004181 -0.8122104217152664 -0.1013200361600688 -0.9070602248288913 -0.9795574592674975 -0.7087634327605462 -0.6178026846552804 0.4687030933847912 0.40734940116806184 -0.3737737538671193 0.7887230443686886 0.8355690245709718 -0.1711907111432238 0.47694581805756453 0.006989611415904044 0.2024177470945008 0.7725622080438663 -0.48540978091296494 0.013441657709872063 0.7252043033662575 0.08983349459236813 0.9328466192705323 -0.3975880138218019 -0.9275917229978486 -0.44918848337665196 -0.5639417081340122 -0.5148944842740019 0.2692398414370749 -0.5447635475101396 0.6813160901656594 -0.09272013471232143 0.24270140484975256 -0.28107118914323154 -0.06700199959270314 -0.7228919515251796 0.7616340484908801 0.5647589098961145 0.1154269015256473 0.6677792172865171 0.1763593565279804 0.09619079327363342 -0.37817499371915697 0.4323195965017364 0.22217770060492487 -0.5116972739851975 0.07175998901413724 0.7072144721328122 -0.20605355556058275 0.7797998538266097 0.4124191255046689 -0.5618877965179282 1.0374228156615328 -0.07682118206284072 -0.39545026949663475 -0.5034671796301171 0.5212049969798189 0.6585169154748132 -0.5580998451881176 -0.24405103274685902 -0.5717170213715502 -0.47232882865282727 -0.6762815143613585 0.9800434696644912 0.9715255387966303 0.09682542684387957 0.5975922085972717 -0.4105119120757638 0.6027938791686595 -0.22067184904704712 0.48047195391347897 -0.6279646202662481 0.23040884767159725 0.9028433534647947 -0.9965730758919904 0.6308641832993327 0.6949062155600527 0.10049621389978962 0.3156545680983611 -0.47851159927241677 -0.27416787758598393 -0.14298566790746525 -0.03789135380516612 -0.7790168629943934 -0.12892775426278796 -0.3211743589760435 0.40222674313739515 0.24085363668134718 -0.7468332689639332 -0.5630252142473632 -0.5299115276326846 -0.6771721362695851 -0.7682789274097368 -0.7171408471507772 0.5154511091687121 0.11771926752728314 0.674221023357013 0.5637791691514837 0.5815558511968684 0.23542961298942067 0.3743408421037801 0.05102733769891607 -0.754985024431695 -0.39452675231920065 -0.5414000593837255 0.7294455025332275 -0.05984883803457493 0.1160979038411721 0.7463603452298319 -0.41337533973863066 0.48877565141769014 0.301621682885519 0.8873895158888455 0.012232375494869817 -0.6785629211805877 0.5037153284869579 0.4564829870672448 -0.10714012730472716 0.1574737980876058 0.042775588729451225 0.09220926213821688 0.06551105213036865 0.4071388939823846 -0.5517331624602828 -0.4258635049083594 1.283818717983931 0.17002486759185767 -0.8952250186864474 0.2610822241657297 -0.05288971909498439 -0.33784457597764755 -1.0938453230792646 0.6095320631848596 0.4017622181069888 -0.32227959014845675 0.6952796769735234 -1.0166347575023618 -1.5525059577969196 -0.5902478030229102 0.19291357285168298 0.026489631307918933 -0.7131310850172584 0.3225042116146024 0.2618574594709928 -0.21009650708762145 0.24267483308226395 -0.24621301266696158 -0.5256209665961313 0.15628961074791806 0.4391017012630795 -0.7378911851205517 -0.4704340240455329 -0.9176383143244249 -0.3729363330132881 -0.07722641985454916 0.026787678166230452 -0.5119365880053541 0.2065789570161789 -0.29777265491856175 -0.16959994995037683 -1.7970445764912033 -0.6619362713751654 -0.6660608044250839 -1.1632077789380042 -0.532570265157858 -0.909733066123454 -1.3047277258746086 -0.5354857448152724 0.4270533483285346 -0.010367291614863607 -0.46620992848475923 0.3376148197082902 0.79279098197113 -0.6025050824468908 0.14093006938923028 0.04057395075934119 -0.5349569203696763 -1.0071802686971634 -0.050136258123601986 -0.3960281513312565 -0.7298663458500132 0.5274897045222142 -0.8681384431768514 0.7144709586428841 -0.45076581912305885 0.31261787842337607 -0.5688232762037722 -1.2255486255666515 -0.9920484329288762 -1.1363024335387808 -0.3465517361104491 -0.3936851849979051 -0.12639363434946635 -0.07163340219640099 -0.3541148025640347 -0.3945473136423449 0.14906646561025333 -0.04896425811669558 -0.5725047702154376 0.49412579680864277 0.7205454093610522 0.8590070873453354 -1.1288524833004023 0.3991189142598791 -1.295405879472915 -0.6029176145986718 -0.5218174586207641 -0.7532220907478628 -0.9573140839890684 -0.0213241723833649 -0.14617888105254995 1.029599278118707 1.3045341787974816 0.19254500159805973 -0.30707734643290563 -0.8387196016008804 -0.1814317119416914 -0.8749796417014047 -1.1810771616886344 -1.4206941459457931 -1.582959681872899 -0.054646907250945745 -1.391788717388067 -1.0261587097163163 0.37366065673725535 -0.1546650956172298 0.18502207375124907 -0.24301491461309732 0.04510899159829586 0.3543031576149537 0.6061090517039701 -0.612209489243364 0.5448424619632061 0.13748749944840136 0.5071208086549508 -0.7090010199692314 -0.8781530008276658 -0.22785289628275393 -0.7315199210039913 0.7042697918899591 0.1888221675950777 -0.3557550745560026 -0.21371553089896086 -1.2667473863361944 0.6194485165729071 -0.8699478230941176 -1.131658211543768 -0.6994378050482741 -1.5513466498300936 -1.344163788256569 0.4769942763578042 -0.9125881980561912 -1.0148307390920335 -0.5796294191988123 -0.6354252411622759 -0.8037502014797886 0.212964079507796 -1.002889848218944 0.15435376087194874 -0.4516705618639019 -1.1530938129910906 -0.33671888201206013 0.6046549317660371 -0.6399497933515741 0.5258534593129823 -1.5102704693091191 -1.152235619269482 -0.653694828340324 -0.14029999802161783 0.974893804898412 -0.6061472322398633 -0.40772730835595183 0.5781355510850706 -1.075043296342243 -0.4429413605345468 -0.5106168799739381 -0.6714041813234131 -0.8858677266409952 0.41711519336796654 0.4794497208273649 0.670759168830157 0.9612668826071854 -0.751617424370099 0.6475446379134002 0.9431763669197671 -0.9254459046427141 0.652117445109602 0.4486216961812902 -0.8194139766948625 -0.4349174062999263 -0.1238470089059553 0.027662102599600183 -0.29937584499980285 -0.5911925017508343 -1.0255159102390734 -0.3403340262697835 -0.08768906269040984 0.1436115265764798 0.8356511067934609 -0.07627490372943715 0.7176422881440595 -0.861977487089328 0.1314984420191927 -0.6626706864650476 0.08464092481930438 -0.551223508632529 -0.27120857411190996 -0.25488118485766 0.6697465967999428 -0.008208317977583009 0.5672360394556062 -0.9234638252756477 0.1496526927161616 -0.894772779188262 -0.10371645608133816 0.24669039759654515 -0.8371987576492326 -0.2424247652667586 -1.048589489484865 -0.8531921939011337 0.06626797195741853 -0.934124135000546 -0.9385373303234765 -0.22744606965529596 0.603258313868492 1.2661076044549535 0.8531210201962519 -0.09601937520843182 -0.23047521571557808 0.48852597867490544 -0.6168793977093866 0.7461642919681615 -0.20064779628859397 0.05796900810211657 0.6053050763487519 -0.09201741465754942 0.9022319958182928 -0.6380897742109346 -0.21266596003540306 -0.8475326456250372 -0.8317992797193112 0.9290772732636884 -0.13787013921845223 -0.24342585081114404 -0.08522152170269537 0.18888841823331337 -0.7312076684806528 -0.14223346319133884 -0.7472143060535298 -0.050817691087179616 -0.7477176664407595 -1.1709667250802311 0.716196503202521 0.9705179897698972 0.5640731979793099 0.1572500418223346 -1.3479576719165824 -0.2621280084493049 -1.0402898726897782 0.7238927869916255 -0.07376402247765901 -0.019493182392402192 0.5815430357987283 -0.6861920130786029 -0.02650834959569851 0.09584995881862624 0.8280336209102852 0.17594871157122283 0.4089126934391493 0.22774934388287693 0.6487622628365947 -0.7379775082386716 0.14508568987409354 0.5391728973620022 -0.1708014544499486 0.41002593305385565 0.3762236268682936 -0.26567432756032267 0.8156686505197343 0.7962525710318729 0.4697880520336427 -0.009354739019854204 0.11735750416130562 -0.3025895774082099 -1.345152065959322 -0.7868615265332041 0.6564864108635003 -0.44603450743836753 0.6939513541754753 0.4588407443491612 0.431756184920813 -0.7361757702715699 -0.7126026559574533 -0.4744269910467166 0.9479901334218868 -0.24715190640552656 0.5987792720123707 0.884702980986963 -0.5496610825667088 -0.9262667065576496 0.0032049932526065266 -0.7245648704728691 -1.1168440570081473 1.0855295933995615 1.0506378521521909 0.8840058349303042 -0.34404989082032555 0.6548474118210115 0.6691043560083393 0.48914468493159147 -0.4537718823828564 -1.1846373085636315 -0.0022395531553749295 -0.3795518041329114 0.8153242534530554 0.03670693210141584 -0.37416701444728206 -0.06523452088308192 -0.008560313654896824 -0.8427135226397667 0.3449347229505354 0.011918970037898748 0.5938159101561635 -0.3339329183058758 -0.6146890351592416 0.2806659670087746 -0.4439707750987389 0.3616626045020319 -0.5111175333817733 -1.3783639719856913 0.6711495328316762 0.045873164283276174 2.4464993462297264 2.2564846680038864 0.13084228862051478 0.9999359441616372 1.2392509223346728 0.27131438450916573 -1.446307704736061 -1.240907000359747 -0.7688356931569423 -0.2381542283311166 -0.6238218843748261 -0.011640105769131307 -0.43837510297376275 0.008668606427411726 -0.8003941001444306 0.8700826859931079 0.5758993560688593 0.053685463217727346 0.24951709682824105 0.6352809559524808 -0.45330614063599184 -0.03587463263424071 0.09946851279734936 -0.9930062307571225 -0.9779251081524383 -0.6751930215783284 1.2281554022134156 1.1732583151579308 1.8699910852257475 0.4634084880670857 0.6140756627964243 0.7642475565150901 0.8942776964275968 0.030770691841319593 -0.7111077196107509 -0.4322954821730628 -0.4876681201312199 0.29206116301729584 -0.08553397725581445 -0.20797642952540835 0.3013962662823236 0.8782396531907682 0.8309555319026553 0.23485117418334023 -0.724944307663708 -0.26426982126818777 -0.24331447965079733 -0.24220175668659538 0.13384392944741788 -0.5183306348434619 -0.9495959989697089 -0.33469752779632 -0.6126327350450838 -0.9354873983694544 1.2233954259715751 1.6541581401290373 0.7268664557729868 0.5821848007989979 0.9676509494512426 0.3214691848293474 0.09638236417310231 0.7619562188588207 -0.9497534026272664 1.0449265339560037 -0.5250056823116606 -0.48581679319872234 0.24511522778082423 -0.6935449422988053 -0.20742061659204983 -0.22132779346478237 -0.5557926838614791 0.6481603494132995 0.6873896621985898 0.30857999852832824 -0.8057055163896965 0.4898175624187961 0.629747444010032 -0.5432534722619337 -0.32629598981181923 -0.12115180856992311 -1.171564362911924 0.4226476405115961 -0.13874957717738814 -0.045367966371971095 1.4201059323765262 0.1589353373923 0.01993286495988476 0.004198528167771941 0.40613804280182714 0.4332823862544867 0.7791223039646259 -0.08980295452875117 0.7428459041242549 -0.40405216075275036 -0.84561767732233 -0.16711598337046654 -0.05418562335455806 -0.5015155527427345 0.010362071036450973 1.0555280883832938 0.7853062907536669 -0.7123575289099612 -0.7858704822765523 -0.5534255057945553 -0.32627992055462773 0.5485750391243361 0.6117994467466371 -0.2012605758002367 -1.07050771284218 -0.5391736758546123 -0.4707609295380706 -0.5365526561211669 0.5087994876611747 0.38902458844878524 -0.32682231851699756 0.3227815757394825 0.2026498603587325 0.13672584409103086 0.13914986356777015 0.7434484476155645 0.8852790860791286 0.44487458360175236 -0.08903780204808122 -0.6443550559262726 0.21641827034346686 1.1153357056112334 0.7947445003485836 0.2491406180631314 -0.7467632862388011 -0.40155530568907527 0.7213213661185371 0.27082975008315646 -0.953370631230446 -0.6465843510031115 -0.36677162839989225 -0.009052367689636819 0.37993817163301974 -0.2465119483154065 0.8086542984366801 -0.29469341332071414 -0.622570485732553 -0.7564868170022214 0.11154420613848984 -1.2654583102063994 0.2137400337834519 0.6330747848583094 -0.5650146196224216 -0.19823180292406203 0.47022866204256547 -0.8138816953834948 -0.34905480601548533 0.28270025434291957 0.7543506816413483 0.4169132070277738 0.6944985196891634 0.0916105969255618 -0.48245163841076955 0.30292297575466565 0.9717231596127769 0.25220045145151193 -0.5378591969776921 0.9335050842183658 -0.5535725100152332 -0.7214605606017648 0.7974642182211761 0.4218496243173355 0.40813089410226816 0.7112246961288882 0.2089910067640226 0.1516917978937701 -0.9609812840102356 -0.18537625607008956 -1.1325335707606534 -0.4100011623513729 -1.301840809684106 -0.22296416478482728 0.3618588821556299 0.48958557056518975 -0.44980718026316124 0.22879183744204262 0.18477926619478877 0.03117800414207373 -0.7839030158839757 0.4932401078924858 0.6450917370556596 0.9884149073021209 -0.47339334572858704 0.6780403677541804 0.4249736296630424 0.2600488948793448 -0.8171190366673224 -0.8965402808874676 -0.06015287021509784 -0.10917167023366191 0.056773894789066214 -0.01440300025088303 0.24390746250345283 -0.7100077686908897 -0.31186061438877855 -0.9864954842041784 -1.1511131870274498 -0.17933548103517288 -0.8116932603957537 0.1437812033367464 0.40355996848249015 -0.8286839887919528 -0.9220010879045487 0.7838245603391347 -1.1210365681488468 0.3965903313244316 -0.22109725349400733 0.701360785838369 -0.17273647899945255 0.2060454231907225 -0.938053986742645 0.7692854534339313 -0.01797390302688817 -0.8513981818862366 -0.055470443191958166 -0.08291593674694789 -0.37323039270918956 -0.81563131734105 -0.8184822206154302 -0.4007616619533915 0.5245564923898212 -0.49041605895591683 -0.337695184401568 0.6998019653015468 -0.21323310929588216 -0.9582206793794167 -1.1096757104458104 -0.3933110209077378 0.2686397482629328 -0.5703541080866593 -0.7663392225771233 0.5261152296631356 0.5036017000648814 0.795193251544929 0.7445938326412225 0.48020636746795015 0.09711362096142347 0.3289935734634488 0.7737451416427117 -0.04631574595513155 -0.9951733734200325 0.5432482524159112 -0.40687043811401885 0.3762773024853569 0.6955446119542262 -0.7130996744154894 0.3580533744024342 -0.7492986357455264 -0.25155685042778836 0.46897227008360953 0.9214160143267027 0.21401989166287494 0.8162482240451382 0.1558039533041327 -0.06444736677823701 -0.20471158701487277 0.5246704287766625 0.5389157718085457 0.6473656873767741 -0.2697707800194424 -0.020228353748756582 -0.21033103157657743 0.7333070935855746 0.8954396827289257 0.16162004402084573 0.8626422207366902 0.05237928030756556 -0.8767163710613448 0.5326404047181454 0.526934352588772 -0.1679585915822419 0.8416750976237233 -0.24383245741588397 0.4245715181261193 0.49718013504074704 -0.7806349973555203 -0.32632479369313494 0.26641435126222957 0.7032015604700799 -0.10074097976858454 -0.8683819504286264 -0.159138487169169 0.6694342450377931 0.5202165046620203 0.03728073088857887 0.23010737977112336 -0.7761346549732515 -0.015055873633454253 -0.07266361311923131 -0.07386601448503627 -0.7367761721838582 0.6786247463056156 -0.7859435019158822 -0.40697518210887473 
