-0.9964622686524311 -0.6083863182042466 -0.2060286310345696 0.3357682366855559 0.1053684064851299 0.5075737929340025 -0.42494582339835785 0.7793818951598304 -0.9798252362917832 -0.21916442754593013 0.980736255619749 0.7195427453365286 -0.9715743787440103 -0.05291580829411713 0.8307401732461257 -0.639587237319104 -0.030487170682365283 0.20511692213025023 0.16566794427578513 -0.5792702033211121 -0.507255305776797 0.9896532421699087 -0.33860214122094745 -0.6230249237404955 0.9729913135524886 0.04138076431333837 0.17605972951616922 0.02663323645418547 0.4745879050768722 0.08411200953288422 0.24776379146970262 0.8113046259340246 -0.28063246785822393 -0.49318208208057257 -0.4102240576203955 -0.6664330226080045 0.39923738503796935 0.8481328072129982 -0.3301210212187747 0.8057166442933338 -0.6341249382370099 -0.40286758822914953 -0.6780693744787846 0.8070169956223088 0.2891077362838563 -0.1565038674762451 0.9764426110600859 0.5907194131999979 -0.9844806343886111 -0.3583972314659849 -0.3714189902187188 -0.44530820006833216 -0.1340920314660674 -0.33830884785726445 -0.10353189883052005 -0.09662128065760589 -0.904573540204513 -0.488367795934493 0.6396416386680148 0.4780624617192414 -0.6510755832463367 -0.3673151104758918 -0.4212451416171011 -0.08327951372538175 -0.12564339614229128 -0.003467233229474744 -0.012354660676002344 -0.24591840947980975 0.13727627852226537 0.9235277507701184 0.21412551036453667 0.006872866604956619 -0.6411061258312848 -0.5165543175757771 -0.26634826207622125 0.3874147801499925 0.24247389763090968 -0.6995334284964851 0.6470494433452627 0.12143697682092616 -0.5338890136128028 -0.8149694620054051 0.9027092898509508 0.7506570149692422 0.33863505379439984 -0.5400784806150551 0.6354549650118315 -0.15931424685547088 0.6424409943817033 0.656894102344822 -0.623798984275913 0.24270412987141557 -0.29246176265284785 0.9727989482252407 0.7352879109308261 -0.13748969419035773 -0.3350784316369292 0.07384651099169674 -0.159145066819727 -0.2748010039694056 0.8783090431250105 0.9660146576223507 0.008422005443503971 0.46415092013096737 0.2928612358105023 0.13246610018233268 0.45001054847401734 -0.5063747336252876 0.40249640252211877 0.20326091667936247 0.10789962374440987 0.37296089320334014 -0.7883246576091771 0.22849900324157346 -0.7446055425745322 0.7154721831700678 -0.38528912994340647 -0.09627875551586008 0.18773912343022825 0.21735279626279838 0.6280500422301136 1.029972277397668 0.21301138388502508 0.45780219802683314 -0.7601638063451044 0.9286513094716702 0.03443090173382356 0.061858799257384606 -0.1706604563034894 -0.1884181657768764 -0.6374163016945852 0.054721415462498806 -0.023498152275408555 0.8259651808492809 -0.8188101957683214 -0.3557072216611145 -0.38183219510539457 0.2759763866104711 -0.561518318737713 0.24960080358222458 0.950958551362725 0.4510445547026891 -0.6643965110896415 0.5578160361480695 0.055494080247603744 -0.14211128079279514 0.8191274703308563 -0.17338102304738745 -0.718213640432144 0.7179531010705011 -0.605430060489963 0.9774128521767039 0.6359425380762723 0.4130900915572995 -0.10249504963035513 0.6624514492616267 0.013139719705472718 0.16876963946412238 0.8181485614396429 -0.9524980128894657 0.8254174938102176 -0.5552489244436858 -0.09936434017446075 -0.14484585623093038 -0.5156979919662961 0.6889843913870289 -0.03075568626987315 -0.981493026169499 0.4792302616255084 -0.8492020125537663 0.2919466193397891 -0.27998864403964385 -0.7371921772241609 -0.34267785188163974 -0.5454028023615789 -0.5090813280466379 0.5944925062064526 -0.4822501843106924 -0.42440023326902226 -0.24241961332262513 0.6095320261401211 0.4829769389903471 0.7628862659288267 -0.9262675192147058 0.19427068963745475 -0.549470387215089 0.5772304587465941 0.18862566524182128 -0.541566194143579 -0.699605502153089 0.8727896769960637 -0.500009634361468 -0.47435667963318756 0.787220988018978 -0.868787588519328 -0.3510847281815208 0.968738545578455 0.7089444253918068 -0.16995937781431994 0.1353027299205048 1.0426134907196845 0.13322314470226224 0.9004234341028512 -0.48294932881408287 0.7892590085968846 -0.9042679906287897 0.5202440807352501 0.76192533967717 -0.8085006233403873 1.075556730260091 -0.32187605088121857 0.1654904849808021 0.5039998267745991 -0.5927963634720195 0.629338875619265 0.24873907378606477 -0.43321844406609694 0.14005877267971498 0.6749715525702169 0.9273194626564484 -0.11493070237822614 -0.7189325242404664 -0.7134466091541704 0.5152947711539021 0.799919552129076 -0.11341747692653431 0.8926631942029912 -0.7143405638348878 0.27732595727724596 0.8100069495394835 -0.6368601799849257 0.5872790951510097 1.0004795819517134 0.06543428042391151 0.2782593515751512 -0.6097996971284764 0.567888325303343 0.5235335131966629 0.11721423305210628 0.40013940057927316 0.029284277565299978 -0.4309266332976595 0.3353552376113051 -0.5922953614551094 0.18075884727057542 -0.7825911550831602 0.6036974156996374 0.9319670260852206 -0.27029102001368366 0.9170693248370468 0.396258861615435 -0.09283491685818099 -0.15992116888501706 0.6914562439341267 -0.7074001450440083 -0.20679661090721688 -0.016809578099262156 -0.6033539776535927 0.6378935726889642 0.8869805430324686 1.027421538346193 -0.6809418077628476 0.15929518864455633 0.49117977435312804 -0.283138635142478 0.2130898306516853 0.43312485201542655 0.07670389636689129 -0.8407001917381103 0.8595822862869197 -0.6243955556341447 -0.5668116878909825 -0.6393991809625662 -0.34394919600671253 0.729698445718429 0.4216820268937333 -0.7074598730662519 0.31724404941425144 -0.4017403398872924 -0.23189519259795485 0.2889568463506107 -0.28039162843471604 0.6657851237139755 0.8459631256180717 0.48957531587928454 0.18407230999157853 -0.22794251447000893 0.3028136743744414 0.694501438690491 -0.5409554180614248 -0.21847978304951676 -0.45440485373043005 -0.3488833434376304 -0.44802790102470336 -0.12445363791863197 -0.3235019941553261 0.06891143798595398 0.08237965653970818 -0.052674630551307326 -0.3982756676026841 0.41369155763795196 -0.05027123345394239 -0.3337210498628229 0.7272085640864456 0.6190010008126193 0.04684429848473197 0.5641461751680374 0.3471129579518995 0.34737715620204385 -0.3747544157823048 -0.0856314836248489 0.6013191070070057 -0.8536837570562434 -0.7310750192005329 0.6840955724041201 -0.14084424689697608 0.6720589452842807 -0.47183562405809387 -0.7980580889185671 0.1871567159446604 0.24271727185021902 -0.062268267220607916 0.9885990772555919 -0.18051554199934572 1.078464671340696 0.17541200886545427 -0.48664313975072987 -0.8006899614598119 0.25256110320858094 -0.9435223113191548 -0.7175521012081252 -1.1791883826136098 -0.16636315127633244 0.8304002415377709 0.7589525344464059 -0.05170933856308774 0.6634244243392472 -0.42332459936556094 0.571371535616125 0.5554486014901338 0.1233272254323979 0.5696804865659576 -0.46269249739248075 0.14566898059027272 0.38362925972472894 0.4199511429795551 0.7127766441282816 -0.8317859001978333 0.31144771021910544 -0.23462960029951002 0.3126866822770816 -0.2583333410088917 0.984804503479555 -0.26682822889489116 0.5897911087277812 -0.8034277079683688 -0.8651982500901203 -0.7193707074133867 -0.8737569510308324 -0.8694956414432283 -0.8692126539332315 -0.8728114633710742 0.3094389375668211 0.18121671469263984 -0.10645419019792346 -0.9955465270328445 -0.12946367352060867 0.6487140597427572 0.4733932958220125 -0.8099663173565864 0.2640096973117555 0.07458795768474333 0.15359425536167728 -0.44883542666428866 -0.18482692210406515 0.012961878822838068 0.3414008062130844 0.45491541934544744 0.3286292380703825 0.6878480113480762 1.3055987678831928 0.9077767292420593 1.060387892883415 -0.6818095139891046 -0.10080470617304764 0.2703822861000877 -1.0970702904241558 -0.7244793341142438 -1.012051381005311 -0.6296158386738241 0.7373158343232833 0.2262663363481951 0.7911444893746022 0.4609537404344903 0.5670392183935281 -0.2706157184539037 -0.7371903499929408 -0.9963655101511767 0.39873447567206916 -0.20364752919962906 -1.163723271603916 0.421346870078437 0.1985113665971739 0.1709280415322173 0.9091544700709246 0.565628428093321 0.46984909547425 0.3735523455250014 0.534610115822208 0.5885403778238583 0.6617882641674219 0.0940891326904766 0.3396094297754248 -0.658512409957273 0.33898066055536064 -0.9614410389623164 -0.6227876925085907 -0.4245366175640078 0.7451165257369916 -0.039814119515666095 -0.008538159943816336 -0.838519180157604 0.5379435226394897 0.6547081907879269 0.3308299332735856 0.5928243696100453 -0.5724015894902539 0.5176051137510372 -1.3387937177005613 -0.7365889369155106 0.38603430388876986 1.1405823363999907 1.2818957620601816 -0.2039186385744856 1.2949411793189904 -0.13548241588552629 0.2598722023100415 0.7056057680647909 1.0526705648166974 -0.4431558682983939 -0.19943502810090388 -0.05057798416417519 -1.064347245527835 -0.8817992088870045 0.7331511252746598 0.9741877616082601 0.23415666187604872 -0.6022672501704571 -0.8882408434075114 0.9560401996578809 -0.29476900161799463 0.9317002651738194 -0.4803077559234516 -0.35093729648569194 -0.6878507902035038 -0.26883672589831387 0.07261120161844063 0.7573926401154313 -0.6449628783300141 1.054001624777857 1.1239208764448823 -0.1413407046146936 0.6396440565091838 0.7669378558360798 -0.15733019264379347 0.4447058779278826 -0.6188271176101953 -0.06877315586228744 -0.6253202887702392 0.48933653610817246 -0.457988913825614 -0.8885408904192368 -0.09714520585431528 -0.5460104048288154 0.03196736047978965 0.6118808983523178 -0.0809860733009038 0.3999798353938664 -0.8189994431455101 0.8769417907652601 -0.554623145021479 0.07496649193054676 -0.71280620139441 -0.8080733071636317 0.42667042583081877 0.1885290518938675 0.7683686957947115 -0.26284364574002567 -0.34662412012016763 1.2471341862405163 1.0556502647098478 0.1813492305595777 0.14708851671771414 0.9078878124474471 -0.21268145177025932 -0.44561482633242633 0.20927472372711292 -0.5799231623417118 0.6135581441398804 0.5135363001209176 0.33591849996541684 0.8589408772675657 -0.005226755519729496 0.24986465994108012 0.14007601193450636 0.9114916214762443 -0.48092578463456326 0.18145143187000715 -0.3740404044717378 -0.6129944683653777 -0.03980833382610482 -0.11700677110007508 0.07902742081305422 -0.41806279792320233 0.403551463602705 0.6441731872570233 0.7998706904588734 -0.01550269808562022 -0.8351105120775733 0.6472133410319274 -0.948380977288303 0.15333827906117545 -0.6838351693643683 0.9103507934715954 -0.3544344739820436 0.9406243448994626 -0.6097834863827555 -0.0171915078887643 -0.2875913268170181 -0.8252054875190515 0.29937746544847077 -0.06076206419710334 0.9989540030599899 -0.23490400561042354 -0.5980316704218543 -0.1338350748193753 -0.28128195175467274 0.03228223040938621 -0.3134413333870183 0.4778834484654788 -0.5001143260411067 0.014817392288535703 0.40345470653821425 0.10744884916232095 0.08923241695511411 0.8952457291114675 -0.6905834808516954 0.05789555811739199 0.8585741661843495 -0.6715569424421259 -0.4514591009457866 -0.48752415992996667 -0.5165960470230162 -0.2753400172645375 0.3646050327148188 -0.9379937133410629 -0.535700146647534 -0.33283631746002523 0.7644564675780092 -0.058364747765976555 0.7631370525842394 -0.8287469438209062 -0.06492964566086531 0.8085196287229609 0.1958556412835064 -0.23330645548150178 0.6466561160726302 0.4379640757815499 -0.39721560109115417 -0.4610694757723796 -0.568180882211 0.7421692210563537 0.7908842628194444 0.7051427620254 -0.5230010548586979 0.6564378928276513 -0.35641986344501764 0.7176882706845027 0.9182369454455516 0.534454166439797 0.37546332877858857 0.3076588033489683 -0.9097616352581949 0.7891461384405208 0.6475702697428147 0.8511828321166776 0.6460641835086097 -0.6926835919410148 0.4656497942472446 -0.3242384387286119 -0.8029881089411871 0.45903319930637076 0.6051901026444829 -0.4862348431256675 -0.3696464111399737 0.5812003254291669 0.5600545504946158 -0.45573926252747404 -0.36312609898936826 0.12036599592131449 -0.5743559029069037 0.6590983521028491 0.06192588053909905 0.844413373422972 -0.8384674101350463 0.9778202798599732 0.05340633797525261 -0.2112033862789371 -0.6722070010458358 0.5492035482283273 -0.649298293516794 -0.5635970815541811 0.3912479418778254 -0.6410334446772428 -0.7247977513955837 0.08906927756910153 0.5417887373997037 -0.8122773595270436 0.8647918266306541 -0.6721373967401406 0.48435263173564425 0.06582209743030876 -0.7227315071353319 0.10768437498988306 0.933534628340867 0.45148018541857593 0.1387660012788311 -0.15823654299951154 0.5314037312860582 0.18610576005951965 0.2561803384706936 0.47053891497184286 -0.06847548071545456 0.2383617314656905 0.972728087366826 0.5748143438153611 -0.6653812723770866 0.8726586689134961 0.6870294853439272 -0.3185889857904037 0.8297391540680452 0.6760461402705431 0.1834799658662578 -0.7446176797121344 0.3792595511806025 0.2202359692499345 -0.20917912766843866 0.47114060425686916 0.7010447733036795 0.8760352809482146 0.6699667644047007 0.7815867073730176 -0.42519019630254395 -0.6435702970809702 0.53729653256577 -0.07466862604065515 -0.3630708466747692 -0.6283134641023057 -0.38181515285662504 0.23516089871443607 -0.9022037276447686 -0.029506459975316427 -0.008786280808916783 -0.03880999187495495 -0.2562417342835406 -0.6194048649258144 0.23167486339683932 -0.557415690635596 0.4753909522585467 0.1469943201340348 -0.8853500713997986 0.9293955574553809 0.7276988218761307 -0.6091135662702856 -0.0620115216481066 0.7025984633194319 0.6884294644525282 0.17198184643161338 0.5792626941641286 0.12444333763310748 -0.8989217761917836 -0.8004968839472447 -0.017588291938713734 -0.5847515417214266 0.6262642086993634 -0.06319996749737967 0.783566483415785 -0.36807654619118574 0.3432884612458192 0.1351835305144793 -0.20520183601268993 0.893827514046535 0.06687554174207605 -0.6011306780711815 -0.2027699778678716 -0.3322287217167172 -0.9617730678971761 -0.1473293698131115 -0.19321760327108706 -0.16317227689242597 -0.45167011790363665 0.8794696717925248 0.3342142575316389 0.8415599559439013 -0.6310888846803819 -0.4892219548205713 -0.8250262707819521 0.011812020735031497 -0.4002388676992922 0.5905265164001754 0.8021149775113712 -0.6273174053298924 -0.8353537604342658 0.2563509961839319 0.31652833125405977 0.5422675769746625 0.06276058933482405 -0.6143912382352169 -0.3063035944126192 0.9520280686082204 0.23465495272413459 -0.26237506378029424 -0.5803102701305445 -0.10933327383599127 -0.07587548766123202 0.4771496453517565 0.5929582418141961 0.2763578201480006 -0.793232226614883 -0.6217036309017481 0.773338999968892 0.28482975706117486 -0.8727907174061097 -0.9325768922213097 0.20084968190381725 0.9430416926255794 0.21850725282110967 0.44929609043496294 0.6149564688445655 0.8598685873325026 -0.009059508274325778 -0.4032699247577303 0.2029952721550636 0.3553075536317881 0.24449244063716521 0.6713463533345567 -0.9807666263610919 0.7785419941505378 0.8487436244826575 0.8236761126763091 0.1850665508967617 0.5866207945779517 -0.9451902474337998 -0.9773837435092756 -0.2774182514090746 -0.45473718085912074 0.9217542086527419 0.09580496924966964 0.5462948483838752 -0.561787387266536 -0.10897640141394463 0.23025030199867358 -0.17342269918893735 -0.6313982275425811 0.5569927238984134 0.47183433035829153 0.9897253734404712 -0.05955451965656709 0.7748915645513871 0.8588997291719942 0.1485614110954395 -0.7733917452074675 -0.9668806093764912 0.43277377936032846 0.36702258359882883 0.3907436096147218 -0.45702548735307214 -0.7278205914673286 -0.6337834694941693 -0.7997465709925127 -0.5605466316706562 -0.8756776514268694 -0.15363031234936741 0.5597513878335794 
-0.9201312870736584 -0.4128966246635175 0.9735650135860745 0.6218500292993332 0.38346685463296915 0.5822617721194336 -0.9833684938897687 0.5026225265779003 0.4879352288611123 -0.9915073444605722 0.17369313405609743 -0.6656065636249873 -0.9445860347832506 0.9896774958066558 -0.5829415688797879 0.9471265744243169 0.047047218756604225 -0.07113355315883774 0.23046094551274132 0.48965772229249116 -0.8178554025753291 0.04888768140452848 0.20879729283002324 0.6063103612019605 0.4948561096685611 0.8056321643099489 0.3365853485208241 -0.5964243251860089 -0.5889714801299357 -0.414548787692393 -0.5726177298873494 0.37317707186655014 -0.409822511078377 0.4359954546961584 -0.31634522974886864 -0.31956506917241595 0.42599307280411636 -0.7737808938740671 0.6383226243822854 0.7929314484709725 -0.5692700902352456 0.628438968168191 0.8292045030867254 0.2754683281070332 -0.5871242383637187 -0.5423245546821638 -0.6532985776656991 -0.25889062499922627 0.5216269966977564 0.7969776931761096 -0.24423540476417469 -0.38481901180078393 -0.5795246590021526 0.7885731257383659 0.030103152221573337 -0.27985669902645616 -0.9081460803227037 0.5965839070392271 -0.6693435885612498 -0.46974443581606007 0.7675434632139534 0.3880393309732326 -0.8897517513634755 0.6134741167935736 0.41210781181811423 0.9282645288860242 -0.23819736697806687 0.004027850145732481 -0.6663968234303623 -0.07866629083070677 -0.40027857813910417 0.354606351888904 -0.011236742075211265 0.6559069318315989 0.03383224257385283 0.5188425423279351 0.03846933612116404 -1.060174745945172 0.8261127882312513 -0.8066573583488817 0.8434543321506328 0.9382004680367962 0.5854047813404095 -0.7675077186366279 -0.39625677608429455 0.7931718912889805 -0.9849248307980002 0.19427174603569713 -0.8198416049220809 0.573109978634268 -0.8568696332332192 0.07951982992574781 -0.5839268220245838 -0.8533038830574646 0.8650075477515085 0.7843585790254962 -0.08379818438008532 0.5389398913905123 0.4380327521925239 -0.4191037329735313 0.19822435593543727 -0.49086217492905343 -0.797321030803969 -0.40556861066817246 -0.9520742547918796 -0.6558267419643511 -0.9044274019703483 -0.6548528081056864 0.604244365003363 -0.9306345672679357 -0.06437613665816744 0.2321323095777621 0.6197656291926212 0.7095970689179076 0.4260462419957108 0.5295915775396024 -0.07815535695736792 -0.4000982670425047 -0.5024147899549546 0.9122342843871502 0.2689785665783698 -0.2609998829049077 -0.2127626028756412 0.4081537943835967 1.2071698070347336 0.4096006742357685 -0.5699471250702757 0.8998330067343614 0.22971737397877323 -0.20888658133667917 -0.46724972400989945 -0.2055743574481067 -0.0260587957320802 0.24691891555502832 -1.1350091133452183 -0.3310008310513759 -0.19726474486008103 -0.8134014859883759 0.2982606697344905 -0.3781028652126874 -0.6707529558287029 -0.6123787730397072 0.45347353278460223 -0.6045838840548838 0.13909841179142513 0.552129661370729 0.26948446286587113 0.5963727372457177 0.928950189299711 0.35206748712921976 -0.1583764320460463 0.435735484179573 1.1298690722195261 0.4100796874728438 0.19555158011048998 0.9269779691173751 -0.46534876231776795 0.04828034251327891 0.7609068623033042 0.07915587190379612 -0.39817417084113177 -0.8387510677385837 -0.9646342001164154 -0.2835517599842791 0.4314486400973306 -0.7893316067417474 -0.14535181661969268 -0.9704130705695513 0.43118823770642933 0.9614099491536352 -0.8471592442286096 -0.873451537916728 0.6754126031555088 -0.7802908268236041 0.9760944466516868 0.9439886845785769 0.5181102251536616 0.8881131620288877 0.6492261059740455 0.44504506547126266 1.3605684326327658 0.041212262837564385 1.5029172039897338 -0.42212597445274647 0.8568434883182192 1.5921054493333016 0.12492328077027245 0.2577648187799194 -0.3337241632416671 -0.6127600956872086 0.4650663392549745 -0.6336323584587675 -0.3773976316848082 -0.39052595285352065 -0.36604720826892306 -0.38359087485556315 -0.4625780466928029 0.195767575092568 0.23510839349105578 0.004944933858627462 -0.7082493612953101 -0.6917006392232502 0.7117425857362865 -0.17328492852446392 0.9064188918312688 1.0638651108497559 0.34197668911920703 1.7491940660422007 0.1058454458311556 -0.062002785819180305 0.7598909268710126 0.40241280930315537 0.918391745174043 0.7934906607479325 0.10946274656978033 0.9518081183093184 0.1207311406485994 0.7921271641360201 0.15923386539922807 -1.1002663301397957 -0.9093798859709177 -0.5049739240494875 -0.918750006915713 -0.38505142216949195 0.923679688092695 -0.7885595831102709 0.22723859135576746 0.9640175303250568 -0.27876777849326745 -0.31254613705508033 0.14607811192814632 0.29267836837268196 0.895641433661966 0.5498043104373502 0.5684410110523831 1.0703738381072683 -0.20294300332631873 0.06501016211994473 0.1532568887070829 1.2966841193143506 -0.5928735712108615 -0.7730004975360135 -0.3037204748667891 0.24469351985054638 0.9428323666298712 -0.3144668278345499 0.729110969132521 0.007866529135736888 0.7038252522687742 0.5667790636212495 -0.5400628888260708 0.7403548611733843 -0.5484944462622465 -0.5170981069583387 0.9336736476260034 0.41753237243930835 -0.0010626958461169922 0.7871001278707149 0.4375410605355535 0.8558497728805824 0.6845230468605678 -0.08236304223531608 0.5728446462056359 0.938331048702136 0.9282952446684021 0.2592006035862014 -0.11738911070464682 -0.2413904526738344 0.5697342833341025 0.8933365206815234 -0.5457487531386299 -0.2619421968425499 0.2886850520612156 0.4831346217054668 0.9873485477035583 -0.6514129892946335 0.5297654997571436 -0.9287504983496861 -0.1315249938770991 0.06563835379816374 0.05621952246612327 -0.5765648225721675 0.40554697490254077 0.4115469763409618 -0.3729827838044171 -0.07225377460635714 0.39847538471298033 1.2257941557942875 -0.13665016967750948 -0.35838638767028325 0.3939819837264063 0.4925894696806566 -0.5039557358387954 -0.7070229974412059 -0.11185934435209549 -1.2823605065936243 -0.38917182483462665 0.7757444480664071 1.242984311076134 0.5119876735677902 -0.4780759788597988 0.5724370506821087 0.3205843652064354 0.19518690830123234 -0.44143126387959847 -0.8616768861136079 -0.08264908217085529 0.0087492622270442 0.45589884019990623 -0.07463841363506832 -0.6978799515019881 -0.5705273228398706 0.7884058702310083 1.0630687413305477 -0.3865338636708652 -0.6830439157977977 -1.1043202751927697 0.534679568851635 -1.1787391892370704 -1.0497509658819262 -0.1558652098540537 -1.0682039955654452 -0.2191319685817338 -0.3786984330283224 -0.2064000381989531 0.419060572873047 0.4518198628709927 0.3965040906355389 0.6002427521108001 0.6905813937636136 0.12713402306145907 -0.5790522558614735 0.531927470958844 1.0091196480823457 0.9206809527428143 -0.607736372619116 -0.3163891743643916 0.8846969410673938 -0.7850506745875993 0.4860370120040485 0.44408497179488576 0.7247520696424113 0.2288804192788671 -0.8434343104001124 0.11099516635461457 -0.5103522211546258 0.12914096772961145 -0.09768911084002246 -0.3595036731463095 0.22393727564032626 -1.1025789494012679 0.3246485932915394 0.509215573268629 -0.3996610249459253 0.8586602973647234 1.1114523460238241 1.064850479627418 0.7874841685186601 0.5908838830493521 -0.5849533797470305 0.3102770303595575 -0.5029498358818778 -0.7931568682981093 0.24077467939760142 0.6798970790320067 0.30857086823145174 0.9321761085507391 -0.38836028244716214 -0.22441171069793373 -0.6831449199101007 0.8650624589782342 -0.44686143210216867 -1.375798545525127 -1.4880474358843063 -0.16394704147927858 -0.5582798799305406 0.427327470864537 -0.5307467090408533 0.05636510943020073 -1.0980810739648479 0.4928745354522768 0.42358799113795653 0.9095388238214173 -0.9161582067561813 0.25227404700723305 0.18057045156379778 -0.5214551780235644 -0.9265124348744654 -0.4284962096544303 0.15688624547547683 0.7975114052574116 0.7182047221252396 -0.4952259638689802 0.40265750264505956 -0.8015263341153722 -0.08198794059569187 0.3399747876492414 1.0867757758361514 0.11113071507418437 0.07042420708200904 -0.9369679308635165 -1.482639470171101 -1.2165281480306143 -1.133557195986205 0.6650440998935347 -0.9235878121503927 -1.3776355508866167 -0.03130490366958444 0.32778095507514493 -0.08716043699824669 -0.7014077604853307 -1.1364297469580622 0.4111841200484911 -0.29779464336858663 -1.0797257075340394 -0.24792204795474626 -0.04788486722676682 0.7211159847575828 0.04584014401991731 0.6631599187502365 0.7382807117152761 0.16919805066904106 -0.2585594774454822 0.8934123158981012 -0.010520773836319627 1.0053982033653486 0.0016708755903296147 -0.40208859440948713 0.23308858749152497 -0.669115382900189 -0.8255749172421784 0.24388152652127626 0.15699874416516932 -0.625468575868391 0.04913523221470574 -1.5233885456985057 -0.34266640222438804 0.5700179874598381 0.6299930295807743 0.7578954763359543 -0.390725752024371 -0.2678954704990202 0.33836216710393086 0.5721155863843476 0.3241988344625382 0.9424770708354543 -0.7715309378013839 0.8654078062830147 0.3358697149049703 -0.8509485955104977 0.35516808751630236 -0.8891736698888666 -0.31729936135632614 -0.7704427560491196 1.14117916319396 -0.5441696491702942 0.5051008266413051 -0.8987098462396498 -0.42966653602476773 -1.350853395571265 0.08542692047787978 -0.6537596130129273 -0.7228386941136277 -0.09160956031974243 0.2625790632195802 1.1790291222318314 -0.7221372098204498 -0.27446853266134363 -0.2173592378728597 -0.3802444416001415 -0.43685749393663503 0.45601221469496717 0.9108449622176101 -0.07618056932215378 0.838716887532401 -0.8069680682734416 -0.41029569962315704 0.39781664264495653 -0.15457361517922136 -0.47101404455121876 -0.770942365563717 1.0871142873747044 0.2617015403618923 1.2273346102370872 0.1839770036739154 -0.19943345738904347 -0.6952936176119693 0.4286924965320506 -1.2333948857206354 0.13762427630946944 -0.7395026220944939 0.2968898547147502 0.47029185361852804 0.548649346022588 0.2183228482531555 0.7323073451355709 -0.18954388582491655 -1.0994057750909474 -0.30216697367846773 -0.12128758390456568 -0.1939650469830909 0.31850891825719435 1.008792735300352 -0.08862584204243618 0.9193485765315191 0.37600682046355893 0.5613979856682166 -0.5978800743089389 1.2011612568971206 -0.2056301888591478 1.3237681376335915 -0.3223938035176995 1.1600671496063701 0.5469101509967574 -0.5097843916560829 -0.48062447588991347 -0.33761593478195867 -0.8472063618471298 -0.628888740400584 0.7594076290027216 0.40620521769050744 0.6828568664018817 0.9726892247140191 -0.08837481952073072 0.3406614252793718 0.8027011645133382 0.09107546500311768 1.2065089861527114 0.3386974293059562 0.8140686600592995 0.12824221233289027 0.9278685088332388 -0.02617917485186161 -0.8145465987982241 -0.516690374078773 0.046878688471899035 1.1543288345938163 0.48539905371063546 0.336982347149107 1.4510134692730794 0.19320593049754517 -0.7602388313179225 0.4685586998607326 -0.43458650627677037 -1.054391921584505 -0.1581632633106714 -0.988204091054299 0.5747593675402772 -0.5522555137100899 0.19083666121429918 -0.4714720983874873 0.25231519854243345 0.9085285782669515 1.2324797110920012 -0.4215298164335629 -0.4185801023895197 0.4863608278784215 0.6944984272134497 -0.2058608406456843 -0.8996494938589725 0.9787416093417067 0.5628189782455629 0.05429853392453511 1.034976178493212 0.7822891986539083 -0.16854264052757165 -0.08131870357444947 -0.21415700081445382 0.4730003682304547 0.4313308506554402 -0.8300855589093137 -0.10179165827997438 -0.25409465531170855 -0.18674606035380031 -0.4058248380877576 -0.500815783069416 0.03863327218546229 0.4246075059807172 -0.7127626279135588 0.007166555261527753 0.09219505069508718 -0.17150011160915568 -0.4470571204942695 -0.5702302081899988 0.7962651179783271 0.21784981991959898 -0.933858743292541 0.6789803285561823 -0.6119212896753762 -0.8136923247644747 -0.2611134812458899 1.0243985036495633 -0.20404839913491335 1.0885251290576319 1.1346664146868652 0.12968774579384204 1.0583637521619174 1.147901791461659 -0.15142904777160857 0.2370073358414036 -0.3563856410028881 -1.0397080554275349 0.2745293350881712 -1.1750591721831354 -0.6001374899686139 0.3693686415700772 -0.8051809647914925 1.267868433635978 1.4115336743586364 -0.12388411930683166 0.792483117203145 -0.09242251502589464 -0.5458098976246586 -0.6583031266792514 0.8824924012944086 -0.17174744160388067 -0.2664980984348163 -0.8097157931234655 0.5504367246009664 -0.7443980667909884 0.20804502642521217 0.9092799928772195 -0.48257288738413895 0.16908787471712344 0.6308782264513393 -0.21989769685844968 0.9440622516984448 0.44241942443192384 1.3413197691029621 1.124961100388192 0.5163376835324103 0.30534001983286163 0.07563415170262423 0.5217590311132264 0.8231498618048259 -0.6183839839062717 -0.6095957988784961 0.5390365087467128 -0.7249668689625275 0.9856594328418811 -0.10798003694221678 -0.9249135587713672 0.11139942966459493 -0.7951417760021975 -0.9348706488221719 0.3079099551011961 0.3227292368675487 -0.8394416738935733 -0.4089653938878071 -0.3520626477085816 -0.4687471351607864 0.26442805382080353 -0.07088399333194004 -0.06999565478858537 0.5982378247024659 0.6597857722449105 0.02679954945032392 1.4938054649647377 0.7663437408998066 0.2969316374226126 0.26225820185475496 -0.08457785044825623 0.022642418002478196 0.6055914513385722 -0.08718457159998505 -0.27337181804282706 0.9185809195662815 -0.49119054603216256 -0.8360033159210967 -0.4766934459091679 0.9398285168522312 0.9689660301425778 -0.4207878875514781 0.7747893757666757 0.06239262728052843 0.4954854176843037 0.5121785428084094 -0.5744187479188773 -0.4970618177146096 0.41456793458580626 -0.29378570315520003 -0.33226696382015547 -0.4809199122349648 0.8731094068562406 -0.5788818770316077 0.7461363008713225 0.748244188788887 -0.17860365801609182 0.4389356651693317 0.8085701418671666 0.4854151711888016 0.23320495018399431 0.7635838955892605 -0.3457874995987404 0.8013590228269801 0.19686515391074333 -0.5199583368570898 -0.636345646280055 0.5682724800514949 0.07834301906461039 -0.08821761580534715 -0.9729858698933593 0.34035904414139595 0.280894077265734 -0.6443212211455043 -0.4171096094884737 0.4839020252498432 -0.6163846521445537 0.9798602886696726 0.05625995090691906 0.6757636601402743 0.7253163363030655 -0.4564310847984869 -0.2879173021269599 -0.05958936077600677 0.5507723549495879 0.37255194758178933 0.4394626425319446 0.656865097988567 -0.10544572102923004 -0.18006490122839527 0.12664412963576796 -0.11202245491010743 -0.6211203182684275 -0.2826634438329434 0.7746612650696161 -0.3478532846892127 0.3817454977336594 -0.8502812689379002 -0.6851187052726355 0.9949361514988044 0.7292554682428105 -0.8528951483119411 -0.2589604720152395 -0.5754126695388757 -0.6480715353480654 -0.6963526718494706 -0.6013859667279794 0.7981731089790718 -0.07604254438833762 -0.03277259950370223 -0.2586601352445937 0.4045945839581263 -0.2624109630739028 -0.004528331527367698 0.8534517361154855 0.3634785331593116 -0.8774876193125075 0.7693275371736363 -0.8803096638528407 -0.33212217648272935 -0.912344287688409 0.1931830383574269 0.728840152520444 0.48010711677087503 -0.09293309416433293 0.870446308766939 -0.3710469138046124 -0.80513394833796 0.3305389462893853 0.31346516432136484 0.4230361017840307 0.4578202845880481 0.05508574784039339 0.6571826753982938 0.15304703464320718 -0.8899891405160296 -0.25284286474850015 0.5010460446961544 -0.6734490410520844 0.876088456310977 -0.3482480638574898 -0.568071290823625 -0.9481140029486004 -0.6544145300974674 0.11271950639227998 0.7485106998009753 -0.34072967204966165 0.38074941319275074 0.36362003516665875 0.3287291927498328 0.73813576640039 -0.37026896620334515 0.7946219718657037 
0.4687560511078064 -0.20198311671853775 -0.367998964990782 -0.0661513874551456 -0.26386790470728316 0.13136119825943426 -0.2378333617224513 0.6045069620859356 0.13935715342781063 0.08642696281760553 0.4134504876808185 0.36094973867648683 0.9053147130177879 0.06241223520006801 0.8862048863858312 -0.7456086147490648 -0.012862460498305195 -0.1533826029165113 0.8004837212448157 -0.7884362452882849 0.05673274398455175 -0.4316382414524307 0.15944139525258172 -0.13158629018128343 -0.8160688784395538 0.5072649545774426 -0.706154882484475 -0.4299146046017044 -0.336007864802466 -0.7311068795113125 0.8340014949056462 -0.5699298249048022 -0.47253917193389183 0.42869825808848466 -0.41498607195399284 0.8378317670304821 0.15139666589086184 0.6458377130878741 0.7178520364762685 0.5982118937236165 0.11067121664916858 -0.5205626430741579 0.04390727817668479 -0.9732086839534104 -0.2444927169093506 0.5270523166948848 0.3241901221450244 0.7737336608188992 -0.20815484248414157 -0.2462380722238729 0.5139544312948674 -0.25954904923340166 0.5987661744880795 0.431354074054775 0.633476023151506 0.8832456627636216 -0.5968770188241121 -0.08406846371199261 -0.4035447897743809 -0.5156069149390385 0.2444815498423033 -0.5233847939699924 0.729181714811564 0.8313628300708842 1.0053664621549434 0.029153060458723047 -0.03700769704811196 -0.4623991716929008 -0.912205953539097 0.8863015018142 0.12725855117620083 0.6390861253673102 -0.8365513715520134 -0.5790080876421869 -0.6105936861136017 0.5708156660844564 -7.456501854480868E-4 0.4846668389652532 -0.37319045730238926 0.21147981888247547 0.8101623484624986 -0.396380289712796 -0.6270933594979848 0.45787314944235047 0.3849769666488816 -0.7465747879091744 -0.8089016859270993 0.5685694646081464 0.48440822354183394 -0.6938034678416858 -0.9054869047545827 -0.5876163997116743 -0.7428901796661663 0.8862316027100661 -0.4234610791070954 -0.9775115583117047 -0.04075911552521854 0.38159438360515563 -0.07474893226869699 0.5855635906234712 -0.28860136420900595 -0.17630421361914 -0.5092027414293893 0.9719347276225954 -0.7430680137991491 0.08866702795126725 0.5316470926778624 0.7860107672856115 -0.6875211929356427 -0.10192761687291918 0.3924740829300161 0.8046444321240522 -0.8718116650741043 -0.36293708692075666 0.36144460795215233 0.7240612459343816 -0.22761327028568895 0.6742322786007154 0.2651832184668434 -0.45149110853317187 -0.9084066287503547 0.1575177103627828 -0.9435661046384616 -0.11257114549404325 -0.3885191344031608 -1.1487947702048358 -0.5810944140055048 -0.32296072528759723 -0.7272170261136746 0.8830652817270889 0.2616897209840491 0.3175317119789852 0.3085587438769875 0.4376052717497791 0.8981894477516272 -0.5110263644462655 -0.7194080371509723 0.7985260015823369 0.3027585251467001 0.24320409225155895 0.8901661287583174 -0.5590688551895275 -0.8419245123385652 -0.23237138532513443 0.6539176794643201 0.006413358955222995 0.3808891050863799 0.09820074415007356 -1.2620577551650436 -0.6926093527167426 0.02021105485538676 -0.3344185370054629 -0.5616606823228285 -0.7678974092405491 -0.30095817514493134 -1.2817798915312568 0.23578192774375442 0.2921916128393077 1.0307273726938686 0.1765277174273385 0.9383725691617119 0.7260421222413883 0.49070301446025166 1.0213501448105884 0.2005629992381991 -0.14105415325908527 0.902092578754744 -0.038915338591762896 0.8166633080488439 0.784467978525932 0.3947449173433538 -0.7819811927615359 0.035234087987854885 0.13569175975226155 -1.3630107187151494 -0.8540799799344673 0.30231599091453876 0.19476297148310692 -1.0703869579182113 -0.43998862887421925 -0.9330490935717105 -0.543584365823078 -0.854974736944081 0.6282023275709975 -0.21183413300588932 0.2876173808660306 -0.6462731672311184 -0.30068618793527674 0.6823317114663943 0.5355933888463763 1.2592513907996656 0.8268047482480926 -0.05305027514030266 0.11368624424086103 0.030387950873718334 -0.7900504763110403 -0.5387102140899485 -0.8504705224566956 -0.07160801466342477 -0.2929208658551835 -0.21327747788122267 0.4258019238966459 0.07598985264565541 -0.315968695759644 0.22849077624997993 -0.2648197585628641 0.550548378404227 0.26331822336946564 -0.5680790104015777 0.6959283366679514 0.17319034343819809 -0.465535447768512 -1.297492539319655 0.25695684570450855 0.356034074115095 -1.0410719875385874 0.69181537759751 0.46194761756041786 -0.2676837746867877 1.6958271427815836 0.0796024764677566 0.7086448016177664 -0.4496020324414914 -0.7301805065384371 0.26168347474127357 -0.7474796733359323 -0.9535528483517327 -0.20070967407238582 0.6623985220533558 -0.8512636364008243 -0.5675590852660073 -0.40808589608894363 -0.25374661871089454 0.2503002911952182 0.06761249842135549 1.15392119402034 0.13214443265062895 -0.599382402361044 -1.1263423141786553 -0.9513205240246776 -0.7596661569617558 -0.32902547331623666 -0.09982618522074994 -0.6990067064603328 0.1830067173933168 0.3847006339589352 -0.3695548743696848 1.454903976201389 1.4525298384000402 -0.2343200805339513 -0.6682072707311016 0.6384133149199953 0.6929732390180707 0.521092875315778 0.06100625524030716 0.9460616775699991 -0.798622997191291 0.608449832339153 -0.18320385118162594 -0.753216954585717 -0.19303820337203706 0.3558922620289529 -0.18879545954649463 0.14935524317275586 0.26832337668835404 -0.10665225352879307 -0.2516249615263607 -1.7002980504815701 -1.738990525380804 -0.5743354813613247 -1.2052166400012891 -0.3284539164704358 -0.15959426580970154 0.5366879668247289 1.3412255786996568 1.0914930890500636 0.3849044533999318 0.2721455109073471 0.6940692680812867 0.695958191241042 -0.35560263504182216 -0.8918783774583616 -0.2843105394393824 -0.30979041082566594 -0.4742327942994278 0.6224126618550515 -0.7756268389411137 1.243388121982994 0.75207031745041 1.5755647468392207 1.1589635608261062 0.8588677665179373 0.8261406042701589 0.10757645352703135 -1.3213665399401016 -0.2810955657915737 -1.2226275420899213 -0.9946341061564232 -1.5290857416841481 0.09290309245224034 -0.07015792024252437 0.425974442535451 -0.6992217755091688 1.1059549284432644 0.480953211512944 0.0026800715009883693 0.8946899875904994 -0.6563600825121046 -0.9312230516344665 0.6478260287131019 0.04699121715555346 -0.41246346990729743 0.0069134401785601275 -0.262053130940887 -0.12402599197796182 0.9036947432670529 0.04876306649821671 0.049112994477141986 1.3079375256158325 -0.31461813922795534 0.3846502113749898 -0.07791144983068689 -0.9391881815202782 -0.8558038630020045 -0.9209138216590826 -0.9634102933188002 -0.5314186404154446 -0.9643213299292321 -0.7500133907727794 0.3231068621297642 0.8988375147393718 1.2771910948623904 -0.2738344464079423 0.23115100296874044 0.6365133413699914 -0.6304210661443636 0.1592222637400169 -0.04148325561424999 -0.5574742819962326 0.07450225572705026 -0.011080953283097663 0.6666400419004834 0.4434717800902201 0.9568395617486921 0.018534408835428826 -0.34307792818760974 -0.36242717807508096 0.7846289715291463 1.1871388710144226 -0.5359621769864058 -0.4012751113978002 -0.47225637835172135 -1.2946014026008912 -1.1535911896920163 -0.0745183421554099 -0.22796710504538678 -0.49826592234458555 0.9031549996384965 0.9819651936395334 -0.6165256283132335 0.9169276151627815 0.2936090366896398 0.40378098824996345 0.7708095400927337 -0.813715284301157 -0.5899033457315971 0.8256515130203546 0.8384583877663022 -0.791797397089007 -0.3968466875517174 -0.4313127227197086 0.1819927377927648 0.26539796579764974 0.5622381465169755 -0.462709597209212 1.4535940509299963 0.5312604820454545 0.4582510407726719 0.15776258485497172 -0.48632375004786477 -0.23191015364154224 -0.9080649809986935 -0.5712671845847596 -0.6728140602097662 0.43394550062073084 0.3063912371897161 0.4539395640257115 0.2901768346973949 0.4892282517896602 -0.4671587587361507 -0.051023368545272 -0.017365509234647334 -0.2960009630364915 0.14690290416777593 0.49717474029805125 0.21455048260467402 -0.17817801269588293 -0.44249576371875476 0.3536086090844748 0.01759469468950961 0.15222302835095913 -0.35154222721171197 0.4298463292819852 1.71510071540411 -0.24823920051444542 -1.2144952796469697 0.06887129286130864 -0.054311068600646335 -0.9448460061683015 -0.6652062535610274 -0.1704638582035382 -1.1699898427393651 -0.8220322857567628 1.02562673183609 1.1181808449404647 -0.5844408432111545 0.7877331556661816 0.7195999766949711 -0.20546863068724078 -0.20896486166659875 0.0921771853602749 0.4648667052862476 0.8780409426322571 -0.6048801709155662 0.08857729221734581 1.0432943321036277 0.3517117117964334 1.109178510089067 -0.018733974605431428 0.7648250503167178 0.4391904129455545 1.2884546700896686 0.7026603941559837 0.04355537528126229 -0.7546245007611797 -0.29877449189637423 -1.0732768001755617 -1.7783937101905494 -0.6753582734552465 0.13472570288755306 0.6597221659484013 0.40086933616037096 0.1863164348186409 0.20365871708520006 -0.34582673722529184 0.8786159093823099 -0.9273673985404732 -0.18275843508518763 0.34968894405616324 0.0014503230233128199 -0.06378530165341269 -0.4716054102748497 0.5387059346519109 0.7221573684723456 1.0182457590524843 -0.07888979618430483 -0.2258681928797454 -0.5864731655834003 -0.20311228503330764 0.7267014565071479 0.7373179718707836 -1.2062218012722608 -0.5933992520280509 0.6599275724456027 -0.5916600229937825 0.30992652508525453 -1.0417250709231458 -0.09389605035694541 0.8134819620602134 -0.537748196776625 -0.6209614116411086 0.6439616274683244 0.05061861004323233 -0.5135111331439285 -0.7082988826858739 0.6412282468173656 -0.31177173514619394 -0.7481232587301796 -0.44026796069560525 0.5991704663873941 -1.0192697341661894 0.9977584689856019 -0.05816587818877798 0.26169021158012923 1.093122559021875 0.925105042562781 0.5870858237280991 0.06016732427353499 0.9341140257337909 0.5030379659605604 -0.8671756559011082 0.32160111684774917 -0.7945453650288976 0.1259137671143647 0.5589400708896164 0.4771188777564624 0.31515917596256954 0.40258433089086904 -0.4373511449026677 0.6594043332520815 0.006440289030914214 -0.6090789762426017 -0.785515627594269 -0.8741612632012218 0.7983282942443185 0.6293379909953414 -0.003321513227249713 -0.857909721847342 -0.022556062862735947 0.01701976551404726 0.785472618602936 0.02389279018977949 -0.10517606768559468 0.343714351725491 0.045914919555817744 0.7189168800276222 -0.5270669737175214 -0.020487908233539652 -0.16575257742662697 0.6823134220289976 0.9266457759190228 -0.04903286297306841 0.4595175465230882 -0.2605770332012782 0.714024359324595 -1.0646866897090277 0.6811977674293553 0.6488311724629565 0.6341557154021208 -0.18868916640782207 -0.9918112652528139 0.06049243076601679 -0.3308385258117357 0.3521176684546896 0.18118862483317497 -0.4485924702951569 -0.4539901998422336 0.6682666718040818 -0.25907186118332615 -0.30600666110872093 0.269782355342807 1.102678728829317 0.5846388495488155 0.03038028364745232 0.12744001888265097 -0.6580836184315855 5.718856942131367E-4 -0.479622488318999 -0.5355123762873484 0.13521035954555552 0.13394856813320602 -0.09129240608064197 -0.1690081708275596 0.4955120739884893 0.43622011663657995 0.01693538909049447 0.73160184196698 0.10964981192310361 -0.1907912917646236 0.15785992555947997 -0.45908546316972054 -0.34906176261657623 0.039035935810957025 0.5498186463488931 0.2062384422821309 0.07460904999967066 0.2879945204475948 0.04636516232388107 0.9325053211278076 -0.09221435170045929 -0.4330849942341433 1.2111527277711327 -0.37630502316031444 0.680111003240566 0.6014703576487318 -0.42784167523185523 -0.7632608608574676 -0.70854293361053 0.48540307117940684 -0.5665306128612463 -0.9694405444769627 0.5171141734081517 -0.6277295247110495 -0.025988829981209497 -0.561146540935972 -0.9796798225712833 0.7853350366486694 0.1997237209267344 -0.04669517209717713 -0.8111254151841265 -0.720152303562988 -0.15968648871760585 -1.322885223234226 -1.5407931102470624 -0.839520541460494 0.8314981837133518 -0.17889501574789607 0.01677552844394779 -0.5807351064098347 0.7691550662440759 0.17637015268413767 0.5653823687737102 0.7094617047443087 -0.26752411917709945 0.8660420369633556 0.15286644795525128 -0.659204554069759 -0.596302268496681 -0.008589713945843557 0.4840089048442378 0.1566556321027321 -0.6466886893829955 0.4351044065291491 -0.6592764590073628 -0.6228399043329618 0.6457471349805488 0.9260636208868059 0.17493081976013267 -0.002671015300462717 0.2906803756426551 -0.9603296743777888 -0.13351232053902606 -0.11592222126634656 -0.8642485241229181 -0.6601201294232575 -0.29129643039686354 -0.29336783446694453 0.020400631735743628 0.21163948825277518 0.14577009623688583 -0.4096739827122949 -0.7215301071118846 0.49556905174997506 0.7332068228828381 0.10704195370554632 0.1897878359377098 0.010553997653596566 -0.31782650033034926 -0.11465403411108155 0.26199320066263954 0.542386148195016 0.07330474378502966 0.22492286756983487 0.13280401625954164 0.06698055607567044 -0.5726575845695507 -0.8217493886254029 -0.04653708036189085 -0.5523122455033251 0.5673745622241068 -1.1863466494170605 -0.816963980312101 0.7560408655180526 -0.1082823088937918 0.628914340860779 0.62855506729043 0.2959863026618172 0.4123390616749142 0.9434584372896991 0.38433683614852837 0.2811727465945925 -0.676409155563151 0.9200169006789563 -0.31288323415487124 -0.09863039738017891 0.6103652284624123 0.4190203441111819 -0.5581318873161166 -0.38510261030281345 -0.7215423820089607 0.2053999984686985 -0.1303394369869597 0.8503677635064697 -0.39495037738388783 -0.9728615086969805 0.878815883094661 0.07675821933941714 0.31814665969185263 -0.02787532710423753 -0.6223375849285296 -0.8122730487517374 -0.12863699205644571 -0.02928945933164591 0.5718702066837716 0.5601235598004292 -0.035156739602035886 -0.09462392951003078 1.1994895363027342 -0.6080026120996637 -0.1317802306181398 -0.10794302762145563 -0.8327124967665324 0.6516465766985182 0.1766147841441045 -0.4379503555606304 -0.5408111197447435 -0.7767467355641158 0.2099563559664177 0.07350050953659627 -0.18506590067354423 -0.5564321658386282 -0.022851173961871307 0.5949239208333477 -0.21880053273335096 0.5494830305980273 0.24091110762322454 0.4743456985573479 -0.7183043226230295 -0.7423806715075958 -0.667382908759564 -0.4079222573033607 -0.7803452600328302 -0.015722629599165622 0.46739385622144963 -0.28104507010422386 -0.86409824523763 -0.9672619703983456 -0.9707479038236912 -0.13609424750454954 -0.36153790648047834 -0.22191836938657744 0.3666134239346988 0.4281518599248158 0.6401802317598478 0.5849715096212621 0.10528220988143754 -0.016679320109699514 0.33392199573888925 -0.7186033548178345 -0.5626703034446479 0.3742958528941862 -0.49301637033993573 0.8170137094909553 -0.44187664070006566 -0.5320952454836416 0.6399753694238697 0.02466871992077439 0.13319924775297895 0.4629475454313539 -0.4836821434522742 -0.5202860607273473 0.09951934786411337 0.7857186636026584 0.10505890019047684 -0.9332314818288103 -0.6298430580111222 0.7606588538838904 0.4717846703921437 0.8709091698543343 0.16940669297286728 -0.8249746110204287 0.3235768492509543 0.8210483151963993 -0.1469344484852304 0.09380344907402893 0.19594038913050338 -0.9018241396880984 -0.004063089555311761 -0.22910106729200286 -0.19051045197014238 -0.9296039823785227 0.12663752210659046 -0.37360871418359654 -0.27646493488249163 0.9354252736930242 0.8095442540921597 -0.4481379960819058 0.6030661241340362 0.9899280340822743 0.3302448065663442 0.08442168818756958 -0.3730223637104526 0.8435568608500152 -0.04876001214798528 -0.4693206699753592 0.11374286707745149 0.8726066669436016 -0.7419798444325115 0.36743738600455933 -0.542747398445336 -0.37075004856399785 0.9134520885699626 -6.278211304884262E-4 0.07348779826819829 
-0.6757228463198814 -0.3048474247143762 -0.8108505942561783 0.15502225413445525 -0.336232967689982 0.5331724306815586 -0.5256204011632408 -0.08660051099718524 -0.06727022832095808 0.41003021986189614 0.6612918775437528 -0.9504310371666822 0.8974901299933995 0.5705884140528497 0.3551319915945583 0.14006225980751208 0.840813309654078 -0.993346218898711 -0.7048644373210007 -0.7845448734666984 -0.9620116831965013 -0.9052906410935033 0.784908715060687 0.5997795195476794 0.6648973684024484 0.47594996064327333 -0.13743569393966282 0.19869087425019316 -0.3611352064842457 0.7931848923077147 0.020977668222192714 -0.14416353707009844 0.21535019867512922 -0.2629213646611505 0.26710821230110693 -0.8565070127687561 0.3291162301663268 0.03228202573812478 -0.8910164769125808 0.002146422869925289 -0.6085508899514325 -0.7659376478736343 0.5928869815722554 -0.007284530741538231 -0.29296909724576714 0.7960082665548927 -0.7936341184371142 -0.2284334444456656 -0.9111954766749537 -0.8659807755645867 -0.07901036971903701 0.9435245193113533 0.722456576301892 0.661750438509976 0.32326283024682056 -0.4858708736371171 -0.9572103572496549 0.1512412005579118 -0.9471761750268586 0.8393348741893101 -0.6540544706184057 -0.22429411577082975 0.33808917104684605 -0.1933737353725953 -0.1075982882509968 -0.3252158966501754 -0.14709525619860941 -0.2853189594597919 -0.373186217539768 0.5146062861021866 -0.8108041525028281 0.17252674196349066 -0.4732338490944532 -0.39901337400898157 -0.7119638476594946 0.3898618689846615 -0.747853571920193 0.6611697817571873 -0.9536762303420143 0.40871515095658434 -0.74139093772734 0.5199803084560108 0.43676005728218636 -0.4757235723389728 -0.9246478693284241 0.03245137208823734 0.7222175281406704 -0.4317556716541851 -0.7041852398085726 0.20533266905768557 -0.6156526064923356 -0.2656565067391612 -0.7254319016242003 -0.5190812190765468 0.5836200299146281 -0.23007382197186438 0.5423636799775187 0.4914209557629354 -0.04984051562298622 -0.07374475664031499 -0.5316010526491605 1.004635257648966 0.027360456563945472 1.0575160453382908 -0.09480501149453273 -0.7134623922532657 -0.4562756217497214 0.7207047492311774 0.9482936652285366 0.7201292976832034 0.6668870032019989 -0.8895620890134923 0.7459187643496343 0.9848007519475683 -0.741192510300342 0.9928120027287538 -0.3492632030351786 0.9217447762170786 0.14878109697274933 -0.5765741166364555 -0.33303020685002516 0.3192605037577545 0.22334546026913177 0.5242809190208563 0.15834062524857243 0.05557488458603013 -0.6486305746915816 -0.8242736777630842 0.5683003906671605 -0.13267651594171037 -0.1430141284509184 0.747461933417973 -0.5052381528524532 1.159126288726229 -0.3263317846458243 -0.0721232476067982 0.488311178407272 0.14281518766196324 -0.5583102662941506 0.8162010979190306 0.38614160152151156 0.13052077632934744 -0.9644044721594768 0.9690722287399409 0.7823848197910954 0.04467595299899898 0.6845568349686031 0.5203339869249642 0.8271314817610484 0.032076289935701954 -0.2625216356562471 -0.6472130220402629 -0.7299329663930918 0.14444222787761274 0.04590698239222674 0.4908995414631228 0.03148827073034511 -0.3723899090970392 -0.17329055909677027 -0.12510358147589257 0.5391451982274471 -0.6377991419217616 -0.2707772536989017 -0.18125673471603515 -0.6521297907019025 -0.7374749868394429 0.9408008277651093 0.5420372675045274 0.9507952715741386 0.022277239139658622 -0.5566953435429031 0.319513008465322 0.7660580584374327 -0.541545284456781 0.4283034218398981 -0.39364475038137026 -0.9709482342874305 -0.6818925274137351 -0.4074735220163968 0.6443643665527433 -0.20652264777079316 -1.0379974582622407 0.524458161620822 -0.9369778473940276 -0.9968215125071288 0.2425523659416432 -0.24291518124770467 0.30798239832695345 -0.7747399075053555 -0.5013281115885484 -0.03811298294861735 0.11222936077500816 0.6451269920758682 0.5879374912772536 0.6636780589302581 -0.8072257314967224 -0.69498821924496 -0.7492589074556679 0.19740288994849628 -0.34593515154167437 -0.6114533536236114 -0.7040316376831539 0.4070865110356998 -0.3902231446263406 -0.09883291209990976 -0.7975202780005332 0.5287473559712466 0.16859339492543884 0.05332119944225381 0.2501398901329759 0.03234537675138225 1.116042351503432 0.8008514692794437 0.7977723134163209 0.13129746648454504 -0.32303505971222285 -0.6318393189776292 -0.6566312751834493 -1.0672190630055192 -0.22563660241498962 -0.8451811704516441 0.6843581473301846 -0.1694887474639224 0.7338830095268053 0.73296263060828 0.2043062287084465 0.5761520015112831 -0.8458795332946054 -0.7991959640372015 0.7655102552139903 0.06838219448587424 -1.0704202506611316 0.3458569225332118 -0.3900921269923006 -0.21154424889651988 -0.08718664578861425 -0.7843283682079856 -0.6918658717662304 0.3793644180173426 0.0588366848765526 1.0255440418629664 -0.8212554757663473 0.21669279135265587 -0.7173281895719709 -0.6115382553228882 -1.1784534692777058 -0.6036783813742012 0.2991704658363032 -0.8543060504771363 0.2221901251361586 -0.1397155862029594 -0.23136572527674684 -0.7121916357858712 -0.2091430781478352 0.704050907585474 -0.0271354466112678 -0.9395832818750763 -0.28409733810805277 -0.2710671712125365 0.0321617065686445 -0.6675213957408559 0.22261710201177382 -1.218123486566284 -0.39256691248234427 -0.6163767402946112 0.41672324722493537 -0.7141058294038733 -0.14604995903041545 0.10012197802265024 0.23611131819317135 -0.9105959515894396 -0.5931457182537548 -0.5296080560580169 0.6534757128026218 0.07727162921920327 0.3641590793523698 -0.5778343740447621 0.8324848282976467 0.17647145701153238 0.5247262203212466 0.6749389114336335 -0.5378106003170399 0.18385146985966416 -0.9748268279262127 -0.6853946714307642 0.35215759923046563 0.2483210948330759 0.3440318276134244 0.8730334385234283 -0.5825696680086506 0.09283793505878332 0.33277032390312783 -0.31713794212535956 0.035301032222429675 -0.18289281310144848 -0.15358568564821112 -0.1675157787861455 -1.148804535037491 -0.9800272777950417 1.033863405407907 -0.5763438123363627 -0.014727139866824782 -0.5363066257164545 0.23922350826273608 0.5063450675123072 -0.03890193836256604 0.4976661684981518 -0.10583243056169034 -0.8795411110543517 -0.22116515670272385 -0.6126056054651345 0.14524519934930094 0.057089431822107115 0.8379380003138095 1.1609728115401217 0.7548324194027061 -0.3033518673946548 -7.266563929199468E-4 0.19451010483524045 0.35723910070388193 0.9021783793923728 0.933068943443477 -0.318750877268646 0.24932613058910966 -0.408104048851444 -0.12476902879372151 0.5889403538658908 -0.802640569219565 -1.0178481573030875 0.23729316091855426 -0.9048323790023752 -0.6267667333170451 -0.04032002996537893 -0.8048807184088449 0.6721995727557507 0.11186600388879468 -0.8760931210581983 -0.42823250977341015 -0.6615583615473316 0.07042450017071346 -0.2097427266974952 -0.9036056073522223 -0.20358675292913145 0.2024410380895587 0.5090398296783658 -0.036527334936344656 -0.5282115821198174 0.21571741531605768 0.3298999577561382 1.2511665356967652 0.31073903855932544 0.22554623183847425 0.5219815116759532 0.05597958376572234 0.16747919064665187 -0.8616542902477852 0.3740948073398834 0.4645104285803003 0.6540829883995676 0.3582573850954325 0.19937513049466557 -0.45347650723585825 0.6734878451052156 0.1649266033829499 -0.8708274711551789 -0.9864212789032443 -0.7928295045019997 0.950196391622414 -0.16336452186229572 -0.21768030931178342 1.295982133214501 0.07456690415532775 1.1426439326607685 0.9161097884770063 0.4242747335306775 0.5743846485245364 0.7898773381110025 0.1685897982503164 0.068930391571714 1.0402540171383634 0.940380229223564 0.7231210888198121 -0.29327025425119574 0.3845940685481647 -0.41114076943966704 -0.2078068930318851 1.0134220427128857 0.17303280276020172 -0.27660164322998343 0.5031474111353871 -0.8463578180458575 0.28795926913943193 0.9696633842551778 -0.7873643183230639 0.5667875947789861 -0.8462451507160814 0.7286555506612892 0.03248776328776838 1.267072191333428 1.468810292827445 0.273385797786084 -0.20589862747089352 0.5043793837444042 0.5232851940310844 -0.40445224454400275 -0.04346196082279489 -0.16957327411361323 -0.5128254215789867 0.3070946150484915 0.8106159014199595 -0.014150448749859964 0.8685049829299429 0.989878955212914 0.9984059970201283 0.025955921165365256 0.812611549092256 -0.29064584660618065 0.8928198632154305 -0.5655344611551651 -0.4233170796045997 0.4537475950319141 0.44170361685262804 0.3653037806632296 -0.2735660274126243 -0.8467479467079084 0.404483761642036 0.6406508417611326 -0.2106411896526268 1.0386869512606722 1.0439321134179387 -0.017472707090589956 0.9468621827408769 0.37486133067959787 -0.9865079330567271 -1.039952749732223 0.37176993740353714 0.5305045744353909 0.5954280758585365 0.8052505122261993 0.9904874370056825 -0.38767230066048314 -0.42342508957720193 1.0294766667458477 -0.4627785362819331 0.7807291320363172 0.47309304326298685 0.813005946084636 0.4579512557430134 0.6535229262797293 0.8806506237929722 -0.4947706394117948 0.6878034167202591 -0.8017843652071588 -0.11190385378284456 -0.5117421483389216 -0.6120764319710746 1.186767922123915 -0.532490514348714 -0.6060594356258586 0.1548016713647106 -1.3014439815304235 -1.2765002379884667 -0.12069122418871786 -1.265299281339306 -1.1278716330478493 0.29896066103620056 -0.383488323391512 -0.16485608030940055 1.3484336316343777 0.9015152843484628 0.1771204093295785 0.060124895638679246 0.9093457775300224 -0.751965996345959 0.9797130626397035 -0.06205474787846229 0.34492279637331547 -0.38615583524311387 0.4956995937470408 0.32224651484942146 -0.38720275139128557 0.1418727192458236 -0.8500344624827105 -0.04863812736492575 -0.4950461111276044 0.7610113129841478 -0.004197543924871851 0.47261869747151225 -1.1867658863723456 -1.3440335204496825 -1.015709082471824 -0.5673513338363655 -0.6009101288590192 -0.4862218921232931 0.8380580104318744 -0.022683216464924178 0.810657622051659 -0.3538776719746081 1.0587185427692225 0.2884924711824961 -0.8396176051296655 0.3011468589410792 -0.8135942663097933 -0.4959497394977641 -0.3809049196669154 -0.2720250260165992 -0.1304550620864928 0.796595799176069 0.7115769119919555 -0.8984686691661818 0.7065114918696368 0.5226602724340658 -0.09560672463136927 -0.6951903008180933 0.11053692691884309 -0.6507719264693588 0.20395288257294117 -0.04922701110604587 -1.3696191608419326 0.016290482071704644 0.5358641284815177 0.872539649867809 1.1137807549016938 1.285714700746309 -0.38978448648595426 1.1783977843395799 -0.47229120835353045 0.7797671328327311 -0.8634470621673764 0.48865142957493585 0.09597046596741812 0.17708293558948884 0.9467169661956748 -0.39036493137294387 0.9055594623858804 0.7650499562339386 -0.22651632476360153 0.43500636184499364 -0.2414106269078312 0.4214718966428224 0.4230542377553079 -0.9021400234828378 0.7396787418083287 -0.7306280361840283 -0.6548922345057185 0.02042340921977698 -0.04376857760221274 -0.11700137235193633 0.6335427304273303 0.32849641674940333 -0.40656369934913994 0.7517547060801129 -0.3855957914807205 -0.7201046012695584 -0.2231330108966738 0.2702883601903144 -0.45998073047721066 0.2785019888911272 -0.15552511050860388 -0.5149974823680952 0.9174077220712344 -0.9510777918458534 -0.12050506424087185 -0.8886924251247103 -0.014140712265270161 0.5700683721004347 -0.193512491828791 -1.0454773279540142 -1.0048770581704611 0.650223429535792 0.8694855277056265 -0.6764049534337181 0.716605605663579 1.0056577504280824 -0.29210207073297234 0.04983372639993606 1.2823280843804323 0.5970607201935948 0.2763091717757125 -0.21754461962017269 0.35275635238650344 -0.3070917131111263 0.8413286785689412 0.4756862096842106 0.4492094306167129 0.475121900916739 -0.107747054031328 0.19196536492222038 -0.47530889235712115 -0.6495746568335246 0.31066969654058574 0.9484080852285113 -0.5913146436183899 -0.6346886708137912 0.49704848330595114 -0.08604223473210912 0.1548506551909101 -0.19730822410545323 0.06748322134390657 0.8918033800957182 1.2307916558891812 0.02722472261210606 -0.18224062004746971 1.4442439379129508 -0.4665483096941511 0.3500170023188328 0.30280928664137874 0.3647352236246528 0.45215104310034016 0.7735203405032793 -0.2643620040198182 -0.691113940408772 0.4238556484697276 -0.43271588718141024 0.36153191655630157 -0.8349251566957767 0.1723208488250776 -0.4665096908193494 0.6835766665241128 0.4499296784698159 0.44336747683160926 0.35182622395754154 0.6720046352528035 0.7490641190520024 0.7992230936515647 0.855295298651639 -0.5490942892129925 0.08536731415578427 -0.25422532857418634 0.1578594814591728 0.17070127714351196 -0.2848972261091516 0.24222245435771692 0.4064236261483014 -0.9417086990621847 -0.2694441977089042 -0.5070504839613293 -0.6970372718571448 -0.8374504918470291 -0.17792463041131495 0.956601978194423 0.5332608699128789 0.7058102089840775 0.3381311334685222 0.6010706779819652 -0.2905378181013951 -0.22509795767351773 -0.4246510684166456 0.5641567080695643 0.3876280627888165 -0.7153297239285289 -0.5446222169046152 -0.6723129319324466 0.2299354612623366 -0.7209040126107366 0.7344636216676317 -0.3376938504940793 -0.7136943466723421 -0.2638492830486484 -0.3549087870616585 0.1939383130201003 0.1983653667329598 -0.11421006189911159 -0.9482337475376457 -0.871429441353943 -0.0286794231483215 0.12654147876443447 0.853314295072 -0.8713292873335604 0.40118555904612746 0.9176898757245423 0.5400035451121916 0.6255952492443579 -0.05889207983356792 -0.013133015574312058 0.8974714038710201 -0.3637267668677755 -0.9319787282002562 -0.1617525656024461 -0.5746581071850922 -0.329983435472294 0.03196095150391954 -0.02866057227525852 -0.08501898270820075 -0.4195831522214142 0.12400314257043413 0.5190869460622105 0.3123679829776411 0.1138196547318537 0.3455148838877941 0.33727963302447306 0.09631470211465654 -0.4392854503030143 -0.918180184997628 0.5040597607737827 0.29991632483944597 -0.927298996590395 0.26126192851176777 -0.3571179190091911 0.9534289782599017 0.9576655901283253 0.2894397299453071 -0.6662995374299775 -0.8166852324809305 0.3945690210428264 -0.9838009980626918 -0.899239181362944 -0.3590672092205808 -0.10682902662899778 -0.08198895322398579 0.09191883030112527 -0.7297478704888515 0.5070978143199643 0.90523222531621 -0.9284451197811933 -0.583925888501839 -0.13426131349452824 0.26534641364703476 0.8683879631112502 -0.218876464125388 0.4950647133137263 0.07551038700951046 -0.2886518986765921 0.7938820139801434 0.5413762060797992 0.2568384811532169 0.5909749517488067 0.15070909667342702 0.4641058190183218 -0.6588204002574523 0.2623200705262141 -0.7949728351164871 0.018665511326843985 0.24690176106535167 0.753027491446867 0.10561856193654975 -0.7543779540839382 0.4370134288925286 0.003691654336486891 -0.6387247479420858 -0.5449622021606539 0.8229686260156693 -0.4057330630807162 -0.4851111371059578 -0.6376574534668061 -0.565179168378607 -0.09582567507020345 -0.49621926191730303 -0.749957465504792 0.7399578833247167 0.2396084091786257 -0.977082919345209 0.17134869030521097 -0.18444944818620757 -0.7062427734560506 -0.9780809394152499 0.9675258701188443 0.285377814172151 0.9424439691242312 0.9093780247055481 -0.024989180317784854 -0.9475204453693619 0.169355943794945 -0.12497014251053572 0.09413012502074615 -0.3308178850802358 -0.45606592277888136 0.06647166251125156 -0.636588649671823 0.6838351903266533 0.20953267750991383 -0.0902782107158599 -0.2737898705692057 -0.13664819944963633 -0.26273957662675107 0.12576392681827356 -0.06247847865577476 0.4976574719077633 0.5951468370763473 0.7974890996081849 -0.41702222529675237 0.7840183316685772 0.3833950891957001 -0.5321195030187353 
-0.8547922722405585 -0.4293776586048972 -0.1344507151382337 -0.0479707811481227 0.42793105012983657 0.6482255848800151 0.9581664262752831 0.157107739820862 -0.15766423121678885 0.9976252892108919 -0.01037461978601506 -0.20255767707467243 0.6636284000716329 0.2910295344820404 0.10143142313946218 -0.43430836465834943 -0.9875915524282932 0.013448844844580865 -0.6223386409505318 0.9784974878243005 0.389418576816845 -0.32043980820804285 -0.8293541657822228 -0.804755773844557 -0.4559332942875376 -0.9125544357101805 -0.3186998124689564 -0.525706050518542 0.21627012515322064 -0.6753364807036419 -0.7314706997337979 -0.3872940440881629 0.8639269590778182 -0.6693476089891689 0.1785456638119077 -0.3160656245952905 -0.15031025346024654 -0.7857737567521638 0.5151934344622602 0.8846736438884851 0.9124746139706152 0.2711114946332218 -0.1545739757524954 0.31066612508669433 0.33694896302438143 0.626467909213553 0.9757195773362631 0.5309541151732114 0.6489503274411198 0.6839817478469019 -0.5091633780277992 -0.2302148389807721 -0.14081832900228775 0.531694326369754 0.9905789468345565 -0.8849356564646769 -0.07049727081499735 -0.9438323129792883 -0.5680171532412701 -0.6074554142521319 0.18523399921701852 0.8767547043909886 -0.6537753316353482 0.8193845882468268 -0.2660998603939052 -0.04156933491999428 -0.06778586653799729 0.12368960517836332 0.8108906230609982 -0.37046485182292 0.1390683465294885 0.12892454285257507 0.408099886387285 -0.17620556358899783 0.887796714806981 -0.243905549142539 0.9028010870981563 -0.738264893362649 0.01766753941562541 0.6782496043405409 -0.8934981954371333 0.5869967091724577 0.8556856620130358 -0.8480045098748326 -0.12597606698112185 0.6837053785815175 0.05840317355090607 0.012410051983460459 -0.16618229387585504 0.6105193093720728 0.9174740198320911 0.04086602094322027 -0.4706106451609629 -0.15064926552227925 -0.45849274117832906 0.6983542560126794 0.5001670456886769 0.24142444661036708 -0.9455746644062114 0.13640607873423397 -0.5524238048116782 -0.36918511743163324 0.13561398379797143 0.30229915999520174 0.016601653553266215 -0.7832702576260272 -0.489730488537831 0.4520533626272923 -0.23256381131942733 0.38781979743183537 -0.4082924456446577 0.2046692393767391 0.3321848867187154 -0.3500308017255642 0.7879799061677613 0.14993391957583355 0.4919201565086077 -0.37335720101167696 -1.0340859980548707 0.16189312776026554 0.34604134633717293 0.2731907603798851 -0.7936368612262418 0.5800585413789023 -1.1405846332413783 -0.5989895835905771 -0.06116384950336838 -0.5291797570572968 -0.9967326948604492 -0.6017695603580806 0.2747754462458009 -0.18355175372428695 0.9559319850628947 -0.7415601590115667 -0.6165636119882036 0.5544359459379905 0.468902440499363 -0.20818059906127356 -0.38552279989817745 -0.0415342133548815 0.7789065971120512 -0.220392055683152 0.45131867421146704 -0.9350228122004949 0.6807938107129755 0.7429017286928166 0.6919845817802684 -1.1148940588557037 -0.579136388271928 -0.48693397246097975 0.36767003039268087 -1.3458119954780738 -1.1855514592779637 -0.3090709406593406 -0.582659267945253 -0.4916276237644163 -0.9846996309626116 -0.156635292644389 -0.4045618873108982 -0.14514709095998066 -0.714137816218079 -0.2724638124418332 0.8127107144067882 0.4499613385492559 -0.40474391297687573 -0.9078056375134353 0.529858837666723 0.5624565535245191 0.7039021564134944 0.6269328935375889 -0.11293464532622113 -0.7675543841968058 -0.1296273203791648 -0.4193241951806121 0.10827564322648432 0.5650867952798725 0.4249066748897677 -1.1074661880739758 -0.06090339909311486 0.40579708466044134 -0.8667390882493933 -1.1215540040733585 -0.7685698406312855 0.4016610547010667 -1.0577065603998002 -0.8719770569848336 -0.8005814012542641 0.01517129261864405 0.43336670065700444 0.18850309091583892 0.7987566113300935 1.2150375083700824 -0.2779830758434852 -0.2912205200952798 0.47786560874835443 0.2281633928236485 0.6930030407221565 -0.6650930669995293 0.06788527795855921 0.37892432969049183 -0.2533356456093004 0.852250507385928 -0.7087507404253527 -1.102085098229375 0.7431235368718118 -0.8352494608142743 -0.21450271197940948 0.3686947829330235 -0.6590680029019713 0.6060304184178373 0.6104845593742186 -0.5360924593486962 0.5437463760468301 0.9046444299437477 0.18427660111766178 -0.6662907907446866 -0.5535776159294107 1.043657777845477 0.5098057335250491 -0.26965952306614754 0.40626527113645516 0.2979598231048885 -0.8148822575753688 0.10496370203472251 -0.34792708128243843 0.49240774533302095 -0.11127344789451671 0.4646648762511475 -0.7519697643727734 0.7897348181840548 -0.7626229181382173 0.1560891729863364 0.29796794485523687 0.045359545358479976 -0.6674292256113472 0.8026316340945481 0.3775254084379821 -0.42460193700552445 0.05359289158008457 0.16060988382975697 -0.45649746090422616 -0.03649152756154879 0.8997821285199888 -0.4373883758084862 -0.4106830779073664 0.14284529014635008 0.29338448196735367 -0.18163094267983712 -0.11978145076676501 0.4036723462363406 -0.646132706761459 -0.21441071364081712 0.6917586035945988 -0.8810486621848066 0.22579350895532357 0.9970744661842057 -0.6764680318533863 0.3504793658440753 -0.39064612600814286 0.35336518250795895 0.34025273656470423 -0.6942877212563674 0.6684018930431547 -0.49534905742888014 0.9214445943550452 0.6266801228385099 0.07765806494258248 0.29631961924573663 0.4755949541250474 0.6112851463230743 0.11752949228962599 -0.5695146161321394 0.6248809405456711 -0.640807567735176 -0.6639850091087522 0.9912101126891315 -0.6236412596441854 0.56352341521777 0.7036146994033371 0.14654224046173445 -0.4864064594948158 -0.25047127566814564 0.9210071343424627 0.6487682819224757 0.29722503991062005 0.8626956778895817 0.6167215002626555 0.5662928635245091 -0.20146556407245825 1.2389277281425857 1.1263769516660551 0.4436859112105152 0.9093500838883455 1.0244368098346845 -0.43112535070179736 0.36989097493405615 0.31725751810734043 0.014409260839509526 -0.33652464619114797 0.26295845389719164 -0.011430209339915011 -0.08063584455034528 1.0103209134619167 0.8498942874055374 1.0860216863050696 -0.10706427224027408 -0.7891943033065786 0.8752156761316293 -0.8522659603848044 0.6437470633108402 1.022135104619644 -0.9214331151840077 0.9750917194072478 -0.16211567215537823 0.28885222921893144 0.31675543559530817 0.35599991088025296 0.0430587551661774 -0.1420245662556702 0.38858987896264 0.5058256598175989 -0.1077457222412474 0.3001211232869014 -0.5751524799191476 -0.21146982559689914 1.0221137553871142 0.26525256764092725 -0.10941688505349169 -1.0405300198305627 -1.0210723345180102 -0.5893421885061662 0.1236931333594315 0.8035915695019477 -0.15636019136156187 0.7397339403826838 -0.04075876251604568 -0.41012472662225147 0.27513655678577414 -0.2856256115154421 -0.09073788499607231 0.4552275989257226 -0.2685898067988495 0.10625749766405083 0.9518986405546592 -0.2095399584715224 1.350796289745069 0.0010639307652276521 0.8611171454707839 0.723356816968991 0.17655608822673916 -0.023259959669607057 -0.29268176567403287 -1.0319417943518467 0.17077379519030933 0.37300842274726725 -0.7500754726696636 0.2712574577856255 -0.8818491271443346 -1.0153191183303096 -0.9818584081411605 -0.7092766186111251 0.11065056615293821 -0.6337047832788989 -0.7873419121916212 0.2696585178666674 -0.24342062043828386 0.8529161510500504 0.32094807037533973 -0.2004094471922943 0.6643199767804552 0.9934030852934392 1.07164224059142 1.048110977599186 1.2619577562987125 0.455820730353301 0.49324968104632344 -0.1975012646757335 0.14499575271839016 -0.977144149873319 0.10838159499995316 -0.049446437643808294 -0.06309416955436979 -0.45118507522710943 -0.7044820783767368 -1.1305976719109632 0.6512635489926402 0.8304164912816668 -0.6557684738971142 0.8490709519977475 -0.36238450134094735 -0.5806630757041797 0.2266787359042505 -0.6282406495182008 -0.583739916567978 0.4870886560933782 0.20197325304565908 -0.1909303148434437 -0.7144660189768212 0.9751586116228286 -0.50599452807719 1.020067276308199 0.5653684502795717 0.6055917288413347 -0.03069400218149284 0.16709858356868654 -1.7378663874540725 -0.35034054803000086 -1.246989761346634 0.7652755723010708 0.8101151243253712 0.3745982537573068 -0.2958170354687123 -0.24167726744452675 -0.6071548669004211 0.46248818293015126 0.4774768797987147 0.9913025124931334 0.8706338088729224 0.12025009383918574 0.4729053178405644 0.6631572477241235 0.4500611455326318 0.9246547921100804 0.09102455197108429 -0.23724442455392752 0.055845879230987105 -0.42968062212255564 1.0837493096037667 0.22675453493719855 0.6157183900953042 0.1697601347251046 -0.31185139655670713 0.38019358981795703 -0.3623020607080621 0.03668729527158616 0.3768491282644774 0.1151589871715006 0.5409710537064943 -0.3167749453315887 -0.06524573676540499 -0.5193177215645919 0.7054813171394885 0.035697899372573574 -0.046959605402815054 0.6310333631287954 0.38825982178898744 -0.1138933543828027 -0.1731430847822347 0.348966279614938 -0.40726307520342736 -0.4099672986047572 -0.470731806342123 -0.30688343371603183 1.0408965554963108 0.20947990669596264 0.37970202729774355 0.3022708385215263 -0.7090746333142101 -0.5613248857885405 -0.20521707884580673 -1.0274054903878354 -1.0693997454928985 -1.096896339022925 0.06795369671094287 0.4339703661289768 0.6012218125578854 -0.552944034605333 0.07558336837261577 -1.016129956420446 0.7720742666371696 0.7466223500588104 -0.8025843127211542 0.4801136583654108 -0.9250198016327901 -0.5895941523491972 -0.4603231555921721 -0.16398353872509341 -0.06076060619790981 0.2697832911936564 0.23517470620339387 0.12248955507704695 -0.4480940804881622 -0.1307252710655939 -0.18290639571773618 -0.7231037870304293 -1.3240741748054103 -0.11819623783754422 -1.1373593041128631 -0.9926845935061521 -0.7926948883961474 0.43323127575068776 0.3907238235044772 0.34783362885379937 0.6827624039217505 0.9676028679442663 0.4391369385197482 -0.716478946338334 -1.0682168430530075 -0.4620814688639748 -0.4813769651499949 -0.904363004089853 0.2777020585022796 -0.6922632737599504 0.608765445273878 -0.03613843075250478 0.3208786408271254 -0.1476532024158569 0.8565569401641376 0.8238054482231923 0.1130507738853028 0.5601844116135948 0.7063497784818752 -0.7774541438225872 -0.9695186685587018 -0.08458973034266416 -1.027052532402244 0.4723868339424257 -0.31045220714424804 0.4737823912706423 0.35620115895923804 0.4698239675118317 -0.8918767704696804 -0.28366306917095524 -0.7553273417798261 -0.10968359352741534 0.4008771011860445 0.4909329740918704 -0.16211668441887783 -0.7684172761985728 -0.7753088569304682 -0.8266310417826784 0.6267125691507547 -0.776852924698056 -0.8423439221523858 -0.964780895535067 -0.898295974052538 -0.09916364033709 -0.15455676187157918 0.33265884182882033 1.1214765489800442 0.025921230738804864 -0.30989123835294485 -1.4845606813721368 -1.2521087504224568 -0.7851222596836898 -0.3160782061195801 -0.05719951925047443 0.13388123954369052 0.15342475820926296 -0.5676675366118686 0.5280132177891491 -0.8220265783292826 0.5544269144788173 -0.7507010936742264 -0.2828322161490698 -0.016357240273584116 0.1826222997366135 0.43306968764468967 0.2808604682920188 -0.522780415855187 0.8390673216006499 0.5075045905544796 0.2367104313977995 0.4664503205879927 0.27177448861734493 -0.4401954023818853 -0.9116030413715824 0.8927542643373532 -0.2857585770117185 0.6064769639264262 -0.5157478866637351 -0.6604322779202407 0.574928611934305 0.18397720862438885 -0.2533184094615134 -0.9494212395545908 0.0796315261858804 -0.9033381546689901 -0.8553215744814414 -0.9076894813398356 -0.9114406273572035 -0.9814072842904972 -0.7819690294723554 -0.6802067486547322 -0.3027812210513818 -0.007838000386437942 0.13957726071642904 0.768756787631663 0.5018120597769837 -0.16417737040974884 0.3607082017134571 -0.19932240412402805 0.026997671602650472 -0.3331995829414029 -0.8181658104917489 -0.23071526965182093 0.658528624636609 -0.4986116432936928 -0.007343750747614474 0.8236332766270419 -1.0777384943779882 0.3522701871598501 -0.7953510352377893 0.18284224960413598 0.22364738239647927 -0.8007411080680026 -0.5789006406230922 -1.041686006977862 -0.8023447482768268 0.5518734059343328 -0.6153961508864775 -0.726461041624233 0.13729816259973945 0.44918838562801866 0.529285203990268 -0.45420266140328125 0.07126555212722385 -0.8661242804851708 0.4380022389890089 -0.6649831306180533 0.7400710268387797 0.4202324105478689 0.020971037453492925 0.5144667740202379 -1.2111019799890168 0.8652541193725232 -0.8804520961000479 0.3825122033729037 -0.4450161194256055 -0.8741645176957279 0.06782774187308548 -0.7245173663950992 -0.55785803859493 -0.7766390517468142 -0.2973701595320039 -0.3004367504961091 -0.8008340391873507 -0.3289675458818357 0.6793091819344802 -0.8634828822991453 -0.9859912961811559 0.06897212438096148 -0.2655740640627742 -0.28776682644308327 0.8484270049182934 -0.6031779340660894 -0.010935744093155605 0.8331928899407219 0.8482549944896767 -0.127658763129097 -1.0880523009660836 0.15747793647079483 -1.0118992856299642 0.027475309239358044 0.09969944708872568 -0.22107600496533628 -0.31253569691859945 0.39530319403511593 0.4983080099203838 -0.5523679704802733 -0.17784654960507407 0.537514355968587 0.1354821907318094 -0.5411495436558473 -0.6521079719353727 -0.882475687146018 -0.1323324268403689 0.827426681166214 -0.4414498595976956 -0.37679063532558527 0.45648371812773175 0.6453537053683769 0.9532853616605557 0.798801486057412 -0.13945682663183642 -0.771220868348953 0.5608160053134597 0.6158736398851193 -0.6407482902707533 -0.6693524730085672 0.16709366022743904 0.48830703770899103 0.4369127132866509 0.5170456749250973 0.22989132955019922 0.5907873034291536 -0.6287670700830335 -0.4645396235976773 -0.5144370296127713 -0.59684400304838 0.677540612490788 0.28466090478560463 0.1390050329869084 -0.7143811497685801 -0.5425394086183221 0.7207949886134296 -0.9375719711364988 -0.7175597766870018 -0.6247657413704526 -0.2733721803657505 0.9836487064422359 -0.41903061712271916 0.06953969121434471 -0.999857530454407 -0.9488049303914673 0.9396603730456833 -0.1274235329130672 -0.314550940446911 -0.5964688182186618 -0.05198263633767384 -0.47700137510936585 0.4941222198207356 -0.696215564854359 0.21067055817207583 -0.22076104000758776 0.3215988019947271 -0.09313785924430934 -0.29399844302998135 1.0319441012833823 -0.5255906986596584 -0.09441663719252673 -0.3174902276199361 -0.6654715959904158 -0.2836904761289834 0.4195138594739782 -0.681549511135018 0.5170585812338218 -0.05330151440620101 0.4516934092557301 -0.41617175939053475 0.3647486414764838 -0.9497902653332024 -0.8509231612355693 -0.2640091912237541 0.5888214480566557 -0.8378244894209596 -0.5196233455361683 -0.6607266490146574 -0.15480889207114507 0.9386200956271298 0.30630822167232263 -0.06294125353600337 -0.3563213583403573 -0.6809771656386786 -0.46650302473459077 -0.7607891229409525 1.0172221137967858 0.2608932984739289 0.5212222964764011 -0.14103823495918663 0.5641195313340235 0.9175278674013744 0.5758699214528287 0.5110772665357934 0.41657119711604995 -0.6388585941643992 0.5047629218403014 -0.6978034058559548 0.3158094185603717 0.12127335900686576 0.09300543303855233 -0.16812220485435167 -0.003931259689010895 0.32037967313894605 -0.1565841710668028 -0.7626040953085335 -0.4505888520172564 -0.5898868349118225 -0.23290607015941814 0.08472489161095574 -0.5455959268130051 -0.3226362039625479 0.35854409099263307 -0.2582218067743148 0.10847783627387872 0.09058286291130013 -0.7058544165395193 -0.724445318433038 0.7604792257010569 -0.030465411476870093 0.626045309553853 -0.0521025159087547 0.6117520681575868 -0.01982267584660735 
0.13421384375733214 0.5842507089542539 -0.6644536570921973 -0.6144153735051734 0.45154763527205577 0.37231999761614687 -0.9889977217639587 0.2864296641142452 0.112174736393021 0.6626460590995635 0.4421520519206126 0.49753285779038237 -0.9320958756938984 -0.5231730804375575 0.24576822444168722 0.28335780583570647 0.6578155565563437 0.37562627269157756 -0.7276489144948237 -0.8367659863447277 -0.5941709632593153 -0.21585806079477576 -0.01956724004976218 -0.6919037855849632 -0.7978325504958232 -0.4626592137628025 0.23667303131600592 -0.33032958318313055 -0.5391297773655785 0.4926390541343282 -0.3197659669484263 -0.08532281906525085 -0.35340146557569074 0.34771217883655137 0.2684643443247654 -0.5185196432209854 -0.7842842705091471 0.4853657041107769 0.9600234480778358 0.6526386235518955 0.4653045805618039 0.5948770360167215 -0.7624218229076871 -0.7556604007459892 -0.20465240853501862 -0.010866467991091719 -0.7719228091297634 -0.7783648536094614 0.05155710053279129 -0.19212680419936107 0.8801539799488315 0.08732561295547447 0.08993014852527326 -0.31893964394321617 0.39356942935516126 -0.1776156159794564 0.7579143744134482 -0.5666778413780158 0.9349433733750095 -0.7318233265816639 0.7046633472583105 0.7420709987577386 0.5919198630804631 0.1126378545294265 -0.7141267772220349 0.014272054650342094 0.28708055588818826 0.844017883014985 -0.6760021569279796 -0.6503082783955603 0.1881444432691584 0.5646522183783859 -0.28008250086781145 -0.5693707527634646 0.008705794993826406 0.5757397648773623 -0.8742227521399228 0.6660109986338659 0.4086037444683192 0.17020714767985967 0.8576805875728428 0.0204112405713898 0.5890294235475542 -0.07239033601291411 -0.3681928667049361 0.43317964286235844 -0.038422737881874676 -0.8623904130722884 -0.25234929165209574 0.0982618944945275 0.9039318971100587 -0.5794231062739986 0.861567954601587 0.2249406805564937 -0.14780899650795523 0.977102782278585 1.2331454806506454 -0.006358210172163302 -0.4135530707887348 0.2144648713945603 1.0610061193398097 0.46114902471510777 -0.09839483699569672 0.38252050117759423 0.3941936512956931 0.27862833069201043 -0.2913083260355195 0.9461733929089243 -0.038664278509081544 0.8317500579099966 -0.18982293532546612 -0.2760856032690884 -0.7709033713799924 0.41031798989027046 -0.6060565534281744 0.8279175213852087 0.22266877946552394 0.8625344017495896 -0.08215833155672705 0.8743155870632437 0.7811273213729097 -0.2536306714057353 -0.4499285367259731 1.1380091479294219 0.3124364827174972 0.4979725890651239 0.6100699029133084 0.13187955331476486 -0.46968088713886447 0.3904820647184015 0.33917661264374477 -0.6903560795619078 -0.5186953299176149 0.867268038475771 0.06535493867589555 -0.8084471996685536 -0.8981805296913352 0.47857492575014016 0.7952283268981496 0.3639138216581701 -0.5282599768219254 0.43140260990761425 0.5526084612393766 -0.5251781132621232 0.799055237955048 0.18356424115540154 -0.6164432695496798 -0.056623269068079206 -0.08959921514154331 0.6875638779396119 -0.14067502047135771 0.7964259863813778 0.33129706599340214 0.8944998604554877 1.426222951171208 0.7001534342560424 1.2755216206311966 0.9823774849411058 -0.19454413065254952 -0.5391538674906706 0.2648097946165736 -0.695784153494648 -0.020639430522824243 0.6006689470964106 -0.3943757020193899 0.3534608045831774 -0.28387222115780714 -0.04807486401225021 -0.8541717629255927 0.2882505119153655 -0.8656838885418922 -0.9212415566292196 -0.5384368370310686 -0.1033787237174929 0.5559187904329023 -0.7388436745337756 0.03092763379053018 -0.611496082926922 0.9046462437668168 0.10474525080353661 -0.16007956477261698 -0.4716858164227659 -0.37397091372478963 -0.3540843290386538 -0.2891455177930405 0.21749602091929648 0.6666360229563054 0.5519219406346412 0.31854534565686077 0.4540395962312935 -1.007463766988448 0.5288130463686836 0.4249312454215551 -1.005441730156267 0.8274180322674305 -0.0687095600322549 -0.8216304468876314 -0.7484912199008289 0.17015802673698743 0.8406501270231423 0.746429552771891 0.4960141724895617 1.179760796276658 -0.04669873882295475 0.2977064413636509 1.085317461583628 1.1063340825286023 0.12132528749701094 0.5878262169358968 0.1309776632265417 0.4529546881826704 -1.1304917046486787 -0.5635064261367229 -0.7095206639455203 0.27049279728171755 -0.8098759792882257 0.44729294915680634 0.3844217891668194 -0.28695811863780046 -0.5456566786494036 0.4476588012997576 -0.5800651644990051 0.8686965951076355 -0.8864391626647773 0.6354807012009659 -0.4303362538522425 0.6856089930661607 1.0031856457863404 -0.3216245325308129 -0.6710783590910602 -0.05994330202373731 0.7088946798102518 1.303050295620483 0.5516702832961602 0.24996322589805414 0.7041175090958117 -0.12679294239995076 -0.7652134533947177 0.5998079838847034 0.6274176047331309 0.5115990664256356 -0.1477091219069723 0.43445479089947664 -0.23449718565561742 0.49388795291933024 0.6112256644195136 0.7246373376856494 0.96792946216404 -0.08551317566542056 0.07649917940400562 0.1813509557472522 -0.33673169704966405 0.848682830070054 0.19240746424533392 -0.10333428080935132 -0.824016371324853 0.5713855776800314 -0.5928366799032648 1.0202595911100012 1.1199534388037462 0.2315234191047462 -0.17601480805040048 0.8701481830679954 0.9423368017970043 0.5540039560110875 -0.15245241287060976 0.4322099085109243 0.5092102802899455 0.10713489943697012 -0.5600596880078148 0.25109323944743694 -0.15059141485688746 -0.4951191093086678 0.11931592879121303 -0.6690783202625342 -0.45630102224570424 -0.4982867658427878 -0.6521209356322077 0.4487067592689814 -0.2169289029957668 -0.3117775400422287 -0.7391729515354297 0.09105445585111044 0.04936707809011772 0.43580590788710144 0.7584382822656716 0.007312315163860258 -0.26258854481602806 1.154096223319281 0.9348215195508444 -0.5280951814292476 0.8631890494873822 0.028002243354488577 0.2270412699271443 0.7026500018710851 1.0495536227946258 -0.08459958324583527 0.5072867096607051 -0.34721003153273433 0.09649101710055626 -0.8770175357672474 0.1774490711456095 0.6350297347572387 -0.559827390192508 0.44605517909112563 1.0744891553469504 -0.4606652947146391 0.4921906351358719 -0.8178091519663251 -0.7821646137160313 0.35954651675355714 0.6723291379544576 -0.7144596545024091 0.9963980717380391 0.7850487226382457 0.6459493223769269 -0.704430769876896 -0.6017920298870469 0.5355795127585733 -0.14238871369431097 -0.5626011354898279 1.5148630059658115 0.4861585913623408 0.1770909951563699 0.26494364242615853 0.15947669084104893 -1.0586974263201214 0.6381732035799845 -0.6309177259533683 -0.29125313893055976 -0.5290283040763398 -0.2685463601294918 0.475066123715833 0.8427520549161448 0.17274113653984172 -0.45251212118241835 -0.2726298959303724 -0.17299016932316066 -0.3240999897422575 -0.26347926752520123 -0.6963667022327502 -0.09734658799621049 0.6392568056843653 -0.6818901775334242 -0.20961010272318475 -0.8909051696762741 -0.9109253597691762 -0.031248716109677645 0.05466801351123072 -0.3663571101398584 -1.0389277907654988 -0.36476640580724695 -1.2678102508535742 0.5325503054969754 0.08459270121547284 -0.5800034108385838 -0.6905690007372346 1.0275874230154123 -0.46867234601851837 -0.005931537509042529 0.3416447153459616 -0.0745381129811636 -0.14570957239751137 -0.5635560619669334 0.6925889496374402 0.0327036444918327 0.42742583421952113 0.9792065147529694 -0.2081387687849654 -0.7201030216624049 -0.8927828015415504 -0.6235227154094009 -0.8600180362399964 -0.8848533493016676 -1.476706942018878 -0.8941767361527384 -1.0132061187593195 -0.7531913741833183 -0.2548862594672733 -1.0326565961245309 0.33886961521383585 -1.3173838004836045 -0.009831743612829508 -0.5454969475060454 0.04150491685747127 0.37473861839550227 0.7454875022687208 0.052485042825449156 1.1387314194458324 -0.9045469711649892 0.6324667196050756 0.5224505294889686 0.5782880832432717 -0.5159562517748263 -0.8754120907148646 -0.5598266142968996 -0.462575627923457 -0.6685365308083835 -0.6730552463287797 -0.6834345467214125 -0.3127885904916088 -0.9635143904041478 -0.5521989049924564 -0.6731896463283483 -0.8520930258075863 -0.3990890407374975 0.2502611471981262 -0.4725596809594067 -1.2977861200020477 0.18572881747273431 -0.26524276758597 -0.5596270424219764 0.5441132424918571 -0.37168347107620714 1.0749402798410945 0.5336264404518452 0.7451591516955134 0.8657904841901629 -0.2683693367716027 -0.33798167977240295 -0.11099456545434425 0.4902196474441942 -0.8258198009640356 -0.525789089519425 -0.9025000876017071 -0.24672085892975684 -0.17158910866114369 -0.09463732898011785 -1.6571293947940051 -0.20438050569032074 -0.7551257954602536 0.10751429829614229 -1.0951089693797234 -0.04289881033205631 0.040103201533931515 -1.0084749188729136 -0.011471772550639909 -1.3303141464075618 0.05065006798526524 -0.5592112986256358 0.197035448836202 0.4040747002789342 0.47140524135566525 0.5478211538346843 -0.5126201619238392 -0.16192589015666228 0.49078821900119574 0.3528666316808478 0.5918465350887132 -0.5278706317559283 -0.534091005187551 0.1974381578627486 -0.9491120966912123 -0.6678693307999156 -1.350350599226636 -0.9090538361196747 -1.289536875464611 -0.3112261366346141 -0.6722303311295867 -0.5550769435978109 0.4657097539397753 -1.0499206329795638 0.14344457380929515 -0.34867101216996904 -0.19199883857412134 -0.991050007001554 -0.613897093845139 0.7052944836044267 0.297349272434049 0.806883217916197 0.12796195259808188 1.058595869865769 0.5684803800657532 -0.1727419022317063 -0.10079663175919026 -0.7102577504468433 -0.6138191997826001 -0.7169706952757882 -0.3527444680481265 0.5219835830885724 0.12077262091992408 -0.6644714829744317 -0.4826339082614416 -0.27577610953554327 -0.20840926375766042 -0.62703621673825 -0.6604766267291295 0.5172525256621133 0.45283573380586023 0.41317613120450253 -1.0280251154884088 -0.6226282995864161 -0.7910747490255525 -0.4006026608657797 0.6992204782545727 -0.0692081424165234 0.344077892378179 0.1495633955588641 1.0117857205987724 -0.601299546009594 -0.47314484910773486 -0.03966201512827388 0.330686140337972 0.5491031009910422 0.11802318044927754 0.4705009042664359 0.1621001798941125 -0.33695288882973307 0.12162162104032304 -0.21392516277466153 0.8665306272018849 -0.8695983037019676 0.09775808419150944 0.9945719529114974 0.5289904880786713 0.2907542674739447 -0.7527885408059296 0.4756278033198913 -0.8158663147122935 0.5794437830815794 -0.4131479694606422 -0.15528588371419372 -0.24509551666189705 0.6830346625277728 0.8313004766288696 0.5951226839692381 -0.6236159269800252 -0.711033750713871 0.9036490357115174 0.46123458505003284 0.8705879243289448 -0.07776296400522731 -0.5906996709919925 0.22875829973134887 0.875953979025074 -0.8452585358795799 -0.24275945128911333 0.8682844229728097 -0.18190664031469145 1.1601560944605762 0.8346002321048362 0.432576991011625 0.4474050724504914 0.7462238506889983 0.42256145376901133 0.7951403745956546 0.7198418011188021 0.892216131506795 0.6833888169218987 1.3144149782309222 -0.5517045608268645 -0.4441755739562416 0.41279614145904703 -0.4623386703928334 0.5992699459185999 0.20281884287663646 -0.19789134819809143 -0.21372587037994112 -0.7154946561952557 0.505397433948573 -0.9737865699058348 0.7613401612305141 0.6673700909013225 0.7456995383151199 0.9960436994162075 -0.1150712927576967 -0.19303795788412179 1.3931717668680426 0.5548466318360561 0.9353121829222298 1.0331781791380386 1.6494426038804806 0.17679501159206576 0.47455343919170084 0.9576727230125305 0.37396675326391127 0.6966906213341294 0.5582145083605357 0.8068212331580513 0.13693829566085589 -0.07255888825013665 -0.5785454386464128 0.41418468944655384 0.21470176669938107 -0.26494503588740004 -0.7193870336717888 -0.06974954204193384 0.33897032279135725 0.6464423013066243 0.09655719776833452 -0.04456593458686938 -0.49325286016329506 -0.21092393832051642 -0.3850100290455343 1.151953734461027 0.42026921188935806 1.2978796790167635 0.23988809232437708 0.025269892184306933 1.4140377941634508 1.6166766921211317 0.33108416552823233 0.1512978021627921 0.3908962154610438 0.6918483808591256 0.1853448467204196 -0.4016696644309325 -0.2618035193460495 -0.9447590410112956 0.16056601250638664 -0.33703244305462615 0.9314094916365002 -0.5203591212393073 0.6869889910424705 0.2733863300442852 -0.08356154649011227 -0.49386725385935626 -0.6471624325737155 -0.2807052522709806 -0.5485383187994517 0.771492858640291 -0.5214930376206571 -0.11908323475984132 1.0225519647597736 0.15308093499262931 0.28902904958536596 0.2812620240086271 0.5024073753744726 0.7347932978858416 0.614109610790645 0.2657712555927127 0.10359456176942483 0.8424527124600032 -0.30749116407899907 0.2323845911328481 0.584435547971503 -0.6224651126437009 -0.4130526700697325 0.5871158423444095 -0.9837147732514112 -0.9641998861325396 -0.7096025248430096 0.7033568708154114 -0.5878575170784999 0.9175543163591615 0.45913893198607614 -0.34483291918957626 0.8393992108588415 0.026824185155208267 -0.5956533860683612 -0.2938960853211258 0.4496403738762178 -0.2201563018122911 0.5473841364602846 0.6574093208274802 0.6420575975650727 -0.22666483612623387 1.1024380282681319 -0.35276128268052775 1.2196562993605145 0.27549843180117095 0.7300264607715744 0.38958049553630103 0.06614640545220787 0.702792002914141 -1.0811180703045327 -0.8356204780457597 0.4035071408394037 -0.5286319990158483 0.44394254134308814 0.2841490962828161 0.833795569955057 -0.15439332408278328 -0.33761187411128035 -0.9988666906598888 0.4793954721868498 -0.8890169687955543 0.03713161169358321 0.5093186686018396 -0.6700769506769328 0.8529699657252331 -0.8412550876110139 0.38719359424596517 -0.14577609436458866 0.4756063570631989 0.21232795634888102 0.4235320208558794 0.8257461133922015 -0.5359259130837973 -0.9182550224571578 0.07702294258776111 -1.109515756448933 -0.22477139613541924 -0.03109779451055114 0.535208664165347 0.1873967620713063 -0.24407321566953133 0.9974605459853426 -0.9330304776820509 0.7844283563785011 0.6161104834304099 0.24734523548211929 0.09801880190619383 0.5847519094682913 0.9306386714389422 0.23512850665899768 -0.5209328209678451 -0.8594603243022054 -0.7107579025328391 0.35896565479332154 -0.06043919685634023 -0.22421596407016764 -0.23898911928499558 -0.21645774415423022 -0.4859072033573873 -0.5824169063584396 0.5065352866973685 -1.1019086910826787 -0.5169429121594012 0.1201210901062534 0.3364012190237964 0.35618694075966084 -0.781736459683539 -0.6900146878237629 0.2613790345795983 -0.9423059562775412 0.8287439360210139 -0.7978886134934307 -0.5989148702280109 -0.07297534102172198 0.9851402485044056 0.453049138279953 0.5712828859585024 0.6811410569693164 0.11739850914076527 0.7811044906758341 0.16370107602033426 -0.16461649388747265 -0.30144681155242026 0.8589983289585339 0.07902875164581873 0.4981463596560659 0.5663189127756232 -0.06464443916014452 0.1439581128212474 0.3671768404557952 0.7342521570089601 0.4610868763869407 -0.5951026942156977 -0.8639985142770837 0.6290135871048599 0.3640855068951082 0.6633249661052033 -0.6712116741848337 -0.7305607697865482 0.3149428609100624 0.38598190801647747 0.6440907654592654 -0.7530985555644256 -0.3850156940811815 -0.6677574996821906 0.47017513479150347 -0.32265873858858396 0.27057740698441884 -0.981244983870771 0.6695231372932847 -0.20040458885108847 -0.39323832946652143 0.23135650117944526 0.43646835592209604 0.8390324651097912 -0.041635240866164054 -0.23755496578441837 0.9272633668888628 0.9329594430946919 -0.534205168011046 -0.08767371828559499 0.05515154905338856 -0.396545883495025 -0.9823724992736098 -0.816505632306618 -0.5537108472522569 -0.5263204228576204 0.1054299349852712 
